tree
version=v4
num_class=1
num_tree_per_iteration=1
label_index=0
max_feature_idx=76
objective=lambdarank
feature_names=Column_0 Column_1 Column_2 Column_3 Column_4 Column_5 Column_6 Column_7 Column_8 Column_9 Column_10 Column_11 Column_12 Column_13 Column_14 Column_15 Column_16 Column_17 Column_18 Column_19 Column_20 Column_21 Column_22 Column_23 Column_24 Column_25 Column_26 Column_27 Column_28 Column_29 Column_30 Column_31 Column_32 Column_33 Column_34 Column_35 Column_36 Column_37 Column_38 Column_39 Column_40 Column_41 Column_42 Column_43 Column_44 Column_45 Column_46 Column_47 Column_48 Column_49 Column_50 Column_51 Column_52 Column_53 Column_54 Column_55 Column_56 Column_57 Column_58 Column_59 Column_60 Column_61 Column_62 Column_63 Column_64 Column_65 Column_66 Column_67 Column_68 Column_69 Column_70 Column_71 Column_72 Column_73 Column_74 Column_75 Column_76
feature_infos=[-4.6104363816273919e-13:1] [-0.79283887147903442:1.7142857313156128] [-0.79305058717727661:1.7142857313156128] [-0.81717503070831299:4.7112183570861816] [-92.586479187011719:88.977310180664062] [-0.78451716899871826:1.9520294666290283] [0:20] [0:1] [0:7.6783323287963867] [0:12.575088500976562] [0:1] [-4.2485289573669434:4.2485289573669434] [9.8900003433227539:34.689998626708984] [-0.06129118800163269:0.085122056305408478] [0.050223212689161301:0.52399551868438721] [-0.10829981416463852:0.14628179371356964] [-0.80645161867141724:4.7142853736877441] [0:100] [-0.96081346273422241:3.2142613359343111e-16] [-3.0169968492877938e-14:13.725557327270508] [-0.41666668653488159:0.90000003576278687] [29.836103439331055:76.922065734863281] [-6.9521862225419007e-14:6.3623690605163574] [-4.5515772818501346e-14:2.0081801414489746] [-0.35744678974151611:1.5428571701049805] [-0.12115385383367538:0.90000003576278687] [-2.2413160800933838:10.890107154846191] [-0.75018280744552612:1.7142857313156128] [-5.2783753930196742e-13:20] [0:7.2653717994689941] [-17.621236801147461:81.109489440917969] [-0.74211066961288452:1.3294051885604858] [0:1] [0:2.9387753009796143] [0:0.81000012159347534] [0:188.39091491699219] [0:58.956783294677734] [0:2.9387753009796143] [0:22.195577621459961] [0:3.8104190826416016] [0:400] [0:1] [0.00055803573923185468:1] [0:1] [0:1] [0:1] [0:1] [0:1] [0:1] [0:0.99954044818878174] [0:1] [0.00083705357974395156:0.99944198131561279] [0:1] [0:1] none none none none [0:1] [0:1] [0:1] [0.00055803573923185468:1] [0.00091324199456721544:1] none [-3.2819743156433105:3.384199857711792] [-28.171310424804688:29.195493698120117] [-18.07710075378418:26.982570648193359] [-2.4882204532623291:32.330242156982422] [-2.5848462581634521:23.855806350708008] [-20.034200668334961:25.460216522216797] [-16.479818344116211:29.552709579467773] [-2.5784652233123779:22.472900390625] [-4.3097572326660156:3.7345485687255859] [-4.215886116027832:5.0775742530822754] [-3.0574733283356137e-12:79806248] [-0.28171807527542114:0.28223100304603577] [-0.46010231971740723:0.58655214309692383]
tree_sizes=1048 1036 1040 1034 1037 1041 1042 1038 1038 1036 1046 1037 1036 1032 1038

Tree=0
num_leaves=8
num_cat=0
split_feature=74 43 71 25 42 58 8
split_gain=37.5476 15.3426 13.6338 6.19839 5.93738 4.52769 4.29058
threshold=1.529735863208771 0.14591132104396823 -0.043511552736163132 -5.587113446381408e-05 0.89760044217109691 0.30790570378303533 0.25147385895252233
decision_type=2 2 2 2 2 2 2
left_child=1 6 4 -3 -2 -4 -1
right_child=2 3 5 -5 -6 -7 -8
leaf_value=0.0071613851959259301 -0.014382053191866331 -0.0012326795652176602 0.016045779547885077 0.016717468712499579 -0.034034046773042267 -0.0045880085088109241 0.036534065272140294
leaf_weight=107.43795728488476 977.75607248413144 845.58626716042636 242.98665135522606 547.29953326372197 369.40113287037821 730.42449862748617 478.19633006840013
leaf_count=27519 263757 212556 60094 133061 101094 190569 106501
internal_value=7.81268e-05 0.0133957 -0.0112794 0.00584392 -0.0198434 0.000600628 0.0312186
internal_weight=4299.09 1978.52 2320.57 1392.89 1347.16 973.411 585.634
internal_count=1095151 479637 615514 345617 364851 250663 134020
is_linear=0
shrinkage=0.131703


Tree=1
num_leaves=8
num_cat=0
split_feature=26 44 64 36 64 62 14
split_gain=191.879 40.5635 20.4503 17.294 14.3324 12.0525 3.56602
threshold=-0.0028795298421755429 0.058946279808878906 -1.7395169138908384 0.06385213136672975 -2.2521357536315914 0.11031296476721765 0.15345981717109683
decision_type=2 2 2 2 2 2 2
left_child=1 4 -3 6 -1 -5 -2
right_child=3 2 -4 5 -6 -7 -8
leaf_value=0.070872337660526377 -0.065603512028053576 0.024421234199368164 0.0010829281174897776 0.016052811870470543 0.030268337332871018 -0.023133722397711873 -0.038153494428771459
leaf_weight=173.84059608192183 93.826610623626038 932.18394974357216 2144.0760984804947 152.10732272075256 1139.0453500471776 1139.5895842217142 1122.0774260528269
leaf_count=3960 37839 38461 154122 13211 37030 369354 441049
internal_value=-0.00013749 0.0164637 0.00817434 -0.0291781 0.035815 -0.0184889 -0.0404498
internal_weight=6896.75 4389.15 3076.26 2507.6 1312.89 1291.7 1215.9
internal_count=1095026 233573 192583 861453 40990 382565 478888
is_linear=0
shrinkage=0.131703


Tree=2
num_leaves=8
num_cat=0
split_feature=44 26 39 52 28 22 12
split_gain=340.709 38.7046 28.5239 22.6303 11.7573 11.1289 5.85265
threshold=0.062877286225557341 -0.0028795298421755429 0.0074828641954809436 0.3404476940631867 0.067538794130086913 0.033332597464323051 16.840000152587894
decision_type=2 2 2 2 2 2 2
left_child=2 4 3 -1 -2 -4 -3
right_child=1 6 5 -5 -6 -7 -8
leaf_value=0.042108822036764325 0.0075102004680841338 -0.037531132264774225 0.065326311367433554 0.011737633602511406 -0.021856686856911275 0.037022158639912227 -0.053519694466976256
leaf_weight=593.96551095985342 385.19201851915568 1462.9209475393291 369.43332327762619 1495.054394229257 603.40301556655322 756.88693222575239 587.03132671493222
leaf_count=14407 52987 598653 3429 35398 137369 15007 238136
internal_value=-0.000276359 -0.0318803 0.029592 0.0204278 -0.0104277 0.0464757 -0.0421912
internal_weight=6253.89 3038.55 3215.34 2089.02 988.595 1126.32 2049.95
internal_count=1095386 1027145 68241 49805 190356 18436 836789
is_linear=0
shrinkage=0.131703


Tree=3
num_leaves=8
num_cat=0
split_feature=44 23 43 39 43 23 68
split_gain=331.979 32.2023 24.7385 16.0781 15.7667 12.0968 8.0154
threshold=0.058946279808878906 0.017122491262853149 0.12201135605573656 0.008486168924719097 0.011922132689505817 0.065049108117818846 -0.071013264358043657
decision_type=2 2 2 2 2 2 2
left_child=1 4 5 -3 -1 -2 -4
right_child=2 3 6 -5 -6 -7 -8
leaf_value=0.077696585359118608 0.016752271403540644 0.013278699627055853 -0.044767134940759394 0.036103267775381233 0.038283383608002305 -0.024112458541466111 -0.0285627238550165
leaf_weight=286.51416270190384 220.1055752565735 1407.5358536518761 1409.6623005825677 867.51950160396518 487.34545416245237 283.95664863055572 893.94575832088594
leaf_count=1561 24512 41545 597528 13902 6898 72899 336104
internal_value=-9.91076e-05 0.0299754 -0.0327545 0.0220233 0.0531535 -0.00627533 -0.0385305
internal_weight=5856.59 3048.91 2807.67 2275.06 773.86 504.062 2303.61
internal_count=1094949 63906 1031043 55447 8459 97411 933632
is_linear=0
shrinkage=0.131703


Tree=4
num_leaves=8
num_cat=0
split_feature=43 28 2 43 39 74 42
split_gain=187.321 25.8141 21.5901 19.2269 15.9959 7.74726 7.51532
threshold=0.11802235990762712 0.026874830946326259 -0.041666656732559197 0.011922132689505817 0.0074828641954809436 2.649212241172791 0.035295758396387107
decision_type=2 2 2 2 2 2 2
left_child=1 3 6 -1 -3 -4 -2
right_child=2 4 5 -5 -6 -7 -8
leaf_value=0.064622685462408111 0.038715875778194055 0.0042810132501096285 -0.024630916829866841 0.025493980836354124 0.027330869563484628 -0.041078501885512111 -0.0060995064232316513
leaf_weight=360.19999459770042 80.311875745508587 1176.7909891436284 1437.4606814667641 563.71114516205853 937.71415005199378 782.43399196228711 285.80417512715212
leaf_count=2364 3153 90970 569436 17329 18030 349706 43803
internal_value=0.000432991 0.0225954 -0.0256019 0.040931 0.0145306 -0.0304824 0.00399802
internal_weight=5624.43 3038.42 2586.01 923.911 2114.51 2219.89 366.116
internal_count=1094791 128693 966098 19693 109000 919142 46956
is_linear=0
shrinkage=0.131703


Tree=5
num_leaves=8
num_cat=0
split_feature=26 65 53 29 58 12 61
split_gain=132.652 18.2554 16.6871 12.0452 9.72313 9.06441 4.81164
threshold=-0.0046617016196250907 -1.5146107673645017 0.0083289979957044142 0.20915956795215609 0.11807356774806978 16.925000190734867 0.90094864368438732
decision_type=2 2 2 2 2 2 2
left_child=1 2 -1 5 -3 -2 -5
right_child=3 4 -4 6 -6 -7 -8
leaf_value=-0.013598417151192184 -0.022377784049906407 0.016890767283830779 0.031228421544687492 -0.011608179402653778 -0.0056615128211167818 -0.043270260888073564 0.019504986344559584
leaf_weight=156.59591994585935 1398.6841043385211 725.16566151884035 1575.6916200762789 416.12871042490588 606.15329999511596 492.43578025013267 105.249922086281
leaf_count=3262 581038 30743 34046 130632 93386 209562 12453
internal_value=7.47507e-05 0.0182562 0.0271572 -0.0230068 0.00663432 -0.0278864 -0.00524093
internal_weight=5476.11 3063.61 1732.29 2412.5 1331.32 1891.12 521.379
internal_count=1095122 161437 37308 933685 124129 790600 143085
is_linear=0
shrinkage=0.131703


Tree=6
num_leaves=8
num_cat=0
split_feature=26 69 74 32 70 12 29
split_gain=101.135 21.6279 13.851 11.1831 8.61671 5.56449 2.29858
threshold=-0.0049488740041851989 -2.1479908227920528 1.0000000180025095e-35 0.00019292128126835453 -0.7981889247894286 17.210000038146976 0.26286187767982488
decision_type=2 2 2 2 2 2 2
left_child=1 3 -3 -1 6 -6 -2
right_child=4 2 -4 -5 5 -7 -8
leaf_value=0.052905161141820894 -0.011781499779616386 0.025541272994623315 0.0010706771483092942 0.022589077825214129 -0.019592749283410676 -0.035535240039324664 0.0085660027101446996
leaf_weight=295.04432525276206 202.76672544404573 552.98517086895299 1439.7807211079344 761.37815997609869 1414.2442164795357 529.87645817593148 177.42306140485744
leaf_count=1433 56650 14335 127096 10399 618580 234262 32290
internal_value=0.000226181 0.015994 0.00789338 0.0311994 -0.0204521 -0.0239928 -0.00229377
internal_weight=5373.5 3049.19 1992.77 1056.42 2324.31 1944.12 380.19
internal_count=1095045 153263 141431 11832 941782 852842 88940
is_linear=0
shrinkage=0.131703


Tree=7
num_leaves=8
num_cat=0
split_feature=43 69 28 44 42 64 50
split_gain=75.3434 13.3149 11.4217 12.7476 6.9895 5.03531 4.8956
threshold=0.070974476635456099 -0.74267560243606556 0.026874830946326259 0.0082901646383106726 0.85951450467109691 -1.7395169138908384 0.33495384454727178
decision_type=2 2 2 2 2 2 2
left_child=2 5 3 -1 -4 -2 -3
right_child=1 6 4 -5 -6 -7 -8
leaf_value=0.059887071753479564 0.017199298517301145 -0.029161078257456667 0.010981800045329199 0.020514166938780574 -0.043958346058698604 -0.0068189330500922872 -0.015550722921572007
leaf_weight=173.24983867257833 219.79173449179507 705.64534925221233 1535.0284832397301 785.40686297370121 37.932043568405788 467.26107516876073 1356.0629277809348
leaf_count=779 14087 342065 62708 11838 1802 95560 566292
internal_value=0.000123174 -0.0149658 0.0165046 0.0278174 0.00956435 0.000911484 -0.0202497
internal_weight=5280.38 2748.76 2531.62 958.657 1572.96 687.053 2061.71
internal_count=1095131 1018004 77127 12617 64510 109647 908357
is_linear=0
shrinkage=0.131703


Tree=8
num_leaves=8
num_cat=0
split_feature=29 52 50 50 19 19 12
split_gain=41.4636 11.6627 11.0965 8.79274 7.38871 6.62031 5.18944
threshold=0.21908507496118548 0.47846665978431707 0.501512110233307 0.91858768463134777 0.48831632733345037 0.90267094969749462 17.210000038146976
decision_type=2 2 2 2 2 2 2
left_child=2 3 6 -2 -3 -4 -1
right_child=1 4 5 -5 -6 -7 -8
leaf_value=-0.015856623982918237 0.011241130778911007 -0.012751324344282387 -0.010072254532598971 0.035112001808759404 0.0087543797017479198 0.010308491764689651 -0.035129362621973956
leaf_weight=856.67839005042333 620.29623531969264 351.52532602324209 904.19042609175085 474.16562404745491 1262.7642876195605 394.38407499511959 342.26630552604911
leaf_count=385374 58247 72228 306906 21755 62530 35524 151780
internal_value=-9.28722e-05 0.0111863 -0.0123246 0.0216603 0.00405417 -0.00387156 -0.0214429
internal_weight=5206.27 2708.75 2497.52 1094.46 1614.29 1298.57 1198.94
internal_count=1094344 214760 879584 80002 134758 342430 537154
is_linear=0
shrinkage=0.131703


Tree=9
num_leaves=8
num_cat=0
split_feature=74 47 25 5 25 12 25
split_gain=43.5575 12.1094 10.4074 7.71833 5.92529 5.1894 2.25154
threshold=0.60885035991668712 0.01610563695430756 -0.0010580095695331691 -0.053900593891739838 -0.00013385029888013375 16.840000152587894 -0.013435592409223316
decision_type=2 2 2 2 2 2 2
left_child=1 2 -1 6 -3 -5 -2
right_child=3 4 -4 5 -6 -7 -8
leaf_value=0.013301974447863763 0.022609931805490945 0.0008002225867315433 0.046909748725760231 -0.011871641913955016 0.014799167058731928 -0.027187332157562392 -0.00122291076502739
leaf_weight=394.13281742855906 83.729868737747893 1223.5751700825931 270.15593782323413 1418.05930692947 915.06122034159489 529.34695179037226 324.30968126698281
leaf_count=7122 2118 144348 5486 592732 61871 230673 51124
internal_value=0.000563021 0.011651 0.0271402 -0.0126291 0.00680411 -0.0160752 0.0038144
internal_weight=5158.37 2802.93 664.289 2355.45 2138.64 1947.41 408.04
internal_count=1095474 218827 12608 876647 206219 823405 53242
is_linear=0
shrinkage=0.131703


Tree=10
num_leaves=8
num_cat=0
split_feature=43 34 22 29 15 67 39
split_gain=26.7715 8.84418 6.50932 5.65417 5.55918 3.05455 2.63177
threshold=0.074883680790662779 3.8066891860921721e-08 0.0038284672191366558 0.22778953611850741 0.036579590290784843 -0.2637875080108642 0.019196433015167717
decision_type=2 2 2 2 2 2 2
left_child=1 6 -3 4 -2 -5 -1
right_child=3 2 -4 5 -6 -7 -8
leaf_value=0.032372241275792968 -0.0032252343579069931 0.017689472971503976 0.0031468291214380461 -0.010240050099014016 -0.018480938881325994 0.0071802944665586236 0.082595611979998845
leaf_weight=77.433346377802081 626.88995822037396 793.11991584382486 1625.1071061633411 283.49307321687229 1228.3668899684562 442.57512849449995 24.930444031953812
leaf_count=1535 297354 9910 69819 88145 558220 70239 202
internal_value=-7.02485e-05 0.00957779 0.00793477 -0.00949156 -0.0133416 0.000362175 0.0468796
internal_weight=5101.92 2520.59 2418.23 2581.33 1855.26 726.068 102.364
internal_count=1095424 81466 79729 1013958 855574 158384 1737
is_linear=0
shrinkage=0.131703


Tree=11
num_leaves=8
num_cat=0
split_feature=47 10 68 28 61 51 8
split_gain=21.229 10.607 9.12366 5.52097 5.41618 4.99321 2.37561
threshold=0.086673386394977583 0.51392269134521495 0.16000962257385257 0.023314828984439376 0.87806919217109691 0.72293525934219371 0.16105048358440402
decision_type=2 2 2 2 2 2 2
left_child=1 5 6 -3 -4 -1 -2
right_child=2 3 4 -5 -6 -7 -8
leaf_value=0.027349418422217331 -0.022612901965779874 0.018144035838139297 -0.0065432623266538717 -0.0031587579456568466 0.0094175301774550406 0.00094976469637367614 -0.01016825095475621
leaf_weight=683.37038063936052 331.33281166991219 287.64806715125451 726.7888632841059 764.66745729852119 741.79447403483209 152.05108000949258 1382.0243492093286
leaf_count=29425 170230 4250 216612 52797 50588 10830 560583
internal_value=0.000466892 0.01152 -0.00609579 0.00270404 0.00152171 0.0225682 -0.0126152
internal_weight=5069.68 1887.74 3181.94 1052.32 1468.58 835.421 1713.36
internal_count=1095315 97302 998013 57047 267200 40255 730813
is_linear=0
shrinkage=0.131703


Tree=12
num_leaves=8
num_cat=0
split_feature=70 11 43 26 40 60 12
split_gain=17.4673 8.63397 8.25017 4.84853 4.54279 3.66735 2.83235
threshold=-0.83113160729408253 -2.1828169822692867 0.011922132689505817 -0.030507870949804779 1.9278200268745425 0.26884320378303533 17.595000267028812
decision_type=2 2 2 2 2 2 2
left_child=1 4 -3 5 -1 -2 -5
right_child=3 2 -4 6 -6 -7 -8
leaf_value=0.02349341898193506 0.0031075649996249225 0.023792200822919087 0.0055684415794800884 -0.0059568934280859595 -0.029984852829481962 0.046493851443221622 -0.015895403975855475
leaf_weight=31.481852794997394 148.12080562772462 601.37597667658702 1509.971347567538 1874.0876309710438 138.45479265722679 40.587164743745234 678.04302844859194
leaf_count=1588 3554 6174 121910 694143 4379 1529 261935
internal_value=-2.31373e-05 0.00848367 0.0107893 -0.00710543 -0.0198087 0.0131012 -0.00861513
internal_weight=5022.12 2281.28 2111.35 2740.84 169.937 188.708 2552.13
internal_count=1095212 134051 128084 961161 5967 5083 956078
is_linear=0
shrinkage=0.131703


Tree=13
num_leaves=8
num_cat=0
split_feature=45 44 52 67 11 14 71
split_gain=13.8198 8.66736 7.22378 5.58026 4.62797 4.15814 3.74366
threshold=0.027856491506099704 0.012224749196320774 0.17895254492759707 0.90482836961746227 -0.083161052316427217 0.41880580782890325 0.60085368156433117
decision_type=2 2 2 2 2 2 2
left_child=2 5 6 -3 -4 -2 -1
right_child=1 3 4 -5 -6 -7 -8
leaf_value=0.046280573596320575 0.034148820406086806 -0.0093817604058718303 0.015119845657116463 0.0012441410245595725 -0.0030959303570398168 -0.016214025976952758 0.012034514224722879
leaf_weight=140.1654464751482 141.75852282973938 2215.0378313515394 553.01764835417271 1395.9385864187498 426.25857953593368 33.171974508673884 95.21878145635128
leaf_count=3212 2467 877878 12448 183812 13227 602 1394
internal_value=4.15022e-05 -0.0038813 0.012245 -0.00527664 0.00720753 0.0244698 0.0327985
internal_weight=5000.57 3785.91 1214.66 3610.98 979.276 174.93 235.384
internal_count=1095040 1064759 30281 1061690 25675 3069 4606
is_linear=0
shrinkage=0.131703


Tree=14
num_leaves=8
num_cat=0
split_feature=28 68 10 26 48 4 12
split_gain=10.7675 5.71207 7.57638 5.32262 6.89581 5.75861 2.34789
threshold=0.030323357321321968 0.084296610206365599 0.48258475959301 -0.058158239349722855 0.77754887938499462 -36.065937042236321 16.840000152587894
decision_type=2 2 2 2 2 2 2
left_child=3 6 -3 4 -1 -5 -2
right_child=1 2 -4 5 -6 -7 -8
leaf_value=0.054207716658762221 -0.0063763819287322009 0.0099985597058648065 -0.0059467823230819226 0.022619414852302722 -0.0029743429781474142 0.0014364663668794588 -0.017444758965779187
leaf_weight=94.867878430755809 1072.3720224533463 878.06998375343392 1246.211555473099 298.7889504643972 57.716504657641053 847.19634277079604 483.41191046478343
leaf_count=614 474910 116338 217450 6948 337 68229 210238
internal_value=-0.000153771 -0.00379264 0.000649604 0.0101413 0.0329857 0.00701043 -0.00984636
internal_weight=4978.64 3680.07 2124.28 1298.57 152.584 1145.99 1555.78
internal_count=1095064 1018936 333788 76128 951 75177 685148
is_linear=0
shrinkage=0.131703


end of trees

feature_importances:
Column_43=8
Column_12=7
Column_26=6
Column_28=5
Column_44=5
Column_25=4
Column_29=4
Column_39=4
Column_74=4
Column_42=3
Column_50=3
Column_52=3
Column_64=3
Column_68=3
Column_8=2
Column_10=2
Column_11=2
Column_14=2
Column_19=2
Column_22=2
Column_23=2
Column_47=2
Column_58=2
Column_61=2
Column_67=2
Column_69=2
Column_70=2
Column_71=2
Column_2=1
Column_4=1
Column_5=1
Column_15=1
Column_32=1
Column_34=1
Column_36=1
Column_40=1
Column_45=1
Column_48=1
Column_51=1
Column_53=1
Column_60=1
Column_62=1
Column_65=1

parameters:
[boosting: gbdt]
[objective: lambdarank]
[metric: ndcg]
[tree_learner: serial]
[device_type: cpu]
[data_sample_strategy: bagging]
[data: ]
[valid: ]
[num_iterations: 297]
[learning_rate: 0.131703]
[num_leaves: 92]
[num_threads: 15]
[seed: 0]
[deterministic: 0]
[force_col_wise: 0]
[force_row_wise: 0]
[histogram_pool_size: -1]
[max_depth: 3]
[min_data_in_leaf: 183]
[min_sum_hessian_in_leaf: 0.001]
[bagging_fraction: 0.882902]
[pos_bagging_fraction: 1]
[neg_bagging_fraction: 1]
[bagging_freq: 1]
[bagging_seed: 6]
[bagging_by_query: 0]
[feature_fraction: 0.413365]
[feature_fraction_bynode: 1]
[feature_fraction_seed: 6]
[extra_trees: 0]
[extra_seed: 6]
[early_stopping_round: 0]
[early_stopping_min_delta: 0]
[first_metric_only: 0]
[max_delta_step: 0]
[lambda_l1: 0.0013242]
[lambda_l2: 3.4186]
[linear_lambda: 0]
[min_gain_to_split: 0]
[drop_rate: 0.1]
[max_drop: 50]
[skip_drop: 0.5]
[xgboost_dart_mode: 0]
[uniform_drop: 0]
[drop_seed: 4]
[top_rate: 0.2]
[other_rate: 0.1]
[min_data_per_group: 100]
[max_cat_threshold: 32]
[cat_l2: 10]
[cat_smooth: 10]
[max_cat_to_onehot: 4]
[top_k: 20]
[monotone_constraints: ]
[monotone_constraints_method: basic]
[monotone_penalty: 0]
[feature_contri: ]
[forcedsplits_filename: ]
[refit_decay_rate: 0.9]
[cegb_tradeoff: 1]
[cegb_penalty_split: 0]
[cegb_penalty_feature_lazy: ]
[cegb_penalty_feature_coupled: ]
[path_smooth: 0]
[interaction_constraints: ]
[verbosity: -1]
[saved_feature_importance_type: 0]
[use_quantized_grad: 0]
[num_grad_quant_bins: 4]
[quant_train_renew_leaf: 0]
[stochastic_rounding: 1]
[linear_tree: 0]
[max_bin: 255]
[max_bin_by_feature: ]
[min_data_in_bin: 3]
[bin_construct_sample_cnt: 200000]
[data_random_seed: 6]
[is_enable_sparse: 1]
[enable_bundle: 1]
[use_missing: 1]
[zero_as_missing: 0]
[feature_pre_filter: 1]
[pre_partition: 0]
[two_round: 0]
[header: 0]
[label_column: ]
[weight_column: ]
[group_column: ]
[ignore_column: ]
[categorical_feature: ]
[forcedbins_filename: ]
[precise_float_parser: 0]
[parser_config_file: ]
[objective_seed: 5]
[num_class: 1]
[is_unbalance: 0]
[scale_pos_weight: 1]
[sigmoid: 1]
[boost_from_average: 1]
[reg_sqrt: 0]
[alpha: 0.9]
[fair_c: 1]
[poisson_max_delta_step: 0.7]
[tweedie_variance_power: 1.5]
[lambdarank_truncation_level: 30]
[lambdarank_norm: 1]
[label_gain: ]
[lambdarank_position_bias_regularization: 0]
[eval_at: 1]
[multi_error_top_k: 1]
[auc_mu_weights: ]
[num_machines: 1]
[local_listen_port: 12400]
[time_out: 120]
[machine_list_filename: ]
[machines: ]
[gpu_platform_id: -1]
[gpu_device_id: -1]
[gpu_use_dp: 0]
[num_gpu: 1]

end of parameters

pandas_categorical:null
