tree
version=v4
num_class=1
num_tree_per_iteration=1
label_index=0
max_feature_idx=76
objective=lambdarank
feature_names=Column_0 Column_1 Column_2 Column_3 Column_4 Column_5 Column_6 Column_7 Column_8 Column_9 Column_10 Column_11 Column_12 Column_13 Column_14 Column_15 Column_16 Column_17 Column_18 Column_19 Column_20 Column_21 Column_22 Column_23 Column_24 Column_25 Column_26 Column_27 Column_28 Column_29 Column_30 Column_31 Column_32 Column_33 Column_34 Column_35 Column_36 Column_37 Column_38 Column_39 Column_40 Column_41 Column_42 Column_43 Column_44 Column_45 Column_46 Column_47 Column_48 Column_49 Column_50 Column_51 Column_52 Column_53 Column_54 Column_55 Column_56 Column_57 Column_58 Column_59 Column_60 Column_61 Column_62 Column_63 Column_64 Column_65 Column_66 Column_67 Column_68 Column_69 Column_70 Column_71 Column_72 Column_73 Column_74 Column_75 Column_76
feature_infos=[-2.775322289691462e-13:1] [-0.89999997615814209:1] [-0.91346156597137451:3.9999985694885254] [-0.92544519901275635:4.005742073059082] [-89.026481628417969:86.034210205078125] [-0.90941119194030762:1.6315789222717285] [0:20] [0:1] [0:62.507251739501953] [0:12.575088500976562] [0:1] [-4.2485289573669434:4.2485289573669434] [10.319999694824219:48] [-0.12828062474727631:0.08778323233127594] [0.0050223213620483875:0.6618303656578064] [-0.13367584347724915:0.16028928756713867] [-0.91666668653488159:3.9999985694885254] [0:100] [-0.98360657691955566:1.798210712955885e-16] [-4.8259780096844909e-14:8.1663694381713867] [-0.66666668653488159:0.96078425645828247] [35.828128814697266:83.504066467285156] [-4.0270951585366296e-14:32.203147888183594] [-4.8259780096844909e-14:2.5876250267028809] [-0.064935065805912018:0.48540139198303223] [-0.092207163572311401:0.96078425645828247] [-2.9510941505432129:9.0630826950073242] [-0.45673078298568726:1.9999992847442627] [-9.1574935568577986e-13:18.333333969116211] [0:62.493350982666016] [-14.09199333190918:228.60481262207031] [-0.59301036596298218:1.1359223127365112] [0:1] [0:1] [0:0.92310643196105957] [0:66.689590454101562] [0:3907.156494140625] [0:15.999988555908203] [0:16.045970916748047] [0:2.6620497703552246] [0:400] [0:1] [0.00055803573923185468:1] [0:1] [0:1] [0:1] [0:1] [0:1] [0:1] [0:1] [0:1] [0.00083705357974395156:0.99944198131561279] [0:1] [0:1] none none none none [0:1] [0:1] [0:1] [0.00055803573923185468:1] [0.00072886300040408969:1] none [-3.9880118370056152:3.7963554859161377] [-29.465776443481445:31.20555305480957] [-26.236438751220703:29.290445327758789] [-2.7923166751861572:20.811971664428711] [-3.0664565563201904:36.076755523681641] [-21.911117553710938:34.615745544433594] [-21.518783569335938:32.860073089599609] [-2.8629717826843262:28.905796051025391] [-5.4555454254150391:4.4648723602294922] [-6.9103312492370605:5.6492042541503906] [-1.9126475576947133e-12:1333227.375] [-0.28209540247917175:0.28210908174514771] [-0.45935356616973877:0.57104158401489258]
tree_sizes=1037 1038 1044 1038 1035 1042 1031 1030 1033 1040 1032 1037 1043 1032 1031 1026 1045 1038 1045 924 1040 1034 1029 1021 1044 1040

Tree=0
num_leaves=8
num_cat=0
split_feature=50 71 61 4 65 16 6
split_gain=40.1906 9.45948 7.29049 5.69357 4.41663 4.0084 2.39023
threshold=0.67862597107887279 0.28304444253444677 0.87472099065780651 -11.183412075042723 -0.36042441427707667 -0.073593266308307634 1.1916646361351015
decision_type=2 2 2 2 2 2 2
left_child=1 4 5 -3 -1 -2 -4
right_child=2 3 6 -5 -6 -7 -8
leaf_value=-0.0020810133448127812 0.035689344198434537 0.021335424158635607 0.024474765034211546 -0.0041995258228159412 -0.016266837094373311 0.010368025248711707 0.049319717930007133
leaf_weight=490.259199831562 116.58677849649393 231.18644089621375 170.21354448734201 424.93527729390189 1717.7013547587558 1221.7631414443022 125.78143058309797
leaf_count=156373 30962 72828 46280 138720 565670 331878 32320
internal_value=0.000397505 -0.00900372 0.0168571 0.00486148 -0.0131252 0.0126593 0.0354756
internal_weight=4498.43 2864.08 1634.34 656.122 2207.96 1338.35 295.995
internal_count=1375031 933591 441440 211548 722043 362840 78600
is_linear=0
shrinkage=0.131703


Tree=1
num_leaves=8
num_cat=0
split_feature=61 52 45 5 36 36 14
split_gain=142.347 31.0303 26.9802 19.7312 16.326 9.04986 7.11557
threshold=0.87472099065780651 0.22852444648742679 0.094303593039512648 -0.15574732422828672 0.06398384273052217 0.20156307518482211 0.54157364368438732
decision_type=2 2 2 2 2 2 2
left_child=2 4 5 -3 -2 -1 -4
right_child=1 3 6 -5 -6 -7 -8
leaf_value=-0.015331707150235487 -0.015981269191662043 0.055583208667818088 -0.023698101697013332 0.0079474015163561798 0.045476081275709346 0.018758047826690837 -0.041644303828627528
leaf_weight=224.55116556082794 81.667088763031643 156.06373938245815 2017.4672396229726 2833.6983422703343 741.95422443954158 328.50203061316279 481.5409557177336
leaf_count=56119 29095 2257 855373 172584 23362 32182 203493
internal_value=-0.000204788 0.0167547 -0.0213898 0.0104947 0.0393411 0.00490742 -0.0272084
internal_weight=6865.44 3813.38 3052.06 2989.76 823.621 553.053 2499.01
internal_count=1374465 227298 1147167 174841 52457 88301 1058866
is_linear=0
shrinkage=0.131703


Tree=2
num_leaves=8
num_cat=0
split_feature=67 3 52 58 25 60 69
split_gain=159.663 45.9098 30.6173 14.7547 13.1047 5.26037 4.29698
threshold=0.76648375391960155 -0.056418383494019501 0.22852444648742679 0.051623033359646804 -0.00012435184180503708 0.20100293308496478 -2.2018700838088985
decision_type=2 2 2 2 2 2 2
left_child=3 4 -3 6 -2 -5 -1
right_child=1 2 -4 5 -6 -7 -8
leaf_value=0.032205195214212466 0.031799960387141377 0.01973695545339034 -0.0091985900758541402 -0.015619183256769394 0.067278995553367998 -0.031185397833023518 -0.0054883029276675309
leaf_weight=71.980670507706236 981.20282346522436 1490.9611686919234 1099.3512017399771 483.91108070901828 223.80815390852513 1892.6699658845901 169.92233328288421
leaf_count=8964 23253 52802 179113 189509 3531 881303 36363
internal_value=0.000106564 0.0173608 0.00746045 -0.0248923 0.0385614 -0.0280429 0.00601955
internal_weight=6413.81 3795.32 2590.31 2618.48 1205.01 2376.58 241.903
internal_count=1374838 258699 231915 1116139 26784 1070812 45327
is_linear=0
shrinkage=0.131703


Tree=3
num_leaves=8
num_cat=0
split_feature=68 67 23 58 58 14 38
split_gain=145.912 43.3991 30.2463 16.3535 12.8055 6.16249 5.1134
threshold=0.02738911006599665 0.61720818281173717 1.0000000180025095e-35 0.012321278452873232 0.12971714138984683 0.19056919962167743 0.0060866540297865876
decision_type=2 2 2 2 2 2 2
left_child=4 3 -3 -2 6 -6 -1
right_child=1 2 -4 -5 5 -7 -8
leaf_value=-0.010606201977157345 0.023894536659533235 0.052682186905048424 0.016912527690697506 -0.016311440079669861 -0.053423804084380591 -0.029370090847964634 0.034834397720783679
leaf_weight=260.63876929468825 217.77017323160544 490.76569042203482 2454.496546571143 848.86962346878136 213.58437611348927 1585.6970207530539 47.9055172362132
leaf_count=69584 9234 6202 97643 343927 100623 743650 3712
internal_value=-4.74918e-05 0.0146906 0.022927 -0.00805252 -0.0280776 -0.0323214 -0.00324598
internal_weight=6119.73 4011.9 2945.26 1066.64 2107.83 1799.28 308.544
internal_count=1374575 457006 103845 353161 917569 844273 73296
is_linear=0
shrinkage=0.131703


Tree=4
num_leaves=8
num_cat=0
split_feature=68 28 35 46 48 5 15
split_gain=101.405 39.2351 18.9822 11.8915 6.90489 4.93639 4.82658
threshold=0.02738911006599665 0.0091461343690753 0.41700768470764166 0.31711210310459143 0.87547028064727794 -0.10472475364804266 -0.075999461114406572
decision_type=2 2 2 2 2 2 2
left_child=4 3 -3 -2 6 -6 -1
right_child=1 2 -4 -5 5 -7 -8
leaf_value=-0.073261764562418313 0.047442800370496169 -0.0069521700531229857 0.013610471289115016 0.0079390062216387735 0.061153503680071053 -0.010629376312408845 -0.027224829508350885
leaf_weight=38.481828373856843 591.03539221332176 1285.5382234462013 1965.3032792199519 171.9787600741256 14.25618949413183 282.1928416856972 1568.1725612284499
leaf_count=18761 8787 336664 103325 8166 932 104191 793738
internal_value=-6.44544e-05 0.0118064 0.0054802 0.0386142 -0.0250777 -0.00651895 -0.0284808
internal_weight=5916.96 4013.86 3250.84 763.014 1903.1 296.449 1606.65
internal_count=1374564 456942 439989 16953 917622 105123 812499
is_linear=0
shrinkage=0.131703


Tree=5
num_leaves=8
num_cat=0
split_feature=29 50 61 32 32 38 58
split_gain=71.6639 20.8115 16.5211 14.5656 13.9296 11.3773 4.2975
threshold=0.25602026283741003 0.59967187047004711 0.9662388563156129 9.4241840997710838e-05 9.4241840997710838e-05 0.015019270125776531 0.023637772537767891
decision_type=2 2 2 2 2 2 2
left_child=1 6 5 -3 -4 -2 -1
right_child=2 3 4 -5 -6 -7 -8
leaf_value=0.038141170839767244 0.0025949811731000136 0.02597085881110938 0.056781915057078837 -0.0073925394826038857 0.020676002968276805 0.028219460850551076 -0.024169947024977195
leaf_weight=16.518578362825792 1125.8391596231959 260.52693195251049 271.84717515227385 1618.1800081757247 590.25682230520761 407.00890867994167 1512.7473623641417
leaf_count=2153 154995 7016 1638 381778 12237 11778 803260
internal_value=0.000241091 -0.0120238 0.0176861 -0.00272706 0.0322408 0.00944668 -0.0234132
internal_weight=5802.92 3407.97 2394.95 1878.71 862.104 1532.85 1529.27
internal_count=1374855 1194207 180648 388794 13875 166773 805413
is_linear=0
shrinkage=0.131703


Tree=6
num_leaves=8
num_cat=0
split_feature=69 67 36 74 67 41 21
split_gain=61.1952 21.2728 14.4226 12.2448 8.69115 7.73584 5.07145
threshold=-1.3419733047485349 1.015711843967438 0.12338252365589143 1.0000000180025095e-35 2.1931500434875493 0.65258970856666576 63.628730773925788
decision_type=2 2 2 2 2 2 2
left_child=3 6 -3 4 -1 -5 -2
right_child=1 2 -4 5 -6 -7 -8
leaf_value=0.021623508130480969 -0.015872248490552809 -0.013165653500031011 0.013496902652644492 0.0037028733622387873 0.061060120791083063 0.023078715869282507 -0.051658382652707627
leaf_weight=213.1302509016823 2327.7006484731683 572.57122421474196 901.45963609364117 665.01719292855705 184.02843541372567 773.26111013162881 68.176576735218987
leaf_count=2721 1102732 135079 38249 38697 1032 23093 33145
internal_value=8.04619e-05 -0.00931215 0.00313351 0.0198648 0.0402625 0.01415 -0.0169628
internal_weight=5705.35 3869.91 1474.03 1835.44 397.159 1438.28 2395.88
internal_count=1374748 1309205 173328 65543 3753 61790 1135877
is_linear=0
shrinkage=0.131703


Tree=7
num_leaves=8
num_cat=0
split_feature=44 64 42 29 71 21 5
split_gain=46.7713 16.9793 15.2787 8.99524 6.91045 6.72415 5.17232
threshold=0.10663407668471338 -2.3681797981262203 0.030273437500000003 0.69317463040351879 0.44933043420314794 47.51140213012696 -0.13572780787944791
decision_type=2 2 2 2 2 2 2
left_child=1 6 5 -3 -4 -2 -1
right_child=2 3 4 -5 -6 -7 -8
leaf_value=0.07511681291687064 0.029235511519893433 0.0064498184277579571 -0.017457344977772099 0.031031139213439567 -0.0017799327020921766 -0.0033846267720766252 0.033031689927172363
leaf_weight=69.774458694155328 211.3680294356891 1833.1311800073599 2142.7160477082944 297.8132694310043 632.22619095444679 222.53688204928767 208.69727416976821
leaf_count=453 18316 136681 999206 5294 188410 22989 3655
internal_value=0.000109422 0.0139662 -0.0102989 0.0099295 -0.0138921 0.0126095 0.0443603
internal_weight=5618.26 2409.42 3208.85 2130.94 2774.94 433.905 278.472
internal_count=1375004 146083 1228921 141975 1187616 41305 4108
is_linear=0
shrinkage=0.131703


Tree=8
num_leaves=8
num_cat=0
split_feature=3 50 9 21 48 49 14
split_gain=28.6519 13.6036 10.6047 7.66956 6.75244 6.54368 5.44955
threshold=-0.066497515887022005 0.50487408041954052 9.5106263160705584 61.812686920166023 0.88314795494079601 0.96814784407615673 0.30915178358554846
decision_type=2 2 2 2 2 2 2
left_child=2 3 5 -2 -3 -1 -4
right_child=1 4 6 -5 -6 -7 -8
leaf_value=0.014703537501463837 -0.01585594516906471 -0.0052058075771079003 0.017298929297398225 -0.065339821645969215 0.01078727073481771 0.039300610509302863 -0.0027605369512838222
leaf_weight=474.9604993154644 1193.1614089604991 1884.8298364792718 359.56753803347237 54.002552082209149 601.14203019428533 314.62002189381747 663.64762991579482
leaf_count=13786 660713 553549 13386 30684 75320 5026 21427
internal_value=-0.000371599 -0.00696719 0.0131983 -0.0181715 -0.00132889 0.024632 0.00432251
internal_weight=5545.93 3733.14 1812.8 1247.16 2485.97 789.581 1023.22
internal_count=1373891 1320266 53625 691397 628869 18812 34813
is_linear=0
shrinkage=0.131703


Tree=9
num_leaves=8
num_cat=0
split_feature=29 42 64 48 13 50 35
split_gain=28.2388 12.0445 10.4085 8.19773 5.87344 5.62174 4.89717
threshold=0.31311400234699255 0.0065569197759032258 -1.3301287293434141 0.75019246339797985 0.0087349708192050474 0.93838313221931469 1.0000000180025095e-35
decision_type=2 2 2 2 2 2 2
left_child=1 4 5 -3 -1 -2 -4
right_child=2 3 6 -5 -6 -7 -8
leaf_value=0.00033474234939212885 0.010221028277911269 -0.01408702299785093 0.030739138696926755 -0.00049295221325089476 0.04387054328003314 0.029722268195613785 -0.00032747557732163091
leaf_weight=102.12866681770538 445.04873546518502 2004.5568338122102 94.375913338531973 1247.9711962262227 110.20003058464499 618.79561095271492 879.222397572099
leaf_count=4793 12219 942342 6134 311690 3471 11204 83304
internal_value=0.000347136 -0.00688621 0.0126391 -0.00887713 0.023268 0.0216232 0.00278081
internal_weight=5502.3 3464.86 2037.44 3252.53 212.329 1063.84 973.598
internal_count=1375157 1262296 112861 1254032 8264 23423 89438
is_linear=0
shrinkage=0.131703


Tree=10
num_leaves=8
num_cat=0
split_feature=42 59 29 5 30 47 14
split_gain=24.6036 12.7877 8.39852 7.54908 4.97551 4.50911 3.25475
threshold=0.0065569197759032258 0.020392132923007015 0.45509056746959692 0.026538812555372718 0.54404002428054821 0.0044893384911119947 0.5638951063156129
decision_type=2 2 2 2 2 2 2
left_child=3 6 -3 5 -5 -1 -2
right_child=1 2 -4 4 -6 -7 -8
leaf_value=0.069569873960208639 0.011633887174173239 -0.0075856294283735319 0.0078247059315461366 0.012260797136346532 -0.059350336339778577 0.028580356108698333 0.040568740759248927
leaf_weight=52.279947199567687 528.08654866626603 3606.6482044933364 736.10161377865006 46.837084750644863 22.104716116737109 395.45934534003027 75.093530776095577
leaf_count=360 25089 1300975 34504 1270 444 8976 3353
internal_value=0.000392863 -0.00247082 -0.00496942 0.0276419 -0.0124166 0.0338577 0.0154448
internal_weight=5462.61 4945.93 4342.75 516.681 68.9418 447.739 603.18
internal_count=1374971 1363921 1335479 11050 1714 9336 28442
is_linear=0
shrinkage=0.131703


Tree=11
num_leaves=8
num_cat=0
split_feature=28 61 7 7 68 10 59
split_gain=12.5534 10.2635 7.32104 6.35588 4.89203 4.60351 3.82618
threshold=1.0000000180025095e-35 0.98911830782890331 0.87425425648689281 0.86830392479896557 3.9041073322296147 0.21677239239215854 0.23734188824892047
decision_type=2 2 2 2 2 2 2
left_child=1 6 5 -3 -4 -2 -1
right_child=2 3 4 -5 -6 -7 -8
leaf_value=0.014577874877857527 0.0024897021039044006 0.058367058934868918 0.0054353621110932735 0.00095607905963032702 0.042191133335775365 -0.0080012770729419626 -0.0058127136575481433
leaf_weight=436.75832351547433 976.2189658106654 123.40611580951372 712.60001621861011 45.595239365356974 65.663576440361794 2806.2194466285873 248.05605786415981
leaf_count=12728 264829 1440 55418 354 871 1017027 22104
internal_value=-0.000153195 0.0144704 -0.00289972 0.0432051 0.00870769 -0.00529378 0.00719948
internal_weight=5414.52 853.816 4560.7 169.001 778.264 3782.44 684.814
internal_count=1374771 36626 1338145 1794 56289 1281856 34832
is_linear=0
shrinkage=0.131703


Tree=12
num_leaves=8
num_cat=0
split_feature=43 25 18 43 71 69 60
split_gain=13.5244 10.3951 5.28005 4.70396 4.37595 3.51161 3.2238
threshold=0.079371258616447463 -1.0000000180025095e-35 -0.46596652269363398 0.0082971910014748591 0.10851785913109781 -2.0009189844131465 0.023949624039232734
decision_type=2 2 2 2 2 2 2
left_child=1 2 -1 -3 5 -2 -6
right_child=4 3 -4 -5 6 -7 -8
leaf_value=-0.011052643976148295 0.0086159336945686379 0.036363152469689783 0.0067444504697568904 0.013226160353187749 -0.022988104264890879 -0.010606283550900021 0.0030713157254592827
leaf_weight=387.22881395687 178.19025593571132 244.28889811079716 1110.2516075010353 414.29041577858152 85.584574161068304 1872.4229024711531 1098.1469038642826
leaf_count=11931 5357 2214 82783 11534 6055 890845 364137
internal_value=0.000135703 0.00820832 0.00212755 0.0219522 -0.00524855 -0.0089243 0.00112628
internal_weight=5390.4 2156.06 1497.48 658.579 3234.34 2050.61 1183.73
internal_count=1374856 108462 94714 13748 1266394 896202 370192
is_linear=0
shrinkage=0.131703


Tree=13
num_leaves=8
num_cat=0
split_feature=42 36 52 67 30 14 28
split_gain=10.5546 6.89177 5.54619 5.45327 5.1286 4.02801 3.94527
threshold=0.0065569197759032258 0.089574426412582411 0.23249326646327975 2.526848673820496 -0.14636895060539243 0.58007812500000011 0.0091461343690753
decision_type=2 2 2 2 2 2 2
left_child=3 5 -3 4 -1 -2 -5
right_child=1 2 -4 6 -6 -7 -8
leaf_value=-0.037234166869657373 -0.0064680374056088211 0.0099296947465698209 -0.0019236929672967233 0.04175031034752065 0.013161807700618989 -0.029624725800748351 -0.019011456766029181
leaf_weight=35.866906918759923 1589.550143025408 1018.8266231661255 2071.0469990450656 169.3692698777304 326.77425479557132 139.0213433993631 18.785619147354737
leaf_count=774 811347 102657 380567 1704 8122 69008 426
internal_value=0.000244066 -0.00173446 0.00199133 0.0174568 0.00787576 -0.00838533 0.0354519
internal_weight=5369.24 4818.45 3089.87 550.796 362.641 1728.57 188.155
internal_count=1374605 1363579 483224 11026 8896 880355 2130
is_linear=0
shrinkage=0.131703


Tree=14
num_leaves=8
num_cat=0
split_feature=5 10 61 51 10 14 10
split_gain=8.89888 7.47193 6.66612 4.06251 4.38996 3.2164 3.10812
threshold=-0.15574732422828672 0.24831365048885348 0.98911830782890331 0.12360490858554841 0.86727407574653637 0.053571429103612907 0.9887850582599641
decision_type=2 2 2 2 2 2 2
left_child=3 2 -2 6 -5 -3 -1
right_child=1 5 -4 4 -6 -7 -8
leaf_value=0.026456133959685772 0.001719953090099695 -0.049244362787467001 0.025229326312243523 0.01727223799111614 -0.013826107604056869 -0.0053762076347897217 0.085917355938459741
leaf_weight=130.04026475531282 1520.4332077081781 25.913703270984115 239.29357107824762 284.73370492787217 105.43306769465562 3034.6883837959031 15.251310609513892
leaf_count=1916 334768 11668 5808 6686 2215 1011615 164
internal_value=-7.95058e-05 -0.00187268 0.00495965 0.0159723 0.00882113 -0.00580222 0.0345306
internal_weight=5355.79 4820.33 1759.73 535.458 390.167 3060.6 145.292
internal_count=1374840 1363859 340576 10981 8901 1023283 2080
is_linear=0
shrinkage=0.131703


Tree=15
num_leaves=8
num_cat=0
split_feature=47 52 42 67 15 48 23
split_gain=8.01527 6.83303 6.06467 5.56706 5.39999 4.58918 2.9813
threshold=0.0044893384911119947 0.93395039439201366 0.0043247768189758071 2.4009048938751225 0.074130143970251097 0.95749467611312877 0.39470715820789343
decision_type=2 2 2 2 2 2 2
left_child=1 6 3 -2 -3 -4 -1
right_child=2 4 5 -5 -6 -7 -8
leaf_value=0.021621405829297013 0.0020634229327353348 0.014067929947181311 -0.0044328319766511384 0.039628435805024509 -0.052917197465891061 0.007433447703639429 0.07023536809768989
leaf_weight=320.41255088875187 172.87164504322573 42.677323513373267 3976.6049378336174 110.29783209064044 35.465735145378858 655.74024656161782 21.109932498366106
leaf_count=7127 4248 667 1304058 1092 603 57032 185
internal_value=-0.000104266 0.0172908 -0.0016004 0.0169942 -0.0172753 -0.0027488 0.0252931
internal_weight=5335.18 419.666 4915.51 283.169 78.1431 4632.35 341.522
internal_count=1375012 8582 1366430 5340 1270 1361090 7312
is_linear=0
shrinkage=0.131703


Tree=16
num_leaves=8
num_cat=0
split_feature=9 46 75 60 60 76 39
split_gain=7.18336 4.89206 5.52607 2.89225 2.76398 4.71697 3.59863
threshold=9.581548213958742 0.26980382204055792 -0.19197707623243329 0.016222394071519378 0.0201646788045764 -0.21949575841426847 0.024460956454277042
decision_type=2 2 2 2 2 2 2
left_child=1 2 -1 -3 5 -2 -6
right_child=4 3 -4 -5 6 -7 -8
leaf_value=-0.022502513251593796 -0.055923040360424947 -0.030547429898018171 0.012662538444556963 -0.00017712195120374869 -0.0041799910531784799 -0.0082447216674790096 0.014411154830852386
leaf_weight=79.388810608070344 42.384772404911928 55.313572500337614 1288.7348057625059 736.64615946196136 2751.1376060266048 175.96931018139003 189.94902293410269
leaf_count=1348 548 6667 102369 249037 992365 13535 9243
internal_value=-3.66322e-05 0.00581134 0.0105709 -0.0024207 -0.00403686 -0.0182197 -0.00296389
internal_weight=5319.52 2160.08 1368.12 791.96 3159.44 218.354 2941.09
internal_count=1375112 359421 103717 255704 1015691 14083 1001608
is_linear=0
shrinkage=0.131703


Tree=17
num_leaves=8
num_cat=0
split_feature=74 51 44 12 59 50 21
split_gain=6.89718 3.4332 4.40076 3.29685 3.21836 2.65219 2.40671
threshold=0.17085818946361545 0.11886160820722581 0.97324678301811229 20.224999427795414 0.020392132923007015 0.67472258210182201 61.812686920166023
decision_type=2 2 2 2 2 2 2
left_child=1 2 -1 -3 5 -2 -6
right_child=4 3 -4 -5 6 -7 -8
leaf_value=0.020968293785380069 0.029649459193657163 -0.00034599631897346168 -0.046624511500087597 0.017215388871172538 -0.0038175825368451364 0.0027262611149201036 -0.021638958464597392
leaf_weight=373.32671407726593 72.305672927905107 820.32893666881137 14.32884425827069 236.10925490094814 3249.8634796233382 397.83812867800589 133.80431444206624
leaf_count=11083 10710 52752 544 24845 1213887 12347 48925
internal_value=-0.000214843 0.0075375 0.0180837 0.0036216 -0.00312394 0.00705142 -0.00454349
internal_weight=5297.91 1444.09 387.656 1056.44 3853.81 470.144 3383.67
internal_count=1375093 89224 11627 77597 1285869 23057 1262812
is_linear=0
shrinkage=0.131703


Tree=18
num_leaves=8
num_cat=0
split_feature=51 10 30 51 43 3 76
split_gain=6.73494 6.95128 7.36171 2.81607 2.37619 3.47266 3.13961
threshold=0.19447544962167743 0.098586291074752821 3.8998258113861088 0.0044642856810241946 0.091231226921081557 0.043499568477272994 -0.16314749419689176
decision_type=2 2 2 2 2 2 2
left_child=1 2 -1 -3 5 -2 -6
right_child=4 3 -4 -5 6 -7 -8
leaf_value=0.014240673586992962 -7.3008919965467293e-05 -0.041435412380063937 0.063483606038187576 0.0038041631418662702 -0.020244311001193067 0.029957342142980511 -0.0038441493577912223
leaf_weight=252.08518166225986 1370.460083118378 20.975021621066844 64.287629953527357 1131.1260063457012 220.25232094604871 66.795614151400514 2175.6213296916685
leaf_count=31702 91797 4963 1039 173349 52292 5495 1014368
internal_value=6.41557e-05 0.00763791 0.0248192 0.00286024 -0.00284153 0.00139029 -0.00537858
internal_weight=5301.6 1468.47 316.373 1152.1 3833.13 1437.26 2395.87
internal_count=1375005 211053 32741 178312 1163952 97292 1066660
is_linear=0
shrinkage=0.131703


Tree=19
num_leaves=7
num_cat=0
split_feature=47 21 32 61 10 66
split_gain=5.69904 4.80476 4.07633 6.5402 3.01862 2.65899
threshold=0.0044893384911119947 61.812686920166023 9.4241840997710838e-05 0.9662388563156129 0.47403103113174444 3.1725502014160161
decision_type=2 2 2 2 2 2
left_child=1 4 3 -2 -1 -4
right_child=2 -3 5 -5 -6 -7
leaf_value=0.023852856717208128 -0.0035856426178189254 0.074456286269433597 -0.0023505077223934033 0.020760952802539145 0.0013260163307292714 -0.031486242115791839
leaf_weight=181.99157859990373 410.94326401816215 18.77725891454611 4039.9520391032274 353.40044996229699 233.66032467328478 51.686026627634419
leaf_count=4248 24994 360 1326170 5550 3940 9834
internal_value=0.000202631 0.0145939 -0.00109418 0.00771329 0.0113038 -0.00274457
internal_weight=5290.41 434.429 4855.98 764.344 415.652 4091.64
internal_count=1375096 8548 1366548 30544 8188 1336004
is_linear=0
shrinkage=0.131703


Tree=20
num_leaves=8
num_cat=0
split_feature=9 73 23 35 39 53 68
split_gain=4.6459 4.22682 4.6232 2.38124 3.14573 2.05678 1.47245
threshold=9.368502616882326 -0.29287840425968165 1.0000000180025095e-35 1.0000000180025095e-35 0.056187205016613014 0.96495333313941967 3.2516040802001958
decision_type=2 2 2 2 2 2 2
left_child=1 2 -1 6 -5 -3 -2
right_child=3 5 -4 4 -6 -7 -8
leaf_value=0.0214951302386618 -0.01384360373178457 -0.0023755285315562565 0.0039196447776326162 -0.0026745672082187765 0.019435204110515285 -0.032362210226808623 -0.054695923562100159
leaf_weight=396.97586767934263 81.423384761292255 336.2843447913765 744.14787165477173 3544.5718551697792 111.85574180522235 41.677294583030744 16.76548288075719
leaf_count=9190 32588 121512 78988 1121495 3112 6549 943
internal_value=-4.87556e-05 0.00608877 0.0100799 -0.00253527 -0.00198063 -0.00594302 -0.0224263
internal_weight=5273.7 1519.09 1141.12 3754.62 3656.43 377.962 98.1889
internal_count=1374377 216239 88178 1158138 1124607 128061 33531
is_linear=0
shrinkage=0.131703


Tree=21
num_leaves=8
num_cat=0
split_feature=10 17 35 51 15 44 23
split_gain=4.48168 5.38413 5.24568 4.0675 3.65069 2.55593 1.94388
threshold=0.24831365048885348 23.305906295776371 2.0927981138229375 0.19977678358554843 0.071102507412433638 0.039767919108271606 0.54131180047988903
decision_type=2 2 2 2 2 2 2
left_child=2 5 3 -1 -4 -2 -3
right_child=1 6 4 -5 -6 -7 -8
leaf_value=0.011696011241710033 0.02431535213743655 -0.0038594247173198556 0.0089430947432695106 -0.0020491557176579968 0.042830684710878149 -0.015521089970754963 -0.033412277203023519
leaf_weight=556.72737974647316 167.66288927564165 3127.2680640237231 129.19998644804582 1117.9535848459927 95.972398603567854 30.944929773249896 35.743524525198154
leaf_count=66653 2397 1020646 4690 268571 2517 5328 3816
internal_value=-1.28799e-05 -0.00290183 0.0050948 0.00253467 0.0238119 0.01795 -0.00422915
internal_weight=5261.47 3361.62 1899.85 1674.68 225.172 198.608 3163.01
internal_count=1374618 1032187 342431 335224 7207 7725 1024462
is_linear=0
shrinkage=0.131703


Tree=22
num_leaves=8
num_cat=0
split_feature=29 75 6 10 15 6 12
split_gain=3.76594 3.74811 5.45404 3.07246 2.70529 2.2642 1.9412
threshold=0.15092673152685168 -0.19197707623243329 2.1920846700668339 0.13808342814445498 0.11856691166758539 0.75461760163307201 14.555000305175783
decision_type=2 2 2 2 2 2 2
left_child=4 3 -3 -2 5 -1 -6
right_child=1 2 -4 -5 6 -7 -8
leaf_value=-0.012975644062393819 0.021631691763844219 0.0015691078378037597 0.017378947405018594 -0.023583070711307504 -0.01246310848863732 -0.0027629498292214487 0.023429138699852352
leaf_weight=551.91114042053232 28.748536264814902 2783.1709029973426 434.8219093955413 146.35945355234435 33.524393470725045 1178.061813826178 91.884053685411345
leaf_count=280448 497 454549 18389 3661 15269 560305 41739
internal_value=8.65114e-05 0.00269464 0.0037216 -0.0158868 -0.00467929 -0.00604036 0.0137569
internal_weight=5248.48 3393.1 3217.99 175.108 1855.38 1729.97 125.408
internal_count=1374857 477096 472938 4158 897761 840753 57008
is_linear=0
shrinkage=0.131703


Tree=23
num_leaves=8
num_cat=0
split_feature=10 8 2 68 45 12 8
split_gain=3.44951 3.43287 5.21183 4.37052 3.26233 2.66648 1.8476
threshold=0.012331091798841955 0.78018835186958324 0.15581639856100085 3.2516040802001958 0.4033151268959046 33.949998855590827 0.754776030778885
decision_type=2 2 2 2 2 2 2
left_child=4 3 -3 -2 5 -1 -6
right_child=1 2 -4 -5 6 -7 -8
leaf_value=0.039304497769890437 -0.00178118505028993 0.010399358485663299 -0.045560245834963556 -0.074238147791889877 0.0028729286439874383 -0.058015928599723279 -0.067666706828118275
leaf_weight=84.76467084189062 4423.9259477711457 656.71749061660375 26.845564459683374 11.071393183257895 30.531899810535833 2.2218439617427057 4.6592579523567101
leaf_count=7842 1319365 33041 2873 563 10633 149 406
internal_value=-0.000149873 -0.000678577 0.00798562 -0.00201914 0.0214141 0.0347169 -0.0116263
internal_weight=5240.74 5118.56 683.563 4435 122.178 86.9865 35.1912
internal_count=1374872 1355842 35914 1319928 19030 7991 11039
is_linear=0
shrinkage=0.131703


Tree=24
num_leaves=8
num_cat=0
split_feature=50 53 48 29 14 53 14
split_gain=3.10826 2.66682 3.4174 2.40979 2.06544 1.43211 0.981138
threshold=0.24111478775739673 0.98879343271255504 0.95749467611312877 0.18525897711515429 0.30915178358554846 0.18128408491611483 0.053571429103612907
decision_type=2 2 2 2 2 2 2
left_child=4 2 -2 -3 6 -6 -1
right_child=1 3 -4 -5 5 -7 -8
leaf_value=-0.059587255903161579 1.8131478011124074e-05 0.0048969269764669353 0.0096441761089071532 -0.034500841743714691 0.010199725642656076 -0.0078962788825933244 -0.017942779839181553
leaf_weight=7.9994799069827414 3749.3584220904449 43.38041211978998 767.92311905964743 64.428162044874625 93.637048618955305 347.3378766636597 160.59378043477773
leaf_count=4435 984266 9687 43892 3673 45859 192246 90859
internal_value=-1.40616e-06 0.00116573 0.00166062 -0.018983 -0.00881441 -0.00400446 -0.0210647
internal_weight=5234.66 4625.09 4517.28 107.809 609.568 440.975 168.593
internal_count=1374917 1041518 1028158 13360 333399 238105 95294
is_linear=0
shrinkage=0.131703


Tree=25
num_leaves=8
num_cat=0
split_feature=50 32 10 48 65 28 10
split_gain=3.16925 5.02301 3.22499 3.08553 6.53538 2.35241 1.61518
threshold=0.94649732112884533 0.29870076477527624 0.63423627614974987 0.94975081086158764 -3.6493493318557735 1.376494884490967 0.020226908847689632
decision_type=2 2 2 2 2 2 2
left_child=3 2 -2 6 -5 -3 -1
right_child=1 5 -4 4 -6 -7 -8
leaf_value=0.010947797807567536 0.014338690470536429 -0.0047444368284655014 -0.00042337133532762436 -0.02481400440456025 0.011663218629989765 -0.03672034437684743 -0.0042752006815040874
leaf_weight=122.51481847802643 696.26883867158904 143.70734497660305 405.11377304137568 97.081774296471849 560.20966599756503 52.535954025370302 3146.0454561805527
leaf_count=26071 24325 27072 18003 1680 60388 4438 1212799
internal_value=-0.000172039 0.00546209 0.0089242 -0.00203748 0.00617476 -0.0137877 -0.0036937
internal_weight=5223.48 1297.63 1101.38 3925.85 657.291 196.243 3268.56
internal_count=1374776 73838 42328 1300938 62068 31510 1238870
is_linear=0
shrinkage=0.131703


end of trees

feature_importances:
Column_10=11
Column_14=8
Column_50=7
Column_29=6
Column_48=6
Column_61=6
Column_67=6
Column_5=5
Column_21=5
Column_42=5
Column_51=5
Column_68=5
Column_15=4
Column_23=4
Column_28=4
Column_32=4
Column_35=4
Column_36=4
Column_52=4
Column_58=4
Column_60=4
Column_3=3
Column_6=3
Column_9=3
Column_12=3
Column_30=3
Column_43=3
Column_44=3
Column_47=3
Column_53=3
Column_59=3
Column_69=3
Column_71=3
Column_7=2
Column_8=2
Column_25=2
Column_38=2
Column_39=2
Column_45=2
Column_46=2
Column_64=2
Column_65=2
Column_74=2
Column_75=2
Column_76=2
Column_2=1
Column_4=1
Column_13=1
Column_16=1
Column_17=1
Column_18=1
Column_41=1
Column_49=1
Column_66=1
Column_73=1

parameters:
[boosting: gbdt]
[objective: lambdarank]
[metric: ndcg]
[tree_learner: serial]
[device_type: cpu]
[data_sample_strategy: bagging]
[data: ]
[valid: ]
[num_iterations: 297]
[learning_rate: 0.131703]
[num_leaves: 92]
[num_threads: 15]
[seed: 0]
[deterministic: 0]
[force_col_wise: 0]
[force_row_wise: 0]
[histogram_pool_size: -1]
[max_depth: 3]
[min_data_in_leaf: 183]
[min_sum_hessian_in_leaf: 0.001]
[bagging_fraction: 0.882902]
[pos_bagging_fraction: 1]
[neg_bagging_fraction: 1]
[bagging_freq: 1]
[bagging_seed: 6]
[bagging_by_query: 0]
[feature_fraction: 0.413365]
[feature_fraction_bynode: 1]
[feature_fraction_seed: 6]
[extra_trees: 0]
[extra_seed: 6]
[early_stopping_round: 0]
[early_stopping_min_delta: 0]
[first_metric_only: 0]
[max_delta_step: 0]
[lambda_l1: 0.0013242]
[lambda_l2: 3.4186]
[linear_lambda: 0]
[min_gain_to_split: 0]
[drop_rate: 0.1]
[max_drop: 50]
[skip_drop: 0.5]
[xgboost_dart_mode: 0]
[uniform_drop: 0]
[drop_seed: 4]
[top_rate: 0.2]
[other_rate: 0.1]
[min_data_per_group: 100]
[max_cat_threshold: 32]
[cat_l2: 10]
[cat_smooth: 10]
[max_cat_to_onehot: 4]
[top_k: 20]
[monotone_constraints: ]
[monotone_constraints_method: basic]
[monotone_penalty: 0]
[feature_contri: ]
[forcedsplits_filename: ]
[refit_decay_rate: 0.9]
[cegb_tradeoff: 1]
[cegb_penalty_split: 0]
[cegb_penalty_feature_lazy: ]
[cegb_penalty_feature_coupled: ]
[path_smooth: 0]
[interaction_constraints: ]
[verbosity: -1]
[saved_feature_importance_type: 0]
[use_quantized_grad: 0]
[num_grad_quant_bins: 4]
[quant_train_renew_leaf: 0]
[stochastic_rounding: 1]
[linear_tree: 0]
[max_bin: 255]
[max_bin_by_feature: ]
[min_data_in_bin: 3]
[bin_construct_sample_cnt: 200000]
[data_random_seed: 6]
[is_enable_sparse: 1]
[enable_bundle: 1]
[use_missing: 1]
[zero_as_missing: 0]
[feature_pre_filter: 1]
[pre_partition: 0]
[two_round: 0]
[header: 0]
[label_column: ]
[weight_column: ]
[group_column: ]
[ignore_column: ]
[categorical_feature: ]
[forcedbins_filename: ]
[precise_float_parser: 0]
[parser_config_file: ]
[objective_seed: 5]
[num_class: 1]
[is_unbalance: 0]
[scale_pos_weight: 1]
[sigmoid: 1]
[boost_from_average: 1]
[reg_sqrt: 0]
[alpha: 0.9]
[fair_c: 1]
[poisson_max_delta_step: 0.7]
[tweedie_variance_power: 1.5]
[lambdarank_truncation_level: 30]
[lambdarank_norm: 1]
[label_gain: ]
[lambdarank_position_bias_regularization: 0]
[eval_at: 1]
[multi_error_top_k: 1]
[auc_mu_weights: ]
[num_machines: 1]
[local_listen_port: 12400]
[time_out: 120]
[machine_list_filename: ]
[machines: ]
[gpu_platform_id: -1]
[gpu_device_id: -1]
[gpu_use_dp: 0]
[num_gpu: 1]

end of parameters

pandas_categorical:null
