tree
version=v4
num_class=1
num_tree_per_iteration=1
label_index=0
max_feature_idx=76
objective=lambdarank
feature_names=Column_0 Column_1 Column_2 Column_3 Column_4 Column_5 Column_6 Column_7 Column_8 Column_9 Column_10 Column_11 Column_12 Column_13 Column_14 Column_15 Column_16 Column_17 Column_18 Column_19 Column_20 Column_21 Column_22 Column_23 Column_24 Column_25 Column_26 Column_27 Column_28 Column_29 Column_30 Column_31 Column_32 Column_33 Column_34 Column_35 Column_36 Column_37 Column_38 Column_39 Column_40 Column_41 Column_42 Column_43 Column_44 Column_45 Column_46 Column_47 Column_48 Column_49 Column_50 Column_51 Column_52 Column_53 Column_54 Column_55 Column_56 Column_57 Column_58 Column_59 Column_60 Column_61 Column_62 Column_63 Column_64 Column_65 Column_66 Column_67 Column_68 Column_69 Column_70 Column_71 Column_72 Column_73 Column_74 Column_75 Column_76
feature_infos=[-1.6615739817024688e-13:1] [-0.65882384777069092:1.15625] [-0.78723400831222534:1.7123264074325562] [-0.81581771373748779:2.4683623313903809] [-91.809379577636719:88.977310180664062] [-0.89987486600875854:1.4117647409439087] [0:20] [0:1] [0:26.914485931396484] [0:12.575088500976562] [0:1] [-4.2485289573669434:4.2485289573669434] [9.8900003433227539:80.860000610351562] [-0.19793291389942169:0.19403567910194397] [0.0044642859138548374:0.5881696343421936] [-0.39048272371292114:0.21548017859458923] [-0.8421633243560791:2.4615387916564941] [0:100] [-0.9941176176071167:3.2142613359343111e-16] [-2.2291091634216512e-14:8.3352298736572266] [-0.68983983993530273:1.2249999046325684] [35.702156066894531:79.240158081054688] [-2.8283803996261535e-14:13.457242965698242] [-2.2291091634216512e-14:2.2973523139953613] [-0.12012267857789993:0.87890660762786865] [-0.12066365033388138:1.1543267965316772] [-2.211665153503418:8.0727787017822266] [-0.45030486583709717:1.3999999761581421] [-1.1930740954641667e-13:13.829200744628906] [0:5.5661253929138184] [-67.088462829589844:92.174949645996094] [-0.64157706499099731:1.235293984413147] [0:1] [0:1.3369140625] [0:1.5006247758865356] [0:69.476058959960938] [0:724.38958740234375] [0:2.9320616722106934] [0:6.0928130149841309] [0:1.9930795431137085] [0:400] [0:1] [0.00055803573923185468:1] [0:1] [0:1] [0:1] [0:1] [0:1] [0:1] [0:1] [0:1] [0.00083705357974395156:0.99944198131561279] [0:1] [0:1] none none none none [0:1] [0:1] [0:1] [0.00055803573923185468:1] [0.00088339223293587565:1] none [-3.5753715038299561:3.6368434429168701] [-22.248758316040039:22.798309326171875] [-19.768545150756836:23.018220901489258] [-2.8738110065460205:27.145288467407227] [-2.5848462581634521:29.571832656860352] [-20.007286071777344:24.205806732177734] [-16.887062072753906:27.482074737548828] [-2.533935546875:26.866493225097656] [-4.3289570808410645:4.0220479965209961] [-5.0900983810424805:5.6898574829101562] [-1.2380394018990382e-12:309.741943359375] [-0.28171807527542114:0.28171807527542114] [-0.46146976947784424:0.60728037357330322]
tree_sizes=1047 1039 1033 1034 1042 1038 1032 1027 1026 1033 1029 1044 1043 1048 1027 1037 1044 1031 1032 1033 1040 1035 1032 1033 1037 1036 1041 1049 1036 1026 1027

Tree=0
num_leaves=8
num_cat=0
split_feature=74 71 50 50 50 74 42
split_gain=31.1036 22.1128 10.2268 10.0566 7.46968 6.02519 4.89881
threshold=0.47947959601879125 -0.087671563029289232 0.49418343603610998 0.37171047925949102 0.21096272021532061 0.13035834580659869 0.078822541981935515
decision_type=2 2 2 2 2 2 2
left_child=2 3 6 -2 -3 -4 -1
right_child=1 4 5 -5 -6 -7 -8
leaf_value=0.017117799269974424 -0.028113738761906124 -0.011923638163324769 0.046905498162938208 -0.0081996349602264183 0.010529623224326299 0.020324708331463628 -0.016681218132395492
leaf_weight=144.55131369529408 699.66495508103981 324.24107002615347 230.02821892991778 1186.7236913564557 1193.0476795129071 433.80972350812226 146.15295431105187
leaf_count=41012 206460 100362 57167 312645 302296 107709 41628
internal_value=-0.000219885 -0.00611482 0.0207467 -0.0156234 0.00571528 0.0297287 0.000128209
internal_weight=4358.22 3403.68 954.542 1886.39 1517.29 663.838 290.704
internal_count=1169279 921763 247516 519105 402658 164876 82640
is_linear=0
shrinkage=0.131703


Tree=1
num_leaves=8
num_cat=0
split_feature=64 44 36 52 60 14 45
split_gain=309.983 57.1607 34.241 27.6708 16.0417 10.8362 6.03449
threshold=-1.1016371250152586 0.028059861622750763 0.12035957351326944 0.25807902216911321 0.17806298285722735 0.37806919217109686 0.028033157810568813
decision_type=2 2 2 2 2 2 2
left_child=1 3 -3 -1 6 -6 -2
right_child=4 2 -4 -5 5 -7 -8
leaf_value=0.099029962991271009 0.019231091384983263 -0.0050160191040669582 0.023931124245846893 0.03986442060097807 -0.032235564102276577 -0.051792364355401854 -0.020627136837761375
leaf_weight=197.43210567574715 72.410961079149274 985.17577928001992 2513.7017044048407 462.88889756286517 1239.9300295308058 849.65579938748851 531.52467097732006
leaf_count=3719 11511 138425 109449 12042 450882 302263 140565
internal_value=-1.17627e-05 0.0225239 0.0157835 0.0579738 -0.0347946 -0.0402593 -0.0157666
internal_weight=6852.72 4159.2 3498.88 660.321 2693.52 2089.59 603.936
internal_count=1168856 263635 247874 15761 905221 753145 152076
is_linear=0
shrinkage=0.131703


Tree=2
num_leaves=8
num_cat=0
split_feature=69 28 22 52 67 28 67
split_gain=218.362 92.319 39.8707 16.7858 15.1977 13.8889 11.6827
threshold=-1.0068920850753782 0.099276944994926467 0.0028201711829751734 0.16651205718517306 0.66918906569480907 0.019842229783535007 1.3777537345886233
decision_type=2 2 2 2 2 2 2
left_child=2 5 6 -4 -3 -2 -1
right_child=1 4 3 -5 -6 -7 -8
leaf_value=0.041644896272669804 0.019351002053492647 -0.040033076134379703 0.046535013875477878 0.014426516442308411 -0.014599267025737874 -0.0061448602182519506 0.078999801762590263
leaf_weight=302.09548852621811 756.24945943889907 1945.9612350527605 359.61165472771972 1300.1168871570553 522.02747145143803 721.18327005047468 308.16435958992224
leaf_count=3956 48311 787576 13650 85059 131289 95849 3535
internal_value=-0.000389997 -0.0191102 0.032127 0.0214649 -0.034681 0.00692006 0.0608434
internal_weight=6215.41 3945.42 2269.99 1659.73 2467.99 1477.43 610.26
internal_count=1169225 1063025 106200 98709 918865 144160 7491
is_linear=0
shrinkage=0.131703


Tree=3
num_leaves=8
num_cat=0
split_feature=69 43 23 68 43 23 52
split_gain=209.426 57.8238 29.2572 25.5922 22.0808 21.8588 17.8388
threshold=-1.0068920850753782 0.08818096294999124 0.0058783888816833505 -0.12511592358350751 0.0086496900767087954 0.047774683684110648 0.15885650366544726
decision_type=2 2 2 2 2 2 2
left_child=2 5 4 -3 -1 -2 -4
right_child=1 3 6 -5 -6 -7 -8
leaf_value=0.08798814626078881 0.040924114474632352 -0.041883828751945899 0.03804308586676277 -0.016722987329193469 0.036470952403427369 -0.017045777636865826 0.0090218033347489457
leaf_weight=183.10981625784189 308.7915315948776 1389.3615023088933 528.37951270054327 1427.5845110504306 695.06866727187298 174.24746546230745 1198.77468937909
leaf_count=1142 11342 597546 11876 406111 8902 47601 84312
internal_value=7.56522e-05 -0.0219523 0.0279691 -0.0291685 0.0475126 0.0200393 0.0179579
internal_weight=5905.32 3299.99 2605.33 2816.95 878.178 483.039 1727.15
internal_count=1168832 1062600 106232 1003657 10044 58943 96188
is_linear=0
shrinkage=0.131703


Tree=4
num_leaves=8
num_cat=0
split_feature=74 43 3 42 28 12 34
split_gain=161.829 40.8853 26.8225 17.2843 15.3974 11.8903 4.97222
threshold=0.38715930283069616 0.032316805794835098 -0.045315288007259362 0.025809152051806453 0.0079602086916565912 28.379999160766605 1.0000000180025095e-35
decision_type=2 2 2 2 2 2 2
left_child=1 4 6 -3 -1 -4 -2
right_child=2 3 5 -5 -6 -7 -8
leaf_value=0.054953039383792195 0.047174152607766445 0.020706935069556467 -0.02672606269852601 -0.0048531350619240654 0.025182506192479706 -0.056983454845214061 -0.0017198076548495275
leaf_weight=582.02998986572493 35.224585939082317 946.36952010565437 1812.5803290742333 885.83416708617005 643.57878468668787 258.33725739864167 540.60047930551809
leaf_count=4421 3027 36596 750090 147861 18891 118776 89100
internal_value=0.000219632 0.0208468 -0.0236073 0.00836303 0.0394339 -0.0305883 0.00153161
internal_weight=5704.56 3057.81 2646.74 1832.2 1225.61 2070.92 575.825
internal_count=1168762 207769 960993 184457 23312 868866 92127
is_linear=0
shrinkage=0.131703


Tree=5
num_leaves=8
num_cat=0
split_feature=65 58 25 26 50 50 10
split_gain=110.972 33.8293 22.219 19.2658 13.5726 11.2444 9.78263
threshold=-0.93006107211112965 0.10230068489909173 -0.00023139294353313741 -0.10918886959552764 0.70543360710144054 0.76583203673362743 0.15869290381670001
decision_type=2 2 2 2 2 2 2
left_child=2 6 5 -4 -3 -1 -2
right_child=1 4 3 -5 -6 -7 -8
leaf_value=-0.0074580551500855576 0.033201693309889868 -0.030215595126044763 0.074356132858971802 0.026756322027493038 -0.0092794642852843563 0.017832552770879764 -0.0015680146186553133
leaf_weight=461.11608769139275 220.03740938869305 1679.0743649583892 172.95728902181145 967.2328815786168 794.92646960023558 887.94271891063545 376.65039454738144
leaf_count=51541 11662 736432 1715 17543 238361 46000 65917
internal_value=1.68358e-05 -0.0167277 0.0206673 0.0341777 -0.0235107 0.00919095 0.0113696
internal_weight=5559.94 3070.69 2489.25 1140.19 2474 1349.06 596.688
internal_count=1169171 1052372 116799 19258 974793 97541 77579
is_linear=0
shrinkage=0.131703


Tree=6
num_leaves=8
num_cat=0
split_feature=74 26 70 70 12 34 74
split_gain=84.1371 18.9391 17.5891 15.4027 8.64538 6.44955 5.9288
threshold=0.3771441131830216 -0.10918886959552764 -1.4119061827659605 -0.57688051462173451 28.379999160766605 4.726115854225555e-08 1.0000000180025095e-35
decision_type=2 2 2 2 2 2 2
left_child=1 6 5 -3 -4 -2 -1
right_child=2 3 4 -5 -6 -7 -8
leaf_value=0.06182707563016468 0.048144009841225147 0.019046162953791385 -0.018821218806902615 -0.0017295578882093061 -0.042981859315608863 0.0013182784188378457 0.025902345792719616
leaf_weight=168.20344775193371 58.678065072803292 1651.6227931567701 1829.0675391822006 987.90772437106352 299.31800716323778 287.28165683511179 164.55897604575148
leaf_count=1387 1434 63973 790630 130902 142135 31383 7190
internal_value=0.00011756 0.015045 -0.0178099 0.0112781 -0.0222825 0.00965424 0.044506
internal_weight=5446.64 2972.29 2474.35 2639.53 2128.39 345.96 332.762
internal_count=1169034 203452 965582 194875 932765 32817 8577
is_linear=0
shrinkage=0.131703


Tree=7
num_leaves=8
num_cat=0
split_feature=43 23 69 1 61 50 68
split_gain=62.138 19.3869 17.1726 12.5693 6.377 6.03791 3.71278
threshold=0.084298457950353636 0.0058783888816833505 -1.1755712628364561 -0.12819487601518628 0.99581474065780651 0.52986523509025585 3.8766509294509892
decision_type=2 2 2 2 2 2 2
left_child=1 3 6 -1 -3 -4 -2
right_child=2 4 5 -5 -6 -7 -8
leaf_value=0.070282562984530686 0.0055092996877939664 0.0023360268301464049 -0.023595286340166735 0.024417145278264739 0.029232972429357341 -0.010401103687199926 0.045784991557859048
leaf_weight=115.16473290708382 507.80063721380429 1186.1198246334097 1220.8845105260843 919.25290082173888 172.2447370873997 1201.8667496705893 39.814329477958381
leaf_count=777 42213 83010 588400 9347 4860 439311 1264
internal_value=0.000400558 0.016183 -0.012317 0.0297383 0.00581159 -0.0170739 0.00870374
internal_weight=5363.15 2392.78 2970.37 1034.42 1358.36 2422.75 547.615
internal_count=1169182 97994 1071188 10124 87870 1027711 43477
is_linear=0
shrinkage=0.131703


Tree=8
num_leaves=8
num_cat=0
split_feature=50 52 52 19 73 4 19
split_gain=39.8585 18.9627 15.1991 10.0125 8.46936 8.44184 7.81231
threshold=0.83635541796684276 0.21791344135999682 0.087992429733276381 1.047381639480591 -1.2378188967704771 -19.270058631896969 1.7910031080245974
decision_type=2 2 2 2 2 2 2
left_child=2 4 5 -3 -2 -1 -4
right_child=1 3 6 -5 -6 -7 -8
leaf_value=0.032452783601269755 0.047524113015883392 -0.002286621856874468 -0.014368641244714328 0.021566741211593295 0.018654792270855577 -0.003974613795841732 0.02152090083221813
leaf_weight=207.99029109149706 313.9167549124686 978.50059596577194 2593.3442960005486 439.83081352646695 413.95426397927804 229.44947916542878 106.70593063347042
leaf_count=17499 4681 141753 883157 13236 31257 70912 5805
internal_value=0.000222181 0.0140403 -0.00923508 0.00514436 0.0312698 0.0134625 -0.0129248
internal_weight=5283.69 2146.2 3137.49 1418.33 727.871 437.44 2700.05
internal_count=1168300 190927 977373 154989 35938 88411 888962
is_linear=0
shrinkage=0.131703


Tree=9
num_leaves=8
num_cat=0
split_feature=43 45 42 1 14 0 33
split_gain=36.0248 13.4769 12.1629 8.85102 6.77744 6.20389 5.32873
threshold=0.084298457950353636 0.020177273079752926 0.0046037947759032258 -0.1017780341207981 0.36188615858554846 0.92063605785369884 4.6768761308157998e-08
decision_type=2 2 2 2 2 2 2
left_child=2 6 4 -4 -1 -3 -2
right_child=1 5 3 -5 -6 -7 -8
leaf_value=0.01502514904238373 0.056014502056531509 -0.010570554870778653 0.027686255525910707 0.0043933467381967071 0.055530687733848706 -0.031070672823061897 0.0089574436509969081
leaf_weight=137.86330954870209 51.585712222266011 2365.8262008457677 334.96476209611865 1740.5532120139105 153.95899204839952 285.36199384997599 180.79843561461894
leaf_count=1147 912 928355 6707 88940 1206 130844 11382
internal_value=-0.000264983 -0.010144 0.0117654 0.00819198 0.0367911 -0.0128143 0.0200648
internal_weight=5250.91 2883.57 2367.34 2075.52 291.822 2651.19 232.384
internal_count=1169493 1071493 98000 95647 2353 1059199 12294
is_linear=0
shrinkage=0.131703


Tree=10
num_leaves=8
num_cat=0
split_feature=28 69 1 14 71 59 71
split_gain=25.0891 14.5592 12.9531 6.8051 5.11201 4.46362 2.28965
threshold=0.0079602086916565912 -1.3851278424262998 -0.12819487601518628 0.37918527424335485 0.4794632643461228 0.41815657913684851 0.21662735939025882
decision_type=2 2 2 2 2 2 2
left_child=2 5 6 -4 -3 -2 -1
right_child=1 4 3 -5 -6 -7 -8
leaf_value=0.079023894890326102 0.0039718579514738698 -0.013379629493410294 0.0040606374109961856 0.02447358258959683 0.0012019418844608019 0.029391741288269886 0.035018110823501154
leaf_weight=53.510270359111018 1015.3466176770162 2229.9910803054518 756.19716615456855 451.22778099949937 512.10503357910784 132.70932246989105 46.972600244916975
leaf_count=494 43688 899785 32314 11765 173439 7398 327
internal_value=-0.000142118 -0.00544863 0.0156141 0.0117369 -0.0106583 0.00698895 0.0602833
internal_weight=5198.06 3890.15 1307.91 1207.42 2742.1 1148.06 100.483
internal_count=1169210 1124310 44900 44079 1073224 51086 821
is_linear=0
shrinkage=0.131703


Tree=11
num_leaves=8
num_cat=0
split_feature=68 10 10 75 22 10 68
split_gain=17.8192 9.98493 8.03219 8.00456 5.89947 5.71299 4.46131
threshold=0.8787132501602174 0.059764511883258827 0.11524332314729692 -0.05102241784334182 1.0000000180025095e-35 0.8840855360031129 -0.25220556557178492
decision_type=2 2 2 2 2 2 2
left_child=2 3 4 -2 -1 -3 -4
right_child=1 5 6 -5 -6 -7 -8
leaf_value=0.025506814521205953 0.063293942021698288 0.011060825919933875 -0.01552733685203856 0.014009840450781885 -0.0013276482647163182 -0.0076077696611090203 -0.004495154547269389
leaf_weight=211.38305939477868 100.32600417837966 1242.5692103781621 1029.1988483573077 133.09163087815978 418.95819832663983 365.74018038122449 1665.9118816744885
leaf_count=9495 1020 102248 478920 6626 111167 31633 427940
internal_value=0.000160975 0.0105424 -0.00559341 0.0358014 0.00775998 0.00680822 -0.00872248
internal_weight=5167.18 1841.73 3325.45 233.418 630.341 1608.31 2695.11
internal_count=1169049 141527 1027522 7646 120662 133881 906860
is_linear=0
shrinkage=0.131703


Tree=12
num_leaves=8
num_cat=0
split_feature=68 42 1 40 70 12 25
split_gain=15.4452 8.57206 5.94068 5.0863 3.64529 3.13494 2.17257
threshold=0.1283867955207825 0.0046037947759032258 -0.086751274764537797 0.80098596215248119 -0.44027070701122278 24.884999275207523 -0.00077424413757398714
decision_type=2 2 2 2 2 2 2
left_child=4 3 -3 -2 6 -6 -1
right_child=1 2 -4 -5 5 -7 -8
leaf_value=-0.0099499269468574722 0.012590527314554782 0.017605857265865041 0.0010658672495295371 0.04907804680246744 -0.0092710320441976232 -0.024141256780872297 0.0044670181101792257
leaf_weight=309.89355071994942 163.40257931128144 443.18784073198913 2408.8680650189053 112.06935515138321 930.55278653063579 335.44694352435181 427.14984496217221
leaf_count=92024 1723 10165 367130 1003 438252 168401 90639
internal_value=3.29054e-05 0.00581386 0.00365412 0.0278549 -0.00898785 -0.0132657 -0.00161237
internal_weight=5130.57 3127.53 2852.06 275.472 2003.04 1266 737.043
internal_count=1169337 380021 377295 2726 789316 606653 182663
is_linear=0
shrinkage=0.131703


Tree=13
num_leaves=8
num_cat=0
split_feature=52 73 67 28 14 75 5
split_gain=10.9184 7.98809 7.61084 5.99347 5.69238 2.90267 2.90231
threshold=0.055953472852706916 -0.60099670290946949 0.85617396235466015 0.0079602086916565912 0.23437500000000003 -0.079299341887235628 -0.02717626933008432
decision_type=2 2 2 2 2 2 2
left_child=1 4 6 -4 -1 -3 -2
right_child=2 5 3 -5 -6 -7 -8
leaf_value=-0.0039830792838311691 -0.0015814282820984583 0.030089750427525975 0.013382728241920924 -0.0017823304300937943 0.03546014052790683 -0.012342119257143814 -0.010798794194718849
leaf_weight=78.925125853042118 948.51415970071685 30.293325065867975 693.38386620307574 1284.9891181376879 307.45041428488912 162.3659458924667 1581.6434918461018
leaf_count=4937 211866 2223 17912 185533 13577 45189 687789
internal_value=-0.000379076 0.0165911 -0.00256953 0.00354658 0.0274383 -0.00526105 -0.00735022
internal_weight=5087.57 579.035 4508.53 1978.37 386.376 192.659 2530.16
internal_count=1169026 65926 1103100 203445 18514 47412 899655
is_linear=0
shrinkage=0.131703


Tree=14
num_leaves=8
num_cat=0
split_feature=10 43 50 10 12 50 61
split_gain=10.9121 7.8089 7.60809 5.30622 4.46564 4.0238 3.79311
threshold=0.047707280144095428 0.032316805794835098 0.89831256866455089 0.84483531117439281 18.07499980926514 0.9889349937438966 0.99581474065780651
decision_type=2 2 2 2 2 2 2
left_child=1 4 6 -4 -1 -3 -2
right_child=2 5 3 -5 -6 -7 -8
leaf_value=0.013398327488895367 -0.0066956310632452836 0.0016561477663860568 0.010440667718127218 -0.0079701304333123415 0.056160252033465696 0.046831988175330415 0.013042849908247426
leaf_weight=71.780079723219387 2888.901624361577 321.61353692511329 1112.8422274854383 356.024173319689 110.43086324143223 34.890567534137517 176.22431088087615
leaf_count=853 991948 54135 81006 32653 1222 1081 6147
internal_value=0.000295721 0.0179555 -0.00181447 0.00596999 0.0398726 0.00648075 -0.00554748
internal_weight=5072.71 538.715 4533.99 1468.87 182.211 356.504 3065.13
internal_count=1169045 57291 1111754 113659 2075 55216 998095
is_linear=0
shrinkage=0.131703


Tree=15
num_leaves=8
num_cat=0
split_feature=52 47 35 75 23 52 67
split_gain=9.20403 6.9498 5.13728 5.0467 4.37421 3.91058 3.46339
threshold=0.08409092947840692 0.14605192840099337 2.7334247827529912 -0.1848679110407829 0.16347767412662509 1.0000000180025095e-35 0.79118746519088756
decision_type=2 2 2 2 2 2 2
left_child=1 5 3 -2 -4 -1 -3
right_child=2 6 4 -5 -6 -7 -8
leaf_value=-0.031042604549562355 -0.048645871967848885 -0.0097918495498116164 0.023969283809682489 -0.0031699603146987864 -0.0087419605243025285 0.02635448758775303 0.014067642556478532
leaf_weight=18.826452481211163 39.407032149261795 245.04400932829594 218.77017012785655 3825.0890073481132 101.98038144793827 434.00151881208876 180.02500456717098
leaf_count=1363 1752 69538 6463 1057064 5437 13019 14781
internal_value=0.000230813 0.0124643 -0.00234332 -0.00367632 0.0135859 0.0237531 0.000344318
internal_weight=5063.14 877.897 4185.25 3864.5 320.751 452.828 425.069
internal_count=1169417 98701 1070716 1058816 11900 14382 84319
is_linear=0
shrinkage=0.131703


Tree=16
num_leaves=8
num_cat=0
split_feature=10 9 59 42 19 68 10
split_gain=6.76491 12.1174 6.61488 3.95351 3.53814 4.18215 2.75792
threshold=0.21777999401092532 9.3905677795410174 0.45373401045799261 0.023018972948193554 1.047381639480591 0.17531759291887286 0.98066720366477977
decision_type=2 2 2 2 2 2 2
left_child=1 2 -1 -3 6 -6 -2
right_child=4 3 -4 -5 5 -7 -8
leaf_value=0.030452760557279402 -0.0053922623477783791 0.0096042107804481872 -0.0035648104582625458 -0.0064546279032172225 -0.012146181219533817 0.0089496147520205394 -0.027131430486311513
leaf_weight=418.89967138401698 2350.2186138039106 394.63002942973981 128.69223939185031 797.80555889086099 216.30291815625969 629.45246180164395 102.67782796826214
leaf_count=21169 819868 10479 22688 201435 47878 25000 21017
internal_value=-0.000304205 0.00633284 0.0224853 -0.00112763 -0.00380821 0.00352696 -0.00633883
internal_weight=5038.68 1740.03 547.592 1192.44 3298.65 845.755 2452.9
internal_count=1169534 255771 43857 211914 913763 72878 840885
is_linear=0
shrinkage=0.131703


Tree=17
num_leaves=8
num_cat=0
split_feature=3 18 44 22 48 19 27
split_gain=6.13704 5.74295 3.97267 3.71988 3.41791 2.72712 2.00221
threshold=-0.08165795728564261 -0.093186300247907625 0.00440917443484068 0.58096221089363109 0.059190051630139358 0.51105770468711864 -0.014268893282860516
decision_type=2 2 2 2 2 2 2
left_child=1 4 5 -4 -1 -2 -3
right_child=2 6 3 -5 -6 -7 -8
leaf_value=0.026847126221528 0.07899548817744001 -0.0042257370484434145 -0.0021391067723386908 -0.022164766715317419 0.0063221738469880929 0.0086003037436706009 -0.11333991602054871
leaf_weight=160.77478150447132 13.415353963267988 4.7370506940642372 3625.4013768202858 165.03174943273189 1016.3278120262548 24.304921543342061 5.5424393347930145
leaf_count=3681 347 178 1051376 62577 50602 326 257
internal_value=-2.44388e-05 0.00823383 -0.00259102 -0.00303024 0.00919535 0.0381248 -0.0766736
internal_weight=5015.54 1187.38 3828.15 3790.43 1177.1 37.7203 10.2795
internal_count=1169344 54718 1114626 1113953 54283 673 435
is_linear=0
shrinkage=0.131703


Tree=18
num_leaves=8
num_cat=0
split_feature=19 32 10 75 11 76 65
split_gain=6.16297 5.04078 4.60561 2.53245 3.81931 3.78863 1.63452
threshold=1.6520218253135683 0.91171786189079296 0.21777999401092532 -0.14082780480384824 1.5900298953056338 -0.23576042801141736 -2.1326454877853389
decision_type=2 2 2 2 2 2 2
left_child=1 2 -1 5 -5 -2 -3
right_child=3 6 -4 4 -6 -7 -8
leaf_value=0.0051132737371106683 0.026858468683764236 -0.073934866394840482 -0.0037979355355657702 0.037065609780083872 -0.013239984117689382 -0.006809184067462515 -0.018322364728074313
leaf_weight=1552.6738553774776 91.969763483211864 6.7048194775125003 2842.6091674474883 134.44672460679431 30.451637250953354 145.19219935481669 207.05212464131182
leaf_count=228003 1949 157 837719 4747 2180 4334 90331
internal_value=-0.000248396 -0.00161677 -0.000648402 0.015319 0.0276945 0.0064423 -0.0212039
internal_weight=5011.1 4609.04 4395.28 402.06 164.898 237.162 213.757
internal_count=1169420 1156210 1065722 13210 6927 6283 90488
is_linear=0
shrinkage=0.131703


Tree=19
num_leaves=8
num_cat=0
split_feature=43 10 29 71 11 47 29
split_gain=5.55494 6.35128 4.7442 3.31645 2.95194 2.79808 1.63986
threshold=0.032316805794835098 0.54115477204322826 0.53708332777023327 1.7169129252433779 -1.7128685712814329 0.18443030118942264 0.73695233464241039
decision_type=2 2 2 2 2 2 2
left_child=1 2 -1 5 -3 -2 -5
right_child=3 4 -4 6 -6 -7 -8
leaf_value=0.0066117318043928657 0.0020388948503797652 -0.024992979348423157 0.026405931391721666 0.019240356119226854 0.00063602907344471134 -0.0060010300735289573 -0.020966378533227331
leaf_weight=549.403319222969 1130.6614982503816 88.942270116705913 339.94338390522171 159.60762378334766 498.66320709919091 2223.334064354538 16.895563613332342
leaf_count=13404 187527 3892 4493 35247 15569 908368 1016
internal_value=0.000477616 0.00725024 0.0142502 -0.00235987 -0.00336511 -0.00329133 0.0150654
internal_weight=5007.45 1476.95 889.347 3530.5 587.605 3354 176.503
internal_count=1169516 37358 17897 1132158 19461 1095895 36263
is_linear=0
shrinkage=0.131703


Tree=20
num_leaves=8
num_cat=0
split_feature=67 23 20 28 18 13 5
split_gain=4.81965 5.46442 4.27959 2.7122 2.4155 2.66294 2.2875
threshold=1.0976772904396059 0.0089853173121809977 -0.091862421482801424 0.99042829871177684 -0.82913237810134877 -0.010317737702280281 0.093942843377590193
decision_type=2 2 2 2 2 2 2
left_child=4 2 -2 -3 5 -1 -6
right_child=1 3 -4 -5 6 -7 -8
leaf_value=-0.0074695709226415309 0.036013017865060802 0.0013254577047337041 0.0094862331442571099 -0.026600125252958889 -0.003015905087048455 0.033723635693329944 -0.018994468949190376
leaf_weight=46.158451910305303 126.61207239300711 1182.2249821354053 585.0122384193819 60.142283754830714 2748.7211283420911 59.461556721711531 161.52944186714012
leaf_count=3377 1248 146395 15083 6551 929008 4198 62741
internal_value=9.29654e-05 0.00518326 0.0143557 -9.55482e-05 -0.00320713 0.0160499 -0.00392408
internal_weight=4969.86 1953.99 711.624 1242.37 3015.87 105.62 2910.25
internal_count=1168601 169277 16331 152946 999324 7575 991749
is_linear=0
shrinkage=0.131703


Tree=21
num_leaves=8
num_cat=0
split_feature=50 10 59 60 18 15 15
split_gain=4.1449 3.65548 5.84757 4.3018 2.2196 1.74873 0.984108
threshold=0.3639656007289887 0.020340932533144954 0.0087463636882603186 0.11438032239675523 -0.69087097048759449 0.18864537775516513 -0.26868708431720728
decision_type=2 2 2 2 2 2 2
left_child=4 2 -2 -3 6 -6 -1
right_child=1 3 -4 -5 5 -7 -8
leaf_value=-0.019197946128011976 -0.051333293565486507 -0.0048510458885864839 0.026933636461859211 0.0042945470488525922 -0.0094971043145871056 0.026424390172838704 0.060520979717672577
leaf_weight=1.7143951363395888 15.142606079229152 1398.7423958370346 170.40878634963883 2449.309621933091 907.73689403774915 20.914469693088904 8.3075904150027764
leaf_count=400 268 121812 10689 609309 415896 9871 817
internal_value=1.22628e-05 0.00184795 0.0197323 0.000968782 -0.00785384 -0.00859397 0.0454566
internal_weight=4972.28 4033.6 185.551 3848.05 938.673 928.651 10.022
internal_count=1169062 742078 10957 731121 426984 425767 1217
is_linear=0
shrinkage=0.131703


Tree=22
num_leaves=8
num_cat=0
split_feature=10 9 70 61 5 32 35
split_gain=5.13176 8.56581 5.80518 4.43159 2.31104 2.19457 2.03105
threshold=0.11524332314729692 9.3905677795410174 -0.30218069255352015 0.99581474065780651 0.28299076855182653 0.90505748987197887 3.2102568149566655
decision_type=2 2 2 2 2 2 2
left_child=1 2 -1 -3 5 -2 -6
right_child=4 3 -4 -5 6 -7 -8
leaf_value=0.031619503390414652 -0.00085236728355285983 -0.0031961168029636948 -0.0038792958613911473 0.033935667700602461 -0.059875770395044846 -0.016357895129716468 0.032881340079098202
leaf_weight=322.80811989371432 3608.2719063903205 705.20038878085325 104.89915280544665 57.094486024114303 16.619899582874499 162.2114949132083 2.8051620163023463
leaf_count=8922 949738 110635 15579 1017 3749 79353 88
internal_value=0.000581962 0.00811405 0.022951 -0.000275694 -0.00178819 -0.0015337 -0.043557
internal_weight=4979.91 1190 427.707 762.295 3789.91 3770.48 19.4251
internal_count=1169081 136153 24501 111652 1032928 1029091 3837
is_linear=0
shrinkage=0.131703


Tree=23
num_leaves=8
num_cat=0
split_feature=51 43 6 10 53 71 17
split_gain=4.30695 5.34459 6.98886 3.49644 3.11341 2.46732 2.40108
threshold=0.24441964179277423 0.016332194209098819 1.4217981696128847 0.12705888599157336 0.011823558714240791 2.1415368318557744 41.09480285644532
decision_type=2 2 2 2 2 2 2
left_child=1 2 -1 -3 6 -6 -2
right_child=4 3 -4 -5 5 -7 -8
leaf_value=0.033607526374033449 -0.03941327218099671 0.011139964976951255 -0.0012776242289361073 -0.004313090341402797 -0.0025247742546680185 0.012267475210296076 0.0023725251813494063
leaf_weight=234.10108146589482 64.265388533880468 396.17176489823032 171.13301925221458 693.69408509065397 3160.9759175002109 205.10190318489913 36.249493528739549
leaf_count=3434 4235 32203 2859 175031 924416 19711 7373
internal_value=0.000241501 0.00614205 0.0189874 0.00132128 -0.00230683 -0.00161187 -0.0247597
internal_weight=4961.69 1495.1 405.234 1089.87 3466.59 3366.08 100.515
internal_count=1169262 213527 6293 207234 955735 944127 11608
is_linear=0
shrinkage=0.131703


Tree=24
num_leaves=8
num_cat=0
split_feature=53 48 43 48 20 14 61
split_gain=3.42673 4.73919 4.96435 3.07896 3.57106 3.49369 2.45315
threshold=0.16905831545591357 0.97008347511291515 0.016332194209098819 0.97756555676460277 -0.11547308042645453 0.38197544217109686 0.39257812500000006
decision_type=2 2 2 2 2 2 2
left_child=1 2 -1 4 -2 -5 -3
right_child=3 6 -4 5 -6 -7 -8
leaf_value=0.023989132220329747 0.018372521512341412 -0.04989110406018972 0.0034864947529555605 -0.00083099579776167406 -0.003896651311139086 0.032683945634432734 -0.0069167125514464148
leaf_weight=289.72337340324884 126.24970985739492 24.037084831332322 685.17699710989837 131.72538675565738 3444.9922940457473 87.753519559162669 153.9450390082784
leaf_count=5627 3140 3484 182886 11582 948774 7137 6623
internal_value=-0.000245079 0.00603182 0.00964223 -0.00215785 -0.00309253 0.0128641 -0.0135524
internal_weight=4943.6 1152.88 974.9 3790.72 3571.24 219.479 177.982
internal_count=1169253 198620 188513 970633 951914 18719 10107
is_linear=0
shrinkage=0.131703


Tree=25
num_leaves=8
num_cat=0
split_feature=50 28 3 15 15 15 29
split_gain=2.44944 2.37275 2.3343 1.90239 1.74706 1.5247 0.0134752
threshold=0.35215182602405554 -1.0000000180025095e-35 0.27741037309169775 -0.32621262967586512 0.18864537775516513 0.0098801990970969217 0.73695233464241039
decision_type=2 2 2 2 2 2 2
left_child=3 5 -3 6 -5 -2 -1
right_child=1 2 -4 4 -6 -7 -8
leaf_value=-0.065035066802952693 -0.0045120711632532819 0.0013892061562539649 -0.036992334010424004 -0.0065541090688325176 0.028974748989412078 0.070798015810948245 -0.002855827809207386
leaf_weight=6.1514850551611735 6.4240858718985718 4011.5970465037972 24.259069769061171 864.31643495347816 21.359058393107262 10.489279577392152 0.3930177018046378
leaf_count=3296 253 750992 4279 400355 9478 242 137
internal_value=-2.19651e-05 0.00135445 0.00112734 -0.0062556 -0.00558898 0.0462358 -0.0635797
internal_weight=4944.99 4052.77 4035.86 892.22 885.675 16.9134 6.5445
internal_count=1169032 755766 755271 413266 409833 495 3433
is_linear=0
shrinkage=0.131703


Tree=26
num_leaves=8
num_cat=0
split_feature=52 21 37 46 60 68 62
split_gain=2.54381 4.10915 6.04539 3.59017 2.12314 3.99362 3.42408
threshold=0.055953472852706916 52.939920425415046 0.014799125492572786 0.0045558169949799785 0.079034104943275466 0.35030283033847814 0.11614987999200822
decision_type=2 2 2 2 2 2 2
left_child=1 3 -3 -1 6 -6 -2
right_child=4 2 -4 -5 5 -7 -8
leaf_value=-0.030508229757046711 -0.012054271274111484 -0.026112732640487871 0.031735004523675683 0.015431888367416139 -0.0033810286738498994 0.0059261835270291857 0.0044850764152480887
leaf_weight=28.170594563824125 642.99231563520152 116.75446890160674 39.19869039603509 513.92579817766091 1913.8883043453679 1368.4897611255874 324.69149899977492
leaf_count=1103 23779 16999 852 47086 808268 209423 61913
internal_value=0.00011338 0.00746165 -0.0112028 0.012868 -0.00109852 0.000501412 -0.00650831
internal_weight=4948.11 698.05 155.953 542.096 4250.06 3282.38 967.684
internal_count=1169423 66040 17851 48189 1103383 1017691 85692
is_linear=0
shrinkage=0.131703


Tree=27
num_leaves=8
num_cat=0
split_feature=0 25 53 10 15 9 36
split_gain=3.02994 3.79309 4.08053 2.09383 1.57807 0.997495 0.504195
threshold=0.91666793823242199 -7.061481301207094e-05 0.28431411087512976 0.8840855360031129 -0.12658750265836713 9.4705872535705584 0.089036170393228545
decision_type=2 2 2 2 2 2 2
left_child=1 3 -3 -1 6 -6 -2
right_child=4 2 -4 -5 5 -7 -8
leaf_value=-0.00067117469871334008 0.016962198017274339 0.012391082809760246 0.0010454413911216039 -0.012439649622173666 -0.021401824732556137 -0.0031570348763811673 -0.039440191014784166
leaf_weight=2013.5583821555483 1.1119082965305995 877.81881798960967 1464.2246623811661 298.17459991323994 68.72744786873227 191.64795056334697 35.722177739895415
leaf_count=468429 370 157466 341373 64982 25717 93869 17545
internal_value=0.000751065 0.00157781 0.00530983 -0.00220531 -0.0120645 -0.00818845 -0.0364373
internal_weight=4950.99 4653.78 2342.04 2311.73 297.209 260.375 36.8341
internal_count=1169751 1032250 498839 533411 137501 119586 17915
is_linear=0
shrinkage=0.131703


Tree=28
num_leaves=8
num_cat=0
split_feature=47 41 35 6 75 60 14
split_gain=2.74753 3.34539 3.00263 3.82727 3.61322 2.78772 1.90164
threshold=0.043251400813460357 0.87810820341110241 4.2411863803863534 1.7655373811721804 -0.14082780480384824 0.071045558899641051 0.25809152424335485
decision_type=2 2 2 2 2 2 2
left_child=1 5 4 -4 -2 -1 -3
right_child=2 6 3 -5 -6 -7 -8
leaf_value=-0.0060576982713679691 -0.023944499246112565 0.003752230434702341 0.048585497750641124 -0.0010462488343405119 -0.0016308098541713137 0.0094549660927777841 0.027251516903268488
leaf_weight=406.87651322205784 127.00397477694787 95.286396294541191 42.699459312658291 64.488800226477906 3642.0277790038381 390.51012395805446 162.4986960850074
leaf_count=18820 12310 3434 1423 1991 1100912 26478 4202
internal_value=-0.000155454 0.00579183 -0.00177813 0.019614 -0.00240377 0.00154715 0.0187288
internal_weight=4931.39 1055.17 3876.22 107.188 3769.03 797.387 257.785
internal_count=1169570 52934 1116636 3414 1113222 45298 7636
is_linear=0
shrinkage=0.131703


Tree=29
num_leaves=8
num_cat=0
split_feature=42 21 46 12 9 11 11
split_gain=3.56791 4.74894 3.59799 3.58975 2.75113 5.39562 3.72834
threshold=0.0046037947759032258 52.724325180053718 0.016400913707911972 28.194999694824222 9.4464678764343279 -0.60911667346954335 -3.3920578956603999
decision_type=2 2 2 2 2 2 2
left_child=1 2 -1 -3 5 -2 -6
right_child=4 3 -4 -5 6 -7 -8
leaf_value=0.06053603788238586 0.017590127271099359 -0.034945004832959842 0.014980577425775594 0.03218112227060746 -0.043617325217420885 -0.0008625448018005806 -0.0021441833478479414
leaf_weight=31.809268809389323 382.79911019006977 49.31927022500895 241.1121950809611 15.732751278206704 34.637187552289106 952.24083263782086 3230.1408107622992
leaf_count=272 47234 1054 3720 326 3549 160675 952665
internal_value=0.000393641 0.0133844 0.0209739 -0.0179119 -0.000570053 0.00445972 -0.0026294
internal_weight=4937.79 337.973 272.921 65.052 4599.82 1335.04 3264.78
internal_count=1169495 5372 3992 1380 1164123 207909 956214
is_linear=0
shrinkage=0.131703


Tree=30
num_leaves=8
num_cat=0
split_feature=39 51 51 33 6 8 12
split_gain=3.77024 2.96434 2.85209 2.44198 2.47702 1.92791 1.15047
threshold=0.13358633965253833 0.69112724065780651 0.052734375000000007 0.029178062453866008 2.2431356906890874 0.15309141576290133 59.86000061035157
decision_type=2 2 2 2 2 2 2
left_child=3 2 -2 5 -5 -1 -3
right_child=1 6 -4 4 -6 -7 -8
leaf_value=-0.011280680354018373 0.030994237644858192 -0.0054768932202209717 -0.050139507423020806 0.03976553025765852 -0.0052472160168245269 0.00061406218040880407 0.063573941684659602
leaf_weight=245.98582662147237 6.293225315748713 8.8440740826772508 54.956717495166231 50.363893871486653 33.813000074005686 4514.8752063905122 3.7732275399612254
leaf_count=106363 307 654 3158 2367 1245 1054731 237
internal_value=-6.73025e-05 -0.0289273 -0.0406028 0.000392747 0.0221832 -8.13635e-06 0.0243128
internal_weight=4918.91 73.8672 61.2499 4845.04 84.1769 4760.86 12.6173
internal_count=1169062 4356 3465 1164706 3612 1161094 891
is_linear=0
shrinkage=0.131703


end of trees

feature_importances:
Column_10=14
Column_50=11
Column_43=9
Column_52=9
Column_28=7
Column_68=7
Column_12=6
Column_14=6
Column_15=6
Column_42=6
Column_19=5
Column_23=5
Column_67=5
Column_71=5
Column_74=5
Column_75=5
Column_1=4
Column_9=4
Column_11=4
Column_60=4
Column_61=4
Column_69=4
Column_70=4
Column_3=3
Column_5=3
Column_6=3
Column_18=3
Column_22=3
Column_25=3
Column_29=3
Column_35=3
Column_47=3
Column_48=3
Column_51=3
Column_53=3
Column_59=3
Column_0=2
Column_20=2
Column_21=2
Column_26=2
Column_32=2
Column_33=2
Column_34=2
Column_36=2
Column_44=2
Column_45=2
Column_46=2
Column_65=2
Column_73=2
Column_4=1
Column_8=1
Column_13=1
Column_17=1
Column_27=1
Column_37=1
Column_39=1
Column_40=1
Column_41=1
Column_58=1
Column_62=1
Column_64=1
Column_76=1

parameters:
[boosting: gbdt]
[objective: lambdarank]
[metric: ndcg]
[tree_learner: serial]
[device_type: cpu]
[data_sample_strategy: bagging]
[data: ]
[valid: ]
[num_iterations: 297]
[learning_rate: 0.131703]
[num_leaves: 92]
[num_threads: 15]
[seed: 0]
[deterministic: 0]
[force_col_wise: 0]
[force_row_wise: 0]
[histogram_pool_size: -1]
[max_depth: 3]
[min_data_in_leaf: 183]
[min_sum_hessian_in_leaf: 0.001]
[bagging_fraction: 0.882902]
[pos_bagging_fraction: 1]
[neg_bagging_fraction: 1]
[bagging_freq: 1]
[bagging_seed: 6]
[bagging_by_query: 0]
[feature_fraction: 0.413365]
[feature_fraction_bynode: 1]
[feature_fraction_seed: 6]
[extra_trees: 0]
[extra_seed: 6]
[early_stopping_round: 0]
[early_stopping_min_delta: 0]
[first_metric_only: 0]
[max_delta_step: 0]
[lambda_l1: 0.0013242]
[lambda_l2: 3.4186]
[linear_lambda: 0]
[min_gain_to_split: 0]
[drop_rate: 0.1]
[max_drop: 50]
[skip_drop: 0.5]
[xgboost_dart_mode: 0]
[uniform_drop: 0]
[drop_seed: 4]
[top_rate: 0.2]
[other_rate: 0.1]
[min_data_per_group: 100]
[max_cat_threshold: 32]
[cat_l2: 10]
[cat_smooth: 10]
[max_cat_to_onehot: 4]
[top_k: 20]
[monotone_constraints: ]
[monotone_constraints_method: basic]
[monotone_penalty: 0]
[feature_contri: ]
[forcedsplits_filename: ]
[refit_decay_rate: 0.9]
[cegb_tradeoff: 1]
[cegb_penalty_split: 0]
[cegb_penalty_feature_lazy: ]
[cegb_penalty_feature_coupled: ]
[path_smooth: 0]
[interaction_constraints: ]
[verbosity: -1]
[saved_feature_importance_type: 0]
[use_quantized_grad: 0]
[num_grad_quant_bins: 4]
[quant_train_renew_leaf: 0]
[stochastic_rounding: 1]
[linear_tree: 0]
[max_bin: 255]
[max_bin_by_feature: ]
[min_data_in_bin: 3]
[bin_construct_sample_cnt: 200000]
[data_random_seed: 6]
[is_enable_sparse: 1]
[enable_bundle: 1]
[use_missing: 1]
[zero_as_missing: 0]
[feature_pre_filter: 1]
[pre_partition: 0]
[two_round: 0]
[header: 0]
[label_column: ]
[weight_column: ]
[group_column: ]
[ignore_column: ]
[categorical_feature: ]
[forcedbins_filename: ]
[precise_float_parser: 0]
[parser_config_file: ]
[objective_seed: 5]
[num_class: 1]
[is_unbalance: 0]
[scale_pos_weight: 1]
[sigmoid: 1]
[boost_from_average: 1]
[reg_sqrt: 0]
[alpha: 0.9]
[fair_c: 1]
[poisson_max_delta_step: 0.7]
[tweedie_variance_power: 1.5]
[lambdarank_truncation_level: 30]
[lambdarank_norm: 1]
[label_gain: ]
[lambdarank_position_bias_regularization: 0]
[eval_at: 1]
[multi_error_top_k: 1]
[auc_mu_weights: ]
[num_machines: 1]
[local_listen_port: 12400]
[time_out: 120]
[machine_list_filename: ]
[machines: ]
[gpu_platform_id: -1]
[gpu_device_id: -1]
[gpu_use_dp: 0]
[num_gpu: 1]

end of parameters

pandas_categorical:null
