tree
version=v4
num_class=1
num_tree_per_iteration=1
label_index=0
max_feature_idx=76
objective=lambdarank
feature_names=Column_0 Column_1 Column_2 Column_3 Column_4 Column_5 Column_6 Column_7 Column_8 Column_9 Column_10 Column_11 Column_12 Column_13 Column_14 Column_15 Column_16 Column_17 Column_18 Column_19 Column_20 Column_21 Column_22 Column_23 Column_24 Column_25 Column_26 Column_27 Column_28 Column_29 Column_30 Column_31 Column_32 Column_33 Column_34 Column_35 Column_36 Column_37 Column_38 Column_39 Column_40 Column_41 Column_42 Column_43 Column_44 Column_45 Column_46 Column_47 Column_48 Column_49 Column_50 Column_51 Column_52 Column_53 Column_54 Column_55 Column_56 Column_57 Column_58 Column_59 Column_60 Column_61 Column_62 Column_63 Column_64 Column_65 Column_66 Column_67 Column_68 Column_69 Column_70 Column_71 Column_72 Column_73 Column_74 Column_75 Column_76
feature_infos=[-6.0943849793104743e-13:1] [-0.92941176891326904:1.5925925970077515] [-0.92941176891326904:2.4482758045196533] [-0.93353360891342163:7.4851999282836914] [-90.427604675292969:85.198478698730469] [-0.9259716272354126:1.616822361946106] [0:20] [0:1] [0:62.493350982666016] [0:12.575088500976562] [0:1] [-4.2485289573669434:4.2485289573669434] [11.300000190734863:56.650001525878906] [-0.12828062474727631:0.1137867271900177] [0.0050223213620483875:0.64118301868438721] [-0.35115307569503784:0.21548017859458923] [-0.92941176891326904:7.5] [0:100] [-0.9941176176071167:1.5800162168832593e-16] [-4.8259780096844909e-14:11.630558013916016] [-0.5:1.5925925970077515] [35.828128814697266:81.139915466308594] [-7.4211612603822946e-14:31.246675491333008] [-9.2676883420121647e-14:2.5876250267028809] [-0.125:2.5363509654998779] [-0.095238082110881805:1.557201623916626] [-3.8225436210632324:9.074305534362793] [-0.92941176891326904:1.8740739822387695] [-2.834597574025155e-12:19.656835556030273] [0:62.493350982666016] [-36.763141632080078:110.20500946044922] [-0.91794872283935547:1.5808930397033691] [0:1] [0:2.5363509654998779] [0:2.5363509654998779] [0:135.26988220214844] [0:3905.418701171875] [0:5.9940547943115234] [0:56.028213500976562] [0:2.6141147613525391] [0:400] [0:1] [0.00055803573923185468:1] [0:1] [0:1] [0:1] [0:1] [0:1] [0:1] [0:1] [0:1] [0.00083705357974395156:0.99944198131561279] [0:1] [0:1] none none none none [0:1] [0:1] [0:1] [0.00055803573923185468:1] [0.00078678206773474813:1] none [-3.9880118370056152:3.5714471340179443] [-23.167015075683594:27.342569351196289] [-25.358802795410156:32.976799011230469] [-2.797205924987793:26.703680038452148] [-3.0642058849334717:35.367481231689453] [-17.951107025146484:30.857006072998047] [-15.994902610778809:30.927629470825195] [-2.8629717826843262:25.973445892333984] [-4.5299458503723145:4.8709721565246582] [-5.5395002365112305:5.5811586380004883] [-6.3855166813897579e-12:1326409.875] [-0.28206899762153625:0.28206375241279602] [-0.42712444067001343:0.61212223768234253]
tree_sizes=1042 1044 1033 1042 1035 1031 1034 1026 1040

Tree=0
num_leaves=8
num_cat=0
split_feature=50 61 71 4 47 47 8
split_gain=38.3698 12.5983 11.5262 7.60503 4.92645 4.62844 3.56608
threshold=0.68117776513099682 0.48856027424335485 -0.093907088041305528 6.6675672531127939 0.20931150764226916 0.032271081581711776 0.69533172249794017
decision_type=2 2 2 2 2 2 2
left_child=2 6 5 -4 -3 -1 -2
right_child=1 4 3 -5 -6 -7 -8
leaf_value=0.044967031802062123 0.011805525693686069 0.046439345400790519 0.006922551419608027 -0.014876675871259014 0.022082773573241714 -0.017017614341308999 -0.0072879918015601383
leaf_weight=18.001039074384607 695.75321269087726 235.35105977384956 934.97336081662797 390.79344694194151 397.81759751829668 1546.0618940247223 221.45364145486383
leaf_count=4028 192672 60128 278147 118932 102497 481351 56893
internal_value=0.000402899 0.0170963 -0.00856256 0.000474973 0.0313372 -0.0162076 0.00718539
internal_weight=4440.21 1550.38 2889.83 1325.77 633.169 1564.06 917.207
internal_count=1294648 412190 882458 397079 162625 485379 249565
is_linear=0
shrinkage=0.131703


Tree=1
num_leaves=8
num_cat=0
split_feature=45 32 60 61 52 32 14
split_gain=124.321 49.2092 32.6027 21.9647 15.867 12.1654 7.06282
threshold=0.20938325673341754 0.0024185104994103317 0.41116315126419073 0.54882812500000011 0.24477256089448932 1.0000000180025095e-35 0.061662945896387107
decision_type=2 2 2 2 2 2 2
left_child=1 4 5 -3 -1 -2 -4
right_child=2 3 6 -5 -6 -7 -8
leaf_value=0.082381602789612388 0.037888988555692185 -0.012245344568667296 -0.082685166792118264 0.015813586051096968 0.036109182016398789 -0.0087110937330668187 -0.030198403698781458
leaf_weight=189.39511493794271 99.766665592265781 616.4568109253305 43.64891013444867 2211.4186978220532 421.71559691583388 1681.0550087351585 1598.1866270237369
leaf_count=7219 8138 139267 18928 105965 18192 351316 644994
internal_value=-0.000633945 0.0170432 -0.0183948 0.00968948 0.0508287 -0.00603273 -0.0317628
internal_weight=6861.64 3438.99 3422.66 2827.88 611.111 1780.82 1641.84
internal_count=1294019 270643 1023376 245232 25411 359454 663922
is_linear=0
shrinkage=0.131703


Tree=2
num_leaves=8
num_cat=0
split_feature=22 58 69 5 60 67 1
split_gain=229.287 134.526 23.5354 20.8347 11.9139 11.0528 10.7843
threshold=1.0000000180025095e-35 0.1737836375832558 -0.9070085585117339 -0.06275583058595656 0.27666532993316656 2.875607013702393 -0.053197918459773057
decision_type=2 2 2 2 2 2 2
left_child=2 3 5 -2 -3 -1 -4
right_child=1 4 6 -5 -6 -7 -8
leaf_value=0.055927030897970034 0.022302093046434945 -0.019937731663142617 0.076915855777326694 -0.0020476418800271907 -0.039921379957248378 0.097726234150388877 0.022312086301290258
leaf_weight=560.49808173079509 1090.4062676932663 734.87847139744554 69.085144392680377 1375.4491222439101 1844.7391217703116 145.75414503342472 521.73452390922466
leaf_count=6469 59649 237121 1651 154771 809371 1139 24529
internal_value=-0.000554537 -0.0132564 0.0487591 0.00873576 -0.0342625 0.0649829 0.029103
internal_weight=6342.54 5045.47 1297.07 2465.86 2579.62 706.252 590.82
internal_count=1294700 1260912 33788 214420 1046492 7608 26180
is_linear=0
shrinkage=0.131703


Tree=3
num_leaves=8
num_cat=0
split_feature=43 60 23 44 69 43 58
split_gain=185.678 60.3035 57.1092 17.8017 16.3938 15.4555 9.1132
threshold=0.083986092358827605 0.22929658740758899 1.0000000180025095e-35 0.02043391298502684 -0.95218309760093678 0.0081081148236989992 0.15834403783082965
decision_type=2 2 2 2 2 2 2
left_child=2 3 5 -2 -3 -1 -4
right_child=1 4 6 -5 -6 -7 -8
leaf_value=0.083412340260900927 0.044161559731547111 -2.1229015220994373e-05 0.016078757223070242 -0.0017871636743440509 -0.034572191983095427 0.044279893582340336 -0.017813748073538783
leaf_weight=243.98774876410607 162.03691676742164 268.28997942607384 1139.7934192829416 1258.2477806443349 2121.9370809055981 681.78232384473085 153.57449571974576
leaf_count=1783 7244 39817 47948 238845 900173 8263 50062
internal_value=-0.000309904 -0.0179427 0.0299485 0.00354835 -0.0306997 0.0548624 0.0120179
internal_weight=6029.65 3810.51 2219.14 1420.28 2390.23 925.77 1293.37
internal_count=1294135 1186079 108056 246089 939990 10046 98010
is_linear=0
shrinkage=0.131703


Tree=4
num_leaves=8
num_cat=0
split_feature=74 3 62 12 74 42 60
split_gain=188.158 51.1166 18.0285 10.86 10.4599 9.94072 9.70063
threshold=0.13145864009857181 -0.034696258604526513 0.0043084884528070697 24.470000267028812 1.0000000180025095e-35 0.012137276586145164 0.24121209233999255
decision_type=2 2 2 2 2 2 2
left_child=2 6 4 -3 -1 -4 -2
right_child=1 3 5 -5 -6 -7 -8
leaf_value=0.079821026932477293 0.0085155852610517158 -0.024072533107250615 0.036190978562797266 -0.045053087649363117 0.019031683502288066 0.016032593562999908 -0.014483385668980293
leaf_weight=196.32270660111681 1072.2773457046715 1734.331042079255 1008.915835444699 576.21511496044695 68.554032908752561 746.44441528321477 448.29957249405561
leaf_count=1059 74072 783728 17567 265159 1562 62659 88275
internal_value=0.000110091 -0.0170369 0.0326011 -0.0293637 0.0645315 0.0276668 0.00171759
internal_weight=5851.36 3831.12 2020.24 2310.55 264.877 1755.36 1520.58
internal_count=1294081 1211234 82847 1048887 2621 80226 162347
is_linear=0
shrinkage=0.131703


Tree=5
num_leaves=8
num_cat=0
split_feature=32 58 61 10 50 10 65
split_gain=104.085 61.7728 25.4279 15.8113 15.083 9.86481 8.22119
threshold=8.8967448391485973e-05 0.056023616343736655 0.96512275934219371 0.1380771026015282 0.60665857791900646 0.27633199095726019 -0.98777246475219715
decision_type=2 2 2 2 2 2 2
left_child=2 5 6 -4 -3 -2 -1
right_child=1 4 3 -5 -6 -7 -8
leaf_value=0.026900949171629739 0.031973244505565171 -0.029880372241127551 0.077332205236908924 0.032468678664497139 -0.010754969962336424 0.0062299065929637175 0.0025679598320562966
leaf_weight=545.93826863862341 363.75260331539903 1584.4897557520599 235.07272225996712 339.66213913226966 1312.1494806855044 877.90682418231154 430.29925557895331
leaf_count=5357 18390 754660 2177 4580 439078 49646 20721
internal_value=0.00019481 -0.0107119 0.0292558 0.0511674 -0.0212397 0.0138388 0.0162222
internal_weight=5689.27 4138.3 1550.97 574.735 2896.64 1241.66 976.238
internal_count=1294609 1261774 32835 6757 1193738 68036 26078
is_linear=0
shrinkage=0.131703


Tree=6
num_leaves=8
num_cat=0
split_feature=74 45 69 6 12 74 5
split_gain=83.0813 21.2746 16.7042 13.4318 9.16496 7.23017 5.61705
threshold=0.40100763738155371 0.056023616343736655 -1.4566322565078733 2.6870335340499882 23.715000152587894 1.0000000180025095e-35 -0.11273328959941863
decision_type=2 2 2 2 2 2 2
left_child=2 6 5 -4 -3 -1 -2
right_child=1 4 3 -5 -6 -7 -8
leaf_value=0.040130295926232108 0.025080163522726677 -0.016421420686776045 0.0057312118288344533 0.06695627620284067 -0.035415942601459367 0.018507590620230649 -0.0022334422885452805
leaf_weight=532.53573405800853 174.43504430679604 1559.2386466565658 1588.2872584977886 61.32694622525014 619.08609282481484 559.0813411383424 489.73965984932147
leaf_count=3950 7280 754349 176553 3004 291648 18994 38579
internal_value=0.000183947 -0.0155833 0.0165327 0.00814122 -0.0218668 0.0291485 0.00503148
internal_weight=5583.73 2842.5 2741.23 1649.61 2178.32 1091.62 664.175
internal_count=1294357 1091856 202501 179557 1045997 22944 45859
is_linear=0
shrinkage=0.131703


Tree=7
num_leaves=8
num_cat=0
split_feature=42 44 1 67 50 7 69
split_gain=58.848 25.412 11.2193 9.4545 9.02347 8.73537 4.54096
threshold=0.030831472948193554 0.05576614476740361 -0.040587535127997391 2.3117802143096928 0.51094582676887523 0.40119761228561407 -0.55831271409988392
decision_type=2 2 2 2 2 2 2
left_child=2 6 5 -4 -3 -1 -2
right_child=1 4 3 -5 -6 -7 -8
leaf_value=0.066264548324161621 0.0067727916182345202 -0.025258406570657914 0.0037374926868131916 0.030630723917645944 -0.0097846146726250673 0.025311103146875357 0.080886148954680936
leaf_weight=106.60087896045297 966.80467470648 1215.0784227307304 871.45022472325945 303.66342055343557 1426.1072573150741 574.66032969986554 11.17683908890467
leaf_count=1610 59865 627798 40205 10470 547037 7106 456
internal_value=-0.000440581 -0.0102172 0.0186035 0.0107559 -0.0169269 0.0320184 0.00789878
internal_weight=5475.54 3619.17 1856.37 1175.11 2641.19 681.261 977.982
internal_count=1294547 1235156 59391 50675 1174835 8716 60321
is_linear=0
shrinkage=0.131703


Tree=8
num_leaves=8
num_cat=0
split_feature=60 52 33 50 19 19 48
split_gain=33.1658 20.0424 12.0519 9.02181 8.80225 8.7899 3.99113
threshold=0.33193454146385198 0.1341361999511719 0.007199265994131566 0.52320483326911937 0.96199142932891857 0.90018782019615184 0.89047819375991832
decision_type=2 2 2 2 2 2 2
left_child=1 2 -1 6 -5 -3 -2
right_child=3 5 -4 4 -6 -7 -8
leaf_value=0.020406489666205049 -0.023612705724358817 -0.0031283826429899506 0.072428188761123294 -0.010307244542606652 0.020427942596223853 0.013354821713052516 -0.00081500420370053618
leaf_weight=738.4256175471819 1016.8160533861956 1686.7944000590942 83.870869344333187 676.31102469353937 208.68417901836801 836.81589307938702 153.50773468677653
leaf_count=62644 512391 321165 2235 271119 26842 43970 53067
internal_value=9.29416e-05 0.00817907 0.0259906 -0.0130623 -0.00300889 0.00234796 -0.0206336
internal_weight=5401.23 3345.91 822.296 2055.32 884.995 2523.61 1170.32
internal_count=1293433 430014 64879 863419 297961 365135 565458
is_linear=0
shrinkage=0.131703


end of trees

feature_importances:
Column_60=5
Column_50=4
Column_69=4
Column_74=4
Column_32=3
Column_58=3
Column_61=3
Column_1=2
Column_5=2
Column_10=2
Column_12=2
Column_19=2
Column_42=2
Column_43=2
Column_44=2
Column_45=2
Column_47=2
Column_52=2
Column_67=2
Column_3=1
Column_4=1
Column_6=1
Column_7=1
Column_8=1
Column_14=1
Column_22=1
Column_23=1
Column_33=1
Column_48=1
Column_62=1
Column_65=1
Column_71=1

parameters:
[boosting: gbdt]
[objective: lambdarank]
[metric: ndcg]
[tree_learner: serial]
[device_type: cpu]
[data_sample_strategy: bagging]
[data: ]
[valid: ]
[num_iterations: 297]
[learning_rate: 0.131703]
[num_leaves: 92]
[num_threads: 15]
[seed: 0]
[deterministic: 0]
[force_col_wise: 0]
[force_row_wise: 0]
[histogram_pool_size: -1]
[max_depth: 3]
[min_data_in_leaf: 183]
[min_sum_hessian_in_leaf: 0.001]
[bagging_fraction: 0.882902]
[pos_bagging_fraction: 1]
[neg_bagging_fraction: 1]
[bagging_freq: 1]
[bagging_seed: 6]
[bagging_by_query: 0]
[feature_fraction: 0.413365]
[feature_fraction_bynode: 1]
[feature_fraction_seed: 6]
[extra_trees: 0]
[extra_seed: 6]
[early_stopping_round: 0]
[early_stopping_min_delta: 0]
[first_metric_only: 0]
[max_delta_step: 0]
[lambda_l1: 0.0013242]
[lambda_l2: 3.4186]
[linear_lambda: 0]
[min_gain_to_split: 0]
[drop_rate: 0.1]
[max_drop: 50]
[skip_drop: 0.5]
[xgboost_dart_mode: 0]
[uniform_drop: 0]
[drop_seed: 4]
[top_rate: 0.2]
[other_rate: 0.1]
[min_data_per_group: 100]
[max_cat_threshold: 32]
[cat_l2: 10]
[cat_smooth: 10]
[max_cat_to_onehot: 4]
[top_k: 20]
[monotone_constraints: ]
[monotone_constraints_method: basic]
[monotone_penalty: 0]
[feature_contri: ]
[forcedsplits_filename: ]
[refit_decay_rate: 0.9]
[cegb_tradeoff: 1]
[cegb_penalty_split: 0]
[cegb_penalty_feature_lazy: ]
[cegb_penalty_feature_coupled: ]
[path_smooth: 0]
[interaction_constraints: ]
[verbosity: -1]
[saved_feature_importance_type: 0]
[use_quantized_grad: 0]
[num_grad_quant_bins: 4]
[quant_train_renew_leaf: 0]
[stochastic_rounding: 1]
[linear_tree: 0]
[max_bin: 255]
[max_bin_by_feature: ]
[min_data_in_bin: 3]
[bin_construct_sample_cnt: 200000]
[data_random_seed: 6]
[is_enable_sparse: 1]
[enable_bundle: 1]
[use_missing: 1]
[zero_as_missing: 0]
[feature_pre_filter: 1]
[pre_partition: 0]
[two_round: 0]
[header: 0]
[label_column: ]
[weight_column: ]
[group_column: ]
[ignore_column: ]
[categorical_feature: ]
[forcedbins_filename: ]
[precise_float_parser: 0]
[parser_config_file: ]
[objective_seed: 5]
[num_class: 1]
[is_unbalance: 0]
[scale_pos_weight: 1]
[sigmoid: 1]
[boost_from_average: 1]
[reg_sqrt: 0]
[alpha: 0.9]
[fair_c: 1]
[poisson_max_delta_step: 0.7]
[tweedie_variance_power: 1.5]
[lambdarank_truncation_level: 30]
[lambdarank_norm: 1]
[label_gain: ]
[lambdarank_position_bias_regularization: 0]
[eval_at: 1]
[multi_error_top_k: 1]
[auc_mu_weights: ]
[num_machines: 1]
[local_listen_port: 12400]
[time_out: 120]
[machine_list_filename: ]
[machines: ]
[gpu_platform_id: -1]
[gpu_device_id: -1]
[gpu_use_dp: 0]
[num_gpu: 1]

end of parameters

pandas_categorical:null
