tree
version=v4
num_class=1
num_tree_per_iteration=1
label_index=0
max_feature_idx=76
objective=lambdarank
feature_names=Column_0 Column_1 Column_2 Column_3 Column_4 Column_5 Column_6 Column_7 Column_8 Column_9 Column_10 Column_11 Column_12 Column_13 Column_14 Column_15 Column_16 Column_17 Column_18 Column_19 Column_20 Column_21 Column_22 Column_23 Column_24 Column_25 Column_26 Column_27 Column_28 Column_29 Column_30 Column_31 Column_32 Column_33 Column_34 Column_35 Column_36 Column_37 Column_38 Column_39 Column_40 Column_41 Column_42 Column_43 Column_44 Column_45 Column_46 Column_47 Column_48 Column_49 Column_50 Column_51 Column_52 Column_53 Column_54 Column_55 Column_56 Column_57 Column_58 Column_59 Column_60 Column_61 Column_62 Column_63 Column_64 Column_65 Column_66 Column_67 Column_68 Column_69 Column_70 Column_71 Column_72 Column_73 Column_74 Column_75 Column_76
feature_infos=[-3.4740869984386732e-14:1] [-0.71009773015975952:10.111111640930176] [-0.72741198539733887:1.3120646476745605] [-0.78418725728988647:835.02923583984375] [-94.400733947753906:95.251045227050781] [-0.74067598581314087:1.3142509460449219] [0:20] [0:1] [0:2942.842041015625] [0:12.648478507995605] [0:1] [-4.2485289573669434:4.2485289573669434] [9.1400003433227539:40.740001678466797] [-0.10815306007862091:0.067593805491924286] [0.02176339365541935:0.77790176868438721] [-0.13866795599460602:0.14715221524238586] [-0.76654630899429321:835] [0:100] [-0.9767950177192688:1.2449408355590948e-16] [-1.8800973690218103e-14:10.955142021179199] [-0.40000000596046448:0.96737045049667358] [36.821052551269531:88.101936340332031] [-9.8393142862907707e-15:1471.4210205078125] [-2.0300643829265948e-14:1.9614146947860718] [-0.20553277432918549:0.95424729585647583] [-0.099416643381118774:0.63566452264785767] [-1.8251726627349854:366.24880981445312] [-0.34338405728340149:1.2163523435592651] [-4.931924213100701e-14:19.714284896850586] [0:36.250534057617188] [-45.204227447509766:8991.74609375] [-0.68810290098190308:1.2058823108673096] [0:1] [0:102.23457336425781] [0:0.9358055591583252] [0:120.01514434814453] [0:8660320] [0:1.7215137481689453] [0:697273.8125] [0:1.7272555828094482] [0:400] [0:1] [0.00055803573923185468:1] [0:1] [0:1] [0:1] [0:1] [0:1] [0:1] [0:0.99966531991958618] [0:1] [0.00083705357974395156:1] [0:1] [0:1] none none none none [0:1] [0:1] [0:1] [0.00055803573923185468:1] [0.00065146578708663583:1] none [-4.0376577377319336:4.2452259063720703] [-21.713876724243164:36.494190216064453] [-22.932012557983398:32.283336639404297] [-2.714047908782959:30.642438888549805] [-2.2900285720825195:38.600391387939453] [-15.929716110229492:26.411172866821289] [-17.304454803466797:38.613376617431641] [-2.7923481464385986:30.311300277709961] [-5.2262086868286133:4.2020273208618164] [-4.9886102676391602:7.1321063041687012] [-4.2983815833931571e-13:24324868] [-0.28867974877357483:0.28344139456748962] [-0.44626465439796448:0.59939289093017578]
tree_sizes=1030 1041 1043 1037 1035 1044 1032 1040 1047 1036 1050 1041 1044 1044

Tree=0
num_leaves=8
num_cat=0
split_feature=50 71 65 71 61 42 40
split_gain=37.8858 10.4741 7.13002 6.6575 3.77024 3.14317 1.73762
threshold=0.6553957760334016 0.60348162055015575 -1.3389167189598081 0.66061568260192882 0.35909597575664526 0.5051618516445161 3.36814296245575
decision_type=2 2 2 2 2 2 2
left_child=1 4 6 -4 -1 -3 -2
right_child=2 5 3 -5 -6 -7 -8
leaf_value=-0.01820537082971458 0.045789605019602796 0.022823550052163414 0.009068600802264782 0.034865116807502532 -0.0077906131190357336 -0.00091059364695813942 0.013862242695061778
leaf_weight=1079.7052786305285 149.11762387034832 190.02143916909699 1371.993285012868 196.20537874595902 1381.5109299616306 193.17334968576324 41.41563163799583
leaf_count=391502 45342 64165 420438 59746 498138 68882 11852
internal_value=0.000166518 -0.00922538 0.0153446 0.0123651 -0.0123784 0.0109562 0.0392172
internal_weight=4603.14 2844.41 1758.73 1568.2 2461.22 383.195 190.533
internal_count=1560065 1022687 537378 480184 889640 133047 57194
is_linear=0
shrinkage=0.131703


Tree=1
num_leaves=8
num_cat=0
split_feature=26 32 45 48 36 60 36
split_gain=173.85 22.1033 15.4914 15.0502 10.9057 7.9668 5.88089
threshold=-0.0049639749340713015 9.2942631454207017e-05 0.29913341999053961 0.87562549114227306 0.26075282692909246 0.27482299506664282 0.10336754098534585
decision_type=2 2 2 2 2 2 2
left_child=1 2 -1 5 -3 -2 -5
right_child=3 4 -4 6 -6 -7 -8
leaf_value=0.067947147132236194 -0.015102171586459196 0.0086490732960698181 0.005082216872505466 -0.017164212018089021 0.023226014384079872 -0.032116432841041875 0.0081754381462638762
leaf_weight=245.41392578897648 661.05253864283441 1857.6645667234552 94.37009253364522 320.57775040373963 1717.862191556138 1811.2685975931963 308.74299366030027
leaf_count=7677 285877 136836 5134 108689 55795 915659 43816
internal_value=0.000306883 0.018751 0.0507124 -0.0229707 0.0156681 -0.0275943 -0.00475537
internal_weight=7016.95 3915.31 339.784 3101.64 3575.53 2472.32 629.321
internal_count=1559483 205442 12811 1354041 192631 1201536 152505
is_linear=0
shrinkage=0.131703


Tree=2
num_leaves=8
num_cat=0
split_feature=26 28 44 48 26 21 26
split_gain=184.126 43.8068 20.3328 8.53965 8.41047 7.68406 1.87924
threshold=-0.0049639749340713015 1.0000000180025095e-35 0.0080835307016968744 0.9141879975795747 -0.011928424239158629 42.053457260131843 0.01055269315838814
decision_type=2 2 2 2 2 2 2
left_child=1 2 -1 5 -3 -2 -5
right_child=3 4 -4 6 -6 -7 -8
leaf_value=0.089454218708382757 -0.054645135642982436 0.014859076143418051 0.034808861733052122 -0.013633981025530055 -0.0012237476820209784 -0.026594426621473797 0.006564128879543385
leaf_weight=136.73772044526413 184.25639834138565 2019.2233156659931 840.6498814750521 224.73325884601218 781.38887476539821 2210.8787416262203 120.38910871086409
leaf_count=656 94953 73600 9434 81265 121580 1156999 21433
internal_value=-6.56928e-05 0.0187795 0.0427391 -0.0260386 0.0103758 -0.0288272 -0.00659249
internal_weight=6518.26 3778 977.388 2740.26 2800.61 2395.14 345.122
internal_count=1559920 205270 10090 1354650 195180 1251952 102698
is_linear=0
shrinkage=0.131703


Tree=3
num_leaves=8
num_cat=0
split_feature=43 23 43 68 39 40 12
split_gain=126.905 36.8078 17.1825 17.1216 6.75202 6.40121 3.25209
threshold=0.067208848893642439 0.011588687542825939 0.0043636455666273841 -0.0265553705394268 0.0080861370079219359 2.8417025804519658 25.880000114440922
decision_type=2 2 2 2 2 2 2
left_child=1 2 -1 6 -3 -5 -2
right_child=3 4 -4 5 -6 -7 -8
leaf_value=0.080156081670108778 -0.026524709834252237 0.0033916478559157821 0.031963824381251768 -0.011833146694073579 0.018961916055307809 0.012668012573275241 -0.060811174533749582
leaf_weight=151.62922798935324 1702.1857963711518 1385.9177775985445 826.65517320434446 1180.984517813311 739.82083730967133 216.27950708608842 48.306407085387036
leaf_count=843 937810 75089 7307 455506 20843 37774 24524
internal_value=-0.000296063 0.0185897 0.0396867 -0.0189194 0.0088324 -0.00801888 -0.0275877
internal_weight=6251.78 3104.02 978.284 3147.76 2125.74 1397.26 1750.49
internal_count=1559696 104082 8150 1455614 95932 493280 962334
is_linear=0
shrinkage=0.131703


Tree=4
num_leaves=8
num_cat=0
split_feature=43 28 68 9 37 15 6
split_gain=79.3979 23.0351 15.6162 14.269 6.67679 5.95604 5.27909
threshold=0.071205601096153273 0.012745622079819443 -0.025562613271176812 9.2837100028991717 0.023134176619350914 -0.076713640242815004 1.685781002044678
decision_type=2 2 2 2 2 2 2
left_child=1 3 5 -1 -3 -2 -4
right_child=2 4 6 -5 -6 -7 -8
leaf_value=0.051545703574796695 -0.080692306926640006 0.0046002283662687129 -0.0094874041013825426 0.018599676495672238 0.032102504539476232 -0.023078843420937304 0.010400887426814919
leaf_weight=367.25829546066234 28.948997961648274 1981.9901445760042 1018.5227368180349 610.12328059924766 162.7376854873728 1612.4863024427905 296.23843636503443
leaf_count=2702 17173 98388 447296 5963 3251 947661 37141
internal_value=-0.000246235 0.0143932 -0.0157061 0.0311161 0.0067349 -0.0242606 -0.00499074
internal_weight=6078.31 3122.11 2956.2 977.382 2144.73 1641.44 1314.76
internal_count=1559575 110304 1449271 8665 101639 964834 484437
is_linear=0
shrinkage=0.131703


Tree=5
num_leaves=8
num_cat=0
split_feature=50 32 73 71 2 13 51
split_gain=55.51 20.8333 14.2543 6.48196 5.84564 3.31862 2.25519
threshold=0.73338177800178539 9.2942631454207017e-05 -1.4523422122001646 0.38049189746379858 -0.0088270129635930044 0.0075078294612467298 0.13839285820722583
decision_type=2 2 2 2 2 2 2
left_child=4 2 -2 -3 6 -6 -1
right_child=1 3 -4 -5 5 -7 -8
leaf_value=0.0103770561514665 0.051277970848190899 -0.00061130829356700867 0.015337131545700523 0.012221747704512571 -0.01632506943553632 -0.029478496854697674 -0.010555052614283536
leaf_weight=99.866382897744188 284.57664033042965 1868.1277364816633 585.14473535862635 1072.1924480346788 778.83294266121811 605.58176171130617 681.52200335712405
leaf_count=30469 2179 319132 8809 85682 453791 347051 313089
internal_value=-0.000181277 0.00938691 0.0272521 0.00407699 -0.0170018 -0.0221373 -0.00784603
internal_weight=5975.84 3810.04 869.721 2940.32 2165.8 1384.41 781.388
internal_count=1560202 415802 10988 404814 1144400 800842 343558
is_linear=0
shrinkage=0.131703


Tree=6
num_leaves=8
num_cat=0
split_feature=26 74 67 71 71 21 32
split_gain=41.6019 14.6041 14.7387 8.45871 7.07378 5.3868 1.89954
threshold=-0.005294358590617775 1.0000000180025095e-35 3.0442956686019902 1.0215527415275576 2.446996927261353 42.053457260131843 0.96556851267814647
decision_type=2 2 2 2 2 2 2
left_child=1 2 -1 -3 5 -2 -6
right_child=4 3 -4 -5 6 -7 -8
leaf_value=0.01675588357386066 -0.035503867648452196 7.2570773608859635e-05 0.062733849871985589 0.018638851617569122 0.017034493242258527 -0.012279260760143983 -0.032050187754460495
leaf_weight=751.662776484387 185.41822955355747 1786.0744469769706 141.93291234027129 555.41790064913221 162.81891170039307 2293.6402951909986 11.768009902152697
leaf_count=8675 101478 156279 944 27650 19454 1244448 1120
internal_value=-4.21935e-05 0.00997897 0.0242702 0.00449745 -0.0122563 -0.0140629 0.013173
internal_weight=5888.73 3235.09 893.596 2341.49 2653.65 2479.06 174.587
internal_count=1560048 193548 9619 183929 1366500 1345926 20574
is_linear=0
shrinkage=0.131703


Tree=7
num_leaves=8
num_cat=0
split_feature=50 67 22 61 50 64 21
split_gain=38.6818 13.0631 12.5124 7.26537 5.45192 3.96669 1.66125
threshold=0.75718727707862865 2.8159725666046147 0.0022618353832513098 0.51478794217109691 0.43912890553474432 -2.2368540763854976 42.053457260131843
decision_type=2 2 2 2 2 2 2
left_child=4 3 -3 -2 6 -6 -1
right_child=1 2 -4 -5 5 -7 -8
leaf_value=-0.038754640024625954 -0.0049256801532878754 0.060329587253966449 0.01474744993529367 0.0090625836901984391 0.031548864270779277 -0.0088406194576674552 -0.018856075954135104
leaf_weight=79.026214430690743 909.94832065812079 141.83509483386297 384.54579860111699 2185.704615078459 40.649262714956421 1042.0312715198379 1033.0024487763003
leaf_count=49604 219996 876 9772 147944 3289 491924 636597
internal_value=-0.000131469 0.00822654 0.0273401 0.00494986 -0.0139165 -0.00722951 -0.0203848
internal_weight=5816.74 3622.03 526.381 3095.65 2194.71 1082.68 1112.03
internal_count=1560002 378588 10648 367940 1181414 495213 686201
is_linear=0
shrinkage=0.131703


Tree=8
num_leaves=8
num_cat=0
split_feature=50 52 73 58 70 13 13
split_gain=27.4919 15.2823 8.36043 6.87692 3.25296 2.58109 1.79607
threshold=0.76111480593681347 0.18103419989347461 -2.3591817617416377 0.031517645344138152 -1.1112708449363706 0.0075078294612467298 0.0017342577921226623
decision_type=2 2 2 2 2 2 2
left_child=4 3 -3 -2 6 -6 -1
right_child=1 2 -4 -5 5 -7 -8
leaf_value=0.020605745101607051 0.036625158604232058 0.029082426460307145 -0.00040226106541281525 0.013170209659234378 -0.0097427634869632126 -0.019702778834292504 -0.0063847170151764918
leaf_weight=73.409449655679055 318.64238161756657 175.64634897737415 2436.4885387785616 685.83603178506019 1252.0014494906936 716.47264519461896 93.774077782727545
leaf_count=18637 8288 3733 294899 65224 721426 420801 25777
internal_value=-6.13422e-05 0.0069335 0.00161572 0.0207098 -0.0118989 -0.0133959 0.00564106
internal_weight=5752.27 3616.61 2612.13 1004.48 2135.66 1968.47 167.184
internal_count=1558785 372144 298632 73512 1186641 1142227 44414
is_linear=0
shrinkage=0.131703


Tree=9
num_leaves=8
num_cat=0
split_feature=50 64 29 2 48 12 29
split_gain=21.6533 9.73006 11.7653 5.2301 4.6513 3.16783 2.07154
threshold=0.82462060451507579 -1.8277942538261411 0.61208787560462963 -0.014860586728900669 0.98867139220237743 23.735000610351566 0.4306319952011109
decision_type=2 2 2 2 2 2 2
left_child=3 2 -2 6 -3 -5 -1
right_child=1 4 -4 5 -6 -7 -8
leaf_value=-0.001585296750025335 0.011254291817852742 0.00053776321907432977 0.049360900458511138 -0.012045551578498216 0.017223233153520874 -0.044393486359385913 0.039027699251871065
leaf_weight=847.01877399030491 640.7081492721918 1962.4535154892073 177.8407115820155 1663.2647073231346 336.63833964942023 51.403672935179202 18.939601699647028
leaf_count=293359 13312 251487 1831 962241 7016 29941 1223
internal_value=2.19344e-05 0.00740482 0.0197045 -0.00889522 0.00300291 -0.0131018 -0.000546865
internal_weight=5698.27 3117.64 818.549 2580.63 2299.09 1714.67 865.958
internal_count=1560410 273646 15143 1286764 258503 992182 294582
is_linear=0
shrinkage=0.131703


Tree=10
num_leaves=8
num_cat=0
split_feature=36 47 32 42 15 15 29
split_gain=17.3522 9.2334 5.56219 5.18431 4.42815 5.08481 0.704234
threshold=0.13565383106470111 0.0083711203187704104 0.0015169528196565809 0.014090401586145164 -0.076713640242815004 -0.040373412892222398 0.28382603824138647
decision_type=2 2 2 2 2 2 2
left_child=4 3 -3 -2 6 -6 -1
right_child=1 2 -4 -5 5 -7 -8
leaf_value=-0.070999037615623276 0.044354290802862482 0.012314395811979231 -0.00047708127363106992 0.01439620847149066 0.027183905178538956 -0.0092033905995851355 3.4549246783575072e-05
leaf_weight=19.316061783756599 131.26778903126251 823.48207121097948 2054.2636246102338 416.9576483653218 65.506342052394757 2143.1133430867048 2.7002349407412103
leaf_count=13517 894 17421 330104 11122 40557 1144433 1494
internal_value=0.000305894 0.00618974 0.00319347 0.0218001 -0.0087265 -0.00808374 -0.0634464
internal_weight=5656.61 3425.97 2877.75 548.225 2230.64 2208.62 22.0163
internal_count=1559542 359541 347525 12016 1200001 1184990 15011
is_linear=0
shrinkage=0.131703


Tree=11
num_leaves=8
num_cat=0
split_feature=71 10 24 28 59 8 45
split_gain=13.0768 7.86023 10.1411 6.88307 4.93382 4.4478 2.41421
threshold=1.2564806938171389 0.19242984801530841 0.00064892868977040063 0.24624590575695041 0.024381751194596294 0.69751548767089855 0.0043763699941337117
decision_type=2 2 2 2 2 2 2
left_child=1 2 -1 5 -5 -2 -3
right_child=3 6 -4 4 -6 -7 -8
leaf_value=-0.005996152867466323 0.018187444900092286 0.011060533550975615 0.017385237809208649 0.023205215821764401 0.00053997897648184199 0.052483053391055981 -0.0076751763949702073
leaf_weight=663.29137017086032 232.72147589715314 121.32927951286547 619.13013149698963 216.54567414949997 687.36097436820273 91.910227151704021 2989.9888914671319
leaf_count=251818 10491 3229 28923 5478 74325 818 1184754
internal_value=1.08265e-06 -0.00335888 0.00530804 0.0119937 0.00603697 0.0283435 -0.00693316
internal_weight=5622.28 4393.74 1282.42 1228.54 903.907 324.632 3111.32
internal_count=1559836 1468724 280741 91112 79803 11309 1187983
is_linear=0
shrinkage=0.131703


Tree=12
num_leaves=8
num_cat=0
split_feature=68 64 17 71 40 60 26
split_gain=10.3155 6.39661 5.61244 4.10176 2.43794 2.00445 1.53362
threshold=-0.01336180744692683 -1.9028235077857969 48.520452499389656 3.2508051395416264 0.58553633093833934 0.0080959266051650065 -0.0068241085391491643
decision_type=2 2 2 2 2 2 2
left_child=4 2 -2 -3 6 -6 -1
right_child=1 3 -4 -5 5 -7 -8
leaf_value=-0.04858841115899571 0.01997885130457544 -0.0011325337122729344 -0.0042176556857715063 0.012080113094175029 0.065944334203814611 -0.0056040986724971266 -0.014398061065803611
leaf_weight=21.285325966193341 643.18861470080446 2570.8389346649637 222.41146883790498 480.81561873210012 3.4312325706705442 1152.8150333105586 486.71923015473294
leaf_count=4733 12205 514022 8020 10660 137 689960 320370
internal_value=0.000110001 0.00380037 0.0137693 0.000960369 -0.00856613 -0.00519785 -0.0161462
internal_weight=5581.51 3917.25 865.6 3051.65 1664.25 1156.25 508.005
internal_count=1560107 544907 20225 524682 1015200 690097 325103
is_linear=0
shrinkage=0.131703


Tree=13
num_leaves=8
num_cat=0
split_feature=52 36 18 71 36 59 36
split_gain=7.21215 8.85004 5.94869 4.76627 3.11072 2.64563 1.60983
threshold=0.10715459659695627 0.13565383106470111 -0.79617035388946522 0.38049189746379858 1.8203388452529909 0.020589282736182216 0.12298909202218057
decision_type=2 2 2 2 2 2 2
left_child=1 6 -3 4 -2 -5 -1
right_child=3 2 -4 5 -6 -7 -8
leaf_value=-0.0083612157563868594 -0.0054889884356858661 0.057055220659045058 0.012821599000934535 0.01232991901021193 -0.033479928923538169 -6.29792545857736e-05 -0.04312603354576864
leaf_weight=233.66850539040752 2600.5471066760074 53.702299683820456 767.62416222636239 373.18266810459318 67.502255711704493 1445.9825071233499 22.676026432949584
leaf_count=119201 1113790 1377 43433 10939 4055 262972 4006
internal_value=-0.00037322 0.00928432 0.0159385 -0.00269796 -0.00623917 0.00249756 -0.0119642
internal_weight=5564.89 1077.67 821.326 4487.21 2668.05 1819.17 256.345
internal_count=1559773 168017 44810 1391756 1117845 273911 123207
is_linear=0
shrinkage=0.131703


end of trees

feature_importances:
Column_71=8
Column_26=6
Column_36=6
Column_50=6
Column_32=4
Column_13=3
Column_15=3
Column_21=3
Column_28=3
Column_29=3
Column_40=3
Column_43=3
Column_48=3
Column_64=3
Column_68=3
Column_2=2
Column_12=2
Column_42=2
Column_45=2
Column_52=2
Column_59=2
Column_60=2
Column_61=2
Column_67=2
Column_73=2
Column_6=1
Column_8=1
Column_9=1
Column_10=1
Column_17=1
Column_18=1
Column_22=1
Column_23=1
Column_24=1
Column_37=1
Column_39=1
Column_44=1
Column_47=1
Column_51=1
Column_58=1
Column_65=1
Column_70=1
Column_74=1

parameters:
[boosting: gbdt]
[objective: lambdarank]
[metric: ndcg]
[tree_learner: serial]
[device_type: cpu]
[data_sample_strategy: bagging]
[data: ]
[valid: ]
[num_iterations: 297]
[learning_rate: 0.131703]
[num_leaves: 92]
[num_threads: 15]
[seed: 0]
[deterministic: 0]
[force_col_wise: 0]
[force_row_wise: 0]
[histogram_pool_size: -1]
[max_depth: 3]
[min_data_in_leaf: 183]
[min_sum_hessian_in_leaf: 0.001]
[bagging_fraction: 0.882902]
[pos_bagging_fraction: 1]
[neg_bagging_fraction: 1]
[bagging_freq: 1]
[bagging_seed: 6]
[bagging_by_query: 0]
[feature_fraction: 0.413365]
[feature_fraction_bynode: 1]
[feature_fraction_seed: 6]
[extra_trees: 0]
[extra_seed: 6]
[early_stopping_round: 0]
[early_stopping_min_delta: 0]
[first_metric_only: 0]
[max_delta_step: 0]
[lambda_l1: 0.0013242]
[lambda_l2: 3.4186]
[linear_lambda: 0]
[min_gain_to_split: 0]
[drop_rate: 0.1]
[max_drop: 50]
[skip_drop: 0.5]
[xgboost_dart_mode: 0]
[uniform_drop: 0]
[drop_seed: 4]
[top_rate: 0.2]
[other_rate: 0.1]
[min_data_per_group: 100]
[max_cat_threshold: 32]
[cat_l2: 10]
[cat_smooth: 10]
[max_cat_to_onehot: 4]
[top_k: 20]
[monotone_constraints: ]
[monotone_constraints_method: basic]
[monotone_penalty: 0]
[feature_contri: ]
[forcedsplits_filename: ]
[refit_decay_rate: 0.9]
[cegb_tradeoff: 1]
[cegb_penalty_split: 0]
[cegb_penalty_feature_lazy: ]
[cegb_penalty_feature_coupled: ]
[path_smooth: 0]
[interaction_constraints: ]
[verbosity: -1]
[saved_feature_importance_type: 0]
[use_quantized_grad: 0]
[num_grad_quant_bins: 4]
[quant_train_renew_leaf: 0]
[stochastic_rounding: 1]
[linear_tree: 0]
[max_bin: 255]
[max_bin_by_feature: ]
[min_data_in_bin: 3]
[bin_construct_sample_cnt: 200000]
[data_random_seed: 6]
[is_enable_sparse: 1]
[enable_bundle: 1]
[use_missing: 1]
[zero_as_missing: 0]
[feature_pre_filter: 1]
[pre_partition: 0]
[two_round: 0]
[header: 0]
[label_column: ]
[weight_column: ]
[group_column: ]
[ignore_column: ]
[categorical_feature: ]
[forcedbins_filename: ]
[precise_float_parser: 0]
[parser_config_file: ]
[objective_seed: 5]
[num_class: 1]
[is_unbalance: 0]
[scale_pos_weight: 1]
[sigmoid: 1]
[boost_from_average: 1]
[reg_sqrt: 0]
[alpha: 0.9]
[fair_c: 1]
[poisson_max_delta_step: 0.7]
[tweedie_variance_power: 1.5]
[lambdarank_truncation_level: 30]
[lambdarank_norm: 1]
[label_gain: ]
[lambdarank_position_bias_regularization: 0]
[eval_at: 1]
[multi_error_top_k: 1]
[auc_mu_weights: ]
[num_machines: 1]
[local_listen_port: 12400]
[time_out: 120]
[machine_list_filename: ]
[machines: ]
[gpu_platform_id: -1]
[gpu_device_id: -1]
[gpu_use_dp: 0]
[num_gpu: 1]

end of parameters

pandas_categorical:null
