tree
version=v4
num_class=1
num_tree_per_iteration=1
label_index=0
max_feature_idx=76
objective=lambdarank
feature_names=Column_0 Column_1 Column_2 Column_3 Column_4 Column_5 Column_6 Column_7 Column_8 Column_9 Column_10 Column_11 Column_12 Column_13 Column_14 Column_15 Column_16 Column_17 Column_18 Column_19 Column_20 Column_21 Column_22 Column_23 Column_24 Column_25 Column_26 Column_27 Column_28 Column_29 Column_30 Column_31 Column_32 Column_33 Column_34 Column_35 Column_36 Column_37 Column_38 Column_39 Column_40 Column_41 Column_42 Column_43 Column_44 Column_45 Column_46 Column_47 Column_48 Column_49 Column_50 Column_51 Column_52 Column_53 Column_54 Column_55 Column_56 Column_57 Column_58 Column_59 Column_60 Column_61 Column_62 Column_63 Column_64 Column_65 Column_66 Column_67 Column_68 Column_69 Column_70 Column_71 Column_72 Column_73 Column_74 Column_75 Column_76
feature_infos=[-2.7902710320764669e-14:1] [-0.59037131071090698:2.0980393886566162] [-0.92941176891326904:2.129868745803833] [-0.93900394439697266:7.4851999282836914] [-94.088722229003906:83.598472595214844] [-0.93868166208267212:2.2150776386260986] [0:20] [0:1] [0:26.914485931396484] [0:12.575088500976562] [0:1] [-4.2484350204467773:4.2485289573669434] [9.8900003433227539:80.860000610351562] [-0.19793291389942169:0.19403567910194397] [0.0044642859138548374:0.64118301868438721] [-0.39048272371292114:0.21548017859458923] [-0.94117647409439087:7.5] [0:100] [-0.9941176176071167:3.9238115714263779e-16] [-2.846579241311091e-14:10.096866607666016] [-0.43661969900131226:1.047930121421814] [35.702156066894531:81.139915466308594] [-1.3977905408114021e-14:13.457242965698242] [-2.846579241311091e-14:2.4785220623016357] [-0.12111963331699371:1.8482730388641357] [-0.14984649419784546:1.047930121421814] [-1.8211902379989624:3.9155189990997314] [-0.92941176891326904:1.5405404567718506] [-2.8755677580847433e-14:15.801028251647949] [0:6.8388538360595703] [-22.566097259521484:146.72236633300781] [-0.91794872283935547:1.0042643547058105] [0:1] [0:4.4017691612243652] [0:1.098157525062561] [0:101.94671630859375] [0:724.38958740234375] [0:4.5363407135009766] [0:56.028213500976562] [0:4.9065690040588379] [0:400] [0:1] [0.00055803573923185468:1] [0:1] [0:1] [0:1] [0:1] [0:1] [0:1] [0:1] [0:1] [0.00083705357974395156:0.99944198131561279] [0:1] [0:1] none none none none [0:1] [0:1] [0:1] [0.00055803573923185468:1] [0.00083542190259322524:1] none [-4.0981554985046387:3.7037632465362549] [-18.539806365966797:30.300262451171875] [-17.109245300292969:26.713964462280273] [-2.8738110065460205:24.070302963256836] [-2.9417736530303955:29.630344390869141] [-17.951107025146484:25.049507141113281] [-15.847532272338867:30.927629470825195] [-2.8629717826843262:26.217357635498047] [-4.640317440032959:4.8709721565246582] [-6.0808906555175781:6.6505851745605469] [-1.1665856811376302e-13:341.80810546875] [-0.28181067109107971:0.28206375241279602] [-0.46146976947784424:0.60015493631362915]
tree_sizes=1043 1035 1032 1041 1046 1038 1035 1030 1037 1032 1033 1043 1045 1033 1029 1042 1039 1027 1041 1035 1029 1034 1051

Tree=0
num_leaves=8
num_cat=0
split_feature=58 50 74 71 74 39 17
split_gain=29.6853 14.5931 11.5811 9.61595 8.27691 4.08918 0.714907
threshold=0.16578925400972369 0.53217896819114696 0.2985628098249436 -0.084043636918067918 0.065793097019195571 0.0015102627221494915 52.836275100708015
decision_type=2 2 2 2 2 2 2
left_child=4 3 -3 -2 6 -6 -1
right_child=1 2 -4 -5 5 -7 -8
leaf_value=0.066005422022088617 -0.020582377314720433 0.028251426050266475 -0.00062559927645114671 -0.0020707168632693568 0.0066462224249106468 0.027050434763682164 0.0087652647713884375
leaf_weight=75.102034639130579 1085.6886351688881 288.93388534366386 1367.9698150862823 881.60110292374156 290.69288690762187 418.23200510149763 5.177391091012395
leaf_count=17284 331804 74730 369382 257160 81487 104846 1427
internal_value=0.000401027 -0.00464432 0.00445773 -0.0123048 0.0234906 0.018756 0.0628248
internal_weight=4413.4 3624.19 1656.9 1967.29 789.204 708.925 80.2794
internal_count=1238120 1033076 444112 588964 205044 186333 18711
is_linear=0
shrinkage=0.131703


Tree=1
num_leaves=8
num_cat=0
split_feature=32 64 45 66 64 32 52
split_gain=250.356 49.0586 40.8123 33.5783 23.5405 17.3996 12.7035
threshold=0.0036725690588355069 -1.2896437644958494 0.14995751529932025 -3.5227212905883785 -2.4853827953338619 7.1808226493885754e-05 0.28494380414485937
decision_type=2 2 2 2 2 2 2
left_child=3 6 -3 5 -5 -1 -2
right_child=1 2 -4 4 -6 -7 -8
leaf_value=0.11799547515490763 0.025149672858353855 -0.0015270650106636605 -0.035502368407131106 0.051873290793741554 0.021292519920417318 0.031949264443191759 -0.0044405945207302904
leaf_weight=118.22057368350215 348.15288355090888 821.70100725808879 2418.2094070451567 610.02839682984632 1551.7986845543492 66.251404663082212 882.90534657443641
leaf_count=993 34969 127726 889446 7695 85299 853 90561
internal_value=-0.000119069 -0.0183998 -0.0268964 0.0346915 0.0299902 0.0882373 0.00397409
internal_weight=6817.27 4470.97 3239.91 2346.3 2161.83 184.472 1231.06
internal_count=1237542 1142702 1017172 94840 92994 1846 125530
is_linear=0
shrinkage=0.131703


Tree=2
num_leaves=8
num_cat=0
split_feature=28 69 67 67 52 44 24
split_gain=209.028 88.7349 43.1648 29.0216 17.7662 16.6826 10.1684
threshold=0.0079757827334105986 -0.89602467417716969 2.7390398979187016 0.82673883438110363 0.28875809907913214 0.14983020722866061 0.0064519688021391639
decision_type=2 2 2 2 2 2 2
left_child=2 4 5 -3 -2 -1 -4
right_child=1 3 6 -5 -6 -7 -8
leaf_value=0.043339892020316753 0.031593455841476666 -0.033253962012405699 0.065796067219048807 -0.0059511048966677284 0.00098492221375220002 0.013006133051980463 0.11867099628242057
leaf_weight=704.10980831773486 582.78354286495596 2436.8158121386368 216.49765998113435 936.08054827761953 750.02095079634455 573.49156597960973 102.77732638281304
leaf_count=10070 33970 904526 2819 157120 97987 30968 642
internal_value=-0.000354558 -0.0143288 0.0407675 -0.0256903 0.0144156 0.0297948 0.0838944
internal_weight=6302.58 4705.7 1596.88 3372.9 1332.8 1277.6 319.275
internal_count=1238102 1193603 44499 1061646 131957 41038 3461
is_linear=0
shrinkage=0.131703


Tree=3
num_leaves=8
num_cat=0
split_feature=43 44 25 23 10 33 68
split_gain=186.904 76.6856 47.4314 26.3936 20.2955 14.9305 14.4675
threshold=0.091078083962202086 0.153912328183651 -0.00012577910092659292 0.0058976672589778909 0.13138702511787417 0.017849159426987175 -0.0076619051396846763
decision_type=2 2 2 2 2 2 2
left_child=2 4 6 -3 -2 -4 -1
right_child=1 3 5 -5 -6 -7 -8
leaf_value=-0.015140193179620866 0.035866363518409147 -0.0025308000761796331 0.046715184524970088 -0.035492216217735482 -0.00062539709047352351 0.1038036640767865 0.021017007761249398
leaf_weight=257.11360168032115 375.45660326519283 524.11368307459634 981.71324544015806 2158.285067377321 874.27329910139088 86.334448697045445 730.84964254550869
leaf_count=30284 16436 70529 16744 927852 110612 877 64334
internal_value=0.000301422 -0.0165209 0.0324484 -0.0290634 0.0104056 0.0516465 0.0115873
internal_weight=5988.14 3932.13 2056.01 2682.4 1249.73 1068.05 987.963
internal_count=1237668 1125429 112239 998381 127048 17621 94618
is_linear=0
shrinkage=0.131703


Tree=4
num_leaves=8
num_cat=0
split_feature=42 3 34 42 68 34 42
split_gain=188.381 47.1597 21.6829 16.1108 13.1363 11.6665 6.27355
threshold=0.063197541981935515 -0.051581077277660363 0.0052565634250640878 0.0096261161379516142 -0.12437330558896063 4.8529114948792091e-08 0.0068359375000000009
decision_type=2 2 2 2 2 2 2
left_child=2 5 3 -1 -3 -2 -4
right_child=1 4 6 -5 -6 -7 -8
leaf_value=0.033527896723865087 0.049827684662109649 -0.039145708114545083 0.077021106348517887 0.010619642420409275 -0.019632065074879607 0.00097428310449387628 0.041789625412720542
leaf_weight=1014.7276029491331 92.963398799125571 1285.6727886347217 142.13334328203928 1126.3645772320451 1141.9558732025907 706.29561873275088 276.29035031970125
leaf_count=14788 3757 580559 860 101440 429425 101134 5525
internal_value=0.000272843 -0.0208817 0.0269356 0.0215128 -0.0300071 0.00684475 0.0542849
internal_weight=5786.4 3226.89 2559.52 2141.09 2427.63 799.259 418.424
internal_count=1237488 1114875 122613 116228 1009984 104891 6385
is_linear=0
shrinkage=0.131703


Tree=5
num_leaves=8
num_cat=0
split_feature=65 58 10 32 25 10 61
split_gain=109.695 36.402 29.5064 25.6687 14.7662 13.6013 12.2897
threshold=-1.1037152409553526 0.09924726560711862 0.11540081724524499 0.00018771529721561822 -0.00088379374938085664 0.23741308599710467 0.98465400934219371
decision_type=2 2 2 2 2 2 2
left_child=2 5 6 -3 -4 -2 -1
right_child=1 3 4 -5 -6 -7 -8
leaf_value=0.035903411354630287 0.026255569134528881 0.0058928329566309322 -0.0011655967338343343 -0.02700434572375664 0.025583147854997941 -0.0076656977326760561 0.079094916461589837
leaf_weight=334.42243027954828 435.05155161145376 499.5436815188732 594.74341759737581 2299.8489858711255 894.66115430201171 382.83036459446885 180.53599008428864
leaf_count=8749 19386 27286 66701 1031897 14815 66643 2522
internal_value=-0.000306559 -0.0139981 0.0243842 -0.0211338 0.0149236 0.0104118 0.0514677
internal_weight=5621.64 3617.27 2004.36 2799.39 1489.4 817.882 514.958
internal_count=1237999 1145212 92787 1059183 81516 86029 11271
is_linear=0
shrinkage=0.131703


Tree=6
num_leaves=8
num_cat=0
split_feature=65 45 26 74 32 67 17
split_gain=86.1755 29.2766 19.6891 11.9553 10.7916 6.62973 5.82796
threshold=-0.91129082441329945 0.071492809802293791 -0.10677584633231162 0.018487696535885337 7.1808226493885754e-05 0.84872686862945568 33.867719650268562
decision_type=2 2 2 2 2 2 2
left_child=2 5 6 -3 -4 -2 -1
right_child=1 3 4 -5 -6 -7 -8
leaf_value=0.022507253754211531 0.0049348392307335745 0.00041506958617462192 0.024187783836192512 -0.024047304873609256 0.005107301477937645 0.038589925286367406 0.064232662498256085
leaf_weight=89.82531803578604 429.8876468858798 411.24905418080743 1005.7473633137997 2194.6341191720567 1053.0358909577481 130.0432943936903 192.72751838294789
leaf_count=2587 45595 26454 9699 1027275 114081 6842 5310
internal_value=-0.000161971 -0.014324 0.0189799 -0.0201912 0.0144531 0.0129382 0.0513961
internal_weight=5507.15 3165.81 2341.34 2605.88 2058.78 559.931 282.553
internal_count=1237843 1106166 131677 1053729 123780 52437 7897
is_linear=0
shrinkage=0.131703


Tree=7
num_leaves=8
num_cat=0
split_feature=43 50 23 67 61 29 64
split_gain=60.0964 21.6174 16.305 13.0747 11.8526 10.4771 8.12584
threshold=0.083123952150344863 0.728236883878708 0.0058976672589778909 0.70380985736846935 0.99190849065780651 0.25169941782951361 -1.9378066658973692
decision_type=2 2 2 2 2 2 2
left_child=2 6 4 -3 -1 -4 -2
right_child=1 3 5 -5 -6 -7 -8
leaf_value=0.020879831725633971 0.0034648473334571743 -0.0040879871203860557 -0.013876459659581203 0.029585713412731508 0.0535929425454722 0.014206519547182037 -0.021725474358039645
leaf_weight=877.22513849526877 250.66175167803885 832.94679245282896 331.74112658225931 259.52948481246131 246.47502666665241 735.36057341861306 1889.2430843630573
leaf_count=8908 20238 244699 40683 34238 1341 51367 836467
internal_value=0.000321911 -0.0110878 0.0171473 0.00397874 0.0281961 0.00545947 -0.0187739
internal_weight=5423.18 3232.38 2190.8 1092.48 1123.7 1067.1 2139.9
internal_count=1237941 1135642 102299 278937 10249 92050 856705
is_linear=0
shrinkage=0.131703


Tree=8
num_leaves=8
num_cat=0
split_feature=52 50 73 9 19 19 12
split_gain=45.8387 20.4431 19.5907 13.7833 9.4312 7.28106 4.52097
threshold=0.16248372942209247 0.5247216820716859 -0.24873717129230496 9.3219552040100115 0.63203555345535289 1.4895766377449038 32.815000534057624
decision_type=2 2 2 2 2 2 2
left_child=2 6 3 -1 -3 -4 -2
right_child=1 4 5 -5 -6 -7 -8
leaf_value=0.046845320105039348 -0.018242007785535957 -0.010105334310449552 -0.011016044795494817 0.016952327582859854 0.0061135321884579737 0.051060688217759956 -0.039339561511712917
leaf_weight=397.55164578428958 985.65545480832225 1137.1699814234162 394.55591573310085 825.97344081627671 1364.2073565136525 32.33294548332924 216.55836791184265
leaf_count=14678 431028 371550 119447 65620 134837 1375 98308
internal_value=7.90354e-05 -0.00805546 0.0183122 0.0267689 -0.00126351 -0.00594559 -0.0221433
internal_weight=5354.01 3703.59 1650.41 1223.53 2501.38 426.889 1202.21
internal_count=1236843 1035723 201120 80298 506387 120822 529336
is_linear=0
shrinkage=0.131703


Tree=9
num_leaves=8
num_cat=0
split_feature=47 74 35 50 13 14 64
split_gain=35.3609 21.2856 8.13201 7.21986 7.0056 3.99017 3.9808
threshold=0.099067006260156645 0.15312898904085162 0.78068265318870556 0.89009499549865734 0.039757333695888526 0.5599888563156129 -1.9818888306617735
decision_type=2 2 2 2 2 2 2
left_child=3 2 -2 6 -3 -5 -1
right_child=1 4 -4 5 -6 -7 -8
leaf_value=0.019142333123877517 -0.0060562030912805339 -0.012877409294668751 0.01515482138397361 0.022898696054832361 -0.040325138048550334 0.067443143663388341 0.0014088647863319539
leaf_weight=342.76923116715625 541.91611184168141 2171.1701078285114 735.70235478287213 707.44837868877221 171.99020306597231 34.480881556519307 602.05052568385145
leaf_count=7609 41865 953400 46158 33263 72088 1200 82597
internal_value=-0.000162586 -0.00749905 0.00616564 0.0155691 -0.014948 0.025269 0.00788836
internal_weight=5307.53 3620.78 1277.62 1686.75 2343.16 741.929 944.82
internal_count=1238180 1113511 88023 124669 1025488 34463 90206
is_linear=0
shrinkage=0.131703


Tree=10
num_leaves=8
num_cat=0
split_feature=28 43 60 14 14 3 60
split_gain=27.748 15.654 14.0206 10.4944 7.30437 4.75405 2.70247
threshold=0.026486015878617767 0.0043084884528070697 0.32176525890827185 0.43610490858554846 0.43610490858554846 -0.10359762609004973 0.020069940946996215
decision_type=2 2 2 2 2 2 2
left_child=1 6 5 -3 -4 -2 -1
right_child=2 3 4 -5 -6 -7 -8
leaf_value=0.02672976010670856 0.01403409246023911 0.0023382276942008813 -0.0091429361881745011 0.025208348574880215 -0.026847688833493387 -0.0024579676480743526 0.067023453670543312
leaf_weight=50.70742905093357 395.29914803843712 1156.2961574617075 1171.0600554905541 494.98083987203427 618.86797719012247 1262.4063580790535 94.53389736241661
leaf_count=284 23370 53592 530921 13697 267527 348079 558
internal_value=-0.000318802 0.0129382 -0.00723288 0.00923172 -0.015304 0.00149544 0.0538953
internal_weight=5244.15 1796.52 3447.63 1651.28 1789.93 1657.71 145.241
internal_count=1238028 68131 1169897 67289 798448 371449 842
is_linear=0
shrinkage=0.131703


Tree=11
num_leaves=8
num_cat=0
split_feature=10 47 68 61 51 24 71
split_gain=26.2214 12.7278 8.83946 8.05183 7.22436 4.06573 2.40501
threshold=0.13560777157545092 0.095218036323785796 -0.23188392817974088 0.97572544217109691 0.17968750000000003 0.021951571106910709 0.22063854336738589
decision_type=2 2 2 2 2 2 2
left_child=1 4 6 -3 -1 -4 -2
right_child=2 3 5 -5 -6 -7 -8
leaf_value=0.04628854585483496 -0.020691193868774691 -0.0037326885186963073 -0.003252398653896572 0.025129275628402239 0.017063978809570973 0.025902319479081524 -0.0066079551635415037
leaf_weight=243.24376735900296 734.06848866751534 629.40435859264107 2616.6330306399614 224.78987063287059 379.39244921301724 82.285497881413903 300.28441175661283
leaf_count=4318 370197 145920 567327 6425 12206 4049 127398
internal_value=-0.000430646 0.0144048 -0.0063072 0.00393232 0.0286718 -0.00233181 -0.0166381
internal_weight=5210.1 1476.83 3733.27 854.194 622.636 2698.92 1034.35
internal_count=1237840 168869 1068971 152345 16524 571376 497595
is_linear=0
shrinkage=0.131703


Tree=12
num_leaves=8
num_cat=0
split_feature=68 42 42 25 25 60 25
split_gain=17.9843 8.05016 7.30397 6.93797 5.0232 4.19134 1.67719
threshold=0.18112245202064517 0.6420201063156129 0.0068359375000000009 -0.00035013543674722308 -1.0000000180025095e-35 0.42780265212059027 0.041269699111580856
decision_type=2 2 2 2 2 2 2
left_child=2 3 4 -2 -1 -4 -3
right_child=1 6 5 -5 -6 -7 -8
leaf_value=-0.045006012360929402 0.002375747459311124 -0.0050277974104022466 -0.0038468030837721886 0.016650040394749117 0.016323087406805856 -0.01599411140050918 -0.026090846172896968
leaf_weight=22.041705406038091 1058.4160531815141 372.82572058186634 834.97290883291862 1336.7852079384029 268.01312999369111 1208.411610128358 76.876712179509923
leaf_count=756 147922 131582 269228 74036 4640 580498 29366
internal_value=0.000294762 0.00732019 -0.00826867 0.0103548 0.011192 -0.0110452 -0.00879859
internal_weight=5178.34 2844.9 2333.44 2395.2 290.055 2043.38 449.702
internal_count=1238028 382906 855122 221958 5396 849726 160948
is_linear=0
shrinkage=0.131703


Tree=13
num_leaves=8
num_cat=0
split_feature=52 44 36 67 34 28 13
split_gain=21.0303 14.0437 7.17351 5.7318 5.31221 5.5316 4.52168
threshold=0.16248372942209247 0.0828852914273739 0.084605727344751372 2.1570913791656499 0.022187648341059688 0.015949739143252376 0.039757333695888526
decision_type=2 2 2 2 2 2 2
left_child=1 2 -1 -3 6 -6 -2
right_child=4 3 -4 -5 5 -7 -8
leaf_value=-0.0079697662278454418 -0.0055255149542000077 -0.0048307031755537256 0.029298622152687501 0.020210266412476835 0.056785841479747752 -0.0092129075598654259 -0.025513488622506568
leaf_weight=101.18408232415095 3145.8794377949962 713.27033123216825 699.97697068715934 200.18343692115741 43.727953286957927 39.786057162040379 206.4019627024536
leaf_count=3512 962457 177409 13075 7332 413 3480 70147
internal_value=-9.3337e-06 0.01189 0.0245777 0.00071173 -0.0059536 0.0262162 -0.00678098
internal_weight=5150.41 1714.61 801.161 913.454 3435.8 83.514 3352.28
internal_count=1237825 201328 16587 184741 1036497 3893 1032604
is_linear=0
shrinkage=0.131703


Tree=14
num_leaves=8
num_cat=0
split_feature=10 43 68 14 6 12 1
split_gain=14.2383 8.24063 7.52415 6.45554 5.03439 4.87422 4.70245
threshold=0.055456958711147315 0.027667771093547348 -0.1178155057132244 0.39648437500000006 1.7134873867034914 33.05999946594239 -0.100000012665987
decision_type=2 2 2 2 2 2 2
left_child=1 4 5 -3 -1 -2 -4
right_child=2 3 6 -5 -6 -7 -8
leaf_value=0.050313188827220426 -0.0072699394475242178 -0.005240366010144615 0.016985254545734903 0.02311036517229292 0.0060307095762705525 -0.028350377733341384 -0.0007345679578904796
leaf_weight=157.42648541543167 1142.096598000091 298.09911094268318 284.12773745879531 256.46050608239602 63.006811572937295 226.03423980629304 2687.3368530274602
leaf_count=1763 521500 39175 8308 28368 714 108883 529142
internal_value=0.000194116 0.0165969 -0.00274592 0.00793161 0.037942 -0.0108148 0.000977292
internal_weight=5114.59 774.993 4339.6 554.56 220.433 1368.13 2971.46
internal_count=1237853 70020 1167833 67543 2477 630383 537450
is_linear=0
shrinkage=0.131703


Tree=15
num_leaves=8
num_cat=0
split_feature=52 36 35 32 35 52 12
split_gain=12.4321 10.4982 8.47581 4.25794 3.80769 3.1252 1.41619
threshold=0.075422603636980071 0.13097585737705233 0.76395198702812206 0.9272960126399995 0.00032853179436642682 1.0000000180025095e-35 26.355000495910648
decision_type=2 2 2 2 2 2 2
left_child=1 5 -3 4 -2 -1 -5
right_child=3 2 -4 6 -6 -7 -8
leaf_value=-0.049495943459957406 0.033701609136457082 0.011291648631181761 0.042017317892781479 -0.014579392287189442 -0.0029246131578793614 -0.0023521164918302259 -0.041208512051098545
leaf_weight=23.059349254530389 46.464661134639755 441.88096856611082 240.33395267341984 105.6500676771393 3871.8663285269286 315.26314320770325 53.550097277329769
leaf_count=1235 4696 33514 4739 49639 1064597 54341 25243
internal_value=-7.46097e-05 0.0129006 0.0222716 -0.00333023 -0.00246125 -0.00602884 -0.0242157
internal_weight=5098.07 1020.54 682.215 4077.53 3918.33 338.322 159.2
internal_count=1238004 93829 38253 1144175 1069293 55576 74882
is_linear=0
shrinkage=0.131703


Tree=16
num_leaves=8
num_cat=0
split_feature=10 65 9 4 68 19 60
split_gain=8.82313 8.50771 5.08414 4.8079 3.74254 3.71372 2.18591
threshold=0.083368796855211272 -1.5602765679359434 10.565331459045412 -13.20839214324951 0.22160119563341144 0.83589899539947521 0.34140871465206152
decision_type=2 2 2 2 2 2 2
left_child=1 2 -1 -3 6 -6 -2
right_child=4 3 -4 -5 5 -7 -8
leaf_value=0.030098243573796934 -0.00086281076680535976 0.010536015469997302 -0.027144213605609126 -0.01033723578929752 -0.0041370159723239826 0.0070948752574864788 -0.010692393966108597
leaf_weight=352.35618085472379 571.27845094015356 459.07240683294367 26.507179685751908 323.22743973345496 1226.6748642659513 869.60701307712588 1254.7826625768212
leaf_count=3822 186043 26673 472 73630 285654 51557 610520
internal_value=-0.000285446 0.00978197 0.0258859 0.00190402 -0.00327175 0.000526226 -0.00762469
internal_weight=5083.51 1161.16 378.863 782.3 3922.34 2096.28 1826.06
internal_count=1238371 104597 4294 100303 1133774 337211 796563
is_linear=0
shrinkage=0.131703


Tree=17
num_leaves=8
num_cat=0
split_feature=44 59 35 4 2 73 68
split_gain=7.36399 9.50233 5.53801 4.15073 3.77885 3.2414 3.14978
threshold=0.016644794493913654 0.076853115111589446 2.7795710563659672 -33.034700393676751 0.084164831787347807 -2.056074738502502 3.2145590782165532
decision_type=2 2 2 2 2 2 2
left_child=1 3 4 -1 -2 -4 -3
right_child=2 6 5 -5 -6 -7 -8
leaf_value=0.0084010348217086629 -0.00272956719763449 0.020556260902022255 0.068209512950549347 -0.019744687057407749 -0.02289022454206285 0.012575751117752922 0.050869599040573393
leaf_weight=245.20219864841783 3976.9930795356049 236.25968927756185 16.973914378264453 139.86927989270771 164.7754223740194 198.09992151311599 81.154700025799684
leaf_count=6226 1147251 8061 385 4258 58781 11640 1520
internal_value=-0.000454392 0.0120254 -0.00247449 -0.00190565 -0.00354989 0.0179658 0.0287666
internal_weight=5059.33 702.486 4356.84 385.071 4141.77 215.074 317.414
internal_count=1238122 20065 1218057 10484 1206032 12025 9581
is_linear=0
shrinkage=0.131703


Tree=18
num_leaves=8
num_cat=0
split_feature=10 11 43 13 29 51 48
split_gain=8.64627 6.40307 6.87562 5.86977 5.79131 3.97611 2.70287
threshold=0.055456958711147315 -2.8036105632781978 0.0043084884528070697 0.014684726949781181 0.53196206688880932 0.013392857275903227 0.93383905291557323
decision_type=2 2 2 2 2 2 2
left_child=3 6 -3 5 -5 -1 -2
right_child=1 2 -4 4 -6 -7 -8
leaf_value=0.044461020449566332 0.00060438499228883391 0.021193684043302737 -0.0030244875507782999 0.015458000890296249 0.057236186763445954 0.00095366823538671952 -0.051323648847613229
leaf_weight=35.779349359043408 23.587613564101048 211.11797055619536 3898.8885515356087 216.14347319665831 77.203121426922735 519.62243691040203 61.816616420750506
leaf_count=1620 5329 3091 1155669 19202 1424 47841 3969
internal_value=-6.66687e-05 -0.00252148 -0.00176385 0.0120288 0.0269865 0.0040116 -0.0375085
internal_weight=5044.16 4195.41 4110.01 848.748 293.347 555.402 85.4042
internal_count=1238145 1168058 1158760 70087 20626 49461 9298
is_linear=0
shrinkage=0.131703


Tree=19
num_leaves=8
num_cat=0
split_feature=10 1 47 1 71 71 64
split_gain=7.33832 6.52496 5.85961 3.44772 4.78043 2.95892 2.75843
threshold=0.055456958711147315 -0.062466185539960854 0.079330343753099455 -0.100000012665987 -0.76912075281143177 0.045432355254888541 -0.59161248803138722
decision_type=2 2 2 2 2 2 2
left_child=1 6 -3 4 -2 -5 -1
right_child=3 2 -4 5 -6 -7 -8
leaf_value=0.043384583032660747 0.056232162638788399 0.020616032566858154 -0.0037258878169272943 -0.0069282102634566694 0.0045294307030920552 0.00053368709068833285 -0.005074948522373438
leaf_weight=120.78385575272841 31.841336941346526 266.71614037588006 467.66573290067026 2346.2457033506362 264.87669552472653 1516.0160735973623 23.563785681908485
leaf_count=1278 681 5967 62347 753470 8420 405585 448
internal_value=-0.0006356 0.0102763 0.00516905 -0.00294772 0.0106556 -0.00400134 0.0355383
internal_weight=5037.71 878.73 734.382 4158.98 296.718 3862.26 144.348
internal_count=1238196 70040 68314 1168156 9101 1159055 1726
is_linear=0
shrinkage=0.131703


Tree=20
num_leaves=8
num_cat=0
split_feature=44 30 0 9 28 53 73
split_gain=6.39836 7.5349 3.15293 3.20174 2.75193 2.70681 2.10122
threshold=0.016644794493913654 1.2104224562644961 0.99047672748565685 8.7012181282043475 0.0079757827334105986 0.0044345906935632238 -1.7755332589149473
decision_type=2 2 2 2 2 2 2
left_child=1 4 3 -2 -1 -3 -4
right_child=2 5 6 -5 -6 -7 -8
leaf_value=0.052494065444541847 0.022026437465192981 -0.028885461165038439 0.030342806595919349 -0.0020032909868800165 0.01862530468524233 0.006210177623098799 -0.028147663087363155
leaf_weight=79.833395901951008 95.095938000536989 37.694400989916176 8.9757921868003887 4073.8557414474781 95.28180450911168 527.12000156752765 109.04147579963319
leaf_count=723 11237 1056 494 1157899 4411 13839 47707
internal_value=-9.36711e-05 0.0111871 -0.00204813 -0.00143752 0.0347762 0.00370798 -0.0229688
internal_weight=5026.9 739.93 4286.97 4168.95 175.115 564.814 118.017
internal_count=1237366 20029 1217337 1169136 5134 14895 48201
is_linear=0
shrinkage=0.131703


Tree=21
num_leaves=8
num_cat=0
split_feature=10 50 60 42 73 48 44
split_gain=5.78653 5.45892 5.72067 5.27386 2.2189 3.50144 3.3791
threshold=0.31606680154800421 0.99247136712074291 0.051374521106481559 0.028041294775903228 -1.1774751543998716 0.024718818254768852 0.0083701466210186499
decision_type=2 2 2 2 2 2 2
left_child=1 3 -3 -1 5 -2 -6
right_child=4 2 -4 -5 6 -7 -8
leaf_value=0.010940530831859601 0.035571466310889484 0.0077904489137826461 0.063158720362733581 -0.0018156233117394326 0.031106931430468932 -0.013049477390933427 -0.0030168690045768816
leaf_weight=909.55428888200549 23.58044785936363 81.962117772840429 51.337860414816532 1461.0786027329159 48.35070483002346 613.08461902983254 1830.509376453876
leaf_count=22039 1377 2050 1609 366236 1416 94014 749082
internal_value=8.88183e-05 0.00456781 0.0301618 0.00308724 -0.00436961 -0.011068 -0.00208373
internal_weight=5019.46 2503.93 133.3 2370.63 2515.53 636.665 1878.86
internal_count=1237823 391934 3659 388275 845889 95391 750498
is_linear=0
shrinkage=0.131703


Tree=22
num_leaves=8
num_cat=0
split_feature=29 52 61 15 75 59 11
split_gain=5.87395 6.85477 6.03398 4.82662 3.73005 3.02042 2.23162
threshold=0.33522419631481176 0.51003494858741771 0.99525669217109691 -0.066121615469455705 -0.14250647276639936 1.0000000180025095e-35 -2.5330536365509029
decision_type=2 2 2 2 2 2 2
left_child=4 2 -2 -3 6 -6 -1
right_child=1 3 -4 -5 5 -7 -8
leaf_value=-0.062861608774669453 0.0082230630293953517 0.0092545872907060373 0.037335500273303762 -0.014088896173940048 -0.048587134844421787 -0.0019112804711872071 -0.016495956321511674
leaf_weight=19.068331336369738 1212.9278661521967 244.54994223185349 134.66155575506855 401.63535267236875 20.841969032248016 2856.6350618700963 116.44150448543951
leaf_count=2435 103234 60576 1681 55904 1330 1001773 10925
internal_value=0.000341117 0.00588107 0.0112194 -0.00525203 -0.00332728 -0.00230668 -0.0244079
internal_weight=5006.76 1993.77 1347.59 646.185 3012.99 2877.48 135.51
internal_count=1237858 221395 104915 116480 1016463 1003103 13360
is_linear=0
shrinkage=0.131703


end of trees

feature_importances:
Column_10=9
Column_52=7
Column_68=7
Column_42=6
Column_44=6
Column_25=5
Column_32=5
Column_43=5
Column_50=5
Column_60=5
Column_64=5
Column_67=5
Column_14=4
Column_28=4
Column_35=4
Column_61=4
Column_71=4
Column_73=4
Column_74=4
Column_1=3
Column_9=3
Column_12=3
Column_13=3
Column_19=3
Column_29=3
Column_34=3
Column_47=3
Column_65=3
Column_3=2
Column_4=2
Column_11=2
Column_17=2
Column_23=2
Column_24=2
Column_36=2
Column_45=2
Column_48=2
Column_51=2
Column_58=2
Column_59=2
Column_0=1
Column_2=1
Column_6=1
Column_15=1
Column_26=1
Column_30=1
Column_33=1
Column_39=1
Column_53=1
Column_66=1
Column_69=1
Column_75=1

parameters:
[boosting: gbdt]
[objective: lambdarank]
[metric: ndcg]
[tree_learner: serial]
[device_type: cpu]
[data_sample_strategy: bagging]
[data: ]
[valid: ]
[num_iterations: 297]
[learning_rate: 0.131703]
[num_leaves: 92]
[num_threads: 15]
[seed: 0]
[deterministic: 0]
[force_col_wise: 0]
[force_row_wise: 0]
[histogram_pool_size: -1]
[max_depth: 3]
[min_data_in_leaf: 183]
[min_sum_hessian_in_leaf: 0.001]
[bagging_fraction: 0.882902]
[pos_bagging_fraction: 1]
[neg_bagging_fraction: 1]
[bagging_freq: 1]
[bagging_seed: 6]
[bagging_by_query: 0]
[feature_fraction: 0.413365]
[feature_fraction_bynode: 1]
[feature_fraction_seed: 6]
[extra_trees: 0]
[extra_seed: 6]
[early_stopping_round: 0]
[early_stopping_min_delta: 0]
[first_metric_only: 0]
[max_delta_step: 0]
[lambda_l1: 0.0013242]
[lambda_l2: 3.4186]
[linear_lambda: 0]
[min_gain_to_split: 0]
[drop_rate: 0.1]
[max_drop: 50]
[skip_drop: 0.5]
[xgboost_dart_mode: 0]
[uniform_drop: 0]
[drop_seed: 4]
[top_rate: 0.2]
[other_rate: 0.1]
[min_data_per_group: 100]
[max_cat_threshold: 32]
[cat_l2: 10]
[cat_smooth: 10]
[max_cat_to_onehot: 4]
[top_k: 20]
[monotone_constraints: ]
[monotone_constraints_method: basic]
[monotone_penalty: 0]
[feature_contri: ]
[forcedsplits_filename: ]
[refit_decay_rate: 0.9]
[cegb_tradeoff: 1]
[cegb_penalty_split: 0]
[cegb_penalty_feature_lazy: ]
[cegb_penalty_feature_coupled: ]
[path_smooth: 0]
[interaction_constraints: ]
[verbosity: -1]
[saved_feature_importance_type: 0]
[use_quantized_grad: 0]
[num_grad_quant_bins: 4]
[quant_train_renew_leaf: 0]
[stochastic_rounding: 1]
[linear_tree: 0]
[max_bin: 255]
[max_bin_by_feature: ]
[min_data_in_bin: 3]
[bin_construct_sample_cnt: 200000]
[data_random_seed: 6]
[is_enable_sparse: 1]
[enable_bundle: 1]
[use_missing: 1]
[zero_as_missing: 0]
[feature_pre_filter: 1]
[pre_partition: 0]
[two_round: 0]
[header: 0]
[label_column: ]
[weight_column: ]
[group_column: ]
[ignore_column: ]
[categorical_feature: ]
[forcedbins_filename: ]
[precise_float_parser: 0]
[parser_config_file: ]
[objective_seed: 5]
[num_class: 1]
[is_unbalance: 0]
[scale_pos_weight: 1]
[sigmoid: 1]
[boost_from_average: 1]
[reg_sqrt: 0]
[alpha: 0.9]
[fair_c: 1]
[poisson_max_delta_step: 0.7]
[tweedie_variance_power: 1.5]
[lambdarank_truncation_level: 30]
[lambdarank_norm: 1]
[label_gain: ]
[lambdarank_position_bias_regularization: 0]
[eval_at: 1]
[multi_error_top_k: 1]
[auc_mu_weights: ]
[num_machines: 1]
[local_listen_port: 12400]
[time_out: 120]
[machine_list_filename: ]
[machines: ]
[gpu_platform_id: -1]
[gpu_device_id: -1]
[gpu_use_dp: 0]
[num_gpu: 1]

end of parameters

pandas_categorical:null
