tree
version=v4
num_class=1
num_tree_per_iteration=1
label_index=0
max_feature_idx=76
objective=lambdarank
feature_names=Column_0 Column_1 Column_2 Column_3 Column_4 Column_5 Column_6 Column_7 Column_8 Column_9 Column_10 Column_11 Column_12 Column_13 Column_14 Column_15 Column_16 Column_17 Column_18 Column_19 Column_20 Column_21 Column_22 Column_23 Column_24 Column_25 Column_26 Column_27 Column_28 Column_29 Column_30 Column_31 Column_32 Column_33 Column_34 Column_35 Column_36 Column_37 Column_38 Column_39 Column_40 Column_41 Column_42 Column_43 Column_44 Column_45 Column_46 Column_47 Column_48 Column_49 Column_50 Column_51 Column_52 Column_53 Column_54 Column_55 Column_56 Column_57 Column_58 Column_59 Column_60 Column_61 Column_62 Column_63 Column_64 Column_65 Column_66 Column_67 Column_68 Column_69 Column_70 Column_71 Column_72 Column_73 Column_74 Column_75 Column_76
feature_infos=[-3.4016211613967229e-13:1] [-0.68571430444717407:1.7142857313156128] [-0.83333331346511841:5] [-0.77822226285934448:5.036048412322998] [-92.975875854492188:84.995880126953125] [-0.77272725105285645:1.9520294666290283] [0:20] [0:1] [0:18.30817985534668] [0:12.575088500976562] [0:1] [-4.2485289573669434:4.2485289573669434] [0:45.080001831054688] [-0.11716022342443466:0.13746151328086853] [0:0.49553570151329041] [-0.26541224122047424:0.14628179371356964] [-0.83333331346511841:5] [0:100] [-0.97800689935684204:3.6657378377547337e-16] [-4.7682689773616976e-14:8.7817182540893555] [-0.65789473056793213:0.90000003576278687] [0:78.378364562988281] [-5.154294078677478e-14:9.1540899276733398] [-4.7682689773616976e-14:2.2872955799102783] [-0.058858074247837067:1.5428571701049805] [-0.12115385383367538:0.90000003576278687] [-6.1482396125793457:10.890107154846191] [-0.62201154232025146:2.5] [-2.7079833059100167e-13:20] [0:11.341572761535645] [-19.309206008911133:290.62371826171875] [-0.60304021835327148:1.1731749773025513] [0:1] [0:2.9387753009796143] [0:0.81000012159347534] [0:77.118583679199219] [0:335.18948364257812] [0:25] [0:25.361782073974609] [0:3.8104190826416016] [0:400] [0:1] [0.00055803573923185468:1] [0:1] [0:1] [0:1] [0:1] [0:1] [0:1] [0:0.99935978651046753] [0:1] [0.00083705357974395156:0.99944198131561279] [0:1] [0:1] [0:0.5002790093421936] none none none [0:1] [0:1] [0:1] [0.00055803573923185468:1] [0.00098039221484214067:1] [0:0.5002790093421936] [-3.0737531185150146:3.2357690334320068] [-20.045894622802734:29.195493698120117] [-19.133153915405273:26.005153656005859] [-2.6583907604217529:26.657604217529297] [-2.0456628799438477:25.340913772583008] [-18.241430282592773:27.840791702270508] [-14.91118049621582:29.552709579467773] [-2.0430212020874023:23.781776428222656] [-3.5394015312194824:3.515784740447998] [-4.2918806076049805:4.4268369674682617] [-3.4633316180199269e-12:309.741943359375] [-0.2845899760723114:0.28661203384399414] [-0.50451594591140747:0.56177526712417603]
tree_sizes=1032 1038 1037 1034 1033 1034 1035 1036 1039 1037 1035 1032 1029 1023 1047 1036

Tree=0
num_leaves=8
num_cat=0
split_feature=65 48 0 45 52 18 52
split_gain=39.7075 18.0536 13.2514 12.4138 9.88904 6.96357 2.64687
threshold=-0.48925474286079401 0.85470083355903637 0.86746898293495189 0.060621121898293502 0.68652108311653148 -0.52387794852256764 0.91039037704467785
decision_type=2 2 2 2 2 2 2
left_child=3 2 -2 6 -5 -3 -1
right_child=1 5 -4 4 -6 -7 -8
leaf_value=0.064544198486359131 -0.0063259200347613419 0.083412747935362422 -0.027937746919613558 0.027653716374449917 -0.001693945023697178 0.01347722860412722 0.02066572873937924
leaf_weight=126.65579174639424 2168.1027690987976 23.167569354380248 634.46749774631462 499.73095691108028 328.99759947994608 394.73714422376361 34.356357186363311
leaf_count=28094 530865 4876 157521 119852 64161 98107 6957
internal_value=-0.000343345 -0.00743639 -0.0112467 0.0226824 0.0160437 0.018 0.0558069
internal_weight=4210.22 3220.47 2802.57 989.741 828.729 417.905 161.012
internal_count=1010433 791369 688386 219064 184013 102983 35051
is_linear=0
shrinkage=0.131703


Tree=1
num_leaves=8
num_cat=0
split_feature=58 50 32 48 48 42 33
split_gain=332.487 59.9301 23.8033 21.7407 18.4911 10.3179 8.61557
threshold=0.080435864627361311 0.56916546821594249 0.0092725805006921309 0.85470083355903637 0.86645799875259411 0.095703125000000014 0.0055258062202483424
decision_type=2 2 2 2 2 2 2
left_child=2 5 6 -3 -4 -2 -1
right_child=1 3 4 -5 -6 -7 -8
leaf_value=0.048824703104232314 -0.021928370958986788 -0.021095127534986088 0.017034474195322953 0.0070992177074084648 0.043728724607764238 -0.046455330640001978 0.085167778437578084
leaf_weight=589.48815386655042 383.87746493751183 1038.9223173257778 1062.3922217256622 868.2147904363228 787.48770801408682 1483.9663511125254 149.22428543621209
leaf_count=14201 95159 313753 48986 52048 16494 467045 2631
internal_value=0.000204122 -0.0247169 0.0365315 -0.00826996 0.0284579 -0.0414639 0.056525
internal_weight=6363.57 3774.98 2588.59 1907.14 1849.88 1867.84 738.712
internal_count=1010317 928005 82312 365801 65480 562204 16832
is_linear=0
shrinkage=0.131703


Tree=2
num_leaves=8
num_cat=0
split_feature=16 38 18 65 65 61 14
split_gain=335.825 59.9694 33.314 29.4897 29.363 22.0105 7.63141
threshold=-0.033713264390826218 0.008132202550768854 -0.52387794852256764 -0.58947473764419545 -0.96368455886840809 0.92661830782890331 0.29938615858554846
decision_type=2 2 2 2 2 2 2
left_child=1 3 6 -1 -4 -3 -2
right_child=2 5 4 -5 -6 -7 -8
leaf_value=0.021493774122055477 -0.020568029112930371 0.029631751604311678 0.0083884964988757364 -0.017421891484160876 -0.044663805418229889 0.060534105694057566 0.023783202740735504
leaf_weight=1173.2296042350936 103.23942548583727 769.80198814696632 196.48618978162995 470.81135607993929 2149.1199249408091 857.57846789329778 179.63728070765501
leaf_count=50825 13987 23865 39587 98198 757212 9833 17172
internal_value=-4.11688e-05 0.0281114 -0.0350711 0.0103362 -0.0402139 0.0460092 0.00754373
internal_weight=5899.9 3271.42 2628.48 1644.04 2345.61 1627.38 282.877
internal_count=1010679 182721 827958 149023 796799 33698 31159
is_linear=0
shrinkage=0.131703


Tree=3
num_leaves=8
num_cat=0
split_feature=45 32 47 62 48 74 43
split_gain=330.202 39.0869 24.5551 24.413 13.0525 9.0893 3.79226
threshold=0.076474383473396315 0.0040498715825378903 0.016551154665648941 0.0044568260200321683 0.85082238912582409 1.2255474925041201 0.95754685997962963
decision_type=2 2 2 2 2 2 2
left_child=1 3 -3 -1 5 -2 -6
right_child=4 2 -4 -5 6 -7 -8
leaf_value=0.08953657742324965 -0.028791923252916966 0.040573269183563361 0.0082815875371970073 0.039600576805949743 -0.021469886617481088 -0.04651780286238328 0.0051761487853091391
leaf_weight=211.41481713042594 914.56311753956834 588.54432260897011 1325.7602536143386 889.41052571334876 381.44895382723189 1186.5868269547937 120.48063197254669
leaf_count=1031 325849 12871 53029 11522 110419 476759 18752
internal_value=3.71982e-05 0.0296891 0.0182642 0.0494385 -0.0343023 -0.0388617 -0.0150818
internal_weight=5618.21 3015.13 1914.3 1100.83 2603.08 2101.15 501.93
internal_count=1010232 78453 65900 12553 931779 802608 129171
is_linear=0
shrinkage=0.131703


Tree=4
num_leaves=8
num_cat=0
split_feature=69 43 74 50 74 43 47
split_gain=206.969 34.7981 19.1729 15.8383 14.5405 13.1334 10.0329
threshold=-0.98721590638160694 0.084456004202365889 0.22273146361112597 0.52582940459251415 0.22273146361112597 0.0085561596788465994 0.02052611950784922
decision_type=2 2 2 2 2 2 2
left_child=2 4 5 -3 -2 -1 -4
right_child=1 3 6 -5 -6 -7 -8
leaf_value=0.056256943620770328 0.032806724646043041 -0.039732612592050374 0.030147874217504832 -0.018641817298702651 -0.016113852170561369 0.028729300414920972 0.0054751288796246909
leaf_weight=476.86698969907593 235.24569388345117 1290.0456896840478 482.64206142630428 1203.5354396037292 185.87322782818228 850.55229041376151 698.87981158972252
leaf_count=3494 18223 508619 8296 365404 29309 21811 54923
internal_value=0.000173109 -0.0236841 0.0278833 -0.0295926 0.0112579 0.0387377 0.0156118
internal_weight=5423.64 2914.7 2508.94 2493.58 421.119 1327.42 1181.52
internal_count=1010079 921555 88524 874023 47532 25305 63219
is_linear=0
shrinkage=0.131703


Tree=5
num_leaves=8
num_cat=0
split_feature=45 0 62 38 61 18 8
split_gain=170.052 22.3879 14.4962 13.388 7.44914 4.0471 3.1551
threshold=0.076474383473396315 0.017725349403917793 0.016638941131532196 0.0090257860720157641 0.85128349065780651 -0.20309402793645856 0.24844155460596087
decision_type=2 2 2 2 2 2 2
left_child=1 2 -1 -3 5 -2 -6
right_child=4 3 -4 -5 6 -7 -8
leaf_value=0.061984996181777836 -0.019692756089917159 0.0024771357644952229 0.024655303129235705 0.023525031455710822 -0.024829791591219782 -0.033729325745223401 -0.0044389368551175446
leaf_weight=330.91753076284658 517.50826463353587 879.80875238578301 409.10921165288892 1296.7495698350249 210.63321502419421 1294.0534620021936 346.84981410787441
leaf_count=1895 191401 44858 5971 25564 85032 536861 118821
internal_value=0.000525235 0.0218047 0.0415565 0.0150344 -0.025666 -0.0297642 -0.0122479
internal_weight=5285.63 2916.59 740.027 2176.56 2369.04 1811.56 557.483
internal_count=1010403 78288 7866 70422 932115 728262 203853
is_linear=0
shrinkage=0.131703


Tree=6
num_leaves=8
num_cat=0
split_feature=58 34 52 27 68 12 66
split_gain=105.72 18.0979 11.0079 10.9187 8.53367 5.17324 3.73883
threshold=0.072523280978202834 0.0079179843887686747 0.70600101351737987 -0.01192967453971505 -0.34257610142230982 16.840000152587894 -0.71792784333229054
decision_type=2 2 2 2 2 2 2
left_child=1 2 -1 -3 5 -2 -6
right_child=4 3 -4 -5 6 -7 -8
leaf_value=0.020270586125866717 -0.018059385917447313 0.013582843419250678 0.0021351748053746234 0.057826271191270942 -5.8867035817455822e-06 -0.03806291114765839 -0.017142770175369325
leaf_weight=1437.7363422633498 389.19377577310661 152.19169528025668 973.70756112341769 275.32829774997663 275.99776430230122 563.30535008886363 1101.9042575197527
leaf_count=40400 176770 1838 30341 1713 87211 237345 434762
internal_value=0.000371231 0.0174264 0.0129612 0.0423093 -0.0204009 -0.0299834 -0.0137188
internal_weight=5169.37 2838.96 2411.44 427.52 2330.4 952.499 1377.9
internal_count=1010380 74292 70741 3551 936088 414115 521973
is_linear=0
shrinkage=0.131703


Tree=7
num_leaves=8
num_cat=0
split_feature=43 28 43 10 50 6 47
split_gain=62.3 17.1761 12.9622 12.1953 10.2506 5.35783 4.86908
threshold=0.12336627766489984 0.023433326743543152 0.0044370507821440705 0.47787165641784674 0.70238715410232555 1.4014352560043337 0.0044321343302726754
decision_type=2 2 2 2 2 2 2
left_child=1 2 -1 -3 5 -2 -6
right_child=4 3 -4 -5 6 -7 -8
leaf_value=0.066654005458917961 -0.024404073109266913 0.021429294072552264 0.022556335219055756 -0.0013602452185023683 0.029420477430650356 -0.0045639912573962717 -0.0064206990327640556
leaf_weight=141.44721557712182 1348.8256445307634 652.50868771655951 613.53348953451496 1073.5088040380506 67.520769710245077 288.24106125562685 901.92545334104216
leaf_count=893 563128 38159 22461 62424 1868 94623 226983
internal_value=-0.000372006 0.0145561 0.0310816 0.00728041 -0.0145818 -0.0209277 -0.00382961
internal_weight=5087.51 2481 754.981 1726.02 2606.51 1637.07 969.446
internal_count=1010539 123937 23354 100583 886602 657751 228851
is_linear=0
shrinkage=0.131703


Tree=8
num_leaves=8
num_cat=0
split_feature=58 58 51 11 50 0 21
split_gain=44.8147 12.0614 16.0473 10.3991 6.0611 3.88643 2.35938
threshold=0.12324486672878267 0.0087863840162754076 0.67885044217109691 -3.3586038351058956 0.3318657130002976 0.74575936794281017 44.439426422119148
decision_type=2 2 2 2 2 2 2
left_child=1 2 -1 -3 6 -6 -2
right_child=4 3 -4 -5 5 -7 -8
leaf_value=0.037017577455015958 -0.035611177575823418 -0.04686521856480063 -0.0082781771371486217 0.0071337611440295172 -0.0049346845634539276 -0.019987489405777693 -0.019161622285851651
leaf_weight=522.32518266397528 233.26307098846883 60.29444653284736 181.37113450607285 2167.9620861340081 944.71776830230374 433.1916601669509 480.44534892018419
leaf_count=6918 104049 1485 3133 113949 373505 182946 223585
internal_value=-0.000133266 0.0103687 0.0253592 0.00560297 -0.0148475 -0.00970492 -0.0246822
internal_weight=5023.57 2931.95 703.696 2228.26 2091.62 1377.91 713.708
internal_count=1009570 125485 10051 115434 884085 556451 327634
is_linear=0
shrinkage=0.131703


Tree=9
num_leaves=8
num_cat=0
split_feature=26 70 5 11 15 68 13
split_gain=31.8876 10.0883 7.66716 7.30562 6.54405 4.72268 3.48241
threshold=-0.006982002640143036 -2.1747117042541499 -0.072992656379938112 -1.9750788807868955 0.079566396772861495 -0.5311341881752013 -0.0011117936810478566
decision_type=2 2 2 2 2 2 2
left_child=1 4 6 -3 -1 -4 -2
right_child=2 3 5 -5 -6 -7 -8
leaf_value=0.01740692741506214 -0.0060096408593584612 -0.026156102646455796 -0.022808614503080919 0.0072181926872485471 0.049431415973363174 -0.0091563647396296424 0.018377772233149063
leaf_weight=779.93460877821781 190.12376393505838 121.27312466670992 600.62716457119677 1302.700498995604 127.68574319500476 1651.8680221912218 211.47517168230843
leaf_count=8799 24252 9135 265412 117959 1171 570737 13208
internal_value=2.70459e-05 0.011256 -0.00983923 0.0043199 0.022081 -0.0128259 0.00687865
internal_weight=4985.69 2331.59 2654.09 1423.97 907.62 2252.5 401.599
internal_count=1010673 137064 873609 127094 9970 836149 37460
is_linear=0
shrinkage=0.131703


Tree=10
num_leaves=8
num_cat=0
split_feature=1 44 53 10 42 46 0
split_gain=30.4068 10.1534 7.96865 6.22234 5.83732 5.80945 3.83421
threshold=-0.049511181190609925 0.1905007138848305 0.0085151698440313357 0.50126421451568615 0.014369419310241939 0.0089129419066011923 0.069565687328577056
decision_type=2 2 2 2 2 2 2
left_child=2 3 5 -2 -4 -1 -3
right_child=1 6 4 -5 -6 -7 -8
leaf_value=0.022373301208642275 0.010168828175580371 0.0043144591737831429 0.045725605156056136 -0.0053791480451736108 0.01831852623631414 -0.037674494472118826 -0.013820621129968291
leaf_weight=43.309574239188805 832.13292517280206 226.43906592018902 158.96845484059304 955.61811858392321 878.47968906845199 67.263764488627203 1782.604342081002
leaf_count=503 76968 68383 1602 94731 23632 1860 743005
internal_value=0.000325082 -0.00535609 0.0190744 0.00186337 0.0226547 -0.0141877 -0.0117727
internal_weight=4944.82 3796.79 1148.02 1787.75 1037.45 110.573 2009.04
internal_count=1010684 983087 27597 171699 25234 2363 811388
is_linear=0
shrinkage=0.131703


Tree=11
num_leaves=8
num_cat=0
split_feature=74 33 40 52 69 52 4
split_gain=19.712 7.90829 9.86842 6.26553 9.51551 3.89249 2.99187
threshold=0.24697525799274447 0.0075709056109189996 11.39644241333008 0.48572833836078649 -1.412781774997711 0.74529287219047557 -45.252571105957024
decision_type=2 2 2 2 2 2 2
left_child=1 5 -3 4 -2 -1 -5
right_child=3 2 -4 6 -6 -7 -8
leaf_value=0.010103280881383302 0.017815766355221471 0.038265574632530851 -0.008816664551906505 0.0032498169562321009 -0.00687114069249215 -0.0047077951210152229 -0.014753585713483858
leaf_weight=1001.8317641692702 355.86512710014358 301.3036910421215 101.9229307717178 179.10766621917719 1096.6425030574901 441.17424012819538 1421.9993853984051
leaf_count=99429 10025 4200 988 6987 412569 35964 440313
internal_value=-0.000570956 0.0101612 0.0263902 -0.00706385 -0.000795085 0.0055745 -0.0127369
internal_weight=4899.85 1846.23 403.227 3053.61 1452.51 1443.01 1601.11
internal_count=1010475 140581 5188 869894 422594 135393 447300
is_linear=0
shrinkage=0.131703


Tree=12
num_leaves=8
num_cat=0
split_feature=43 40 33 39 48 42 4
split_gain=19.9909 12.9562 7.70046 6.17653 6.05508 5.50455 1.69745
threshold=0.012549918144941332 11.39644241333008 0.020961945876479152 0.0066538620740175256 0.98490756750106823 0.84612163901329052 -31.6287727355957
decision_type=2 2 2 2 2 2 2
left_child=1 2 -1 -3 5 -2 -6
right_child=4 3 -4 -5 6 -7 -8
leaf_value=0.021533431460225173 -0.0024799622390923337 -0.059696581142438664 0.064237421580607357 -0.00011226460789915177 0.041763282922904016 -0.015363028213894426 0.010054854138872631
leaf_weight=566.79153743805364 3205.178433887253 33.748482639086433 82.457419713144191 160.54972161538899 53.041614774207119 698.24876146239694 66.990748236945365
leaf_count=8921 704718 832 713 1711 1437 280398 11758
internal_value=-2.31934e-05 0.0183688 0.0272653 -0.0113158 -0.00389156 -0.00479597 0.0248365
internal_weight=4867.01 843.547 649.249 194.298 4023.46 3903.43 120.032
internal_count=1010488 12177 9634 2543 998311 985116 13195
is_linear=0
shrinkage=0.131703


Tree=13
num_leaves=8
num_cat=0
split_feature=43 10 6 48 0 73 59
split_gain=15.8903 12.699 10.0308 6.23693 5.58421 5.13206 2.13133
threshold=0.012549918144941332 0.74526420235633861 1.4811627268791201 0.98490756750106823 0.017725349403917793 -1.621885299682617 0.061625920236110694
decision_type=2 2 2 2 2 2 2
left_child=1 2 -1 4 -2 -3 -5
right_child=3 5 -4 6 -6 -7 -8
leaf_value=0.047184652353557378 0.007531029447199235 0.010361436254549177 0.01145333494731657 0.038337241977867496 -0.0066889422290833242 -0.022459955687091498 0.0055154465006384146
leaf_weight=253.18439474934712 557.87078709312482 178.41181763005443 296.9658209560439 73.704077460861299 3281.3721961889532 148.27944496611599 64.252711235603783
leaf_count=3466 59847 1850 3619 1633 925147 3230 11553
internal_value=-8.00603e-05 0.015933 0.0280874 -0.00362111 -0.00461777 -0.00461341 0.0235549
internal_weight=4854.04 876.841 550.15 3977.2 3839.24 326.691 137.957
internal_count=1010345 12165 7085 998180 984994 5080 13186
is_linear=0
shrinkage=0.131703


Tree=14
num_leaves=8
num_cat=0
split_feature=67 25 16 47 60 60 13
split_gain=14.4198 9.62694 7.67665 7.10384 4.13925 3.79315 3.16788
threshold=0.69528335332870495 -0.00010042169014923273 -0.11525654047727583 0.0083030643872916716 0.48113746941089636 0.055583139881491668 0.024833736009895805
decision_type=2 2 2 2 2 2 2
left_child=4 2 -2 -3 5 -1 -6
right_child=1 3 -4 -5 6 -7 -8
leaf_value=-0.012153184006553495 0.015089435100595702 0.054057599243055879 -0.0045251563525159633 0.015443538776687537 -0.010514356952350373 0.0013305488991355303 -0.03335354962526129
leaf_weight=510.73699597059749 524.35831056651659 94.905179208959453 1002.3963526544976 558.49094567919383 804.0268436234328 1219.9975451172213 119.33515078463824
leaf_count=53122 7480 1831 146036 55886 365529 329325 51162
internal_value=4.14197e-05 0.00797116 0.00222995 0.0213046 -0.0064741 -0.00266449 -0.0135784
internal_weight=4834.25 2180.15 1526.75 653.396 2654.1 1730.73 923.362
internal_count=1010371 211233 153516 57717 799138 382447 416691
is_linear=0
shrinkage=0.131703


Tree=15
num_leaves=8
num_cat=0
split_feature=43 40 10 16 68 60 12
split_gain=11.4293 8.30806 5.91519 5.31851 5.22282 5.15873 2.79409
threshold=0.012549918144941332 2.149932980537415 0.74526420235633861 -0.21807526797056195 -0.46775352954864496 0.051551928743720062 16.554999351501468
decision_type=2 2 2 2 2 2 2
left_child=1 2 -1 -3 6 -6 -2
right_child=4 3 -4 -5 5 -7 -8
leaf_value=0.037248233322313119 -0.0034528048618901173 0.027035052184686333 0.0025076023473133546 -0.0059227745684645389 -0.012030137732040699 0.0014098250324801362 -0.020032467899607196
leaf_weight=282.41406163829379 294.69560638000257 105.66895249672234 121.75643391662743 380.22692273533903 609.28746133612003 2584.2433977485634 441.87153370279702
leaf_count=3400 134874 857 2219 5699 59975 615882 188062
internal_value=-0.000421805 0.0130251 0.0268919 0.00138309 -0.00347591 -0.00116443 -0.0134459
internal_weight=4820.16 890.066 404.17 485.896 3930.1 3193.53 736.567
internal_count=1010968 12175 5619 6556 998793 675857 322936
is_linear=0
shrinkage=0.131703


end of trees

feature_importances:
Column_43=8
Column_48=6
Column_0=5
Column_52=5
Column_10=4
Column_47=4
Column_50=4
Column_58=4
Column_74=4
Column_16=3
Column_18=3
Column_33=3
Column_40=3
Column_42=3
Column_45=3
Column_60=3
Column_65=3
Column_68=3
Column_4=2
Column_6=2
Column_11=2
Column_12=2
Column_13=2
Column_32=2
Column_38=2
Column_61=2
Column_62=2
Column_69=2
Column_1=1
Column_5=1
Column_8=1
Column_14=1
Column_15=1
Column_21=1
Column_25=1
Column_26=1
Column_27=1
Column_28=1
Column_34=1
Column_39=1
Column_44=1
Column_46=1
Column_51=1
Column_53=1
Column_59=1
Column_66=1
Column_67=1
Column_70=1
Column_73=1

parameters:
[boosting: gbdt]
[objective: lambdarank]
[metric: ndcg]
[tree_learner: serial]
[device_type: cpu]
[data_sample_strategy: bagging]
[data: ]
[valid: ]
[num_iterations: 297]
[learning_rate: 0.131703]
[num_leaves: 92]
[num_threads: 15]
[seed: 0]
[deterministic: 0]
[force_col_wise: 0]
[force_row_wise: 0]
[histogram_pool_size: -1]
[max_depth: 3]
[min_data_in_leaf: 183]
[min_sum_hessian_in_leaf: 0.001]
[bagging_fraction: 0.882902]
[pos_bagging_fraction: 1]
[neg_bagging_fraction: 1]
[bagging_freq: 1]
[bagging_seed: 6]
[bagging_by_query: 0]
[feature_fraction: 0.413365]
[feature_fraction_bynode: 1]
[feature_fraction_seed: 6]
[extra_trees: 0]
[extra_seed: 6]
[early_stopping_round: 0]
[early_stopping_min_delta: 0]
[first_metric_only: 0]
[max_delta_step: 0]
[lambda_l1: 0.0013242]
[lambda_l2: 3.4186]
[linear_lambda: 0]
[min_gain_to_split: 0]
[drop_rate: 0.1]
[max_drop: 50]
[skip_drop: 0.5]
[xgboost_dart_mode: 0]
[uniform_drop: 0]
[drop_seed: 4]
[top_rate: 0.2]
[other_rate: 0.1]
[min_data_per_group: 100]
[max_cat_threshold: 32]
[cat_l2: 10]
[cat_smooth: 10]
[max_cat_to_onehot: 4]
[top_k: 20]
[monotone_constraints: ]
[monotone_constraints_method: basic]
[monotone_penalty: 0]
[feature_contri: ]
[forcedsplits_filename: ]
[refit_decay_rate: 0.9]
[cegb_tradeoff: 1]
[cegb_penalty_split: 0]
[cegb_penalty_feature_lazy: ]
[cegb_penalty_feature_coupled: ]
[path_smooth: 0]
[interaction_constraints: ]
[verbosity: -1]
[saved_feature_importance_type: 0]
[use_quantized_grad: 0]
[num_grad_quant_bins: 4]
[quant_train_renew_leaf: 0]
[stochastic_rounding: 1]
[linear_tree: 0]
[max_bin: 255]
[max_bin_by_feature: ]
[min_data_in_bin: 3]
[bin_construct_sample_cnt: 200000]
[data_random_seed: 6]
[is_enable_sparse: 1]
[enable_bundle: 1]
[use_missing: 1]
[zero_as_missing: 0]
[feature_pre_filter: 1]
[pre_partition: 0]
[two_round: 0]
[header: 0]
[label_column: ]
[weight_column: ]
[group_column: ]
[ignore_column: ]
[categorical_feature: ]
[forcedbins_filename: ]
[precise_float_parser: 0]
[parser_config_file: ]
[objective_seed: 5]
[num_class: 1]
[is_unbalance: 0]
[scale_pos_weight: 1]
[sigmoid: 1]
[boost_from_average: 1]
[reg_sqrt: 0]
[alpha: 0.9]
[fair_c: 1]
[poisson_max_delta_step: 0.7]
[tweedie_variance_power: 1.5]
[lambdarank_truncation_level: 30]
[lambdarank_norm: 1]
[label_gain: ]
[lambdarank_position_bias_regularization: 0]
[eval_at: 1]
[multi_error_top_k: 1]
[auc_mu_weights: ]
[num_machines: 1]
[local_listen_port: 12400]
[time_out: 120]
[machine_list_filename: ]
[machines: ]
[gpu_platform_id: -1]
[gpu_device_id: -1]
[gpu_use_dp: 0]
[num_gpu: 1]

end of parameters

pandas_categorical:null
