tree
version=v4
num_class=1
num_tree_per_iteration=1
label_index=0
max_feature_idx=76
objective=lambdarank
feature_names=Column_0 Column_1 Column_2 Column_3 Column_4 Column_5 Column_6 Column_7 Column_8 Column_9 Column_10 Column_11 Column_12 Column_13 Column_14 Column_15 Column_16 Column_17 Column_18 Column_19 Column_20 Column_21 Column_22 Column_23 Column_24 Column_25 Column_26 Column_27 Column_28 Column_29 Column_30 Column_31 Column_32 Column_33 Column_34 Column_35 Column_36 Column_37 Column_38 Column_39 Column_40 Column_41 Column_42 Column_43 Column_44 Column_45 Column_46 Column_47 Column_48 Column_49 Column_50 Column_51 Column_52 Column_53 Column_54 Column_55 Column_56 Column_57 Column_58 Column_59 Column_60 Column_61 Column_62 Column_63 Column_64 Column_65 Column_66 Column_67 Column_68 Column_69 Column_70 Column_71 Column_72 Column_73 Column_74 Column_75 Column_76
feature_infos=[-2.525764834912167e-14:1] [-0.65856164693832397:14.457832336425781] [-0.69050002098083496:34.971961975097656] [-0.88465785980224609:34.627357482910156] [-88.000816345214844:80.677894592285156] [-0.8364214301109314:11.462965965270996] [0:19.78227424621582] [0:1] [0:51.360160827636719] [0:12.648478507995605] [0:1] [-4.2468791007995605:4.2392010688781738] [11.859999656677246:52.330001831054688] [-0.11496143043041229:0.082843087613582611] [0.01953125:0.8883928656578064] [-0.16634100675582886:0.17699676752090454] [-0.86768358945846558:34.638889312744141] [0:99.999824523925781] [-0.98768937587738037:0] [-6.4922720655448754e-15:7.1110515594482422] [-0.50071084499359131:13.690840721130371] [33.466995239257812:84.1339111328125] [-3.5810753064898903e-15:51.322002410888672] [-1.2008951064200035e-14:1.8626337051391602] [-0.063702821731567383:197.93988037109375] [-0.11673381179571152:13.690840721130371] [-3.6913890838623047:742.0048828125] [-0.45144674181938171:34.971961975097656] [-2.1783710428481713e-14:18.809375762939453] [0:13.925023078918457] [-134.05343627929688:1365.3524169921875] [-0.8364214301109314:11.462965965270996] [0:1] [0:209.02890014648438] [0:187.43913269042969] [0:50.567054748535156] [0:2637.865966796875] [0:1223.0382080078125] [0:1199.0538330078125] [0:131.39958190917969] [0:391.33834838867188] [0:1] [0.00055803573923185468:1] [0.00055803573923185468:1] [0:1] [0:1] [0:1] [0:1] [0:1] [0:1] [0:1] [0.00083705357974395156:1] [0:1] [0:1] none none none none [0:1] [0:1] [0:1] [0.00055803573923185468:1] [0.00055834726663306355:1] none [-6.0277423858642578:8.5718507766723633] [-23.992658615112305:42.105979919433594] [-22.486688613891602:42.125595092773438] [-3.2819292545318604:21.029090881347656] [-2.1897842884063721:41.642860412597656] [-14.534236907958984:42.165828704833984] [-14.326082229614258:42.150058746337891] [-2.7810964584350586:30.640506744384766] [-4.59100341796875:3.8481085300445557] [-4.6788535118103027:5.6946935653686523] [-1.9246205378107423e-13:117.55065155029297] [-0.28675362467765808:0.28226718306541443] [-0.44860222935676575:0.68142241239547729]
tree_sizes=1037 1042 1037 1039 1049 1041 1046 1036 1049 1035 1047 1042 1040 1039 1036 1036 1035 1044 1036 1035 1035 1039 1025 1036

Tree=0
num_leaves=8
num_cat=0
split_feature=50 74 21 71 50 17 17
split_gain=63.275 7.09465 6.90202 6.65396 5.31632 4.29624 2.47457
threshold=0.61641848087310802 0.7791421413421632 47.58039855957032 0.32513426244258886 0.45162196457386022 36.687246322631843 74.540573120117202
decision_type=2 2 2 2 2 2 2
left_child=3 5 -3 4 -1 -2 -5
right_child=1 2 -4 6 -6 -7 -8
leaf_value=-0.020509554348076445 0.044293586667789132 -0.00092280527005579355 0.020348161040017847 -0.0028642860471029073 -0.0056222276202704648 0.021487161463183857 0.036570414008151773
leaf_weight=1566.9910499527759 179.5715089860314 504.71640562069661 552.08129587318399 594.19515879877144 570.51239154662471 762.73587130643136 25.522061403549742
leaf_count=666564 62695 187746 200776 247762 239485 271782 9577
internal_value=-0.000144146 0.0176789 0.010219 -0.0130726 -0.0165514 0.0259779 -0.00104823
internal_weight=4756.33 1999.11 1056.8 2757.22 2137.5 942.307 619.717
internal_count=1886387 722999 388522 1163388 906049 334477 257339
is_linear=0
shrinkage=0.131703


Tree=1
num_leaves=8
num_cat=0
split_feature=2 34 52 33 37 64 4
split_gain=35.8522 12.9605 11.3721 7.88095 6.59239 5.14265 4.4532
threshold=-0.042255038395524018 0.00035804542130790656 0.051382299512624748 0.0031626945128664379 0.0078448294661939161 -1.0923333764076231 -58.782793045043938
decision_type=2 2 2 2 2 2 2
left_child=2 5 4 -4 -1 -2 -3
right_child=1 6 3 -5 -6 -7 -8
leaf_value=0.020991528637618904 -0.00080321496293864658 0.04291444456216896 0.006004776373018903 0.023355346618150963 0.074600113129253756 -0.013950750950711074 0.0020161027621090127
leaf_weight=88.827327998835244 650.18926095803909 44.168670981074683 1632.72904532346 627.6989034092403 74.765162481548032 2506.5733268374315 1583.3518463571818
leaf_count=8664 165066 1760 177483 31655 3166 1085342 412580
internal_value=0.000282055 -0.00632868 0.0133202 0.0108509 0.0465183 -0.0112466 0.00321376
internal_weight=7208.3 4784.28 2424.02 2260.43 163.592 3156.76 1627.52
internal_count=1885716 1664748 220968 209138 11830 1250408 414340
is_linear=0
shrinkage=0.131703


Tree=2
num_leaves=8
num_cat=0
split_feature=44 52 39 67 69 26 48
split_gain=88.3197 27.3474 13.5422 7.41727 6.8 5.75835 2.28039
threshold=0.10609666258096696 0.031823327764868743 0.0067785857245326051 0.7508702576160432 -2.794846653938293 -0.006655750796198844 0.84027579426765453
decision_type=2 2 2 2 2 2 2
left_child=1 4 5 -3 -1 -2 -4
right_child=2 3 6 -5 -6 -7 -8
leaf_value=0.07218541632639712 -0.0038404687323047712 0.0036018740503356672 -0.0037822226910156401 0.01702774265367096 0.035190036123367199 -0.021214045067177448 0.011483233273778915
leaf_weight=128.78258943709079 388.87271704607701 1262.9912371389946 633.74660845962353 1644.8398012152757 295.31887083986658 2285.1361295699171 227.96095496842463
leaf_count=594 153663 117669 165442 74668 6545 1314767 52899
internal_value=0.000418322 0.0157955 -0.0140738 0.0112075 0.0469118 -0.0186957 0.000285404
internal_weight=6867.65 3331.93 3535.72 2907.83 424.101 2674.01 861.708
internal_count=1886247 199476 1686771 192337 7139 1468430 218341
is_linear=0
shrinkage=0.131703


Tree=3
num_leaves=8
num_cat=0
split_feature=44 10 68 44 66 14 48
split_gain=73.9005 20.3376 14.7653 12.8797 8.27149 4.88891 4.27177
threshold=0.10609666258096696 0.027936212718486789 -0.22600670903921125 0.011747760232537987 -0.75505059957504261 0.82198661565780651 0.81673434376716625
decision_type=2 2 2 2 2 2 2
left_child=1 3 5 -1 -3 -2 -4
right_child=2 4 6 -5 -6 -7 -8
leaf_value=0.06333624009120159 -0.026930907925698386 0.011600314131217678 -0.01054415513984999 0.02187597659541814 -0.0058235358205796471 0.014812733262743983 0.0051670401976032882
leaf_weight=182.34597030631267 1305.6429356009467 2339.6901709295926 1300.5021596960578 455.78493556234753 589.71947394812014 48.484356660686899 387.6397399075795
leaf_count=830 862014 92280 660818 5591 100934 26869 136798
internal_value=-0.000102099 0.0127523 -0.0151734 0.0339979 0.00808996 -0.0254026 -0.00693322
internal_weight=6609.81 3567.54 3042.27 638.131 2929.41 1354.13 1688.14
internal_count=1886134 199635 1686499 6421 193214 888883 797616
is_linear=0
shrinkage=0.131703


Tree=4
num_leaves=8
num_cat=0
split_feature=68 74 15 72 39 3 2
split_gain=44.2968 11.0866 8.00182 4.32988 3.99032 3.88115 2.78144
threshold=-0.013632673770189284 0.6769334375858308 0.11815929412841798 1.879718065261841 0.0060774371959269055 -0.050868483260273926 -0.077876582741737352
decision_type=2 2 2 2 2 2 2
left_child=2 3 5 -2 -4 -1 -3
right_child=1 6 4 -5 -6 -7 -8
leaf_value=-0.0030808992674156827 0.0086284037231435119 0.010435137816223631 -0.0051594354817101817 0.021421656213448343 0.035799644641909725 -0.023637608150825096 -0.0076105125024416471
leaf_weight=182.0378722071182 2875.6222545629134 174.2368213206355 387.14728557146736 545.88919410467497 42.713101945148082 1339.5097018436063 896.89480484460364
leaf_count=55571 275564 15667 243557 14102 12215 891989 377339
internal_value=-0.000165614 0.00703077 -0.016717 0.0106889 -0.000838782 -0.0211907 -0.00465107
internal_weight=6444.05 4492.64 1951.41 3421.51 429.86 1521.55 1071.13
internal_count=1886004 682672 1203332 289666 255772 947560 393006
is_linear=0
shrinkage=0.131703


Tree=5
num_leaves=8
num_cat=0
split_feature=2 10 50 66 58 71 12
split_gain=28.7297 9.8618 7.86531 7.70247 7.11022 4.18325 2.8526
threshold=-0.038523288443684571 0.03566237539052964 0.48714986443519598 -0.75505059957504261 0.0080995089374482649 0.43374729156494146 20.314999580383304
decision_type=2 2 2 2 2 2 2
left_child=1 4 6 -3 -1 -4 -2
right_child=2 3 5 -5 -6 -7 -8
leaf_value=0.049749245324411197 -0.013448814626092875 0.0072943728505352363 -0.0077744838876488654 -0.012593447139831468 0.015501472891331806 0.0068602272120991603 -0.027512021682582103
leaf_weight=124.11484812718118 793.3894813584775 2216.5463303705037 1363.2466373371863 395.20956651750021 641.13037676205568 447.52148624102847 373.35742640862009
leaf_count=637 578702 95685 634731 146613 8278 138620 283096
internal_value=-0.000173655 0.00813789 -0.00959892 0.00427236 0.0212529 -0.00415139 -0.0180164
internal_weight=6354.52 3377 2977.52 2611.76 765.245 1810.77 1166.75
internal_count=1886362 251213 1635149 242298 8915 773351 861798
is_linear=0
shrinkage=0.131703


Tree=6
num_leaves=8
num_cat=0
split_feature=74 36 38 51 62 21 74
split_gain=22.3153 5.68369 4.96945 3.95205 3.47628 2.85723 2.61804
threshold=0.7110247313976289 0.21896531432867053 0.0031588337151333694 0.19447544962167743 0.082890715450048461 38.859806060791023 0.73298880457878124
decision_type=2 2 2 2 2 2 2
left_child=1 4 5 -3 -1 -2 -4
right_child=2 3 6 -5 -6 -7 -8
leaf_value=0.004953815701342814 -0.051634523919197817 0.0035532168382520764 -0.040560966107948362 0.013649296469059772 -0.0092912001461369076 -0.013080100764055356 0.001857391358552342
leaf_weight=650.53231638782017 31.068062177218962 1174.2630498270883 22.959915319166612 1580.6643289189815 541.33826512105588 1664.0698223790823 580.50674915016862
leaf_count=52617 20229 81072 3823 145970 262293 1109098 210831
internal_value=6.51531e-05 0.00607168 -0.0102419 0.00935573 -0.00152408 -0.0138893 2.38358e-05
internal_weight=6245.4 3946.8 2298.6 2754.93 1191.87 1695.14 603.467
internal_count=1885933 541952 1343981 227042 314910 1129327 214654
is_linear=0
shrinkage=0.131703


Tree=7
num_leaves=8
num_cat=0
split_feature=68 44 5 71 21 21 21
split_gain=20.888 5.81316 4.2566 2.70786 2.60799 6.1806 0.949697
threshold=-0.18875593692064283 0.10609666258096696 0.12751610577106479 0.68048092722892772 57.876693725585945 55.734418869018562 59.26060867309571
decision_type=2 2 2 2 2 2 2
left_child=4 2 -2 -3 5 -1 -6
right_child=1 3 -4 -5 6 -7 -8
leaf_value=-0.015385561017566544 0.0062233540447419631 -0.0057561210114335576 0.041663507411510162 0.0078125527679446874 -0.052763591037334398 0.022908389886458051 -0.024688865613605778
leaf_weight=1114.5635290729842 3279.580726847169 1215.4111140776222 56.572738453105558 319.4814306562912 30.714009772462305 75.244069816020783 96.305200746021001
leaf_count=822660 151097 655337 2594 94747 23953 58471 77156
internal_value=-0.000197687 0.00378254 0.00686642 -0.00292066 -0.0148926 -0.012905 -0.0326838
internal_weight=6187.87 4871.05 3336.15 1534.89 1316.83 1189.81 127.019
internal_count=1886015 903775 153691 750084 982240 881131 101109
is_linear=0
shrinkage=0.131703


Tree=8
num_leaves=8
num_cat=0
split_feature=50 52 50 6 14 38 13
split_gain=14.7355 8.29426 6.10182 4.2849 3.84067 3.48466 1.67385
threshold=0.6710803508758546 0.7421117126941682 0.98463794589042675 0.71767482161521923 0.18052455037832263 0.0049512174446135768 -0.014602040406316517
decision_type=2 2 2 2 2 2 2
left_child=4 2 -2 -3 6 -6 -1
right_child=1 3 -4 -5 5 -7 -8
leaf_value=-0.022282412199770878 0.0061789016715353279 -0.024732563548624985 0.025101814863744677 -0.0017306903181282347 -0.0095883190637455363 0.0076404664264824937 -0.061212146208492642
leaf_weight=98.196740662417142 2933.6994495202671 168.30376565354527 326.01912537080352 775.60701201214397 1578.8485966761364 231.1025671151001 23.551630223140819
leaf_count=67496 437105 50820 21176 110780 1124697 57682 15409
internal_value=0.000574574 0.00494933 0.00809584 -0.00590667 -0.00893731 -0.00737812 -0.0312807
internal_weight=6135.33 4203.63 3259.72 943.911 1931.7 1809.95 121.748
internal_count=1885165 619881 458281 161600 1265284 1182379 82905
is_linear=0
shrinkage=0.131703


Tree=9
num_leaves=8
num_cat=0
split_feature=50 7 13 14 47 12 12
split_gain=10.0347 5.15243 4.90442 4.86482 4.02841 3.83114 3.47245
threshold=0.5731775462627412 0.83971536159515392 0.018473627977073196 0.84291294217109691 0.97727936506271373 12.925000190734865 13.894999980926515
decision_type=2 2 2 2 2 2 2
left_child=3 4 -3 6 -2 -5 -1
right_child=1 2 -4 5 -6 -7 -8
leaf_value=-0.027703083809875684 -0.0010103566474071153 0.0071109513562853952 0.032609149294824682 -0.02179948137968615 0.014836031867977901 0.080679452972702764 -0.0082353452319627561
leaf_weight=180.0688473188784 3241.5899533792399 951.28769340532017 149.01601098518586 7.8639714075834517 300.95338881207863 14.729444990574846 1245.1819680404005
leaf_count=132623 702655 56585 4248 5335 40866 9811 934456
internal_value=-0.000188828 0.00279727 0.0106547 -0.0097486 0.000348814 0.0468263 -0.0107555
internal_weight=6090.69 4642.85 1100.3 1447.84 3542.54 22.5934 1425.25
internal_count=1886579 804354 60833 1082225 743521 15146 1067079
is_linear=0
shrinkage=0.131703


Tree=10
num_leaves=8
num_cat=0
split_feature=37 23 62 28 29 34 71
split_gain=9.46706 4.04532 5.36523 4.8807 3.51501 3.34122 1.91493
threshold=0.0022675755899399523 1.0000000180025095e-35 0.012044592294842007 0.030615109950304035 1.0479975938796999 0.00068548810668289672 -1.0154081583023069
decision_type=2 2 2 2 2 2 2
left_child=4 2 -2 -3 5 -1 -6
right_child=1 3 -4 -5 6 -7 -8
leaf_value=-0.0078562100137834073 0.05312893915448965 -0.014719284571461388 0.0070678613776511932 0.0049451106904636688 -0.00086497233421555311 0.0037197601577958839 -0.080981218185104162
leaf_weight=2026.0103714021388 64.038489637954626 232.57400964776753 129.13265844222042 3046.0495810117718 7.6369402705167913 547.38572178556933 13.165195898705859
leaf_count=1329365 698 14091 8805 362587 929 168106 1124
internal_value=0.000144927 0.00464066 0.0229969 0.00353626 -0.00586979 -0.00539216 -0.0558494
internal_weight=6065.99 3471.79 193.171 3278.62 2594.2 2573.4 20.8021
internal_count=1885705 386181 9503 376678 1499524 1497471 2053
is_linear=0
shrinkage=0.131703


Tree=11
num_leaves=8
num_cat=0
split_feature=10 44 14 25 4 24 39
split_gain=12.0844 7.42378 8.21095 6.08439 4.9083 4.71604 2.85595
threshold=0.043266640976071365 0.011747760232537987 0.42550222575664526 -0.0028402367606759067 -32.905179977416985 0.014840523246675731 0.0077867091167718181
decision_type=2 2 2 2 2 2 2
left_child=1 4 -3 5 -1 -2 -5
right_child=3 2 -4 6 -6 -7 -8
leaf_value=0.050913369452861047 0.0017034591716307216 -0.010968445938367748 0.018594153410064301 -0.0085371064140572477 0.014212447605487514 0.026125613694261956 0.00033751808968967358
leaf_weight=130.11752477777191 1995.537617786089 265.62092428479809 411.13789157461724 2055.7562100189971 126.99856282048859 143.91469942854019 905.19954301415419
leaf_count=614 339727 27496 54580 1291542 646 1937 169592
internal_value=0.000561773 0.014307 0.00699407 -0.00196282 0.0332105 0.00338541 -0.00582671
internal_weight=6034.28 933.875 676.759 5100.41 257.116 2139.45 2960.96
internal_count=1886134 83336 82076 1802798 1260 341664 1461134
is_linear=0
shrinkage=0.131703


Tree=12
num_leaves=8
num_cat=0
split_feature=68 30 12 64 12 12 69
split_gain=7.2297 3.95004 4.08511 3.40864 2.79848 2.75489 0.927164
threshold=-0.18875593692064283 6.8698759078979501 13.500000000000002 -1.6609539389610288 31.610000610351566 13.75500011444092 -0.26407693326473231
decision_type=2 2 2 2 2 2 2
left_child=4 3 -3 -2 5 -1 -6
right_child=1 2 -4 -5 6 -7 -8
leaf_value=-0.024043236171194731 0.010091481714808006 0.036451463397452005 0.0075412826026433665 -0.00061890924522248149 -0.0057907113330759787 -0.0051796598335865736 -0.056129688015342308
leaf_weight=151.63507251231931 601.68113863296458 95.759782309178263 607.99601017768146 3475.5237091486051 9.2857652033271716 1032.1270362360956 24.927260237833252
leaf_count=119988 37962 2266 18867 844997 7073 832930 22363
internal_value=0.000236965 0.00254566 0.0116325 0.000968732 -0.00880707 -0.00765843 -0.044239
internal_weight=5998.94 4780.96 703.756 4077.2 1217.98 1183.76 34.213
internal_count=1886446 904092 21133 882959 982354 952918 29436
is_linear=0
shrinkage=0.131703


Tree=13
num_leaves=8
num_cat=0
split_feature=67 36 75 52 36 5 71
split_gain=8.68563 5.91853 6.31726 5.39379 5.15523 3.65725 2.39576
threshold=1.8603070974349978 1.9355720281600954 -0.076426230370998369 0.047248745337128646 0.38055805861949926 -0.17417920380830762 -0.052650634199380868
decision_type=2 2 2 2 2 2 2
left_child=3 5 -3 4 -1 -2 -5
right_child=1 2 -4 6 -6 -7 -8
leaf_value=-0.0040503606292211849 0.023782457139838193 0.082393018031517509 0.011685506218612078 -0.007639668049889488 0.016569097667661438 0.0039825075080858934 -0.0011287919691056673
leaf_weight=385.06820154888555 192.78821593802422 35.751183738932014 52.859329620318022 1988.9038624184323 457.11986984565738 935.78779589945043 1932.727448157093
leaf_count=71444 1896 268 1001 1035673 14035 85566 676246
internal_value=0.000157544 0.0100705 0.0422163 -0.00238066 0.00716293 0.00742658 -0.00443469
internal_weight=5981.01 1217.19 88.6105 4763.82 842.188 1128.58 3921.63
internal_count=1886129 88731 1269 1797398 85479 87462 1711919
is_linear=0
shrinkage=0.131703


Tree=14
num_leaves=8
num_cat=0
split_feature=10 68 46 9 37 42 10
split_gain=6.04564 6.67819 5.39576 5.24304 10.6426 3.72174 3.24473
threshold=0.29596026241779333 2.8409112691879277 0.020239501260221008 9.6616506576538104 0.037818558514118202 0.24246651679277423 0.8987124264240266
decision_type=2 2 2 2 2 2 2
left_child=1 5 -3 6 -5 -1 -2
right_child=3 2 -4 4 -6 -7 -8
leaf_value=0.0077779757230281681 -0.0075201655105871113 0.070468148395617963 0.01639482871450863 -0.0015247966756763149 0.039522672325084662 -0.0031744700105938578 -0.028934891331556387
leaf_weight=1088.0222641288419 1314.9239874781633 33.41669270163402 281.2694503479579 1916.463927615594 112.77768348465906 1058.8200797510654 132.74146937968908
leaf_count=139825 364821 326 9828 927566 3960 409605 30301
internal_value=3.21673e-05 0.00502261 0.022833 -0.0035023 0.000819017 0.0023797 -0.00954742
internal_weight=5938.44 2461.53 314.686 3476.91 2029.24 2146.84 1447.67
internal_count=1886232 559584 10154 1326648 931526 549430 395122
is_linear=0
shrinkage=0.131703


Tree=15
num_leaves=8
num_cat=0
split_feature=36 75 52 35 36 68 15
split_gain=6.99667 6.14383 4.75683 4.6142 3.29916 2.68018 0.397379
threshold=1.5570252537727358 -0.11876719817519187 0.031823327764868743 0.38088268041610723 0.22227923572063449 2.5775696039199834 0.075116202235221877
decision_type=2 2 2 2 2 2 2
left_child=3 6 -3 5 -5 -1 -2
right_child=1 2 -4 4 -6 -7 -8
leaf_value=-0.0043638320531478635 0.066357124106530094 0.040792333402738738 0.0040483698336855837 -0.0036671362100614232 0.005879496833520347 -0.023295760820481539 0.034393674811766813
leaf_weight=2537.8586182621511 29.224843399249949 67.543059651856311 448.12200283294078 988.85033160538296 1708.0688597069529 133.57345316586725 27.542281245347112
leaf_count=1340603 194 822 21051 399115 111816 12689 179
internal_value=1.62698e-05 0.013813 0.00909847 -0.00146271 0.00237886 -0.00533907 0.0536864
internal_weight=5940.78 572.432 515.665 5368.35 2696.92 2671.43 56.7671
internal_count=1886469 22246 21873 1864223 510931 1353292 373
is_linear=0
shrinkage=0.131703


Tree=16
num_leaves=8
num_cat=0
split_feature=39 10 24 9 33 3 71
split_gain=5.9208 4.59885 4.6775 4.17525 3.21717 3.25883 2.44959
threshold=0.0059202935080975303 0.043266640976071365 0.014840523246675731 9.2771153450012225 0.012654413469135763 -0.11138783395290373 1.6809816956520083
decision_type=2 2 2 2 2 2 2
left_child=4 3 -3 -2 5 -1 -6
right_child=1 2 -4 -5 6 -7 -8
leaf_value=0.015222824084041573 0.0025406940072056029 -0.00021067519798809097 0.017183468021176113 0.026143291528960829 -0.060022623917029304 -0.0042204338669440582 -0.0020555800436534203
leaf_weight=154.54323538506287 234.83237351939897 2046.5381398968602 305.16494779352797 290.121343996012 27.342088332312414 2828.1431839473953 21.907604725682177
leaf_count=8370 5543 304879 5098 9143 1823 1550128 969
internal_value=0.000288517 0.00456594 0.00206804 0.01567 -0.00377036 -0.00319668 -0.0360477
internal_weight=5908.59 2876.66 2351.7 524.954 3031.94 2982.69 49.2497
internal_count=1885953 324663 309977 14686 1561290 1558498 2792
is_linear=0
shrinkage=0.131703


Tree=17
num_leaves=8
num_cat=0
split_feature=68 15 35 39 51 51 12
split_gain=5.18231 4.33902 3.96112 5.28909 3.25553 3.00058 2.43147
threshold=0.11217158660292627 0.11815929412841798 1.7707954049110415 0.043145610019564636 0.025948661379516128 0.38420759141445165 13.815000057220461
decision_type=2 2 2 2 2 2 2
left_child=1 6 5 -4 -3 -2 -1
right_child=2 4 3 -5 -6 -7 -8
leaf_value=-0.026480603501186469 -0.0020767313556360706 -0.060515770704273997 0.005386543388576007 0.032343698994579707 0.0078277027723731643 0.006116392260253802 -0.0070685020945123892
leaf_weight=119.09664727887139 1986.6800984142465 9.0351813555753306 500.89077587885549 166.24813293525949 442.87893057253677 1266.984346915604 1389.2128027806611
leaf_count=84774 301099 4188 16702 1780 278305 242688 956703
internal_value=0.000253733 -0.00527002 0.00301759 0.0122351 0.00601683 0.00111671 -0.00865782
internal_weight=5881.03 1960.22 3920.8 667.139 451.914 3253.66 1508.31
internal_count=1886239 1323970 562269 18482 282493 543787 1041477
is_linear=0
shrinkage=0.131703


Tree=18
num_leaves=8
num_cat=0
split_feature=11 62 46 20 76 19 53
split_gain=4.33065 4.28201 4.72036 2.35241 2.5457 2.14338 1.89146
threshold=3.3142263889312749 0.039731223136186607 0.33649820089340216 -0.032657677307724946 -0.18145133554935453 0.18373101949691775 0.45516008138656622
decision_type=2 2 2 2 2 2 2
left_child=1 2 -1 4 -2 -5 -3
right_child=3 6 -4 5 -6 -7 -8
leaf_value=0.0016478012775996327 0.060697546321490714 -6.7532658360128936e-05 0.019373331735808557 -0.018346276135680201 -0.024549559407602652 0.054700599633617911 -0.005919038501166745
leaf_weight=1654.8924496882537 4.7587299074512002 1839.0918699503673 306.07439535419689 6.4095740988850585 20.286482350347796 45.989928829541896 1997.3662637226953
leaf_count=52634 130 825060 20310 847 1560 4898 981197
internal_value=-0.00013639 -0.000558281 0.00444345 0.0301322 -0.0030014 0.0451859 -0.00311659
internal_weight=5874.87 5797.42 1960.97 77.4447 25.0452 52.3995 3836.46
internal_count=1886636 1879201 72944 7435 1690 5745 1806257
is_linear=0
shrinkage=0.131703


Tree=19
num_leaves=8
num_cat=0
split_feature=11 10 5 71 36 34 68
split_gain=7.75017 5.73447 5.22515 2.44901 1.99144 2.16875 1.83828
threshold=3.3142263889312749 0.043266640976071365 0.12751610577106479 -0.34537930786609644 0.24442180991172793 0.0011042050900869074 0.31762899458408361
decision_type=2 2 2 2 2 2 2
left_child=1 2 -1 -3 6 -6 -2
right_child=4 3 -4 -5 5 -7 -8
leaf_value=0.004985227787046017 0.015741244198946017 -0.0076977502688061481 0.036521955549651028 -0.00098618300812251141 0.059668081050811138 0.021546127788809179 -0.058106705658693164
leaf_weight=844.80240717309061 18.040585895127155 1290.4596040230535 98.987787451944314 3483.0608309617965 42.942388057243079 74.013013109448366 4.6437376052490427
leaf_count=80340 4095 676268 3024 1119347 1041 1846 388
internal_value=-0.000191991 -0.00094908 0.00841296 -0.00280482 0.0300864 0.0368418 -0.00499971
internal_weight=5856.95 5717.31 943.79 4773.52 139.64 116.955 22.6843
internal_count=1886349 1878979 83364 1795615 7370 2887 4483
is_linear=0
shrinkage=0.131703


Tree=20
num_leaves=8
num_cat=0
split_feature=53 0 67 9 67 20 67
split_gain=5.96552 3.51868 4.22341 3.2791 1.93392 3.56141 2.26446
threshold=0.99653479456901561 1.0000000180025095e-35 4.4272096157073983 9.1588859558105487 0.020293946377933029 -0.0061538747977465382 4.4272096157073983
decision_type=2 2 2 2 2 2 2
left_child=1 2 -1 -3 5 -2 -6
right_child=4 3 -4 -5 6 -7 -8
leaf_value=0.0094728395962451004 -0.088386929233824574 -0.0087083874367300512 0.075001114506826713 -0.00015074065091849652 0.037701048112014149 0.013222334646765675 -0.0041945811581994711
leaf_weight=216.5015839136031 3.6890237120969678 936.10179288467043 15.281164378480751 4481.8881699795893 116.52914986517862 34.519251825200627 26.712559165433049
leaf_count=20331 220 186063 257 1672068 4128 1910 794
internal_value=-0.000188993 -0.000950238 0.0148211 -0.00163389 0.0230921 -0.00303697 0.0299713
internal_weight=5831.22 5649.77 231.783 5417.99 181.45 38.2083 143.242
internal_count=1885771 1878719 20588 1858131 7052 2130 4922
is_linear=0
shrinkage=0.131703


Tree=21
num_leaves=8
num_cat=0
split_feature=8 35 50 10 15 15 59
split_gain=7.32799 4.09207 3.81071 3.59841 3.12268 5.41053 2.66167
threshold=0.46792605519294744 2.2011474370956425 0.98463794589042675 0.047445142641663558 0.10599401220679285 0.10007704049348833 0.020356236025691036
decision_type=2 2 2 2 2 2 2
left_child=4 3 -3 -2 5 -1 -6
right_child=1 2 -4 -5 6 -7 -8
leaf_value=-0.006570470908423439 0.00979844129099431 0.0085455925188829326 0.036028187172435999 -0.00055138718283847426 0.024795137570743198 -0.033718226307290121 -0.0013727531345581329
leaf_weight=1373.0304014555877 785.62231744910241 368.29345662100241 112.84062977368012 2226.7066924985993 70.616905978793511 137.37459822365781 752.02296037296765
leaf_count=886592 26330 8344 895 418423 8054 85528 451783
internal_value=0.000149936 0.00396553 0.0152002 0.00215586 -0.00556084 -0.0091103 0.000966652
internal_weight=5826.51 3493.46 481.134 3012.33 2333.04 1510.4 822.64
internal_count=1885949 453992 9239 444753 1431957 972120 459837
is_linear=0
shrinkage=0.131703


Tree=22
num_leaves=8
num_cat=0
split_feature=53 52 4 9 9 12 35
split_gain=4.47282 3.66879 4.71575 4.46846 3.60371 3.76845 2.63897
threshold=0.98465085029602062 0.30386087298393255 -49.564218521118157 9.6616506576538104 8.8735127449035662 16.785000801086429 0.87140458822250377
decision_type=2 2 2 2 2 2 2
left_child=1 2 -1 -3 5 -2 -6
right_child=4 3 -4 -5 6 -7 -8
leaf_value=0.019911629467173536 -0.0935663633944748 -0.011134814277703421 0.00070978378358689444 -0.000496134175323103 0.0054752900543444992 0.010278314784941289 0.02773963718861551
leaf_weight=243.86471871839603 7.5541745845694122 1049.1956346240768 2160.0451674999349 1960.9905059684243 190.89905287316651 12.206804879824629 179.40291096104193
leaf_count=14503 341 382937 549033 909992 20424 652 8124
internal_value=-0.000166348 -0.00115103 0.0026833 -0.00421271 0.0133918 -0.0373564 0.0164174
internal_weight=5804.16 5414.1 2403.91 3010.19 390.063 19.761 370.302
internal_count=1886006 1856465 563536 1292929 29541 993 28548
is_linear=0
shrinkage=0.131703


Tree=23
num_leaves=8
num_cat=0
split_feature=38 12 51 29 67 18 62
split_gain=4.72336 3.95752 4.14215 3.34829 2.81047 4.49843 2.94021
threshold=0.012695837300270798 13.815000057220461 0.077287945896387114 0.43019039928913122 2.3216794729232793 -0.58659708499908436 0.0040971615817397842
decision_type=2 2 2 2 2 2 2
left_child=4 3 -3 -2 6 -6 -1
right_child=1 2 -4 -5 5 -7 -8
leaf_value=0.027333453215287129 0.0032469665900714986 -0.011856531319259938 0.0059668533176677509 0.035940592726227447 0.038069699767975862 0.0013716497740538752 -0.0045947464505661515
leaf_weight=47.399107990961056 97.336715212499257 269.47583640442463 1320.6154712077405 121.76849942514673 64.631739511794876 391.93454440668575 3469.8411724537291
leaf_count=1043 6914 14789 72176 2992 1666 43234 1743575
internal_value=-0.000336085 0.00523628 0.00292722 0.0216904 -0.00287544 0.00681135 -0.0041383
internal_weight=5783 1809.2 1590.09 219.105 3973.81 456.566 3517.24
internal_count=1886389 96871 86965 9906 1789518 44900 1744618
is_linear=0
shrinkage=0.131703


end of trees

feature_importances:
Column_12=9
Column_10=8
Column_68=8
Column_50=7
Column_71=7
Column_36=6
Column_52=6
Column_67=6
Column_9=5
Column_15=5
Column_21=5
Column_39=5
Column_44=5
Column_14=4
Column_35=4
Column_51=4
Column_62=4
Column_74=4
Column_2=3
Column_4=3
Column_5=3
Column_34=3
Column_37=3
Column_38=3
Column_53=3
Column_3=2
Column_11=2
Column_13=2
Column_17=2
Column_20=2
Column_24=2
Column_29=2
Column_33=2
Column_46=2
Column_48=2
Column_64=2
Column_66=2
Column_69=2
Column_75=2
Column_0=1
Column_6=1
Column_7=1
Column_8=1
Column_18=1
Column_19=1
Column_23=1
Column_25=1
Column_26=1
Column_28=1
Column_30=1
Column_42=1
Column_47=1
Column_58=1
Column_59=1
Column_72=1
Column_76=1

parameters:
[boosting: gbdt]
[objective: lambdarank]
[metric: ndcg]
[tree_learner: serial]
[device_type: cpu]
[data_sample_strategy: bagging]
[data: ]
[valid: ]
[num_iterations: 297]
[learning_rate: 0.131703]
[num_leaves: 92]
[num_threads: 15]
[seed: 0]
[deterministic: 0]
[force_col_wise: 0]
[force_row_wise: 0]
[histogram_pool_size: -1]
[max_depth: 3]
[min_data_in_leaf: 183]
[min_sum_hessian_in_leaf: 0.001]
[bagging_fraction: 0.882902]
[pos_bagging_fraction: 1]
[neg_bagging_fraction: 1]
[bagging_freq: 1]
[bagging_seed: 6]
[bagging_by_query: 0]
[feature_fraction: 0.413365]
[feature_fraction_bynode: 1]
[feature_fraction_seed: 6]
[extra_trees: 0]
[extra_seed: 6]
[early_stopping_round: 0]
[early_stopping_min_delta: 0]
[first_metric_only: 0]
[max_delta_step: 0]
[lambda_l1: 0.0013242]
[lambda_l2: 3.4186]
[linear_lambda: 0]
[min_gain_to_split: 0]
[drop_rate: 0.1]
[max_drop: 50]
[skip_drop: 0.5]
[xgboost_dart_mode: 0]
[uniform_drop: 0]
[drop_seed: 4]
[top_rate: 0.2]
[other_rate: 0.1]
[min_data_per_group: 100]
[max_cat_threshold: 32]
[cat_l2: 10]
[cat_smooth: 10]
[max_cat_to_onehot: 4]
[top_k: 20]
[monotone_constraints: ]
[monotone_constraints_method: basic]
[monotone_penalty: 0]
[feature_contri: ]
[forcedsplits_filename: ]
[refit_decay_rate: 0.9]
[cegb_tradeoff: 1]
[cegb_penalty_split: 0]
[cegb_penalty_feature_lazy: ]
[cegb_penalty_feature_coupled: ]
[path_smooth: 0]
[interaction_constraints: ]
[verbosity: -1]
[saved_feature_importance_type: 0]
[use_quantized_grad: 0]
[num_grad_quant_bins: 4]
[quant_train_renew_leaf: 0]
[stochastic_rounding: 1]
[linear_tree: 0]
[max_bin: 255]
[max_bin_by_feature: ]
[min_data_in_bin: 3]
[bin_construct_sample_cnt: 200000]
[data_random_seed: 6]
[is_enable_sparse: 1]
[enable_bundle: 1]
[use_missing: 1]
[zero_as_missing: 0]
[feature_pre_filter: 1]
[pre_partition: 0]
[two_round: 0]
[header: 0]
[label_column: ]
[weight_column: ]
[group_column: ]
[ignore_column: ]
[categorical_feature: ]
[forcedbins_filename: ]
[precise_float_parser: 0]
[parser_config_file: ]
[objective_seed: 5]
[num_class: 1]
[is_unbalance: 0]
[scale_pos_weight: 1]
[sigmoid: 1]
[boost_from_average: 1]
[reg_sqrt: 0]
[alpha: 0.9]
[fair_c: 1]
[poisson_max_delta_step: 0.7]
[tweedie_variance_power: 1.5]
[lambdarank_truncation_level: 30]
[lambdarank_norm: 1]
[label_gain: ]
[lambdarank_position_bias_regularization: 0]
[eval_at: 1]
[multi_error_top_k: 1]
[auc_mu_weights: ]
[num_machines: 1]
[local_listen_port: 12400]
[time_out: 120]
[machine_list_filename: ]
[machines: ]
[gpu_platform_id: -1]
[gpu_device_id: -1]
[gpu_use_dp: 0]
[num_gpu: 1]

end of parameters

pandas_categorical:null
