tree
version=v4
num_class=1
num_tree_per_iteration=1
label_index=0
max_feature_idx=76
objective=lambdarank
feature_names=Column_0 Column_1 Column_2 Column_3 Column_4 Column_5 Column_6 Column_7 Column_8 Column_9 Column_10 Column_11 Column_12 Column_13 Column_14 Column_15 Column_16 Column_17 Column_18 Column_19 Column_20 Column_21 Column_22 Column_23 Column_24 Column_25 Column_26 Column_27 Column_28 Column_29 Column_30 Column_31 Column_32 Column_33 Column_34 Column_35 Column_36 Column_37 Column_38 Column_39 Column_40 Column_41 Column_42 Column_43 Column_44 Column_45 Column_46 Column_47 Column_48 Column_49 Column_50 Column_51 Column_52 Column_53 Column_54 Column_55 Column_56 Column_57 Column_58 Column_59 Column_60 Column_61 Column_62 Column_63 Column_64 Column_65 Column_66 Column_67 Column_68 Column_69 Column_70 Column_71 Column_72 Column_73 Column_74 Column_75 Column_76
feature_infos=[-1.2125649334442101e-14:1] [-0.78114086389541626:14.457832336425781] [-0.82482624053955078:34.971961975097656] [-0.83848696947097778:34.627357482910156] [-92.1334228515625:83.514450073242188] [-0.82730942964553833:11.462965965270996] [0:19.875766754150391] [0:1] [0:167.0557861328125] [0:12.648478507995605] [0:1] [-4.2362060546875:4.2417111396789551] [11.859999656677246:82.69000244140625] [-0.17969317734241486:0.17358137667179108] [0.0055803572759032249:0.88169640302658081] [-0.25682047009468079:0.17849251627922058] [-0.83690828084945679:34.638889312744141] [0:100] [-0.98640149831771851:1.3926902483865405e-16] [-1.4952281288658532e-14:10.622038841247559] [-0.62509208917617798:13.690840721130371] [33.466995239257812:84.1339111328125] [-4.2783037007586896e-15:83.52789306640625] [-1.4952281288658532e-14:2.56034255027771] [-0.104483962059021:197.93988037109375] [-0.13622245192527771:13.690840721130371] [-2.3971800804138184:742.0048828125] [-0.50423222780227661:34.971961975097656] [-1.0045970843663033e-14:16.511676788330078] [0:24.801374435424805] [-17.622861862182617:1365.3524169921875] [-0.66835558414459229:11.462965965270996] [0:1] [0:209.02890014648438] [0:187.43913269042969] [0:112.82771301269531] [0:27907.634765625] [0:1223.0382080078125] [0:1199.0538330078125] [0:131.39958190917969] [0:395.04611206054688] [0:1] [0.00055803573923185468:1] [0:1] [0:1] [0:1] [0:1] [0:1] [0:1] [0:1] [0:1] [0.00083705357974395156:1] [0:1] [0:1] none none none none [0:1] [0:1] [0:1] [0.00055803573923185468:1] [0.00056053814478218555:1] none [-5.2563581466674805:5.8375248908996582] [-23.578889846801758:42.105979919433594] [-19.947498321533203:42.125595092773438] [-3.3655874729156494:31.438302993774414] [-2.4040770530700684:41.644920349121094] [-20.027996063232422:42.165828704833984] [-16.710460662841797:42.150058746337891] [-3.0098307132720947:28.839258193969727] [-4.7983646392822266:4.2311544418334961] [-5.1361308097839355:6.9848628044128418] [-5.462901046240573e-14:132.79719543457031] [-0.27797409892082214:0.28170827031135559] [-0.516990065574646:0.68885880708694458]
tree_sizes=1042 1042 1035 1038 1035 1040 1039 1036 1041 1038 1033 1039 1042 1040 1043 1030 1034 1041 1037 1030 1044 919 1030 1043 1027 1040 1027 1041 1029 1037 1025 1042 1028 1041 1041 1040 1033 1039 1029 1039

Tree=0
num_leaves=8
num_cat=0
split_feature=50 74 6 58 39 3 43
split_gain=45.4252 7.18167 6.69201 4.12305 4.07197 2.63256 2.5221
threshold=0.6114337444305421 0.81669503450393688 1.1484600305557253 0.29926158487796789 0.034971570596098907 0.014572841115295889 0.62763690948486339
decision_type=2 2 2 2 2 2 2
left_child=2 4 3 -1 -2 -3 -4
right_child=1 5 6 -5 -6 -7 -8
leaf_value=-0.0037462828483518181 0.020405233921672525 0.01393782370162293 0.0064293486809217978 -0.017615634525538094 0.047211348085342907 0.0002562621631821517 -0.0092676484107291606
leaf_weight=492.04073478873761 893.27627305647184 524.83650001967908 453.66456249699695 1546.3725618344761 110.30602422286756 453.5608679435245 286.90870112882112
leaf_count=198476 318658 195926 180296 631867 34533 165132 115411
internal_value=0.000469689 0.0156879 -0.0103898 -0.0142798 0.023502 0.00761854 0.000333231
internal_weight=4760.97 1981.98 2778.99 2038.41 1003.58 978.397 740.573
internal_count=1840299 714249 1126050 830343 353191 361058 295707
is_linear=0
shrinkage=0.131703


Tree=1
num_leaves=8
num_cat=0
split_feature=36 48 26 9 13 13 11
split_gain=41.0411 21.2793 12.8533 9.48274 7.98721 6.13364 1.96556
threshold=0.15645033866167071 0.88990828394889843 -0.041769471019506448 9.7852468490600604 -0.051705121994018548 0.049374446272850044 -2.2511036396026607
decision_type=2 2 2 2 2 2 2
left_child=4 2 -2 -3 6 -6 -1
right_child=1 3 -4 -5 5 -7 -8
leaf_value=0.017656973590299659 0.019964983964615508 0.013193459733751349 -0.0016704449184320057 0.038340260006823119 -0.015191250646638999 0.045931906812422027 -0.083935975767938611
leaf_weight=2.4635288439458227 552.37728173333744 785.27487546867633 3326.9970375737175 390.36250513450068 2119.5899519998493 25.638892657065298 31.846251769573428
leaf_count=1290 33377 52790 565442 34657 1118448 14649 18977
internal_value=-0.000377958 0.00613562 0.00142501 0.0216304 -0.015471 -0.0143887 -0.0756978
internal_weight=7234.55 5055.01 3879.37 1175.64 2179.54 2145.23 34.3098
internal_count=1839630 686266 598819 87447 1153364 1133097 20267
is_linear=0
shrinkage=0.131703


Tree=2
num_leaves=8
num_cat=0
split_feature=39 71 67 12 12 21 67
split_gain=72.9987 23.0956 17.8925 14.968 9.97078 6.92484 3.24333
threshold=0.016264741308987144 0.63930538296699535 3.521100759506226 16.064999580383304 16.064999580383304 52.359163284301765 -0.010007346980273722
decision_type=2 2 2 2 2 2 2
left_child=1 4 3 -2 -1 -4 -3
right_child=2 6 5 -5 -6 -7 -8
leaf_value=-0.031199860973976434 0.030627025615203505 -0.005409457975819508 0.067014633261151091 0.0074471997959250332 -0.01334693919727732 0.010239027646156596 0.0083351832629339293
leaf_weight=740.31248320260784 640.42466676564072 468.52219145866911 154.25057949838083 1951.4305640720049 2052.5750487249352 50.615353956149193 804.99266808249013
leaf_count=397312 22797 102744 1633 104827 1096675 789 113273
internal_value=-0.000154829 -0.0114158 0.0162124 0.0132076 -0.0181116 0.0533864 0.00327749
internal_weight=6863.12 4066.4 2796.72 2591.86 2792.89 204.866 1273.51
internal_count=1840050 1710004 130046 127624 1493987 2422 216017
is_linear=0
shrinkage=0.131703


Tree=3
num_leaves=8
num_cat=0
split_feature=68 40 20 67 69 14 12
split_gain=65.2479 18.216 7.60822 6.47544 6.20859 4.54508 2.57841
threshold=0.092968706041574492 1.7920992970466616 -0.032346302643418305 3.521100759506226 -0.5553506314754485 0.82393971085548412 14.47499990463257
decision_type=2 2 2 2 2 2 2
left_child=4 2 -2 -3 6 -6 -1
right_child=1 3 -4 -5 5 -7 -8
leaf_value=-0.027105530020896291 0.012385089465883735 0.014308763387817435 -0.004537093862736488 0.032183229234403955 -0.022513302743681428 0.018853454325133082 0.0008797986794231834
leaf_weight=64.593791013583541 670.7950253666495 1861.7455803071352 1452.9372517755692 434.93694817350479 1747.6325754330901 44.860771114646923 354.84965454417397
leaf_count=34734 59051 94569 411366 4708 1045757 27779 162040
internal_value=0.000376538 0.00961579 0.000819123 0.0177366 -0.0180738 -0.021444 -0.00361379
internal_weight=6632.35 4420.41 2123.73 2296.68 2211.94 1792.49 419.443
internal_count=1840004 569694 470417 99277 1270310 1073536 196774
is_linear=0
shrinkage=0.131703


Tree=4
num_leaves=8
num_cat=0
split_feature=68 39 35 42 15 68 3
split_gain=48.8296 11.4181 8.13726 5.77138 5.76908 5.33568 3.03142
threshold=0.16763766109943393 0.020240733399987224 2.167326927185059 0.031529018655419357 -0.1642043739557266 -0.23077445477247235 -0.17168737202882764
decision_type=2 2 2 2 2 2 2
left_child=4 3 -3 -2 6 -6 -1
right_child=1 2 -4 -5 5 -7 -8
leaf_value=0.024981355002016856 0.025002268551584973 0.011337636905938869 0.032277921866538585 -0.0013803140116106117 -0.019875014369357964 -0.0066736254458030896 -0.098663072744785432
leaf_weight=2.6849015746265676 153.94190471034381 2012.3532648333639 382.0462571461976 1669.281593270236 1328.1132836232428 891.64273830523598 17.191748184122844
leaf_count=694 17286 78621 3046 413339 875682 440473 10752
internal_value=0.000402885 0.00874708 0.0147202 0.000889799 -0.0153 -0.0145907 -0.0807389
internal_weight=6457.26 4217.62 2394.4 1823.22 2239.63 2219.76 19.8766
internal_count=1839893 512292 81667 430625 1327601 1316155 11446
is_linear=0
shrinkage=0.131703


Tree=5
num_leaves=8
num_cat=0
split_feature=50 61 13 10 32 8 58
split_gain=32.2187 12.1788 9.96028 8.80612 7.51411 4.37177 2.90501
threshold=0.63880854845047008 0.9584263563156129 0.040773101150989539 0.98415443301200878 1.0000000180025095e-35 0.69705426692962658 0.48004803061485296
decision_type=2 2 2 2 2 2 2
left_child=2 3 5 -2 -3 -1 -4
right_child=1 4 6 -5 -6 -7 -8
leaf_value=-0.016574494182672272 0.002922255507070053 0.062410805997112233 0.045384515007470629 -0.038130766516684865 0.014721490431469302 -0.070876006643249334 -0.0024550095210152706
leaf_weight=1627.4425469556591 3287.575460884007 57.341455415589735 53.759768406409421 89.787659271751181 1163.1733431054163 23.077853347116616 35.247653360987897
leaf_count=1105125 619221 1402 31685 10623 32334 15426 24460
internal_value=9.78432e-05 0.00587429 -0.0151518 0.00179335 0.0171302 -0.0174788 0.0270477
internal_weight=6337.41 4597.88 1739.53 3377.36 1220.51 1650.52 89.0074
internal_count=1840276 663580 1176696 629844 33736 1120551 56145
is_linear=0
shrinkage=0.131703


Tree=6
num_leaves=8
num_cat=0
split_feature=38 32 65 17 4 48 21
split_gain=22.6714 10.1324 6.9676 6.14521 5.78454 5.16199 4.92497
threshold=0.0035707606002688412 1.0000000180025095e-35 -0.81662774085998524 47.977159500122077 -15.710625648498533 0.99648401141166698 68.099781036376967
decision_type=2 2 2 2 2 2 2
left_child=2 4 3 -1 -2 -3 -4
right_child=1 5 6 -5 -6 -7 -8
leaf_value=-0.0092469172398593515 0.058557645192763109 0.0038572937369120842 -0.012427148978022608 0.01625801514316241 0.0064913918640033402 0.020852699257287534 0.040426680605933782
leaf_weight=321.07733784429729 99.028560850449139 2767.7427335997781 2317.7097255431145 327.87961215578252 59.429846547893248 346.12161907972768 27.741655586985871
leaf_count=71375 2632 342373 1332261 66913 2006 4519 17704
internal_value=-0.000129772 0.0074443 -0.00840591 0.00365662 0.0395807 0.00576727 -0.011744
internal_weight=6266.73 3272.32 2994.41 648.957 158.458 3113.86 2345.45
internal_count=1839783 351530 1488253 138288 4638 346892 1349965
is_linear=0
shrinkage=0.131703


Tree=7
num_leaves=8
num_cat=0
split_feature=68 22 7 67 21 69 21
split_gain=22.8474 11.8914 6.5101 5.247 4.787 3.15712 2.81016
threshold=0.15814064443111422 0.0034355678362771873 0.87223976850509655 0.57598471641540538 68.099781036376967 -0.44260290265083307 72.054122924804702
decision_type=2 2 2 2 2 2 2
left_child=4 2 -2 -3 5 -1 -6
right_child=1 3 -4 -5 6 -7 -8
leaf_value=-0.003444363991431366 0.018580544515461917 -0.0019608959987461065 0.061589705204353397 0.0078169786777491888 0.068167353605142214 -0.015471218785582937 -0.0084868494424278178
leaf_weight=511.86882819498715 275.50234311714303 1758.0289526368433 77.193570610543247 2069.8244755008491 17.218090458220107 1477.1212257090228 12.724998731544472
leaf_count=274150 7593 395851 1027 114642 11277 1026494 8913
internal_value=-8.23509e-05 0.00547328 0.0284952 0.00332848 -0.0115761 -0.0123874 0.0380546
internal_weight=6199.48 4180.55 352.696 3827.85 2018.93 1988.99 29.9431
internal_count=1839947 519113 8620 510493 1320834 1300644 20190
is_linear=0
shrinkage=0.131703


Tree=8
num_leaves=8
num_cat=0
split_feature=34 52 29 3 50 21 3
split_gain=16.9027 12.671 6.68286 5.15402 4.17725 3.18129 2.90182
threshold=0.00072644179454073321 0.03962484002113343 0.20974408835172656 -0.21279523521661756 0.88213735818862926 69.419006347656264 -0.10855763405561446
decision_type=2 2 2 2 2 2 2
left_child=4 2 -2 -3 5 -1 -6
right_child=1 3 -4 -5 6 -7 -8
leaf_value=-0.010643471650106446 -0.011273077742731084 0.020701812721123647 0.049033718707146054 0.0021763605475800646 0.017316677632683658 0.03383679387309442 -0.0030309995165864745
leaf_weight=2341.9230714158621 37.876042289572069 286.66379411268281 165.73177100653993 2566.8871001893131 151.89932993374532 24.987283936730819 556.43326396201155
leaf_count=1374087 4833 4943 9242 317232 11168 12435 105099
internal_value=-0.000583543 0.00634778 0.0378134 0.00406001 -0.00747356 -0.0101257 0.00139446
internal_weight=6132.4 3057.16 203.608 2853.55 3075.24 2366.91 708.333
internal_count=1839039 336250 14075 322175 1502789 1386522 116267
is_linear=0
shrinkage=0.131703


Tree=9
num_leaves=8
num_cat=0
split_feature=43 22 47 47 35 74 2
split_gain=17.1903 11.0511 9.27361 6.32119 4.92257 4.71124 4.03308
threshold=0.14727031439542773 0.0034355678362771873 0.9727708399295808 0.96472784876823436 1.0615044832229616 0.10041659325361253 0.23330225050449374
decision_type=2 2 2 2 2 2 2
left_child=1 4 6 -3 -1 -4 -2
right_child=2 3 5 -5 -6 -7 -8
leaf_value=0.012275455961632291 -0.0093634000703415512 0.0008758693064076082 -0.032235937324647863 0.020418329222856055 0.040816869880013429 0.010405772106099352 -0.067009848972747935
leaf_weight=208.49166510760551 2768.6922240252024 1865.9496570318297 45.093122031423263 335.96831673884299 216.28415849848534 626.63535102209426 17.895621526084142
leaf_count=7217 1523642 248718 1256 8103 6321 42705 2455
internal_value=-0.000370512 0.00765611 -0.00646856 0.00388476 0.0270182 0.00739424 -0.00981532
internal_weight=6085.01 2626.69 3458.32 2201.92 424.776 671.728 2786.59
internal_count=1840417 270359 1570058 256821 13538 43961 1526097
is_linear=0
shrinkage=0.131703


Tree=10
num_leaves=8
num_cat=0
split_feature=67 29 59 62 47 64 35
split_gain=13.0646 8.30274 7.82819 6.14234 5.95464 2.62979 1.86014
threshold=0.51458242535591137 0.78065940737724315 0.90255358815193187 0.96888741850852977 0.98070457577705394 -2.2234642505645748 0.18556443601846698
decision_type=2 2 2 2 2 2 2
left_child=3 4 -3 5 -2 -1 -5
right_child=1 2 -4 6 -6 -7 -8
leaf_value=0.041566140457136289 4.4133894174347669e-05 0.029571007722275933 -0.051018586230150632 0.0057110752640965714 0.015099152271339514 -0.0089526066742942056 0.031889127365605993
leaf_weight=14.676316373050211 2127.2844953497406 332.03900344547583 19.239092106930912 286.8369361476507 576.53842915716814 2635.3720306410105 53.507517695252318
leaf_count=949 425947 7500 352 47751 8465 1343212 5456
internal_value=-0.000294813 0.0057593 0.0247075 -0.0064795 0.00326941 -0.00861957 0.0101034
internal_weight=6045.49 3055.1 351.278 2990.39 2703.82 2650.05 340.344
internal_count=1839632 442264 7852 1397368 434412 1344161 53207
is_linear=0
shrinkage=0.131703


Tree=11
num_leaves=8
num_cat=0
split_feature=44 31 47 10 39 10 14
split_gain=15.5199 9.85881 7.32878 7.66003 7.27433 6.07487 3.82251
threshold=0.097596552222967162 -0.00049761199625208963 0.96472784876823436 0.88946256041526806 0.13180161267519 0.24172177910804751 0.83621650934219371
decision_type=2 2 2 2 2 2 2
left_child=1 4 6 -4 -1 -3 -2
right_child=2 5 3 -5 -6 -7 -8
leaf_value=0.00076117816806000552 -0.0087826328716650096 0.037894068922523921 0.0079937923291999169 -0.024055329079441294 0.041535702669944365 0.01076915560549613 0.027347376992731067
leaf_weight=1192.9647800846724 2901.46819839417 280.2513903164363 1048.8961981364992 144.1382890699897 77.643107273266651 297.02055914734956 48.456640946445987
leaf_count=133922 1569777 12992 55332 7493 1744 30392 28283
internal_value=-0.0001615 0.00986498 -0.00463809 0.00406391 0.00335769 0.0240835 -0.00815812
internal_weight=5990.84 1847.88 4142.96 1193.03 1270.61 577.272 2949.92
internal_count=1839935 179050 1660885 62825 135666 43384 1598060
is_linear=0
shrinkage=0.131703


Tree=12
num_leaves=8
num_cat=0
split_feature=69 71 17 30 22 43 43
split_gain=11.0523 6.43407 4.84246 5.29864 3.78598 3.61346 2.89044
threshold=-0.72629269957542408 0.3186058253049851 56.955621719360359 8.0598168373107928 1.0000000180025095e-35 0.064079307019710555 0.99649226665496837
decision_type=2 2 2 2 2 2 2
left_child=2 4 3 -1 -2 -4 -3
right_child=1 6 5 -5 -6 -7 -8
leaf_value=0.0018513125569249616 0.015980346793817827 -0.00068223099220617641 0.038405729113323538 0.019298368551237437 -0.010270510950394154 0.00328518456950074 0.014158688426980754
leaf_weight=1608.1764340986847 96.815379604464397 1276.398820578208 137.55565176880918 368.58100044651655 2113.8737330872682 80.547895027819322 273.54509415707435
leaf_count=236325 15994 323824 4654 7086 1227327 19236 5809
internal_value=-0.000208444 -0.00454176 0.00721161 0.00513223 -0.0090979 0.025687 0.00196228
internal_weight=5955.49 3760.63 2194.86 1976.76 2210.69 218.104 1549.94
internal_count=1840255 1572954 267301 243411 1243321 23890 329633
is_linear=0
shrinkage=0.131703


Tree=13
num_leaves=8
num_cat=0
split_feature=52 36 28 26 14 73 26
split_gain=11.0817 13.4176 10.4172 6.1002 5.07418 3.45222 3.2074
threshold=0.08286356553435327 0.37827976047992712 0.018740897066891197 -0.12546934932470319 0.77148437500000011 -2.0042655467987056 -0.0029364451766014095
decision_type=2 2 2 2 2 2 2
left_child=1 5 -3 4 -2 -1 -5
right_child=3 2 -4 6 -6 -7 -8
leaf_value=0.033223432630213365 0.019269121071641599 0.058629503224053088 0.016022489011080238 0.0003125868685325908 -0.039580304488388479 -0.0097320306620816231 -0.0065655188687147106
leaf_weight=32.707734686380718 320.08630946013727 136.02618229517248 362.96465892315609 2225.2785044995253 24.411120474338531 321.05391828675056 2489.7959671814169
leaf_count=3017 6082 1909 28041 477745 358 120841 1201893
internal_value=0.0002617 0.0141194 0.0279575 -0.00208183 0.0147506 -0.00548004 -0.00332149
internal_weight=5912.32 852.752 498.991 5059.57 344.497 353.762 4715.07
internal_count=1839886 153808 29950 1686078 6440 123858 1679638
is_linear=0
shrinkage=0.131703


Tree=14
num_leaves=8
num_cat=0
split_feature=68 10 37 9 14 12 12
split_gain=9.57464 7.32567 8.42526 3.893 3.81656 3.37545 2.68344
threshold=-0.12795039266347882 0.08642746135592462 0.0024955038679763679 9.5110082626342791 0.84012275934219371 13.114999771118166 20.360000610351566
decision_type=2 2 2 2 2 2 2
left_child=4 2 -2 -3 6 -6 -1
right_child=1 3 -4 -5 5 -7 -8
leaf_value=-0.0047893846652780053 -0.0045299938089017749 -0.0045836296912281005 0.022467692675019069 0.0041303011255330712 -0.0087911295492120317 0.086718304360489509 -0.016462777665695018
leaf_weight=710.35977459137212 298.33021296476363 1593.018517048884 601.77081272174837 2004.2880194745812 11.215910773724319 9.9893726712907647 661.85237262344162
leaf_count=528030 51425 270991 30551 473070 8010 7110 470900
internal_value=-2.23325e-05 0.00293392 0.0135361 0.000270718 -0.00954792 0.0419872 -0.0104468
internal_weight=5890.82 4497.41 900.101 3597.31 1393.42 21.2053 1372.21
internal_count=1840087 826037 81976 744061 1014050 15120 998930
is_linear=0
shrinkage=0.131703


Tree=15
num_leaves=8
num_cat=0
split_feature=16 36 35 47 12 22 45
split_gain=8.02138 7.75013 6.42088 5.69855 5.59915 5.27412 4.84046
threshold=-0.24367160350084302 2.0796010494232182 0.14692084491252902 0.9727708399295808 34.565000534057624 1.0000000180025095e-35 0.84012460708618175
decision_type=2 2 2 2 2 2 2
left_child=1 2 -1 5 -3 -2 -5
right_child=3 4 -4 6 -6 -7 -8
leaf_value=-0.051772879029828682 0.0090516546558437622 0.03070537681760024 0.014381386512461253 0.028828869243292057 0.10475759549297176 -0.0051978934638516154 0.0035101473594702473
leaf_weight=25.926879869599361 505.88263686581922 78.213843398843892 189.66991405459703 147.80994490123703 21.695825009257533 3917.7459729686234 989.07770434950362
leaf_count=1259 25607 914 4189 7821 948 1756788 42866
internal_value=-0.000260618 0.0200525 0.00574118 -0.00142484 0.0497217 -0.00356256 0.00687862
internal_weight=5876.02 315.506 215.597 5560.52 99.9097 4423.63 1136.89
internal_count=1840392 7310 5448 1833082 1862 1782395 50687
is_linear=0
shrinkage=0.131703


Tree=16
num_leaves=8
num_cat=0
split_feature=44 10 39 37 33 9 33
split_gain=10.8781 7.28864 4.67712 4.67056 4.25736 4.85732 3.04545
threshold=0.11651656031608583 0.03939484246075154 0.016264741308987144 0.04426978528499604 0.01532910577952862 9.6884570121765154 0.011407545302063228
decision_type=2 2 2 2 2 2 2
left_child=1 2 -1 -3 6 -6 -2
right_child=4 3 -4 -5 5 -7 -8
leaf_value=0.011893956585235545 -0.0045326173530969146 0.0019862060025610346 0.045262581587945355 0.020559033522159736 -0.0028703746283554946 0.030754368281242409 -0.031329240631754247
leaf_weight=165.67426539954613 3375.5197066515684 1526.5651885077532 131.63713539554738 274.35992823701235 178.42958392959554 123.89228256698698 71.918913220870309
leaf_count=8437 1610562 199403 1623 4479 5608 4657 5168
internal_value=0.000442926 0.0080291 0.0270154 0.00484935 -0.00380544 0.0110984 -0.00512217
internal_weight=5848 2098.24 297.311 1800.93 3749.76 302.322 3447.44
internal_count=1839937 213942 10060 203882 1625995 10265 1615730
is_linear=0
shrinkage=0.131703


Tree=17
num_leaves=8
num_cat=0
split_feature=69 12 5 12 12 21 48
split_gain=6.02206 5.76088 3.87287 7.02058 4.45464 3.28988 3.21543
threshold=-0.58875262737274159 41.959999084472663 0.079338457435369505 18.404999732971195 32.204999923706062 69.419006347656264 0.73795214295387279
decision_type=2 2 2 2 2 2 2
left_child=2 6 3 -1 -4 -3 -2
right_child=1 5 4 -5 -6 -7 -8
leaf_value=-0.0065914810700499231 -0.0066214921162589327 -0.056356106109457876 0.023938766002463002 0.0087561001765673833 -0.040231153092898937 0.032506697814845886 0.0016773362538960225
leaf_weight=826.22816081432393 1853.8238124014606 48.151126056967769 257.54346454536426 1369.3372654352279 17.159993980021682 6.123465653450693 1433.9351439588063
leaf_count=135168 1105419 22869 10349 200754 1458 4190 359910
internal_value=-8.80557e-05 -0.00373125 0.0048391 0.0029792 0.0194844 -0.0449951 -0.00300398
internal_weight=5812.3 3342.03 2470.27 2195.57 274.703 54.2746 3287.76
internal_count=1840117 1492388 347729 335922 11807 27059 1465329
is_linear=0
shrinkage=0.131703


Tree=18
num_leaves=8
num_cat=0
split_feature=10 29 18 62 16 42 51
split_gain=7.19028 8.44283 3.95107 3.64049 3.60912 3.45982 3.0659
threshold=0.39145301282405859 0.95418423414230358 -0.85680973529815663 0.0044943834654986867 -0.24367160350084302 0.050920758396387107 0.098493304103612914
decision_type=2 2 2 2 2 2 2
left_child=1 5 3 -2 -4 -1 -3
right_child=2 6 4 -5 -6 -7 -8
leaf_value=0.011422072619702739 -0.079851137021961061 0.0072030719263951925 0.014257107551744785 -0.0103450087239113 -0.0047068367070328384 0.00032380730736933984 0.042768419716370257
leaf_weight=645.72042265348136 19.126659826142713 63.783426983514801 182.42717311924207 34.02140512157348 2773.8033282156248 1954.4528333740163 129.7875247974589
leaf_count=43758 264 1636 3993 2600 1111615 672004 4616
internal_value=0.00027897 0.00508733 -0.0041855 -0.0386757 -0.00352141 0.00309137 0.0313786
internal_weight=5803.12 2793.74 3009.38 53.1481 2956.23 2600.17 193.571
internal_count=1840486 722014 1118472 2864 1115608 715762 6252
is_linear=0
shrinkage=0.131703


Tree=19
num_leaves=8
num_cat=0
split_feature=76 30 10 47 7 49 21
split_gain=5.23396 5.80354 5.62238 3.8262 2.31353 2.14434 1.56938
threshold=0.31619119644165045 8.0598168373107928 0.035406032577157028 0.97694686055183422 0.087497197091579451 0.094034630805253996 43.374006271362312
decision_type=2 2 2 2 2 2 2
left_child=1 3 -3 -1 6 -6 -2
right_child=4 2 -4 -5 5 -7 -8
leaf_value=-0.0022707222374896124 -0.079351026291138035 0.052455363402146724 0.0088200663820750726 0.0076919039503705695 0.01872689493375054 -0.032986005192203294 -0.028523268228007822
leaf_weight=4302.1599248537095 14.988486337941138 53.652328213764122 527.33441231618053 788.21479046571767 25.61345376027748 23.468322749715298 42.460266603069613
leaf_count=1784269 816 726 12538 35519 1569 2902 1889
internal_value=0.000151302 0.000702674 0.0131332 -0.000723907 -0.0283097 -0.006534 -0.0454991
internal_weight=5777.89 5671.36 580.987 5090.37 106.531 49.0818 57.4488
internal_count=1840228 1833052 13264 1819788 7176 4471 2705
is_linear=0
shrinkage=0.131703


Tree=20
num_leaves=8
num_cat=0
split_feature=53 27 42 18 23 9 69
split_gain=4.66388 6.36935 4.92385 4.22519 3.77042 2.43972 2.27914
threshold=0.19780554622411731 -0.068717192858457551 0.028180803172290329 -0.56299743056297291 0.51132386922836315 9.4464678764343279 -1.9637829661369322
decision_type=2 2 2 2 2 2 2
left_child=1 3 6 -1 -3 -4 -2
right_child=2 4 5 -5 -6 -7 -8
leaf_value=0.062796407170399762 0.01977776820840621 0.0048473921513346851 -0.0092491935020493302 0.0094454541293561046 -0.037575141366170697 -0.0019511464185156706 0.0028417081496778037
leaf_weight=51.187903457030188 199.69935423944844 1360.2244213493977 1167.1993466401764 51.436758595489664 33.943661770405015 2481.5497795911797 433.39659026672598
leaf_count=1315 2646 357263 331311 3100 2235 1101265 40555
internal_value=-0.00021849 0.00610155 -0.00243092 0.0372244 0.00372503 -0.00429224 0.00826171
internal_weight=5778.64 1496.79 4281.85 102.625 1394.17 3648.75 633.096
internal_count=1839690 363913 1475777 4415 359498 1432576 43201
is_linear=0
shrinkage=0.131703


Tree=21
num_leaves=7
num_cat=0
split_feature=24 10 60 4 51 59
split_gain=5.7243 4.80901 4.96787 4.73027 3.42819 2.80339
threshold=0.016656904481351379 0.027523186989128593 0.59767326712608349 -63.522874832153313 0.031529018655419357 0.98090082406997692
decision_type=2 2 2 2 2 2
left_child=1 2 -1 -2 -5 -3
right_child=3 5 -4 4 -6 -7
leaf_value=0.017497139297034416 -0.056622593963401545 -0.0026145759613976248 -0.025998604801431659 -0.022250284574037559 0.022723758478449683 0.011667318287317834
leaf_weight=387.15702023434278 11.721489671152083 4699.7314468274853 48.498081914207432 29.505685427458957 333.54417071602074 247.77297592659306
leaf_count=33706 75 1746426 19248 551 6674 33198
internal_value=0.00037926 -0.000720614 0.01249 0.0160418 0.0188947 -0.00189174
internal_weight=5757.93 5383.16 435.655 374.771 363.05 4947.5
internal_count=1839878 1832578 52954 7300 7225 1779624
is_linear=0
shrinkage=0.131703


Tree=22
num_leaves=8
num_cat=0
split_feature=29 52 12 12 53 9 11
split_gain=5.71974 10.1262 7.02267 6.01712 5.83924 2.41085 1.95862
threshold=0.85021004080772411 0.75677344202995311 13.795000076293947 41.959999084472663 0.51276618242263805 9.6938934326171893 -1.7850859165191648
decision_type=2 2 2 2 2 2 2
left_child=3 2 -2 5 -3 -1 -5
right_child=1 4 -4 6 -6 -7 -8
leaf_value=-0.0042287913097489452 0.067684839757579038 0.0013174915922121565 0.015180030764029054 0.022626107510838614 -0.056067270407074189 0.0015023718684586452 -0.051498525900837533
leaf_weight=2429.7342512822797 46.626570402353536 79.707036456733476 417.57373927271692 5.0476552880427326 46.505237790581305 2667.6580935789243 49.902659421786666
leaf_count=671404 989 2521 15293 3216 2206 1118575 25645
internal_value=-0.000303129 0.011937 0.0209105 -0.00171276 -0.0207466 -0.00123043 -0.0437602
internal_weight=5742.76 590.413 464.2 5152.34 126.212 5097.39 54.9503
internal_count=1839849 21009 16282 1818840 4727 1789979 28861
is_linear=0
shrinkage=0.131703


Tree=23
num_leaves=8
num_cat=0
split_feature=68 10 2 51 12 12 12
split_gain=4.74806 3.37446 4.13271 2.48668 1.99339 3.03371 2.8977
threshold=-0.37491710484027857 0.043364459648728378 -0.15325008332729337 0.39425222575664526 20.360000610351566 13.744999885559084 20.619999885559086
decision_type=2 2 2 2 2 2 2
left_child=4 2 -2 -3 5 -1 -6
right_child=1 3 -4 -5 6 -7 -8
leaf_value=-0.021251884990427516 0.042947292743234985 -0.0027298037668320877 0.0071082017301560491 0.0037285562545690577 -0.069822984455502723 0.0030615895616220761 -0.012627156779061731
leaf_weight=112.68291471200064 58.215134372876491 2141.1355056833563 621.20191428644466 1993.7522742325382 12.753379497211425 378.85844208672643 431.96858366459492
leaf_count=85317 682 504589 49535 589162 9414 281279 320199
internal_value=0.000131253 0.00180157 0.0103789 0.000384741 -0.0084327 -0.00262006 -0.0147879
internal_weight=5750.57 4814.3 679.417 4134.89 936.263 491.541 444.722
internal_count=1840177 1143968 50217 1093751 696209 366596 329613
is_linear=0
shrinkage=0.131703


Tree=24
num_leaves=8
num_cat=0
split_feature=29 50 23 67 11 30 59
split_gain=3.54365 3.64085 4.33878 3.23779 3.26324 2.96353 1.79267
threshold=1.1609238386154177 0.96527156233787548 0.0091558457352221029 3.521100759506226 -2.5979478359222408 4.985114812850953 0.03155056573450566
decision_type=2 2 2 2 2 2 2
left_child=3 5 -3 6 -5 -2 -1
right_child=1 2 -4 4 -6 -7 -8
leaf_value=-0.0095009416617862514 0.006884860713150448 0.048808947943645778 0.0011737459801159484 -0.018179553064064258 0.014741888338806948 0.088332086022859371 -0.001028017036023475
leaf_weight=475.42794401792344 13.902033971098719 35.914101512171328 212.78896028912277 57.872534822206944 364.71397471500677 16.083421850868035 4552.851001467905
leaf_count=56597 1367 382 4792 1190 13283 315 1762226
internal_value=-0.000157807 0.0142357 0.00862177 -0.000902202 0.0101232 0.0551454 -0.00183508
internal_weight=5729.55 278.689 248.703 5450.87 422.587 29.9855 5028.28
internal_count=1840152 6856 5174 1833296 14473 1682 1818823
is_linear=0
shrinkage=0.131703


Tree=25
num_leaves=8
num_cat=0
split_feature=10 37 36 15 29 15 15
split_gain=3.71213 5.56257 4.50193 3.54002 2.5535 6.70028 2.75218
threshold=0.03939484246075154 0.00261756603140384 0.19113978743553164 -0.091809846460819231 1.1609238386154177 -0.039882959797978394 -0.1642043739557266
decision_type=2 2 2 2 2 2 2
left_child=1 3 -3 -1 6 -6 -2
right_child=4 2 -4 -5 5 -7 -8
leaf_value=-0.06860693570771817 -0.039792516944257818 -0.028160686034522778 0.021263903785056385 -0.0026444567150744648 0.046168135569946436 -0.00083799049065217605 -0.0011850685251509681
leaf_weight=11.638425137294687 28.83249013335444 31.560832517046947 436.4075056030415 230.93807918728271 68.447448867518688 195.72800862905569 4731.6671290010709
leaf_count=2859 14653 4440 11353 56437 2872 3696 1743609
internal_value=0.000517549 0.00940397 0.0177502 -0.00671939 -0.000744594 0.0117748 -0.00144732
internal_weight=5735.22 710.545 467.968 242.577 5024.68 264.175 4760.5
internal_count=1839919 75089 15793 59296 1764830 6568 1758262
is_linear=0
shrinkage=0.131703


Tree=26
num_leaves=8
num_cat=0
split_feature=36 52 48 38 23 21 58
split_gain=2.8068 6.37529 4.791 4.46827 4.8535 3.41162 3.29875
threshold=1.7618702054023745 0.86972504854202282 0.94875040650367748 0.096101123839616789 0.17095175385475161 58.458963394165046 0.99269047379493724
decision_type=2 2 2 2 2 2 2
left_child=3 2 -2 6 -5 -3 -1
right_child=1 5 -4 4 -6 -7 -8
leaf_value=-0.00094125904132899183 0.0045237240310440872 -0.036405008057068852 0.029410526382202533 -0.056438215088698424 -0.0056461174356892676 0.043484748398493679 0.01564819166020753
leaf_weight=4676.3415247295052 417.87725946272258 69.264867082965793 195.35270861611934 47.531580717623001 93.248874614218948 7.6986102201626627 214.15944807228516
leaf_count=1799263 22845 3299 2643 1424 1812 547 8428
internal_value=0.000203936 0.00805833 0.0125711 -0.000878239 -0.0237277 -0.026902 -0.000204333
internal_weight=5721.47 690.193 613.23 5031.28 140.78 76.9635 4890.5
internal_count=1840261 29334 25488 1810927 3236 3846 1807691
is_linear=0
shrinkage=0.131703


Tree=27
num_leaves=8
num_cat=0
split_feature=53 37 9 1 19 2 53
split_gain=4.02892 5.57316 3.48791 2.67023 2.43063 2.45085 2.13962
threshold=0.15070938318967822 0.033964360132813461 9.3917050361633319 -0.089865576475858674 1.0000000180025095e-35 -0.082427032291889177 0.99639424681663524
decision_type=2 2 2 2 2 2 2
left_child=1 3 -3 -1 5 -2 -6
right_child=4 2 -4 -5 6 -7 -8
leaf_value=-0.013348747248876374 0.031482524556173036 0.0053500706066713965 0.037801257500147331 0.0051557810059176534 -0.0020210284329282863 -0.03681605151364329 0.014359391959091803
leaf_weight=156.49310241424246 8.0934984570485522 98.638204912334913 138.65498359646881 876.35237131282338 4247.7468750993867 54.927472870738711 139.57906022778479
leaf_count=4462 322 1750 2627 268671 1535532 20739 7146
internal_value=-9.83437e-07 0.00653134 0.0245802 0.00231708 -0.00186894 -0.0268736 -0.00148909
internal_weight=5720.49 1270.14 237.293 1032.85 4450.35 63.021 4387.33
internal_count=1841249 277510 4377 273133 1563739 21061 1542678
is_linear=0
shrinkage=0.131703


Tree=28
num_leaves=8
num_cat=0
split_feature=16 12 21 30 12 21 75
split_gain=3.65596 5.11818 4.81912 4.31762 3.93075 2.8554 1.45811
threshold=-0.24367160350084302 25.319999694824222 68.099781036376967 10.578788757324221 46.750000000000007 68.099781036376967 -0.18991320580244062
decision_type=2 2 2 2 2 2 2
left_child=1 3 -3 -1 6 -6 -2
right_child=4 2 -4 -5 5 -7 -8
leaf_value=-0.025630917170204021 -0.014609663505103709 0.042712759749352611 -0.024695679262852738 0.014641228639100048 -0.05196197523467553 0.025529271675534163 -0.0003115905953794649
leaf_weight=71.235418112657499 123.31681798116188 115.28618028938945 19.450097297376487 117.64494968799409 38.551358551121666 8.0467675828258489 5205.327847211287
leaf_count=1021 6115 3523 1532 1250 18386 5452 1803212
internal_value=-0.00017508 0.0133452 0.0326103 -0.000731972 -0.000997064 -0.0377467 -0.000651668
internal_weight=5698.86 323.617 134.736 188.88 5375.24 46.5981 5328.64
internal_count=1840491 7326 5055 2271 1833165 23838 1809327
is_linear=0
shrinkage=0.131703


Tree=29
num_leaves=8
num_cat=0
split_feature=27 53 38 27 71 13 48
split_gain=4.50857 3.81307 3.6126 3.5731 1.9041 2.79338 2.74359
threshold=-0.034798996523022645 0.15070938318967822 0.013270750641822817 -0.058241687715053551 5.4827861785888681 -0.024580651894211766 0.99247899651527416
decision_type=2 2 2 2 2 2 2
left_child=1 2 -1 -3 6 -6 -2
right_child=4 3 -4 -5 5 -7 -8
leaf_value=-0.0053802653228663877 -0.0015751383573593342 -0.01300294112158914 0.032595913228889488 0.015117651969930862 0.049071748811762954 0.0047010574151826832 -0.021314389276298758
leaf_weight=55.897453574172687 4781.2135849335027 150.07326685810403 178.74716097269265 156.77040685810789 24.322680478799157 227.84719719376881 121.96085415556445
leaf_count=11122 1763946 15950 4421 32288 576 5526 6218
internal_value=-0.00030097 0.0110925 0.0236011 0.00137194 -0.00150427 0.00958056 -0.00208067
internal_weight=5696.83 541.488 234.645 306.844 5155.34 252.17 4903.17
internal_count=1840047 63781 15543 48238 1776266 6102 1770164
is_linear=0
shrinkage=0.131703


Tree=30
num_leaves=8
num_cat=0
split_feature=5 64 51 64 52 35 11
split_gain=3.46615 4.54568 8.14557 3.97895 5.17537 3.0781 2.66482
threshold=-0.29101584851741785 -1.0290541052818296 0.20619419962167743 -1.6081356406211851 0.027634406462311748 1.0032854676246645 3.2986643314361577
decision_type=2 2 2 2 2 2 2
left_child=1 2 -1 4 -2 -3 -5
right_child=3 5 -4 6 -6 -7 -8
leaf_value=-0.042369596065499178 0.031444455218912794 0.021460386057898649 0.028308343234847749 -0.0023799725308623239 0.0034216887540470149 0.073319415762293047 0.016788079200965211
leaf_weight=47.769850834447425 133.49893837989657 94.258973558957223 59.831468679753016 4506.0595713617367 699.64783757735859 23.754333798409789 126.03052613566979
leaf_count=889 4239 4161 1418 1738842 82963 706 6524
internal_value=0.000327072 0.0162 -0.00340619 -0.000337878 0.00802226 0.0336705 -0.00184641
internal_weight=5690.85 225.615 107.601 5465.24 833.147 118.013 4632.09
internal_count=1839742 7174 2307 1832568 87202 4867 1745366
is_linear=0
shrinkage=0.131703


Tree=31
num_leaves=8
num_cat=0
split_feature=41 9 18 75 23 75 76
split_gain=4.39811 3.40438 5.0548 3.02071 1.87324 2.67348 2.12115
threshold=0.76080220937728893 9.5722780227661151 -0.57492512464523304 -0.012051946483552454 0.14869416505098346 -0.18991320580244062 0.31619119644165045
decision_type=2 2 2 2 2 2 2
left_child=4 3 -3 -2 5 -1 -6
right_child=1 2 -4 -5 6 -7 -8
leaf_value=-0.033134618406667128 0.0066403644002662621 0.046373904360309331 0.0094718672111109084 -0.028180457065673514 0.0027258931449625021 -0.0025635306302593574 -0.019660339571953907
leaf_weight=47.150320943212137 287.59073581892881 89.653380241448758 217.12093106409884 47.339413215726381 2186.1355087614938 2746.2034876254038 72.573522365186363
leaf_count=2685 21255 2511 44754 7444 728161 1028596 4333
internal_value=0.000466374 0.0107068 0.0206491 0.00148323 -0.000840679 -0.00311949 0.00197791
internal_weight=5693.77 641.704 306.774 334.93 5052.06 2793.35 2258.71
internal_count=1839739 75964 47265 28699 1763775 1031281 732494
is_linear=0
shrinkage=0.131703


Tree=32
num_leaves=8
num_cat=0
split_feature=16 62 15 17 32 47 21
split_gain=3.0218 4.47798 4.05271 3.53087 3.4424 2.69195 2.03689
threshold=-0.24367160350084302 0.0044943834654986867 -0.1642043739557266 28.649350166320804 0.81302055716514599 0.0081632658839225786 71.450023651123061
decision_type=2 2 2 2 2 2 2
left_child=1 3 6 -1 -3 -4 -2
right_child=2 4 5 -5 -6 -7 -8
leaf_value=0.010932303206291257 -0.064278569453896872 0.025275514703811192 -0.011682106433103034 -0.03634007298869453 -0.052062746870246465 0.00057917740198173799 0.03156787731905366
leaf_weight=59.294855070009362 20.942914705228763 230.00554000257398 327.77921170048648 45.742158131790347 7.3122580994968294 4988.3305935213139 2.4365783223183817
leaf_count=424 11991 6286 15303 368 296 1803319 1819
internal_value=0.000330872 0.0122628 -0.0004415 -0.0101491 0.0221864 -0.000183814 -0.0515303
internal_weight=5681.84 342.355 5339.49 105.037 237.318 5316.11 23.3795
internal_count=1839806 7374 1832432 792 6582 1818622 13810
is_linear=0
shrinkage=0.131703


Tree=33
num_leaves=8
num_cat=0
split_feature=2 5 12 10 12 3 3
split_gain=3.03633 3.95566 6.42909 5.13757 2.16153 3.92063 1.91917
threshold=-0.046845043078064912 0.056500839069485671 18.404999732971195 0.8273180127143861 34.565000534057624 0.056623820215463645 -0.10241608321666716
decision_type=2 2 2 2 2 2 2
left_child=1 2 -1 -3 6 -6 -2
right_child=4 3 -4 -5 5 -7 -8
leaf_value=-0.01001402519937953 -0.020549071198740429 0.028729221767028166 0.0074847135993078642 -0.029984231755672577 -0.00056885649812512141 -0.052738520532869891 -0.0013587965029602262
leaf_weight=530.83919060602784 89.329086369107245 185.19861238609883 1141.0509584344545 27.107916029926855 63.933630444284063 37.686110473252484 3612.3803137110081
leaf_count=47744 12356 6195 145776 1227 33656 12729 1580385
internal_value=-0.00022952 0.00408944 0.00191952 0.0208753 -0.00237096 -0.0210046 -0.00184047
internal_weight=5687.53 1884.2 1671.89 212.307 3803.33 101.62 3701.71
internal_count=1840068 200942 193520 7422 1639126 46385 1592741
is_linear=0
shrinkage=0.131703


Tree=34
num_leaves=8
num_cat=0
split_feature=69 13 36 13 2 76 60
split_gain=4.55725 6.28857 5.485 3.15255 4.93392 4.28025 3.12707
threshold=-0.59998351335525502 0.039593145251274116 1.7618702054023745 0.04793177358806134 0.060687543824315078 0.16785148531198504 0.43309970200061804
decision_type=2 2 2 2 2 2 2
left_child=1 2 -1 5 -5 -2 -3
right_child=3 6 -4 4 -6 -7 -8
leaf_value=-1.9371408771655079e-05 -0.0047485665118852296 0.018049155920710016 0.017562912497878055 0.0073808992913832402 -0.052242251687217398 0.0072625702595668353 0.061872448557254045
leaf_weight=1906.4768726951879 2532.511916424206 101.96345419599675 363.58660873898771 41.315742445643991 51.847361427906435 642.42551496427041 38.4126018351526
leaf_count=310906 1337826 9390 8433 24919 16627 119599 11101
internal_value=0.000174329 0.00451523 0.00281881 -0.00302869 -0.0264736 -0.00231295 0.0312281
internal_weight=5678.54 2410.44 2270.06 3268.1 93.1631 3174.94 140.376
internal_count=1838801 339830 319339 1498971 41546 1457425 20491
is_linear=0
shrinkage=0.131703


Tree=35
num_leaves=8
num_cat=0
split_feature=30 12 12 67 62 61 45
split_gain=3.87547 3.06405 3.56219 2.92018 3.84873 2.73637 1.43672
threshold=1.3860595226287844 41.959999084472663 29.875000000000004 1.3003765940666201 0.012268146965652706 0.90318080782890331 0.23594489693641665
decision_type=2 2 2 2 2 2 2
left_child=1 2 -1 4 -2 -5 -3
right_child=3 6 -4 5 -6 -7 -8
leaf_value=-0.003990477191637822 -0.022671721591399723 0.0061523403373324034 0.010625165828585682 0.066340840364369491 0.0022806856853727357 0.0089042977310752319 -0.04624358683814235
leaf_weight=2990.0497623678239 113.24984123790637 10.713477185054215 316.89625964361767 11.317364412039749 1320.8947494122549 864.46076604441623 37.429038513524574
leaf_count=1374874 2237 3377 138131 946 250845 46164 23666
internal_value=-0.000222764 -0.00307988 -0.00258032 0.00392545 0.000260923 0.0099018 -0.0349454
internal_weight=5665.01 3355.09 3306.95 2309.92 1434.14 875.778 48.1425
internal_count=1840240 1540048 1513005 300192 253082 47110 27043
is_linear=0
shrinkage=0.131703


Tree=36
num_leaves=8
num_cat=0
split_feature=72 17 64 15 3 64 68
split_gain=3.63415 3.66925 3.34593 3.08097 2.72964 2.6508 1.93509
threshold=2.3183931112289433 36.40766906738282 -1.5500989556312559 0.14465434104204181 -0.17168737202882764 -0.59086522459983815 -0.5429137349128722
decision_type=2 2 2 2 2 2 2
left_child=2 3 4 -2 -1 -3 -4
right_child=1 5 6 -5 -6 -7 -8
leaf_value=0.024140407128484111 0.0076103703381106063 0.021416696062323735 -0.0088745875533765561 -0.071543026699983803 0.0039345712068646239 0.072534139918132651 -0.00072163205673717414
leaf_weight=133.7230134937854 112.77469485352049 66.578014588158112 575.09367960802047 5.789035045891068 765.62867734151951 23.253349553793669 3979.1683686043689
leaf_count=1931 4838 5100 437186 292 98078 4348 1287642
internal_value=0.000350889 0.0172766 -0.000306269 0.00184746 0.00701917 0.0368247 -0.00175708
internal_weight=5662.01 208.395 5453.61 118.564 899.352 89.8314 4554.26
internal_count=1839415 14578 1824837 5130 100009 9448 1724828
is_linear=0
shrinkage=0.131703


Tree=37
num_leaves=8
num_cat=0
split_feature=41 16 12 18 67 72 26
split_gain=3.04007 3.50055 5.15847 3.21498 2.52879 2.42575 2.12679
threshold=0.02170583046972752 0.14973105490207675 36.975000381469734 -0.0695652700960636 1.3003765940666201 -1.1726499199867246 0.046496201306581504
decision_type=2 2 2 2 2 2 2
left_child=3 4 -3 5 -2 -1 -5
right_child=1 2 -4 6 -6 -7 -8
leaf_value=-0.012892634967191934 -0.0015400459302956492 0.015652216839993661 -0.064560066599102003 -0.0054784841793843369 0.0052196222397374401 -0.048516312838150846 0.023759301118744944
leaf_weight=281.70114019713947 3394.4975303920219 400.85043803389999 11.078312360652488 126.66305003591697 1334.5522160374967 35.133330679673236 61.320233710343018
leaf_count=56159 1526792 20174 4489 53308 164815 11957 1574
internal_value=0.000428586 0.00138838 0.012981 -0.00928902 0.000369909 -0.0173192 0.004312
internal_weight=5645.8 5140.98 411.929 504.818 4729.05 316.834 187.983
internal_count=1839268 1716270 24663 122998 1691607 68116 54882
is_linear=0
shrinkage=0.131703


Tree=38
num_leaves=8
num_cat=0
split_feature=50 19 4 35 10 61 61
split_gain=2.98031 4.54688 4.43098 3.87332 2.55054 4.26504 3.14123
threshold=0.9964829981327058 0.94842100143432628 -14.976003170013426 0.61739644408226024 0.39145301282405859 0.97851562500000011 0.97516739368438732
decision_type=2 2 2 2 2 2 2
left_child=4 3 -3 -2 5 -1 -6
right_child=1 2 -4 -5 6 -7 -8
leaf_value=-4.789227106373785e-05 0.0084087353146575488 0.079010201124884064 0.015865304107446042 -0.04484895617417884 -0.0018259080023268774 0.014911240637116198 -0.014926967787591065
leaf_weight=2273.0552192409814 204.85872744978406 26.50820728787221 60.926534640690079 23.316265497880522 2309.0005990442878 383.44008886284428 364.91168818408914
leaf_count=702074 5864 195 658 388 1085039 16849 29302
internal_value=-2.17599e-05 0.0123433 0.0372639 0.00238411 -0.000761363 0.00212764 -0.00363067
internal_weight=5646.02 315.61 87.4347 228.175 5330.41 2656.5 2673.91
internal_count=1840369 7105 853 6252 1833264 718923 1114341
is_linear=0
shrinkage=0.131703


Tree=39
num_leaves=8
num_cat=0
split_feature=72 12 9 40 68 46 12
split_gain=3.60746 3.43223 2.82957 2.35878 1.84647 2.17714 1.36626
threshold=2.1921700239181523 19.35000038146973 9.5110082626342791 20.218929290771488 -0.51587530970573414 0.012232509907335045 13.744999885559084
decision_type=2 2 2 2 2 2 2
left_child=4 3 -3 -2 6 -6 -1
right_child=1 2 -4 -5 5 -7 -8
leaf_value=-0.023766103054846756 -0.010338594419243953 0.0070235296396865196 0.039901034651512034 0.036187153047795732 -0.011838812962733446 0.00078094856451805693 -0.0051187724045808876
leaf_weight=74.447264671820449 110.95526429670281 85.074928176996764 98.500677382922731 19.240489919437096 247.1829900569719 4405.8021876965649 579.52870436175726
leaf_count=58885 10420 3945 6941 244 12650 1308094 437568
internal_value=-5.70658e-06 0.0136382 0.0250724 -0.00271171 -0.000820689 0.000102305 -0.00735436
internal_weight=5620.73 313.771 183.576 130.196 5306.96 4652.99 653.976
internal_count=1838747 21550 10886 10664 1817197 1320744 496453
is_linear=0
shrinkage=0.131703


end of trees

feature_importances:
Column_12=23
Column_10=12
Column_21=11
Column_9=8
Column_67=8
Column_68=8
Column_3=7
Column_47=7
Column_13=6
Column_15=6
Column_29=6
Column_35=6
Column_36=6
Column_69=6
Column_2=5
Column_16=5
Column_30=5
Column_39=5
Column_48=5
Column_50=5
Column_52=5
Column_53=5
Column_64=5
Column_11=4
Column_14=4
Column_17=4
Column_18=4
Column_22=4
Column_23=4
Column_26=4
Column_37=4
Column_43=4
Column_51=4
Column_61=4
Column_62=4
Column_4=3
Column_5=3
Column_27=3
Column_32=3
Column_38=3
Column_42=3
Column_58=3
Column_59=3
Column_71=3
Column_72=3
Column_75=3
Column_76=3
Column_7=2
Column_19=2
Column_33=2
Column_40=2
Column_41=2
Column_44=2
Column_45=2
Column_60=2
Column_74=2
Column_1=1
Column_6=1
Column_8=1
Column_20=1
Column_24=1
Column_28=1
Column_31=1
Column_34=1
Column_46=1
Column_49=1
Column_65=1
Column_73=1

parameters:
[boosting: gbdt]
[objective: lambdarank]
[metric: ndcg]
[tree_learner: serial]
[device_type: cpu]
[data_sample_strategy: bagging]
[data: ]
[valid: ]
[num_iterations: 297]
[learning_rate: 0.131703]
[num_leaves: 92]
[num_threads: 15]
[seed: 0]
[deterministic: 0]
[force_col_wise: 0]
[force_row_wise: 0]
[histogram_pool_size: -1]
[max_depth: 3]
[min_data_in_leaf: 183]
[min_sum_hessian_in_leaf: 0.001]
[bagging_fraction: 0.882902]
[pos_bagging_fraction: 1]
[neg_bagging_fraction: 1]
[bagging_freq: 1]
[bagging_seed: 6]
[bagging_by_query: 0]
[feature_fraction: 0.413365]
[feature_fraction_bynode: 1]
[feature_fraction_seed: 6]
[extra_trees: 0]
[extra_seed: 6]
[early_stopping_round: 0]
[early_stopping_min_delta: 0]
[first_metric_only: 0]
[max_delta_step: 0]
[lambda_l1: 0.0013242]
[lambda_l2: 3.4186]
[linear_lambda: 0]
[min_gain_to_split: 0]
[drop_rate: 0.1]
[max_drop: 50]
[skip_drop: 0.5]
[xgboost_dart_mode: 0]
[uniform_drop: 0]
[drop_seed: 4]
[top_rate: 0.2]
[other_rate: 0.1]
[min_data_per_group: 100]
[max_cat_threshold: 32]
[cat_l2: 10]
[cat_smooth: 10]
[max_cat_to_onehot: 4]
[top_k: 20]
[monotone_constraints: ]
[monotone_constraints_method: basic]
[monotone_penalty: 0]
[feature_contri: ]
[forcedsplits_filename: ]
[refit_decay_rate: 0.9]
[cegb_tradeoff: 1]
[cegb_penalty_split: 0]
[cegb_penalty_feature_lazy: ]
[cegb_penalty_feature_coupled: ]
[path_smooth: 0]
[interaction_constraints: ]
[verbosity: -1]
[saved_feature_importance_type: 0]
[use_quantized_grad: 0]
[num_grad_quant_bins: 4]
[quant_train_renew_leaf: 0]
[stochastic_rounding: 1]
[linear_tree: 0]
[max_bin: 255]
[max_bin_by_feature: ]
[min_data_in_bin: 3]
[bin_construct_sample_cnt: 200000]
[data_random_seed: 6]
[is_enable_sparse: 1]
[enable_bundle: 1]
[use_missing: 1]
[zero_as_missing: 0]
[feature_pre_filter: 1]
[pre_partition: 0]
[two_round: 0]
[header: 0]
[label_column: ]
[weight_column: ]
[group_column: ]
[ignore_column: ]
[categorical_feature: ]
[forcedbins_filename: ]
[precise_float_parser: 0]
[parser_config_file: ]
[objective_seed: 5]
[num_class: 1]
[is_unbalance: 0]
[scale_pos_weight: 1]
[sigmoid: 1]
[boost_from_average: 1]
[reg_sqrt: 0]
[alpha: 0.9]
[fair_c: 1]
[poisson_max_delta_step: 0.7]
[tweedie_variance_power: 1.5]
[lambdarank_truncation_level: 30]
[lambdarank_norm: 1]
[label_gain: ]
[lambdarank_position_bias_regularization: 0]
[eval_at: 1]
[multi_error_top_k: 1]
[auc_mu_weights: ]
[num_machines: 1]
[local_listen_port: 12400]
[time_out: 120]
[machine_list_filename: ]
[machines: ]
[gpu_platform_id: -1]
[gpu_device_id: -1]
[gpu_use_dp: 0]
[num_gpu: 1]

end of parameters

pandas_categorical:null
