tree
version=v4
num_class=1
num_tree_per_iteration=1
label_index=0
max_feature_idx=44
objective=lambdarank
feature_names=Column_0 Column_1 Column_2 Column_3 Column_4 Column_5 Column_6 Column_7 Column_8 Column_9 Column_10 Column_11 Column_12 Column_13 Column_14 Column_15 Column_16 Column_17 Column_18 Column_19 Column_20 Column_21 Column_22 Column_23 Column_24 Column_25 Column_26 Column_27 Column_28 Column_29 Column_30 Column_31 Column_32 Column_33 Column_34 Column_35 Column_36 Column_37 Column_38 Column_39 Column_40 Column_41 Column_42 Column_43 Column_44
feature_infos=[-5.5517033028043561e-13:1] [-0.90000009536743164:2.1018867492675781] [-0.90000009536743164:2.0444445610046387] [-0.91194635629653931:2.5548789501190186] [-94.088844299316406:86.034507751464844] [-0.9137389063835144:1.9411764144897461] [0:20] [0:1] [0:62.51751708984375] [0:12.575088500976562] [0:1] [-4.2485289573669434:4.2485289573669434] [10.319999694824219:48] [-0.12828068435192108:0.087783075869083405] [0.0050223213620483875:0.6618303656578064] [-0.13367576897144318:0.16253168880939484] [-0.90000009536743164:2.5714285373687744] [0:100] [-0.98305082321166992:2.5641434318841383e-16] [-2.9874855437790962e-14:6.4470481872558594] [-0.48999997973442078:1.4537315368652344] [35.828128814697266:81.139915466308594] [-9.8986869048744985e-12:45.790000915527344] [-1.7658877832227304e-13:0.6618303656578064] [-7.5280895233154297:41.725612640380859] [-0.034745935350656509:0.047031331807374954] [-0.46989145874977112:0.83518248796463013] [-9.3676986694335938:21.057565689086914] [-40.901233673095703:4.5902371361122418e-15] [-84.9705810546875:84.9705810546875] [0:8113.88623046875] [-0.13575606048107147:1.2052935361862183] [-12.192562103271484:9.1419172286987305] [-0.97777777910232544:7.2869291540221797e-17] [-3.0466113572907849e-13:1] [-0.94605392217636108:2.3157896995544434] [-0.90000009536743164:2.9375] [0:20] [-0.5:2.3157896995544434] [-1.7888543605804443:1.7888543605804443] [-1.7888543605804443:1.7888543605804443] [-1.7888543605804443:1.7888543605804443] [0:1] [0:1] [0:1]
tree_sizes=3548 3418 3190 2903 3528 3510 3402 3569 3249 3151 3542 3417

Tree=0
num_leaves=32
num_cat=0
split_feature=18 43 20 43 38 22 37 20 32 20 27 7 32 41 32 22 32 10 23 32 38 24 38 3 26 18 14 38 10 30 39
split_gain=11.5654 5.34915 3.73632 3.47968 2.49676 2.47006 1.81507 1.59495 1.5552 1.44491 1.31144 1.59132 1.2611 1.17732 1.16911 1.05901 0.855058 0.757756 0.666477 0.657892 0.620711 0.549689 0.675971 0.519013 0.513417 0.464078 0.126743 0.032922 0.0211717 0.00586303 0.00445273
threshold=-0.12275710701942442 0.72511062026023876 -0.021975101903080937 0.80456563830375682 -0.016728670336306092 12.8700008392334 0.93355491757392894 0.019354831427335743 1.7524271607398989 -0.0091786310076713545 -0.013595268130302427 0.47140575945377355 -0.58065861463546742 -1.0011558532714842 -0.56615546345710743 27.301239967346195 -3.8911792039871211 0.76480761170387279 0.25591656565666204 0.94970372319221508 -0.014636664651334284 -0.013620290905237196 0.0019444102072156968 -0.03951036557555198 -0.01356320036575198 -0.11870247870683669 0.28989955782890325 0.010173585265874864 0.19264072924852374 1866.102722167969 -1.1536508798599241
decision_type=2 2 2 2 2 2 2 2 2 2 2 2 2 2 2 2 2 2 2 2 2 2 2 2 2 2 2 2 2 2 2
left_child=1 5 21 4 18 10 14 13 -6 23 16 -12 -11 -7 24 19 -1 -9 -4 -8 -16 22 25 -5 -3 -2 -24 28 -23 -17 -29
right_child=2 6 3 9 8 7 15 17 -10 12 11 -13 -14 -15 20 29 -18 -19 -20 -21 -22 27 26 -25 -26 -27 -28 30 -30 -31 -32
leaf_value=-0.00029800611416686858 0 0 0.0099988245632628443 0.0015454990479815368 -0.011372827034190269 0.0039409182910902932 0.025923294841565053 0.0098776390094499691 0.0013368694509916883 0.014602520036466641 0.0089178676525010925 -0.0019678431215553473 0 -0.0132494275596015 0.0064965020671134306 0 0.01739860448472736 -0.0050895163487591124 -0.0028822234233982684 0 -0.0077123690488061572 0 -0.0032828136077214416 -0.013188142805248181 0.017934571725846428 0.023087713494063744 0.0042810827012798799 0 -0.003976092808101084 -0.001338616699142949 0.0011805001381784812
leaf_weight=10.666394166619282 1.1640045653912228 11.945811880985273 45.476901420828653 4.250060597609262 803.49146825651405 17.188819309405517 143.94554349358077 46.753283121535787 59.563602076785173 58.554638128960505 165.55171377238003 186.30739703355357 130.67806713221944 113.28690949649899 10.043420523434177 0.39161442208569397 83.704477755993139 13.744433638232293 24.504131301102461 14.238610316329867 42.585145800199825 0.74901110673090254 8.266877428803129 29.703158031217754 23.539719579159282 26.343827596167106 13.157225531351285 0.826849682896864 4.2220592718804255 4.2809267141856253 2.4930349760688841
leaf_count=3211 321 3511 12843 1278 259114 4711 37402 12247 17973 17487 45880 53283 39614 32411 2771 147 22093 4147 7346 4212 11990 279 2369 8939 6304 6543 4050 250 1200 1391 448
internal_value=0 0.00748653 -0.00549439 -0.00670745 -0.00903772 0.00279401 0.0178253 -0.00485105 -0.0103626 0.00253187 0.00636987 0.00308817 0.00597102 -0.0100369 0.00448718 0.0230715 0.0147926 0.00472094 0.00470416 0.0243103 -0.00244317 0.0127268 0.0154977 -0.00953239 0.0136524 0.0211843 0 0 -0.00305836 -0.000284637 0
internal_weight=2101.62 888.174 1213.44 1156.22 933.036 637.203 250.971 190.973 863.055 223.186 446.23 351.859 189.233 130.476 88.1141 162.857 94.3709 60.4977 69.981 158.184 52.6286 57.2229 48.9319 33.9532 35.4855 27.5078 21.4241 8.29096 4.97107 4.67254 3.31988
internal_count=625765 245711 380054 364594 297276 177983 67728 53516 277087 67318 124467 99163 57101 37122 24576 43152 25304 16394 20189 41614 14761 15460 13283 10217 9815 6864 6419 2177 1479 1538 698
is_linear=0
shrinkage=0.0873782


Tree=1
num_leaves=31
num_cat=0
split_feature=18 43 3 44 29 44 43 21 43 24 44 32 44 4 35 40 43 24 21 12 12 2 4 29 2 29 18 12 12 35
split_gain=60.5089 23.772 15.6476 13.8056 8.03451 6.33311 5.33196 4.33614 5.66894 3.75011 3.68347 2.73553 2.45768 2.40807 3.01117 2.04182 1.07079 0.664461 0.445253 0.302344 0.440157 0.215369 0.20289 0.198188 0.134777 0.0879093 0.0938486 0.059768 0.032955 3.04019e-05
threshold=-0.12275710701942442 0.85177481174469005 -0.076089341193437562 0.4744937419891358 -7.6189961433410636 0.67924466729164135 0.90260013937950145 52.040708541870124 0.72899410128593456 -0.06725072860717772 0.75816190242767345 -2.2230055332183833 0.22926639020442965 -47.220323562622063 -0.0026549632893875237 -1.0098044872283933 0.93394362926483165 -0.013258127495646475 52.39305496215821 31.439999580383304 32.73500061035157 -0.036496335640549653 15.420160293579103 0.045963492244482047 -0.039596438407897942 -1.5149484872817991 -0.04596216790378093 22.974999427795414 17.585000038146976 -0.010553004220128058
decision_type=2 2 2 2 2 2 2 2 2 2 2 2 2 2 2 2 2 2 2 2 2 2 2 2 2 2 2 2 2 2
left_child=1 2 13 6 15 16 11 8 -4 -6 -9 -3 -8 23 -15 -5 19 25 22 21 -21 -2 -19 -1 29 -7 -27 -26 -20 -18
right_child=5 3 7 4 9 17 12 10 -10 -11 -12 -13 -14 14 -16 -17 24 18 28 20 -22 -23 -24 -25 27 26 -28 -29 -30 -31
leaf_value=0.004787339990102878 -0.0031635744664799056 0.0048070707242971545 -0.0088667904255911468 -0.019032127615490915 0.034835522102550469 0 -0.0065410049225781801 -0.017938135976641192 0.0054686703817313749 0.018214531191660274 0 -0.0254872043127937 0.01307765976845127 0.038640660792720924 0 0.0096803960068042507 0 -0.0099068108847028477 0.0026028989677429138 0.0054379398657467166 -0.0086404775768524275 -0.024570666526806294 0 -0.004826300375361056 -0.0069377995630978961 0.0064181981826196607 0 0 0 9.7670580329272625e-05
leaf_weight=10.621527908719147 22.393784294486977 15.442119406419804 344.38017002918059 35.10401855094824 178.28450465237256 7.6671610304038031 51.568058515549637 235.26088539464399 470.4454711630824 749.34973838931182 119.61303866561502 62.327551174908876 112.23338005453115 72.070209873432759 24.059487356687896 6.6046593257924533 2.5659649029257707 106.13186370086623 15.235732401080897 3.9755140016786781 14.213010475155896 615.93988340103533 18.520678845408838 11.058932857646139 40.982364034454804 28.69538733601803 5.8185005905688731 4.4375460638548239 15.691149817779658 2.4301507330965242
leaf_count=958 7445 474 114612 999 4806 2310 1985 42088 17767 22997 22335 2967 4160 5882 2856 206 680 43618 6015 1574 6190 273061 6996 822 13706 7473 2029 1559 6239 477
internal_value=0.000192808 0.00724213 -0.000967159 0.0159202 0.0204998 -0.0188694 -0.00222385 -0.00427322 -0.000534865 0.0222522 -0.0120409 -0.0186566 0.00627821 0.0266107 0.0315273 -0.0110243 -0.022684 -0.00384101 -0.00655126 -0.0237188 -0.00158656 -0.0241127 -0.00867018 0 -0.00461685 0.00329691 0.00492381 -0.00617917 3.84651e-06 0
internal_weight=3403.12 2498.42 1287.51 1210.91 969.343 904.699 241.571 1169.7 814.826 927.634 354.874 77.7697 163.801 117.81 96.1297 41.7087 706.938 197.76 155.579 656.522 18.1885 638.334 124.653 21.6805 50.416 42.181 34.5139 45.4199 30.9269 4.99612
internal_count=625286 245914 207320 38594 29008 379372 9586 196802 132379 27803 64423 3441 6145 10518 8738 1205 304692 74680 62868 288270 7764 280506 50614 1780 16422 11812 9502 15265 12254 1157
is_linear=0
shrinkage=0.0873782


Tree=2
num_leaves=29
num_cat=0
split_feature=18 3 43 20 44 11 10 42 20 23 44 20 10 44 43 20 43 43 2 42 6 42 10 8 42 23 22 42
split_gain=85.4033 34.3573 20.9105 9.3782 8.15087 5.87826 5.04787 4.24742 3.72629 3.68458 3.51295 3.41465 3.35772 2.04858 1.86772 0.666498 0.373975 0.328266 0.28552 0.258825 0.198997 0.129922 0.0799664 0.0517383 0.0271555 0.000770149 0.00405705 0.000647564
threshold=-0.12275710701942442 -0.047461656853556626 0.84766271710395824 -0.013402574695646761 0.73869758844375621 -1.1071873307228086 0.60644888877868663 0.68592965602874767 -0.0078823310323059542 0.19443513453006747 0.7660205364227296 0.0024676419561728839 0.47592942416667944 0.73476251959800731 0.86348679661750805 -0.020278577692806717 0.96544459462165844 0.8906698226928712 -0.037500275298953049 0.011446119751781227 2.6682820320129399 0.0058626465033739814 0.99214524030685436 0.33067531883716589 0.014237856026738884 0.3210700005292893 15.270105361938478 0.20407593250274661
decision_type=2 2 2 2 2 2 2 2 2 2 2 2 2 2 2 2 2 2 2 2 2 2 2 2 2 2 2 2
left_child=1 3 13 4 12 11 -7 -6 14 -10 16 -4 -1 19 -5 -15 20 18 27 -3 21 -2 -20 24 -18 26 -19 -12
right_child=10 2 5 8 7 6 -8 -9 9 -11 17 -13 -14 15 -16 -17 23 25 22 -21 -22 -23 -24 -25 -26 -27 -28 -29
leaf_value=0.017639546685483863 0 0 -0.02001524630064002 -0.015502612889242491 0.032294393835974912 0.016769827037620026 1.9045963998017579e-06 -0.006199134438686596 0.020784328402882381 0.0027671064262107326 0.00042594202058691082 0.0075120982184842568 -0.0079103730676703989 0.0014261567544805774 0.0068622816081360897 -0.0089526129461839805 0 0.0010400259951691135 -0.010863301834448336 -0.02067715061849899 0 -0.026901505676616689 0 0 -0.0055145139088663472 0 0 0
leaf_weight=47.749981176923029 4.3026429210440247 4.4764402498840346 65.122160059690941 47.078794470289722 503.22990982298506 385.30990759842098 226.16129549324978 11.281454336713066 180.72419614373939 192.84571709914599 5.3494124890421499 34.764646365540102 64.366768922249321 33.399367564998101 24.092365742078982 171.06521339167375 0.84979255555663868 12.171264593082016 97.287076119508129 275.62623053399147 1.448415721184573 686.7466898621642 1.1239211289212097 2.4231647595297536 21.908842787321191 7.9478536846581838 1.1513216675957654 5.4213852089014836
leaf_count=2215 1905 1623 2078 2793 12479 15873 8947 322 8016 8099 1428 1848 3043 11223 738 59513 268 3871 37296 106643 567 320068 387 773 7719 2729 387 1916
internal_value=-0.000402107 0.00842278 -0.00169961 0.0196282 0.0265086 0.00766569 0.0109526 0.0310309 0.00891398 0.0124242 -0.0237355 -0.00992209 0.00327183 -0.0153978 -0.00694112 -0.0068074 -0.0262136 -0.00758657 -0.00927443 -0.0203633 -0.0267273 -0.0267943 -0.0105752 -0.00393736 -0.00501885 0 0.000408571 0
internal_weight=3115.43 2267.29 1195.93 1071.37 626.628 711.358 611.471 514.511 444.741 373.57 848.132 99.8868 112.117 484.567 71.1712 204.465 717.68 130.452 109.182 280.103 692.498 691.049 98.411 25.1818 22.7586 21.2704 13.3226 10.7708
internal_count=624767 245453 207748 37705 18059 28746 24820 12801 19646 16115 379314 3926 5258 179002 3531 70736 331300 48014 41027 108266 322540 321973 37683 8760 7987 6987 4258 3344
is_linear=0
shrinkage=0.0873782


Tree=3
num_leaves=26
num_cat=0
split_feature=18 44 6 1 19 12 10 8 16 44 12 28 18 16 37 8 10 6 30 23 16 12 12 5 12
split_gain=89.5324 29.4481 14.8486 11.6768 3.28017 3.20698 4.34333 3.77752 3.20381 3.03348 2.85746 2.5432 2.38872 2.23464 1.90369 1.58991 1.56267 0.20838 0.150679 0.0839109 0.0672087 0.0649251 0.851772 0.0407454 0.000664094
threshold=-0.12275710701942442 0.82893088459968578 1.4124318361282351 -0.022771574556827542 0.77236485481262218 21.460000038146976 0.31522156298160559 0.5129859745502473 -0.076765928417444215 0.73070737719535839 14.144999980926515 -5.4806411266326895 -0.40427766740322107 -0.068247426301240907 1.089794456958771 0.37552107870578771 0.34661699831485754 1.5270570516586306 1424.0266723632815 0.0054207169450819501 0.13736122101545337 30.670000076293949 32.175001144409187 -0.071600839495658861 12.934999942779543
decision_type=2 2 2 2 2 2 2 2 2 2 2 2 2 2 2 2 2 2 2 2 2 2 2 2 2
left_child=1 2 4 5 14 7 -7 -3 11 18 15 -5 -10 -6 -1 -4 -12 19 -2 -11 -21 23 -23 -20 -19
right_child=9 3 10 8 13 6 -8 -9 12 17 16 -13 -14 -15 -16 -17 -18 24 21 20 -22 22 -24 -25 -26
leaf_value=-0.020351288201008337 0 0.01635499851974859 0.022266626476334778 0.0046958388911514113 0.014845417416098797 0.02825869518123026 0 0.037125818137044179 0.011552557123332401 0 0.0098578920480739112 0.02510741799640066 -0.0027215758664125276 -0.0072431021356084008 -0.0059329151867552228 -0.0048108101320142723 -0.00099905990540244925 0 0 -0.012320496809170654 0 0.0065193162104356097 -0.012951648615555337 -0.028390914643930048 -0.00034768442901485127
leaf_weight=258.38970554346452 3.8578246553661293 192.72046393633354 107.54884134611348 122.09399353002664 34.32753713481361 50.076093704730738 108.69939893856645 274.72237234178465 112.17014227597974 2.9684217462781808 154.77806561696343 99.705335871840362 232.03489270183491 67.983722132572439 158.94462208170444 3.9732223853934547 192.81994974351255 3.6453936423058648 0.46434348716866125 120.71240220952313 4.3427333819563492 5.7473825642955516 14.780497381521853 627.04843737938791 20.041584520193283
leaf_count=89876 1754 5088 3611 3948 2904 1916 4257 6268 14473 1102 7353 2641 36329 20319 32113 95 13958 1246 198 47704 1565 2579 7017 309975 6823
internal_value=-0.000484608 0.00871584 -0.00241453 0.0178209 -0.0123743 0.0259737 0.0116013 0.0298977 0.00798583 -0.0250423 0.00868442 0.0157453 0.0020487 0.000611645 -0.0156749 0.0198632 0.00384154 -0.0104347 -0.0278323 -0.0116917 -0.0119924 -0.0279431 -0.00441008 -0.0283723 0
internal_weight=2974.6 2170.99 978.766 1192.22 519.646 626.218 158.775 467.443 566.004 803.609 459.12 221.799 344.205 102.311 417.334 111.522 347.598 151.711 651.898 128.024 125.055 648.041 20.5279 627.513 23.687
internal_count=625112 245149 170229 74920 145212 17529 6173 11356 57391 379963 25017 6589 50802 23223 121989 3706 21311 58440 321523 50371 49269 319769 9596 310173 8069
is_linear=0
shrinkage=0.0873782


Tree=4
num_leaves=32
num_cat=0
split_feature=44 24 43 15 23 3 43 19 3 11 37 6 10 12 11 31 3 5 16 44 42 44 36 30 44 6 42 12 37 13 6
split_gain=86.7169 28.2824 21.5285 11.6273 5.3258 5.30819 8.35153 4.69923 4.30413 3.96976 3.54098 3.40678 3.00674 3.07772 2.3507 2.13705 2.03351 1.75651 1.64255 1.45225 1.07283 0.736887 0.727577 0.67804 0.504649 0.441892 0.251065 0.249617 0.167435 0.0500276 0.0145629
threshold=0.72667214274406444 -0.02547852415591478 0.90260013937950145 0.05758360959589482 0.0043944776989519605 -0.057645963504910462 0.83137089014053356 0.53689453005790722 -0.047461656853556626 -1.2091705799102781 1.5938224792480471 1.0095693469047549 0.38994190096855169 16.500000000000004 1.045612692832947 -0.0049777501262724391 -0.087072342634201036 -0.036926575005054467 0.13736122101545337 0.30063551664352423 0.044946957379579551 0.54927363991737377 -0.035491222515702241 1424.0266723632815 0.64755743741989147 1.4801405668258669 0.0030709101120010023 20.090000152587894 1.0226129889488222 0.0041528805159032353 0.92220339179039013
decision_type=2 2 2 2 2 2 2 2 2 2 2 2 2 2 2 2 2 2 2 2 2 2 2 2 2 2 2 2 2 2 2
left_child=2 3 16 4 11 7 20 15 9 -5 -6 -2 13 19 -9 -3 27 -10 -8 -4 -7 26 -15 29 -25 -23 -18 30 -29 -14 -1
right_child=1 5 12 8 10 6 18 14 17 -11 -12 -13 23 22 -16 -17 21 -19 -20 -21 -22 25 -24 24 -26 -27 -28 28 -30 -31 -32
leaf_value=0 -0.0015687146022806725 -0.014049543630039091 0 0.011845168498111886 0.0082501070407882161 0 0.011376408374999534 0.02351722260517718 -0.0054969489072270094 0.040041114118007065 -0.012227749242952874 0.0353811234816706 0 0.0076056835197992759 -0.00080357450471856169 0.0043310520842459307 0 0.015809442414675599 -0.0061263108673027611 0.023923331386111704 -0.015125287390910793 -0.018137776720497215 -0.0063194951825432675 -0.012751100991474482 0 -0.00023703884763179317 -0.028684180180897384 0 0.010396344409776374 0.0056686008452527057 -0.0036269782643498778
leaf_weight=1.0752137489034779 16.158754446776584 41.260904409282375 14.801167578203602 82.668328540108632 177.21615226380527 25.948578924522735 173.08815747336484 125.51187655050308 18.944729861977976 319.96388698567171 71.968886199931148 50.647248631750699 2.8125736105721435 16.40906834427733 25.924732046551071 183.26806555420626 2.6841440413845694 89.417599557491485 28.197299300867599 65.226427860499825 286.34342398788431 214.04950029836618 68.778131110826507 82.084572141087847 23.129121011996176 24.59080133412499 634.6521384526568 1.4253324178280307 6.2689725529635325 4.887041445588693 2.4400140903890133
leaf_count=149 853 1224 3457 1675 7270 6893 16635 3354 1514 3909 1471 1442 374 1129 724 9089 1097 5582 2842 4459 105962 94431 8148 19014 3286 4324 314078 229 374 271 245
internal_value=-0.0007554 0.0116437 -0.0189881 0.0230567 0.0085659 0.000616056 -0.00495364 0.00834901 0.031095 0.0354154 0.0014283 0.0270488 0.00179092 0.0091197 0.0191568 0 -0.0255069 0.0109596 0.00808128 0.0195048 -0.0136566 -0.0259988 -0.00162431 -0.00787296 -0.0101339 -0.0168816 -0.0285749 0.0014507 0.00772563 0.00402202 -0.00286775
internal_weight=2881.84 1716.53 1165.31 826.986 315.991 889.543 513.577 375.966 510.995 402.632 249.185 66.806 278.128 165.215 151.437 224.529 887.186 108.362 201.285 80.0276 312.292 875.977 85.1872 112.913 105.214 238.64 637.336 11.2095 7.6943 7.69962 3.51523
internal_count=625504 170439 455065 23716 11036 146723 132332 14391 12680 5584 8741 2295 40138 17193 4078 10313 414927 7096 19477 7916 112855 413930 9277 22945 22300 98755 315175 997 603 645 394
is_linear=0
shrinkage=0.0873782


Tree=5
num_leaves=32
num_cat=0
split_feature=16 43 8 22 0 28 14 38 43 8 43 12 8 32 12 40 30 41 31 14 12 16 8 14 14 2 0 23 24 38 7
split_gain=79.7603 35.6628 10.6384 8.42371 7.75797 7.06648 6.42588 3.69621 3.7038 3.62016 3.56356 2.87423 2.17247 2.39147 2.01329 1.98799 1.97554 1.61476 1.44899 1.26836 0.815027 0.811501 0.582875 0.454714 0.43783 0.299911 0.217053 0.161015 0.11461 0.0380588 0.0313596
threshold=-0.068247426301240907 0.85177481174469005 0.43076500296592718 2.181369543075562 0.22972732782363894 -1.5987846851348875 0.44335937500000006 -0.041917575523257249 0.66992667317390453 0.29700285196304327 0.96915772557258617 12.425000190734865 0.68965160846710216 -1.8571742773056028 22.029999732971195 -1.1115845441818235 1786.0845947265627 1.0399907827377322 -0.0095196785405278189 0.38309152424335485 12.284999847412111 -0.10967740043997763 0.32435251772403723 0.44335937500000006 0.32282365858554846 -0.081358712166547761 0.053436359390616424 0.091834325343370451 -0.12005471810698508 -0.023926315829157826 0.83805185556411754
decision_type=2 2 2 2 2 2 2 2 2 2 2 2 2 2 2 2 2 2 2 2 2 2 2 2 2 2 2 2 2 2 2
left_child=4 2 20 19 9 6 15 8 24 26 -8 21 13 -9 -10 -3 -14 -13 -5 -4 23 -11 28 -2 -6 -22 30 -28 -7 -24 -1
right_child=1 5 3 18 7 22 10 12 14 11 -12 17 16 -15 -16 -17 -18 -19 -20 -21 25 -23 29 -25 -26 -27 27 -29 -30 -31 -32
leaf_value=0 0.00068376274142451974 -0.014860783687549676 0 0.0025502571100783013 0.0048210440845517051 0 0.0081539410124641023 0.0070316125057048014 0.03746600829639038 0.0087652573710588228 0.027624481050582881 0.030542812335636924 -0.0028568325914066352 -0.010426398330227196 0 0.001906490907208533 0.020757718945735082 0.00031344624925001672 -0.015108053597330195 0.023588811532850921 0 -0.010538721336348781 0.0019152726422282419 -0.010670523124851341 -0.0082440573035440726 -0.025099184873906343 -0.011062443603887369 0 -0.016436351876122628 -0.0020651343567977005 0.003054001855587401
leaf_weight=1.373202655755448 13.956997422035782 49.470849311357597 24.611759618448559 23.49714844400296 20.427586521545891 1.1668243086314749 266.10777957423124 92.626554399903398 52.949197519628797 11.05337825836614 115.96379860443994 510.60181290330365 23.15229340584483 99.238544104620814 13.427402849949429 178.03628722502617 56.226392758195288 21.729586941190064 202.67990404827287 48.916507208661642 1.3544711056165386 11.086234171641989 3.0164825922111076 46.802192660310538 12.806847805506548 818.80702134454623 8.5016661816334782 0.86493068304844278 83.375418839365011 24.799030794412829 3.7687658600625582
leaf_count=272 7082 3798 4459 2630 1294 365 13280 3342 965 83 3700 11170 779 8665 741 17686 1795 674 67712 4641 250 146 623 23022 394 398918 1283 44 36696 7784 432
internal_value=0.000128858 -0.010103 -0.0193479 -0.00428354 0.0207122 0.00499534 0.0088445 0.00959169 0.0224823 0.027154 0.0155075 0.0283267 0.00316426 -0.00163736 0.0318759 -0.00229242 0.0136781 0.0295644 -0.0127761 0.017648 -0.0241254 0 -0.0131214 -0.00726902 0 -0.0250247 -0.0047865 -0.00892619 -0.0160926 0 0
internal_weight=2842.4 1902.56 1180.63 299.705 939.834 721.936 609.579 370.855 99.611 568.98 382.072 554.471 271.244 191.865 66.3766 227.507 79.3787 532.331 226.177 73.5283 880.921 22.1396 112.358 60.7592 33.2344 820.161 14.5086 9.3666 84.5422 27.8155 5.14197
internal_count=624725 592646 508714 79442 32079 83932 38464 17975 3394 14104 16980 12073 14581 12007 1706 21484 2574 11844 70342 9100 429272 229 45468 30104 1688 399168 2031 1327 37061 8407 704
is_linear=0
shrinkage=0.0873782


Tree=6
num_leaves=30
num_cat=0
split_feature=27 6 23 18 18 21 12 6 14 18 26 36 24 35 18 23 25 6 12 24 35 13 27 40 16 41 41 36 41
split_gain=74.3928 18.8778 11.0835 5.47277 5.33895 4.51661 4.42991 3.44911 3.31465 3.13424 2.59624 2.57994 2.0804 1.75204 1.57996 1.55292 1.46493 0.83113 0.706567 0.656056 0.601423 0.575983 0.339889 0.267983 0.260424 0.197019 0.0750702 0.0450721 0.00823173
threshold=-0.01594456750899553 1.4381690025329592 1.0000000180025095e-35 -0.13137315213680265 -0.36022296547889704 41.540378570556648 32.854999542236335 2.1278988122940068 0.54715400934219371 -0.54894214868545521 -0.00057992563233710815 -0.11068640276789664 -0.03633181378245353 0.0006911508389748634 -0.16687945276498792 0.52160370349884044 0.0032851843861863021 1.0462664961814883 12.074999809265138 -0.077035117894411073 -0.020134233869612213 -0.0020808517001569267 -0.0051621599122881881 -1.2179558873176572 -0.0048527873586863271 -1.3072729706764219 0.75898638367652904 0.035951206460595138 -0.69011113047599781
decision_type=2 2 2 2 2 2 2 2 2 2 2 2 2 2 2 2 2 2 2 2 2 2 2 2 2 2 2 2 2
left_child=2 4 6 7 17 9 10 13 11 20 26 -7 24 -3 -11 -10 -9 23 -14 27 -4 -19 -21 -2 -6 -8 -1 -5 -12
right_child=1 3 5 19 12 8 25 16 15 14 28 -13 18 -15 -16 -17 -18 21 -20 22 -22 -23 -24 -25 -26 -27 -28 -29 -30
leaf_value=0.045343135103641803 0.0012572330490669677 -0.0086666877488788038 0 0 -0.0029799079414804057 0.02172020429594736 0.00041520164652401328 0.018223710811604107 0.029865508247250046 -0.021864709610936634 -0.0013165090392780858 0.0083670376173997085 -0.0044724670930513816 0.0060332972031653873 0.0027432879574529664 -0.0015019365876357881 -0.0035519063310699281 -0.0016668656718811586 -0.022041376693868332 0 0.02011300980456689 0.013268408795346597 -0.015702241667928499 -0.0073377153087278895 0.0072049875914293035 -0.0081867518717166077 0.002683488382516416 0.0039293253272630916 0.00075052068128732058
leaf_weight=121.59870450152084 6.5579588300315654 90.02841481109499 5.6482434548088341 4.0272548627108327 11.106895212316887 149.41010449215537 3.4585279505699873 147.69658014702145 109.17399707820732 44.27191172511084 5.8394075692049228 713.7259302995808 46.681355587032158 114.79130582307698 12.105383269372394 3.9955886664101845 10.817629733064676 7.4083283198415293 910.73286748089595 17.357794907904463 9.1008136173477379 27.513237495848443 104.46746857030666 51.707190701767104 11.213988100527784 6.7899338237475586 8.6748236371204239 2.876894314045785 4.3151955237262865
leaf_count=1694 1706 8801 124 1376 4526 3852 117 6046 4731 1775 133 37097 22625 7907 964 545 582 1939 444638 5832 220 3025 42438 19150 1992 243 220 442 152
internal_value=-2.43732e-05 -0.0125353 0.0161609 0.00141753 -0.018933 0.0123005 0.0374052 0.00706429 0.0138843 -0.00643187 0.0411489 0.0112805 -0.0207967 -0.000165974 -0.0159155 0.0278965 0.0158898 0 -0.0214139 -0.0125149 0.0147277 0.00878298 -0.0140971 -0.00494739 0.000735185 -0.00362792 0.0440054 0.00115537 0
internal_weight=2763.09 1564.99 1198.11 492.063 1072.92 1047.43 150.677 363.334 976.306 71.1264 140.428 863.136 979.735 204.82 56.3773 113.17 158.514 93.1867 957.414 128.729 14.7491 34.9216 121.825 58.2651 22.3209 10.2485 130.274 6.90415 10.1546
internal_count=624892 573025 51867 73424 499601 49308 2559 23336 46225 3083 2199 40949 473781 16708 2739 5276 6628 25820 467263 50088 344 4964 48270 20856 6518 360 1914 1818 285
is_linear=0
shrinkage=0.0873782


Tree=7
num_leaves=32
num_cat=0
split_feature=3 6 42 27 1 15 23 11 1 28 1 41 12 42 35 6 12 37 11 6 28 9 27 11 5 11 36 30 11 36 3
split_gain=71.0354 17.7872 8.88728 5.82204 6.4765 7.51967 3.5378 3.1941 3.12028 2.6946 2.93279 2.52596 2.2149 2.13516 2.03973 1.90979 1.86638 1.39875 1.19139 1.11426 1.02322 0.996135 0.825957 0.801003 0.79681 0.611445 0.594577 0.298689 0.287792 0.194771 0.116007
threshold=-0.046137088909745209 1.8378075361251833 0.022613065317273143 -0.053692108020186417 -0.018666105344891545 0.034723082557320602 0.024203228764235977 -0.75596094131469715 -0.023391935043036934 -2.0825307369232173 0.041561914607882507 -1.0011558532714842 13.394999980926515 0.044946957379579551 -0.015889037400484082 1.4381690025329592 18.425000190734867 2.1170128583908085 0.964015692472458 1.2476728558540346 -3.4893928766250606 9.1928086280822772 -0.025582011789083477 0.89036020636558544 -0.083813276141881929 -0.31216640770435328 0.031258767470717437 2223.0776367187505 0.10703621059656145 0.10773312300443651 -0.028318429365754124
decision_type=2 2 2 2 2 2 2 2 2 2 2 2 2 2 2 2 2 2 2 2 2 2 2 2 2 2 2 2 2 2 2
left_child=2 8 7 4 5 -4 18 11 21 10 16 19 25 -8 -6 22 -3 -12 -5 -1 -17 26 -10 -14 -13 -9 -2 30 -23 -29 -11
right_child=1 9 3 6 14 -7 13 12 15 27 17 24 23 -15 -16 20 -18 -19 -20 -21 -22 28 -24 -25 -26 -27 -28 29 -30 -31 -32
leaf_value=0.0066064381270381804 -0.0024199483739445284 0.022021506057842418 0.00094827161222563422 0.019880767647636143 0.0076069074810988903 0.032100690218503009 -0.015579861150767654 0.012241668407959745 0 -0.0024664508764604765 -0.011668752643477425 0.027416142970315908 0.038904302588796714 0.001819289626243603 -0.012383361256495242 0.001197315930908242 0.00099976799987725059 0.010290586954813215 -0.0015502811787675241 -0.013385497224426014 -0.011521035378847737 -0.012262858991831334 -0.020184500364863481 0.0088880233405591036 0 -0.0031278244690163748 0.0095273911445373071 -0.010668074888975558 0 0 0.0048016185946032101
leaf_weight=11.335498595261013 34.279608256823849 111.36390143533936 89.507718701555859 81.464427322527627 90.43749614036642 221.95813191111665 41.20889411738608 9.3978291545063275 6.7862798589048898 5.3158475428353986 42.755778986378573 13.582426127162764 180.19398423790699 323.10367444413714 37.270994926220737 55.329328363237437 60.211325781827327 9.3254334524972347 9.8065800472977553 28.175684423127677 87.650580007146345 41.678147185535636 956.63919592590537 33.267319434089586 10.803917921846731 19.279465893923771 35.574709157663165 46.240394031221513 11.781182815670034 2.9693616802105671 9.332542725664096
leaf_count=175 9502 3918 1904 5080 2482 2236 1643 94 1621 1189 2043 145 2304 29335 1872 6892 5407 420 764 353 29264 15250 473330 561 221 354 5206 16126 3456 606 1678
internal_value=0 -0.0124527 0.0157596 0.0107057 0.0177048 0.0241218 0.00323052 0.0285055 -0.0169964 0.00646021 0.0109604 0.00612447 0.0330056 -0.000641789 9.40542e-05 -0.0184631 0.0161494 -0.00439833 0.0167719 -0.00558526 -0.00644076 -0.00229519 -0.0199552 0.0359464 0.0210898 0.00289899 0.00331227 -0.00681888 -0.00988497 -0.0093885 0
internal_weight=2718.03 1517.23 1200.79 894.758 439.174 311.466 455.584 306.036 1229.72 287.515 223.656 63.8975 242.139 364.313 127.708 1106.41 171.575 52.0812 91.271 39.5112 142.98 123.314 963.425 213.461 24.3863 28.6773 69.8543 63.8581 53.4593 49.2098 14.6484
internal_count=625431 575908 49523 45316 8494 4140 36822 4207 544521 31387 11788 894 3313 30978 4354 511107 9325 2463 5844 528 36156 33414 474951 2865 366 448 14708 19599 18706 16732 2867
is_linear=0
shrinkage=0.0873782


Tree=8
num_leaves=29
num_cat=0
split_feature=3 22 44 44 24 24 35 18 44 18 25 16 24 31 14 18 37 37 21 8 3 37 24 12 21 24 25 18
split_gain=75.685 21.6522 15.9429 6.50252 4.4865 2.83232 4.55568 2.52806 2.33606 2.26947 1.88788 1.75682 1.43603 1.42149 1.1774 1.15426 1.09992 1.00471 0.99286 0.947343 0.835675 0.705636 0.448967 0.381027 0.166747 0.089817 0.0876408 0.0182605
threshold=-0.046137088909745209 1.0000000180025095e-35 0.67156273126602184 0.93027865886688244 -0.027497760951519009 -0.040655521675944321 0.0017242865287698808 -0.39423646032810206 0.99265006184577953 -0.33944387733936304 0.0029375152662396435 -0.076765928417444215 -0.021307457238435742 -0.0038910219445824619 0.60853794217109691 -0.41476961970329279 1.2616298794746401 2.6791836023330693 40.290124893188484 0.70805308222770702 -0.059989029541611665 1.6141280531883242 0.1047874577343464 16.474999427795414 56.436683654785163 0.039174593985080726 -0.0001448668917873874 -0.12422380968928336
decision_type=2 2 2 2 2 2 2 2 2 2 2 2 2 2 2 2 2 2 2 2 2 2 2 2 2 2 2 2
left_child=1 10 9 11 13 6 -5 19 -7 23 18 12 -3 21 -15 -13 -9 22 -1 -6 -20 -4 -11 26 -12 -25 -2 -19
right_child=2 3 4 5 7 8 -8 16 -10 17 24 15 -14 14 -16 -17 -18 27 20 -21 -22 -23 -24 25 -26 -27 -28 -29
leaf_value=0.0012996998158885159 0 0.011481312670578506 -0.0046049604503430432 0.032194014863510305 0.010495286474881701 0.013647147479365173 0.0010123737122000175 -0.011044640766662362 -0.0053379681592143711 -0.020937975074571274 -0.00047111834824649585 0.0082119187480521692 0 0.021620005137518491 -0.003645266441126796 -0.0059242001679255286 0 0.0018578581646931755 0.048673619472481403 -0.0033534594690136509 0.010091248647284215 0.0087621072337892084 0 -0.005462202078538341 0.0069390610340396199 0 0.010123196946831566 -0.0010820232723708365
leaf_weight=10.456775663187726 1.2460078329313535 213.96894284401787 42.439292680035578 170.55028109019622 72.544668307586107 207.02525229306775 54.676406796032097 288.60729173629079 41.127267459058203 797.82099315576488 8.1827921209624055 33.555358964018524 102.14672763488488 64.987359697261127 1.900604064692742 153.5938039587345 108.12224162858911 8.6914575348491763 160.6288239932619 33.647453758225311 25.703974425094202 30.980856267357012 6.30762480047997 16.644373552553592 8.8830135673051682 2.8054349914891636 8.7049030995694938 6.9856060545716891
leaf_count=91 190 6525 5355 1747 13262 6782 737 112051 1070 391188 85 1986 6813 7027 91 21172 26133 1119 1327 5721 650 1404 1219 6645 151 439 1335 3523
internal_value=0.00121489 0.0175109 -0.0117783 0.0113171 -0.00112633 0.0185123 0.0258208 -0.00515985 0.00992404 -0.0194919 0.0416606 0.00385431 0.0077168 0.0114119 0.0189668 -0.00227952 -0.00839156 -0.0203411 0.0439996 0.00544316 0.0454898 0.00062264 -0.0207582 0.000663886 0.00235376 -0.00335085 0.00880133 0
internal_weight=2682.94 1190.5 1492.44 976.644 643.23 473.379 225.227 502.922 248.153 849.206 213.855 503.265 316.116 140.308 66.888 187.149 396.73 819.806 196.79 106.192 186.333 73.4201 804.129 29.4007 17.0658 19.4498 9.95091 15.6771
internal_count=625838 49136 576702 46832 171044 10336 2484 157167 7852 405658 2304 36496 13338 13877 7118 23158 138184 397049 2068 18983 1977 6759 392407 8609 236 7084 1525 4642
is_linear=0
shrinkage=0.0873782


Tree=9
num_leaves=29
num_cat=0
split_feature=44 42 19 43 8 10 43 2 19 35 29 36 44 44 42 10 40 43 28 33 32 13 44 33 35 8 10 44
split_gain=45.321 20.6531 6.1014 4.84687 4.59691 3.83967 2.70073 4.70459 2.35059 2.02277 2.01721 1.69326 1.41982 1.33468 1.20415 1.00712 0.932569 0.447328 0.419108 0.372979 0.242481 0.220266 0.158607 0.133763 0.124618 0.0401961 0.0369343 0.0314285
threshold=0.65164783596992504 0.0086543830111622828 0.65701189637184154 0.93001246452331554 0.60776272416114818 0.15387531369924548 0.75292706489562999 -0.081358712166547761 0.36836741864681249 0.073231529444456114 2.4840586185455327 -0.13720128685235974 0.99664852023124706 0.49052035808563238 0.019821329042315487 0.35815311968326574 0.23089723289012912 0.98867648839950573 -9.5091633796691877 -0.38402786850929255 -4.5376613140106192 0.019780646078288559 1.0000000180025095e-35 -0.085126213729381547 -0.02359354309737682 0.27780157327651983 0.52768594026565563 0.59665676951408397
decision_type=2 2 2 2 2 2 2 2 2 2 2 2 2 2 2 2 2 2 2 2 2 2 2 2 2 2 2 2
left_child=3 8 6 14 5 -4 7 -3 16 -6 12 -8 -10 17 25 18 21 20 -15 -16 -5 -2 -21 -19 -17 27 -27 -1
right_child=1 2 4 13 9 -7 11 -9 10 -11 -12 -13 -14 15 19 24 -18 23 -20 22 -22 -23 -24 -25 -26 26 -28 -29
leaf_value=-0.0032169397118340087 -0.012677952250341172 0.013378116469372895 0.018754239034271918 0 0.019661436284832426 -0.00024440009494321782 -0.0094551436212465829 -0.0094411089669739958 0.03785474451978265 -0.0024570071184671625 0 0.0061236009076957362 0 0 0 0.00032387420124101765 0.011665617217738568 -0.0013047982806898607 0.017615805543934899 0 -0.012021980130672716 0 -0.020305781263956765 0.0059032188443612788 -0.0054780260026749362 0.0040528718331077846 0 0
leaf_weight=14.672229121002603 6.8066343878163043 59.312473352183588 77.322034919139696 3.9878323216689742 270.79686472663889 387.9915856346488 37.592126617964823 395.70166692449129 174.31964097631862 20.839491275080945 6.716424823855049 344.07122384069953 12.36130978760775 2.6213840076234218 2.6463344459480131 4.6142247820389484 8.8688136705895868 6.0362835379783064 28.936069445277099 3.4681700667424584 49.676483109738911 3.7825224348343909 690.95196496308199 6.4990408040175662 16.678192185761873 5.5151353694382115 2.4141547384788282 1.0892708844621655
leaf_count=6943 298 2566 4608 596 7742 36472 792 125107 3262 858 126 35628 100 119 716 635 145 482 2233 1758 14760 69 371949 1519 3875 1001 604 359
internal_value=-0.000258894 0.00748853 0.00379147 -0.0168159 0.0093764 0.00339268 -0.0012461 -0.0057629 0.031773 0.0176761 0.0344111 0.00389237 0.0360012 0 -0.0194405 0.00825649 0 -0.00760425 0.0153377 -0.0200792 -0.010602 -0.00950049 -0.0202148 0.000681786 -0.00220007 0 0.00237562 -0.00191791
internal_weight=2646.29 1806.48 1593.63 839.807 756.95 465.314 836.677 455.014 212.855 291.636 193.397 381.663 186.681 119.05 720.757 52.8499 19.458 66.1996 31.5575 697.066 53.6643 10.5892 694.42 12.5353 21.2924 23.6908 7.92929 15.7615
internal_count=625322 217773 213773 407549 49680 41080 164093 127673 4000 8600 3488 36420 3362 24219 383330 6862 512 17357 2352 374423 15356 367 373707 2001 4510 8907 1605 7302
is_linear=0
shrinkage=0.0873782


Tree=10
num_leaves=32
num_cat=0
split_feature=8 26 18 24 40 41 30 40 12 43 13 40 18 43 14 3 18 8 12 7 11 26 3 35 15 16 16 38 37 12 24
split_gain=32.6437 8.61084 4.44885 3.54192 3.28916 3.36241 2.35475 3.09848 2.3223 2.19071 2.17578 2.04108 1.89205 1.81469 1.48154 1.34451 1.12913 0.790755 0.906507 0.721606 0.49206 0.453515 0.812835 0.62166 0.270772 0.251637 0.20464 0.205461 0.166905 0.0222931 0.000962825
threshold=0.34806433320045477 -0.014517467003315685 -0.26021459698677057 -0.017595316283404824 -0.41501826047897333 -1.5770556926727293 1769.1196289062502 -0.32823781669139857 26.979999542236332 0.79656958580017101 -0.047849440947175019 -1.1567321419715879 -0.220588743686676 0.91020736098289501 0.5209263563156129 -0.050337472930550568 -0.25279380381107325 0.27780157327651983 15.275000095367433 0.90405920147895824 0.7756575644016267 -0.01139661483466625 -0.087072342634201036 0.015043949708342554 -0.053634015843272202 -0.10127590596675871 0.055196614935994155 -0.027272762730717656 1.1337101459503176 34.379999160766609 0.021837777458131317
decision_type=2 2 2 2 2 2 2 2 2 2 2 2 2 2 2 2 2 2 2 2 2 2 2 2 2 2 2 2 2 2 2
left_child=2 4 17 10 5 14 12 -8 -7 15 19 -12 -6 24 -2 -5 -11 26 20 -3 -19 22 -15 -23 29 -26 27 -1 -20 -4 -28
right_child=1 3 13 9 6 8 7 -9 -10 16 11 -13 -14 21 -16 -17 -18 18 28 -21 -22 23 -24 -25 25 -27 30 -29 -30 -31 -32
leaf_value=0 -0.0062178913315434478 -0.016777692520437683 0.0017836482419354431 0 0.0035364930014019115 0.024246394993973259 -0.011961652218046204 0.016686033807729688 0 0.008257462144468786 0 0.014272527512645312 -0.01547248783955967 -0.010056633699754049 0.013676662010465872 -0.01232734141021842 -0.0039932042418353141 0.018830977975433587 0.0023882424958223927 0.00087346385450065122 0 -0.010739536771605969 0.0071845926221295962 0.00075819232774595004 0 -0.017469551628129774 0 -0.0090032750775168625 -0.005051789060990291 -0.0018673858829638492 0.00085862966633519435
leaf_weight=2.3255678876885204 54.202959606307559 16.055910788360052 3.4941844652639693 83.511860962258652 180.12177347874967 305.17288183746859 13.382811816176398 167.40597258217167 33.292158290336374 100.87019594758749 122.70040495553985 194.90636501502013 27.885680844949093 8.4114028543699515 22.894935958785936 212.2598190587014 76.540888571413234 22.736971877544423 25.614212398329983 10.30923748156056 5.4676240304834201 86.767488612938905 39.118952473334502 25.379121173173189 3.7402708083973257 711.40523077108082 0.5969627890153778 35.012202413345221 17.41101818633615 3.7384920213953592 1.2161033955635501
leaf_count=414 1085 2927 1975 6337 7070 7642 497 9730 1193 6687 9946 13466 1405 315 290 96803 15516 2627 6774 710 566 24210 4112 5361 333 381546 259 10434 2681 2258 133
internal_value=-0.000852537 0.00671921 -0.013208 0.000218433 0.0130122 0.0184486 0.00626525 0.0129705 0.0220085 -0.00447469 0.00685033 0.00917521 0 -0.0152531 0.000320556 -0.00892752 0.00257364 0.0021401 0.00743715 -0.0103794 0.015522 -0.00490105 0.000372098 -0.00763519 -0.0171851 -0.0173502 -0.00494347 -0.00716914 0 0 0.000639304
internal_weight=2613.95 1621.51 992.436 817.155 804.359 415.563 388.796 180.789 338.465 473.183 343.972 317.607 208.007 882.055 77.0979 295.772 177.411 110.381 71.2298 26.3651 28.2046 159.677 47.5304 112.147 722.378 715.146 39.1508 37.3378 43.0252 7.23268 1.81307
internal_count=625302 181304 443998 152392 28912 10210 18702 10227 8835 125343 27049 23412 8475 420110 1375 103140 22203 23888 12648 3637 3193 33998 4427 29571 386112 381879 11240 10848 9455 4233 392
is_linear=0
shrinkage=0.0873782


Tree=11
num_leaves=31
num_cat=0
split_feature=1 33 22 2 15 9 28 15 34 28 15 12 9 21 12 1 40 24 7 37 5 24 29 17 24 34 40 38 5 40
split_gain=26.6328 9.44447 5.63804 5.83535 3.39496 2.89319 2.35728 1.96857 1.84253 1.66187 1.65578 1.47668 1.97596 1.46849 2.44476 1.73382 1.40034 2.08645 1.33404 1.21737 1.62539 1.09729 1.07654 0.828121 0.676181 0.526138 0.721098 0.455027 0.441999 0.300629
threshold=-0.026391255669295784 -0.13326419889926908 1.6965971589088442 -0.097273558378219591 0.052397010847926147 9.983192443847658 -1.4799723625183103 0.088687811046838774 0.39999811351299291 -10.94266891479492 0.10657978430390359 15.434999942779543 9.4710631370544451 45.561058044433601 31.17499923706055 -0.047722550109028809 -1.5922588706016538 -0.077035117894411073 0.4602354764938355 1.7070134878158572 -0.087640523910522447 0.003567881067283452 -0.71971353888511647 49.051752090454109 -0.18586304783821103 0.08905475959181787 -0.99651917815208424 -0.023926315829157826 0.12774346768856051 -1.5029255151748655
decision_type=2 2 2 2 2 2 2 2 2 2 2 2 2 2 2 2 2 2 2 2 2 2 2 2 2 2 2 2 2 2
left_child=2 9 5 4 8 16 7 22 -4 19 -6 18 -13 15 -15 -5 24 -18 -11 20 -2 -9 -3 -21 -1 29 -27 -8 -29 -7
right_child=1 6 3 13 10 25 27 21 -10 11 -12 12 -14 14 -16 -17 17 -19 -20 23 -22 -23 -24 -25 -26 26 -28 28 -30 -31
leaf_value=0.011223238145048315 0.024193193818341174 0 -0.0084873666924869355 -0.021937944767256773 0.03045049757328985 0 0 -0.0053678237212538464 0.014880779533536318 -0.008694949339477339 0 0.0013833159774131166 -0.012139639160999019 0.006188858088160676 -0.015516255710744902 0 0.034322697531243396 0.014961864228349723 0.0087413392838518646 -0.01195713119338139 0.00095189039422544401 0.0071272554736920551 -0.011584394327398783 0.0077946829793400473 -0.0034313410185985186 -0.0015470923722517899 0.01288511318287754 -0.016181445564599203 0 -0.012321830545932043
leaf_weight=18.056769816379528 41.2838447963004 66.500431660562754 44.787381371424999 33.706280517857522 74.11199424584629 2.0365087459795168 16.485233093582792 76.628565412480384 19.932132826012094 16.765324824751588 17.053967707790434 177.67545305544627 110.7984980828478 161.56136488358607 27.743251875217538 62.470046958012972 111.4592312911991 217.72518195555313 157.19020109833218 14.691813871439082 55.475632693851367 89.79018544201972 339.6509137620742 3.3448320538154794 27.007323092489969 32.117654627596494 20.928782798640896 527.79912718292326 11.043876651150638 8.2477338073076663
leaf_count=274 2969 22661 1364 903 867 107 7421 25849 737 2390 210 24554 23704 13740 5896 3861 1548 7579 16103 1008 8530 19325 132007 198 1719 3828 867 289936 4410 484
internal_value=-0.000219893 -0.00661136 0.011919 0.00429341 0.0168479 0.0188049 -0.0112101 -0.00653729 0 0.00227617 0.0259918 0 -0.0039537 -0.00292344 0.0012187 -0.0107025 0.0215851 0.0235563 0.00572646 0.0107484 0.0144111 0.000846638 -0.00970299 -0.00333114 0.00258216 0 0.00481105 -0.0154106 -0.0158324 -0.00842069
internal_weight=2584.07 1705.12 878.946 441.366 155.885 437.579 1127.9 572.57 64.7195 577.226 91.166 462.429 288.474 285.481 189.305 96.1763 374.249 329.184 173.956 114.796 96.7595 166.419 406.151 18.0366 45.0641 63.3307 53.0464 555.328 538.843 10.2842
internal_count=625049 581065 43984 27578 3178 16406 501609 199842 2101 79456 1077 66751 48258 24400 19636 4764 11120 9127 18493 12705 11499 45174 154668 1206 1993 5286 4695 301767 294346 591
is_linear=0
shrinkage=0.0873782


end of trees

feature_importances:
Column_12=24
Column_44=21
Column_43=20
Column_18=18
Column_24=17
Column_3=12
Column_6=12
Column_8=12
Column_10=11
Column_42=11
Column_16=10
Column_37=10
Column_40=10
Column_11=9
Column_23=9
Column_35=9
Column_14=8
Column_32=8
Column_38=8
Column_20=7
Column_28=7
Column_41=7
Column_1=6
Column_2=6
Column_15=6
Column_21=6
Column_22=6
Column_30=6
Column_36=6
Column_5=5
Column_27=5
Column_29=5
Column_7=4
Column_13=4
Column_19=4
Column_26=4
Column_9=3
Column_25=3
Column_31=3
Column_33=3
Column_0=2
Column_4=2
Column_34=2
Column_17=1
Column_39=1

parameters:
[boosting: gbdt]
[objective: lambdarank]
[metric: ndcg]
[tree_learner: serial]
[device_type: cpu]
[data_sample_strategy: bagging]
[data: ]
[valid: ]
[num_iterations: 130]
[learning_rate: 0.0873782]
[num_leaves: 39]
[num_threads: 15]
[seed: 0]
[deterministic: 0]
[force_col_wise: 0]
[force_row_wise: 0]
[histogram_pool_size: -1]
[max_depth: 5]
[min_data_in_leaf: 112]
[min_sum_hessian_in_leaf: 0.001]
[bagging_fraction: 0.414044]
[pos_bagging_fraction: 1]
[neg_bagging_fraction: 1]
[bagging_freq: 1]
[bagging_seed: 6]
[bagging_by_query: 0]
[feature_fraction: 0.530368]
[feature_fraction_bynode: 1]
[feature_fraction_seed: 6]
[extra_trees: 0]
[extra_seed: 6]
[early_stopping_round: 0]
[early_stopping_min_delta: 0]
[first_metric_only: 0]
[max_delta_step: 0]
[lambda_l1: 1.23285]
[lambda_l2: 21.9019]
[linear_lambda: 0]
[min_gain_to_split: 0]
[drop_rate: 0.1]
[max_drop: 50]
[skip_drop: 0.5]
[xgboost_dart_mode: 0]
[uniform_drop: 0]
[drop_seed: 4]
[top_rate: 0.2]
[other_rate: 0.1]
[min_data_per_group: 100]
[max_cat_threshold: 32]
[cat_l2: 10]
[cat_smooth: 10]
[max_cat_to_onehot: 4]
[top_k: 20]
[monotone_constraints: ]
[monotone_constraints_method: basic]
[monotone_penalty: 0]
[feature_contri: ]
[forcedsplits_filename: ]
[refit_decay_rate: 0.9]
[cegb_tradeoff: 1]
[cegb_penalty_split: 0]
[cegb_penalty_feature_lazy: ]
[cegb_penalty_feature_coupled: ]
[path_smooth: 0]
[interaction_constraints: ]
[verbosity: -1]
[saved_feature_importance_type: 0]
[use_quantized_grad: 0]
[num_grad_quant_bins: 4]
[quant_train_renew_leaf: 0]
[stochastic_rounding: 1]
[linear_tree: 0]
[max_bin: 255]
[max_bin_by_feature: ]
[min_data_in_bin: 3]
[bin_construct_sample_cnt: 200000]
[data_random_seed: 6]
[is_enable_sparse: 1]
[enable_bundle: 1]
[use_missing: 1]
[zero_as_missing: 0]
[feature_pre_filter: 1]
[pre_partition: 0]
[two_round: 0]
[header: 0]
[label_column: ]
[weight_column: ]
[group_column: ]
[ignore_column: ]
[categorical_feature: ]
[forcedbins_filename: ]
[precise_float_parser: 0]
[parser_config_file: ]
[objective_seed: 5]
[num_class: 1]
[is_unbalance: 0]
[scale_pos_weight: 1]
[sigmoid: 1]
[boost_from_average: 1]
[reg_sqrt: 0]
[alpha: 0.9]
[fair_c: 1]
[poisson_max_delta_step: 0.7]
[tweedie_variance_power: 1.5]
[lambdarank_truncation_level: 30]
[lambdarank_norm: 1]
[label_gain: ]
[lambdarank_position_bias_regularization: 0]
[eval_at: 1,3]
[multi_error_top_k: 1]
[auc_mu_weights: ]
[num_machines: 1]
[local_listen_port: 12400]
[time_out: 120]
[machine_list_filename: ]
[machines: ]
[gpu_platform_id: -1]
[gpu_device_id: -1]
[gpu_use_dp: 0]
[num_gpu: 1]

end of parameters

pandas_categorical:null
