tree
version=v4
num_class=1
num_tree_per_iteration=1
label_index=0
max_feature_idx=44
objective=lambdarank
feature_names=Column_0 Column_1 Column_2 Column_3 Column_4 Column_5 Column_6 Column_7 Column_8 Column_9 Column_10 Column_11 Column_12 Column_13 Column_14 Column_15 Column_16 Column_17 Column_18 Column_19 Column_20 Column_21 Column_22 Column_23 Column_24 Column_25 Column_26 Column_27 Column_28 Column_29 Column_30 Column_31 Column_32 Column_33 Column_34 Column_35 Column_36 Column_37 Column_38 Column_39 Column_40 Column_41 Column_42 Column_43 Column_44
feature_infos=[-5.4713358003293314e-14:1] [-0.80000001192092896:3.9999997615814209] [-0.97916668653488159:10.619999885559082] [-0.99920147657394409:10.615634918212891] [-95.117416381835938:91.67742919921875] [-0.97816592454910278:5.7913503646850586] [0:20] [0:1] [0:2942.833740234375] [0:12.648478507995605] [0:1] [-4.2485289573669434:4.2485289573669434] [9.1400003433227539:82.69000244140625] [-0.17969310283660889:0.17358152568340302] [0.0055803572759032249:0.8337053656578064] [-0.25682055950164795:0.17849241197109222] [-0.98275864124298096:10.619999885559082] [0:100] [-0.99230766296386719:1.1667092695973817e-16] [-2.2250103709898876e-14:8.8144626617431641] [-0.8461538553237915:1.1399999856948853] [38.231674194335938:88.101936340332031] [-7.2495199947286704e-13:81.801925659179688] [-2.7234550403179743e-14:0.8303571343421936] [-10.151257514953613:79.999992370605469] [-0.093209795653820038:0.17078882455825806] [-0.59661573171615601:1.0490367412567139] [-34.937332153320312:215.47476196289062] [-75.500442504882812:1.5388895644507313e-15] [-84.9705810546875:84.9705810546875] [0:6326.0205078125] [-0.12440190464258194:0.9024999737739563] [-14.784611701965332:8.9060239791870117] [-0.99230766296386719:2.5000913628955847e-17] [-4.7269798481280184e-14:1] [-0.97916668653488159:3.6000001430511475] [-0.98275864124298096:3.6000001430511475] [0:20] [-0.98039215803146362:2.9090907573699951] [-1.7888543605804443:1.7888543605804443] [-1.7888543605804443:1.7888543605804443] [-1.7888543605804443:1.7888543605804443] [0:1] [0:1] [0:1]
tree_sizes=3298 3482 3537 3533 3394 2952 3569 3281 3166 3259 3426 3575 3259 3412 3097 3400 2939 3020 3519 3506 3530 3150 3325 3150 3522 3449 3211 3486 3474 2738 3020 2837 3550

Tree=0
num_leaves=30
num_cat=0
split_feature=43 33 27 27 7 43 22 24 29 18 29 37 32 10 3 22 35 22 39 35 27 27 18 37 18 32 32 10 3
split_gain=13.8725 11.0998 6.57448 4.90305 2.35122 2.25402 1.36929 1.26168 1.10017 1.32815 1.67096 1.08368 0.942038 0.723497 0.550921 0.54571 0.481634 0.669139 0.41922 0.331852 0.222908 0.314044 0.127804 0.115643 0.0714117 0.054104 0.0296031 0.025919 0.0392019
threshold=0.86791843175888073 -0.12002375721931456 0.011443189345300199 -0.0085993343964219076 0.13913547247648242 0.7015553116798402 22.65943813323975 -0.0047726798802614203 0.80203866958618175 -0.36676758527755732 -0.77328187227249134 0.71181979775428783 -5.838146209716796 0.66094976663589489 0.1082407981157303 21.697276115417484 -0.0050466817338019601 13.082251071929933 -1.5700010657310484 0.027983112260699276 -0.0081405444070696813 0.028438572771847252 -0.4770823717117309 0.44611911475658422 -0.53931236267089833 -7.1795287132263175 2.6545701026916508 0.82645991444587719 -0.056093160063028329
decision_type=2 2 2 2 2 2 2 2 2 2 2 2 2 2 2 2 2 2 2 2 2 2 2 2 2 2 2 2 2
left_child=1 8 3 7 14 -5 -6 -3 9 10 -1 20 27 -11 -4 18 17 -10 -14 -18 24 23 -17 -22 -2 -26 -23 28 -13
right_child=11 2 4 5 6 -7 -8 -9 16 13 -12 12 15 -15 -16 22 19 -19 -20 -21 21 26 -24 -25 25 -27 -28 -29 -30
leaf_value=-0.00056619326496545538 0 0.012556397986036151 -0.011478361518233811 -0.013264102671936057 0.013791966889570214 -0.0019249763729645537 -0.0050536370237485983 -0.0016948282404515283 0.010627016009378284 0 0.017698937805274952 -0.004336265192914226 0 0.0097934749375775121 0.0015038977105880206 0.0052661992972433524 -0.011998183367849701 -0.0050524372884491082 0.021036713341894522 0 0 0.0040763358443746669 -0.0029272380124516803 -0.009733697030195115 0 0.0087395933751484439 0 0 0
leaf_weight=31.759627962484956 1.4296534259920006 64.223153699960676 36.075632465304807 843.17246019204322 156.84327047903207 195.4538182062679 14.393419895088298 71.582040571331163 21.189107392827282 148.32601568548125 180.15496603865176 4.5423429018992456 6.3791042747325255 72.132390559330815 14.169463903032009 3.1734933414263642 17.77880086799269 11.397954111365832 239.1091787830519 6.2790462682314674 2.995576397283009 4.3197308620437971 10.817124994384356 15.377741069532929 0.31875269563170139 6.8892734438122734 0.453365952533204 1.5986461645225061 2.1275687572197048
leaf_count=9079 374 21971 13346 320016 54333 72392 5988 26257 6936 56162 48571 1392 2246 26116 4561 894 5885 4428 80518 1979 1395 1201 4386 6321 112 2445 145 631 927
internal_value=0.00014361 -0.00263964 -0.00663486 -0.00925961 0.00642138 -0.0113156 0.0112567 0.00516944 0.00834951 0.00983146 0.0147042 0.01698 0.0186687 0.00379755 -0.00697901 0.0196042 -0.00117805 0.00333937 0.0204943 -0.00831631 0 -0.00319936 0 -0.00811021 0.00637405 0.00783286 0.00280376 -3.7458e-05 -0.00263202
internal_weight=2184.46 1884.93 1395.91 1174.43 221.482 1038.63 171.237 135.805 489.018 432.373 211.915 299.532 267.747 220.458 50.2451 259.479 56.6449 32.5871 245.488 24.0578 31.7841 23.1464 13.9906 18.3733 8.63768 7.20803 4.7731 8.26856 6.66991
internal_count=781007 678020 518864 440636 78228 392408 60321 48228 159156 139928 57650 102987 90994 82278 17907 88044 19228 11364 82764 7864 11993 9062 5280 7716 2931 2557 1346 2950 2319
is_linear=0
shrinkage=0.0873782


Tree=1
num_leaves=31
num_cat=0
split_feature=44 43 43 33 4 22 10 22 32 32 32 38 44 44 22 44 29 3 12 24 18 39 24 18 12 40 12 44 32 4
split_gain=59.7599 14.1334 13.3974 7.05948 4.77136 4.53636 4.04264 3.97347 3.729 3.70435 2.74875 2.7763 2.15273 1.70306 1.51407 1.74443 1.28509 1.74009 1.66652 0.928318 0.834361 0.681492 0.492766 0.474454 0.463405 0.317682 0.284099 0.272349 0.240515 0.0495758
threshold=0.69493055343627941 0.88350439071655285 0.85202863812446605 -0.089436553418636308 24.859134674072269 3.3413236141204838 0.40228383243083959 19.861905097961429 -1.5356549024581907 -0.87739574909210194 -0.043123783543705933 -0.014547648373991249 0.43024413287639623 0.14332469552755359 9.4104170799255389 0.80088496208190929 1.1575427055358889 0.11669282242655755 19.469999313354496 0.057898648083209998 -0.082446187734603868 0.24481260031461718 -0.014224164653569458 -0.40336278080940241 14.664999961853029 0.41734939813613897 79.569999694824233 1.0000000180025095e-35 2.6545701026916508 -29.125903129577633
decision_type=2 2 2 2 2 2 2 2 2 2 2 2 2 2 2 2 2 2 2 2 2 2 2 2 2 2 2 2 2 2
left_child=2 14 12 10 7 9 -7 8 -3 -5 13 -12 26 -4 15 23 17 -6 -18 21 -17 -16 29 -2 -21 -9 27 -1 -24 -14
right_child=1 4 3 5 16 6 -8 25 -10 -11 11 -13 22 -15 19 20 18 -19 -20 24 -22 -23 28 -25 -26 -27 -28 -29 -30 -31
leaf_value=0 0.0052355709172034965 0.011159989729799171 -0.0068498360798998539 -0.0078208657630167606 -0.0048160268576888255 -0.0028768619088040751 -0.016321982605275846 5.9434994591336556e-05 0.028061909868058739 0.014938386574883791 0.010260274922337154 -0.014084268282951331 0 0.013233356642205032 -0.0072327651739734255 0.011425589216724402 0.0032737630922286915 0.018782031163735963 -0.021650053347129085 0 -9.4582959860696578e-05 0.0026684017085957068 -0.013781001827750751 -0.0052012472398579165 -0.016869040277099717 -0.01111690569932759 0 -0.023676856109795776 0 -0.0029391836934315094
leaf_weight=3.797073589230421 17.694870967708994 208.90102961554658 16.0751563051017 83.804364188341424 22.427600739290938 313.279764070292 466.43350818130421 6.0135837143170674 482.20883022091584 87.019177024136297 34.787646443175618 68.718859405140392 14.121616831864229 215.40314652537927 51.439564560831059 228.31173398625106 22.852272749471013 27.068745769676752 14.447523761307819 5.4603700853185755 36.476711886876728 170.0044698646816 278.88378256195574 96.359730084659532 21.297510103788227 13.506297683750743 0.57760254031745617 469.70731517171953 7.4624323440657454 46.417419491481269
leaf_count=2358 4387 9293 1215 5524 1000 18709 26502 618 17791 5166 1860 4021 5536 12335 16565 66349 1029 1100 719 804 12600 59864 145491 37973 5560 1498 255 289207 3321 21603
internal_value=-0.00111546 0.0125627 -0.0104498 -0.00463253 0.0201429 -0.00847581 -0.0112805 0.0224397 0.0236038 0.00359406 0.00582203 -0.00468033 -0.0190739 0.010942 0.00240235 0.00583363 0 0.00838328 -0.00899853 -0.00248451 0.00957686 0 -0.0118444 -0.00220712 -0.0134135 -0.00686223 -0.0233898 -0.0234968 -0.0133926 -0.00160242
internal_weight=3530.96 1424.47 2106.49 1285.52 797.426 950.537 779.713 710.63 691.11 170.824 334.985 103.507 820.967 231.478 627.045 378.843 86.7961 49.4963 37.2998 248.202 264.788 221.444 346.885 114.055 26.7579 19.5199 474.082 473.504 286.346 60.539
internal_count=780253 237150 543103 75332 33048 55901 45211 29200 27084 10690 19431 5881 467771 13550 204102 121309 3848 2100 1748 82793 78949 76429 175951 42360 6364 2116 291820 291565 148812 27139
is_linear=0
shrinkage=0.0873782


Tree=2
num_leaves=32
num_cat=0
split_feature=43 44 44 19 7 16 13 28 14 35 40 18 44 1 13 40 1 2 40 44 8 35 43 44 11 8 3 19 42 18 33
split_gain=104.067 23.9873 14.0048 7.895 6.19247 5.93565 4.68246 4.56148 4.32911 3.40491 3.39585 4.2005 3.19182 3.14065 2.73523 2.06004 1.82258 1.45951 0.978699 0.505243 0.51394 0.408451 0.342383 0.272378 0.20669 0.186142 0.170874 0.151332 0.136972 0.0362299 0.0135283
threshold=0.88350439071655285 0.8240770995616914 0.7065868377685548 0.3887294232845307 0.63064754009246837 0.087267767637968077 0.03599455580115319 -0.31877224147319788 0.26590400934219366 -0.020577941089868542 -1.1984706521034239 -0.10499913245439528 0.91796910762786876 0.040150996297597892 0.03599455580115319 -0.60733079910278309 -0.026078999973833557 -0.023429905995726582 -1.5652573108673093 0.50508135557174694 1.0000000180025095e-35 -0.02862006705254316 0.85593751072883617 0.84787687659263622 0.031175264157354835 1.1162798404693606 -0.035986067727208131 0.29551908373832708 0.4329983144998551 -0.23757160454988477 -0.36823157966136927
decision_type=2 2 2 2 2 2 2 2 2 2 2 2 2 2 2 2 2 2 2 2 2 2 2 2 2 2 2 2 2 2 2
left_child=2 4 14 5 9 8 7 -5 -3 17 18 -12 -7 -11 19 -8 23 -2 -6 20 -1 27 -21 30 29 -23 -26 -18 -25 -16 -4
right_child=1 3 16 6 10 12 15 -9 -10 13 11 -13 -14 -15 24 -17 21 -19 -20 22 -22 25 -24 28 26 -27 -28 -29 -30 -31 -32
leaf_value=0 0 -0.0096587118382171176 0 0.031406304794667113 0.0061780029879948215 -0.012933648052118144 -0.018673483928817937 -0.0011446803438850694 0.023716710671177567 -0.00303999562532957 0.024231515157072631 -0.0044041710322301397 0.008396947001660951 0.012361631260239604 0 0.010752783416993353 -0.0042154163126478759 -0.025989081513053326 -0.010727849092454793 -0.018511417308666553 -0.029202835514591741 -0.010054348761246152 0 0.0079253216456753664 0 0 -0.0075474733622431199 0.0019704379450338808 0 0.0052876714287674528 -0.0015708732549177191
leaf_weight=4.699981638317694 27.83391131873941 17.278238402970601 3.2648609054740545 584.43208527856041 21.064238255319651 74.464129410422174 11.38975989376195 26.44154982524924 198.215401610767 447.2557288321259 157.19709537818562 34.713845778547693 96.609258425072767 106.67814998261747 4.5487450138316481 15.801842084096277 31.372458940750221 37.835778706124984 35.097975622920785 241.75380109061371 544.44299424132623 352.70892410638044 16.193140588409733 51.901542557432549 4.7871493098791715 15.090645092946941 18.175779369659722 32.179310572595568 8.4491619538748619 9.4396984945924469 25.091274741658708
leaf_count=2261 2022 538 1086 11472 2196 1414 225 364 4199 40071 10606 5904 1815 4608 2376 267 11965 2319 3271 128156 336977 137573 4206 15532 2281 5447 10804 11042 3127 5333 10219
internal_value=6.2681e-05 0.0132979 -0.0181397 0.0222202 0.00235278 0.0109753 0.0282793 0.0298362 0.0199427 -0.00223851 0.0134706 0.0186274 -0.00074366 9.63775e-05 -0.0250193 -0.00221061 -0.00621571 -0.0182621 -0.00305283 -0.0260588 -0.028964 -0.00857538 -0.017706 0.00371064 0 -0.00967101 -0.00466984 -0.000120363 0.0066064 0.00408763 -0.000502192
internal_weight=3256.41 1892.31 1364.1 1024.63 867.677 386.567 638.065 610.874 215.494 619.604 248.073 191.911 171.073 553.934 844.041 27.1916 520.058 65.6697 56.1622 807.09 549.143 431.351 257.947 88.7068 36.9514 367.8 22.9629 63.5518 60.3507 13.9884 28.3561
internal_count=779676 91291 688385 20294 70997 7966 12328 11836 4737 49020 21977 16510 3229 44679 492394 492 195991 4341 5467 471600 339238 166027 132362 29964 20794 143020 13085 23007 18659 7709 11305
is_linear=0
shrinkage=0.0873782


Tree=3
num_leaves=32
num_cat=0
split_feature=44 6 6 44 19 30 37 5 6 24 44 18 44 24 12 21 21 14 25 20 20 12 14 16 14 24 28 6 24 25 18
split_gain=109.415 21.7888 11.6487 7.63679 5.00951 4.74994 4.59527 4.50964 4.00292 2.45999 2.26997 1.58521 1.83835 0.828181 0.832671 0.80813 0.71126 0.670407 0.656406 0.522282 0.496443 0.45369 0.393762 0.354095 0.350019 0.420876 0.255451 0.252971 0.247502 0.00232678 0.000122
threshold=0.80088496208190929 1.2374355196952822 1.3403338789939883 0.97237035632133495 0.40300947427749639 3632.8391113281255 1.0313717126846316 -0.058181595057249062 2.4405269622802739 -0.020090853795409199 0.57624873518943798 -0.17054290324449536 0.73394799232482921 0.025894432328641418 21.474999427795414 60.237756729125984 43.229026794433601 0.36300222575664526 -0.001092532940674573 0.015008369926363231 0.044265873730182655 20.079999923706058 0.76869419217109691 -0.04545455984771251 0.78320312500000011 -0.048058450222015374 -2.6939945220947261 1.1648185253143313 -0.051324222236871712 0.0036357869394123559 -0.23218069970607755
decision_type=2 2 2 2 2 2 2 2 2 2 2 2 2 2 2 2 2 2 2 2 2 2 2 2 2 2 2 2 2 2 2
left_child=2 9 10 5 26 6 -3 15 -7 17 18 16 -13 14 -11 19 -9 23 30 -4 -20 -6 -19 -2 25 -12 -5 -15 -17 -26 -1
right_child=1 3 7 4 21 8 -8 11 -10 13 24 12 -14 27 -16 28 -18 22 20 -21 -22 -23 -24 -25 29 -27 -28 -29 -30 -31 -32
leaf_value=-0.00019098778208893405 0.0030116247591127172 0.0061778898660444373 0.014591198848629791 -0.0040798563702845597 0.041198584577234965 -0.022805676089410611 0.019935745484903841 -0.011295925078808637 0.013033313154230007 -0.013206216222286696 0 -0.018764833055570335 0 -0.0021060687627971766 0 0.0026865794242083782 0.0012067955731832392 0.013715738448543258 -0.028661857465892407 -0.00010813040914452632 0 0.01549264272603868 0 -0.0088889440095664424 0 -0.016259685936817793 0.0060803754679781934 0.0073405323678731949 -0.006654167935710901 0.00085141882740285895 0
leaf_weight=3.6342604030505754 14.985123281890994 309.17395843868144 63.241689607850276 22.100294019561261 168.16050767549314 30.331384158227593 772.01362470019376 22.629133781243581 20.663333624601364 185.17117398761911 7.904717272554989 179.83171407802729 36.959083359397482 33.385004996147472 48.308147501549684 16.004204267403114 99.649859385448508 46.094478299142793 597.66505528052221 5.4268563930527298 4.1755328602739601 60.422788023483008 2.8301415178575544 8.9202854633913358 2.8587351921596555 291.52504476235481 11.040907466085626 9.4004138716263679 15.185722650552632 2.6041613633860834 4.091535947402007
leaf_count=1617 3657 10005 6152 1409 2050 1775 16991 3479 627 70515 2710 62680 3751 12634 17362 3256 16189 12029 375249 605 1991 998 447 2421 1215 140039 585 1572 3575 765 1910
internal_value=-0.000363512 0.014002 -0.0188712 0.0188485 0.0325577 0.0150283 0.0163 -0.00640237 -0.00725308 -0.00502976 -0.0244513 -0.0112054 -0.015453 -0.00886538 -0.0107944 0.00810377 -0.00172427 0.00706849 -0.0281439 0.0124949 -0.0284592 0.0367824 0.011754 -0.00120423 -0.0153477 -0.015744 0 8.67741e-05 -0.000701145 0 0
internal_weight=3096.39 1743 1353.39 1393.91 261.724 1132.18 1081.19 438.928 50.9947 349.095 914.459 339.07 216.791 276.265 233.479 99.8585 122.279 72.83 609.566 68.6685 601.841 228.583 48.9246 23.9054 304.893 299.43 33.1412 42.7854 31.1899 5.4629 7.7258
internal_count=780260 155077 625183 34440 5042 29398 26996 99687 2402 120637 525496 86099 66431 102083 87877 13588 19668 18554 380767 6757 377240 3048 12476 6078 144729 142749 1994 14206 6831 1980 3527
is_linear=0
shrinkage=0.0873782


Tree=4
num_leaves=31
num_cat=0
split_feature=43 44 44 44 15 34 5 34 13 35 24 13 44 15 13 12 44 11 23 42 32 23 44 11 15 13 12 19 13 24
split_gain=114.584 17.9736 11.5373 4.10471 4.15185 3.15915 2.84727 2.40425 2.3256 2.23655 2.07456 1.53926 1.17339 0.696535 0.618303 0.596117 0.46822 0.433117 0.450304 0.415203 0.32885 0.240613 0.159067 0.149482 0.133744 0.111294 0.293177 0.0844763 0.0210638 0.0103373
threshold=0.87961098551750194 0.70274600386619579 0.80848103761672985 0.88283812999725353 0.12528743594884875 0.81231921911239635 -0.038324084132909768 1.0000000180025095e-35 0.018495060503482822 -0.030501935631036755 -0.026319329626858231 0.057211020961403854 0.61966615915298473 0.090172223746776595 0.03599455580115319 79.569999694824233 0.96487674117088329 -0.77613773941993702 0.088434725999832167 0.21915131807327273 -4.1955466270446768 0.0092062135227024573 0.84787687659263622 -1.6910503506660459 0.16860365122556689 0.11197287589311601 24.750000000000004 0.50233623385429393 0.0068857281003147372 0.050369124859571464
decision_type=2 2 2 2 2 2 2 2 2 2 2 2 2 2 2 2 2 2 2 2 2 2 2 2 2 2 2 2 2 2
left_child=2 6 11 5 7 9 17 -5 -6 -3 19 12 15 -7 20 -1 21 23 -19 22 -8 -12 -4 -2 -14 26 -13 -18 -21 -16
right_child=1 3 10 4 8 13 14 -9 -10 -11 16 25 24 -15 29 -17 27 18 -20 28 -22 -23 -24 -25 -26 -27 -28 -29 -30 -31
leaf_value=-0.027110241246778362 0.00011450492031790009 0.0019568877407287158 0 0 0.012567085722480898 0.0029066502040176936 0 0.025318857141202973 -0.0082578786737254987 0.018387701549734823 0 -0.0014847190915943469 -0.015499612168315916 -0.0089973795468838713 0.0016936494781352469 0 -0.0021831415689907859 0 0.012723467617927605 0 -0.017142063816204912 -0.010052319308509619 0.01182529676272117 -0.0064124350959298537 0 -0.0025129855025846823 0.0097680927219893146 0.0031831445216665725 -0.0023466649374736005 0
leaf_weight=662.1685606551473 11.280873372743374 105.99039943626849 5.1173265287652603 23.347302664071321 99.574828566401266 66.878528692643158 7.2735276682651593 839.95571626600577 37.204579021024983 288.08548011974199 6.6466765851364462 2.4959862206596855 249.50083407279453 37.236567242362071 5.612873885605949 0.5820263255154704 37.772091755527072 31.694773122668266 27.759562669612933 15.145875076937957 114.53885395399993 212.30583796708379 41.028312865120824 11.693923004728275 2.8454371238476588 1.7986170932999819 8.3306703366979473 13.682832939841317 7.3019169277395113 1.486487796064466
leaf_count=426747 1867 2901 1711 361 1523 2831 2601 11876 616 11407 2497 1324 125134 1510 1535 341 14859 3702 3253 4891 45528 88163 8241 1689 1451 953 4758 4292 1860 538
internal_value=0.000794667 0.0155058 -0.0189025 0.0188626 0.0222928 0.0111209 -0.00736685 0.0245642 0.00586578 0.0145632 -0.00435055 -0.0238835 -0.0243033 -0.00131977 -0.0147613 -0.0269758 -0.0079025 0.00383604 0.00752062 0.00698517 -0.0161712 -0.00952015 0.0105581 -0.00231539 -0.0152978 0 0.00462489 0 0 0
internal_weight=2976.34 1709.61 1266.72 1498.27 1000.08 498.191 211.341 863.303 136.779 394.076 339.001 927.722 915.097 104.115 128.912 662.751 270.407 82.4291 59.4543 68.5934 121.812 218.953 46.1456 22.9748 252.346 12.6253 10.8267 51.4549 22.4478 7.09936
internal_count=780960 93738 687222 33025 14376 18649 60713 12237 2139 14308 126514 560708 553673 4341 50202 427088 109811 10511 6955 16703 48129 90660 9952 3556 126585 7035 6082 19151 6751 2073
is_linear=0
shrinkage=0.0873782


Tree=5
num_leaves=27
num_cat=0
split_feature=43 8 8 25 14 17 40 10 7 14 30 24 8 22 26 7 31 28 14 38 22 28 22 12 10 12
split_gain=75.5311 13.9612 5.51783 3.84946 3.97148 3.89314 2.94837 2.68375 3.45568 2.66723 2.28178 2.25445 1.37544 0.70212 0.605514 0.628846 0.483032 0.461686 0.380049 0.315156 0.274761 0.38985 0.271565 0.23866 0.162565 0.0633788
threshold=0.88350439071655285 0.4062806516885758 0.38043813407421118 0.0032220423454418783 0.55943080782890331 46.609359741210945 0.41734939813613897 0.85810604691505443 0.35790239274501806 0.42550222575664526 2442.996948242188 -0.026319329626858231 0.32693217694759374 10.680008411407472 0.041419034823775298 0.81453853845596325 -0.0067050419747829429 -1.7744328975677488 0.77762275934219371 -0.030000039376318451 5.3670470714569101 -9.2548413276672346 0.16135887801647189 75.690002441406264 0.66094976663589489 79.569999694824233
decision_type=2 2 2 2 2 2 2 2 2 2 2 2 2 2 2 2 2 2 2 2 2 2 2 2 2 2
left_child=2 10 16 7 5 -5 -6 9 -9 -3 12 20 17 -14 15 -12 -1 -2 19 -18 21 -4 -13 -24 -16 -22
right_child=1 3 11 4 6 -7 -8 8 -10 -11 14 22 13 -15 24 -17 18 -19 -20 -21 25 -23 23 -25 -26 -27
leaf_value=0 0 0.009764965723210707 0.011086172345494128 0 -0.024208003152145083 0.02931525379194325 0.0038830573277460483 -0.0080041303414047672 0.013263218141655451 0.021693817172902034 -0.017114795785732058 0 0.012009381025313086 -0.0021943830800074901 0.0031559286309302981 0 -0.00089553624820953176 -0.011921210973345558 0 -0.022379071608494946 -0.0036165889352032282 0 -0.011999304393265648 0 -0.005184473974062808 0
leaf_weight=12.655335815827128 55.383895044331439 298.18047067406587 23.503905350866262 79.528635759488679 35.750119414471556 34.936748462263495 35.653712791972794 66.077046928345226 141.63822532090126 706.00651048484724 101.65603579999879 6.8967554637347339 66.45802609884413 13.29076341941254 18.266304898250386 5.4305310932104467 17.702596287999768 25.179277021554299 3.5349481111625201 736.75439599240781 27.367487042676661 40.490206066460814 359.18093603826128 1.0596568399341766 9.3905098180402984 0.69674638332798977
leaf_count=7212 11914 6307 5759 1503 677 596 960 1380 2529 14304 29235 2847 4246 1606 3073 1174 10173 9820 2101 465127 10868 12018 171910 597 1889 411
internal_value=-0.000688078 0.0111918 -0.017036 0.0148201 0.0021306 0.0118417 -0.0114079 0.0166066 0.00591049 0.0185407 -0.00549306 -0.00845942 0.00109161 0.00861969 -0.0130722 -0.0156001 -0.0216355 -0.00555863 -0.0219185 -0.0220532 0.00241889 0.00550601 -0.0114466 -0.011782 0 -0.00179246
internal_weight=2922.67 1692.83 1229.84 1397.77 185.869 114.465 71.4038 1211.9 207.715 1004.19 295.055 459.196 160.312 79.7488 134.743 107.087 770.647 80.5632 757.992 754.457 92.0583 63.9941 367.137 360.241 27.6568 28.0642
internal_count=780236 91213 689023 28256 3736 2099 1637 24520 3909 20611 62957 204410 27586 5852 35371 30409 484613 21734 477401 475300 29056 17777 175354 172507 4962 11279
is_linear=0
shrinkage=0.0873782


Tree=6
num_leaves=32
num_cat=0
split_feature=6 36 37 27 18 25 28 24 33 13 24 21 17 18 21 24 41 24 21 18 13 33 21 16 13 21 13 21 26 41 16
split_gain=52.3395 6.28782 8.50502 5.47175 5.11994 4.86652 4.75113 4.64668 4.78543 4.2023 3.89606 3.35395 2.99396 2.54405 1.64651 1.45709 1.24947 0.743176 0.511827 0.465619 0.366087 0.346111 0.280261 0.251947 0.214979 0.137616 0.0953691 0.0922274 0.0733437 0.0322146 0.00483268
threshold=1.2304880023002627 0.065685968846082701 2.4314602613449101 -0.016853183507919308 -0.32193455100059504 -0.00047636733506806189 -2.9085624217987056 0.10001323372125627 -0.01966167893260717 0.034279182553291328 -0.06572342291474341 54.464591979980476 67.428771972656264 -0.24616727977991101 45.428588867187507 -0.024462448433041569 -0.89152291417121876 -0.014628699049353598 52.967485427856452 -0.39681275188922877 0.014093224890530111 -0.21322138607501981 59.452606201171882 -0.0060904528945684424 0.03599455580115319 44.910047531127937 0.0010393001139163973 43.295284271240241 -0.044792380183935158 -1.7091279029846189 0.08406363427639009
decision_type=2 2 2 2 2 2 2 2 2 2 2 2 2 2 2 2 2 2 2 2 2 2 2 2 2 2 2 2 2 2 2
left_child=3 4 5 17 11 18 10 8 -6 -7 -4 12 -2 -9 -8 23 -13 20 -3 27 26 -22 -21 29 28 -25 -1 -17 -19 -5 -26
right_child=1 2 6 15 7 9 14 13 -10 -11 -12 16 -14 -15 -16 19 -18 24 -20 22 21 -23 -24 25 30 -27 -28 -29 -30 -31 -32
leaf_value=0.0026583285097512123 0.017464316729499163 -0.0080836650171499103 0.0049521670443404267 0 0.0015681771593147994 0.034405408618955219 0.024288365349785717 -0.0055433063538267323 -0.016742973073838974 -0.0007006680076062006 -0.028954222716655188 -0.0080784736799167402 -0.010526956159057875 0.01937991032696712 0 0 0.006850963180813744 0 0.0057868137499421084 -0.019782593388580825 0.015522495276378154 0 -0.00451741857948962 -0.00037895088079183868 0.0013165118470656052 0.0055608420330377894 -0.0029974980607739444 -0.0068430914882820692 -0.0072461482806663209 -0.0067338534352623727 0
leaf_weight=31.564272627030732 407.06608916612458 22.108841019449756 29.901490577729419 1.2424425219360298 568.86709905945463 214.62386491004145 30.088772501097992 21.776524145330768 110.33363495537196 21.59375558164902 33.744248546339804 58.241490775399143 12.349301991926039 119.22222952690208 41.923689358838601 11.752004272188058 69.911974915070459 11.526221195759716 10.79680806773831 764.03195667394903 13.190519172756469 8.1448437373910547 43.431382057460723 8.915914923592938 6.0641319379501502 20.411339686979773 17.086140423780307 55.793685661716154 70.391093981888844 20.901816683297511 0.39262517850147549
leaf_count=10941 14237 689 326 580 86426 7132 709 818 39785 1571 687 2841 460 5317 1149 5533 4942 5009 655 468625 2526 2999 27218 2882 2800 6895 5533 25932 33581 11169 209
internal_value=-0.000148358 0.00903216 0.0184911 -0.0151279 0.00590801 0.0269153 0 0.00130333 -0.00168287 0.0309917 -0.0145758 0.0123008 0.0159145 0.0146416 0.0138825 -0.0176385 0 0 -0.00107325 -0.0184753 0.00573087 0.0115949 -0.0192324 -0.000676202 -0.00490788 0.00226227 0 -0.00572741 -0.00642523 -0.00620336 0.000638839
internal_weight=2857.39 1772.55 404.781 1084.84 1367.77 269.123 135.658 820.199 679.201 236.218 63.6457 547.569 419.415 140.999 72.0125 926.481 128.153 158.36 32.9056 875.009 69.9858 21.3354 807.463 51.4715 88.3741 29.3273 48.6504 67.5457 81.9173 22.1443 6.45676
internal_count=780176 167744 12918 612432 154826 10047 2871 132346 126211 8703 1013 22480 14697 6135 1858 548834 7783 63598 1344 527308 21999 5525 495843 21526 41599 9777 16474 31465 38590 11749 3009
is_linear=0
shrinkage=0.0873782


Tree=7
num_leaves=30
num_cat=0
split_feature=6 24 24 3 42 27 24 26 11 12 37 3 6 42 39 15 15 15 1 1 6 26 34 38 41 6 9 28 38
split_gain=51.2012 6.50897 11.298 5.06525 4.42462 4.09996 3.3757 3.83109 2.62683 2.49342 1.95077 1.76107 1.37187 1.19945 0.834334 0.699374 0.674918 0.483295 0.425209 0.389797 0.263264 0.203393 0.189599 0.171904 0.100198 0.163732 0.0831024 0.0554512 0.00316938
threshold=1.302913546562195 0.15900877863168719 -0.024462448433041569 -0.061414534226059907 0.75628140568733226 -0.036800174042582505 0.062914624810218825 -0.025699078105390068 1.0533648133277895 11.090000152587892 0.43624150753021246 0.11669282242655755 1.7004064917564394 0.060022333636879928 0.28352171182632452 0.071477297693490996 0.16860365122556689 0.081769108772277846 -0.043958215042948716 -0.029546124860644337 1.1767699718475344 0.002602064399980009 0.10526083037257196 0.051049986854195602 -0.91500678658485401 1.0367547869682314 9.3583364486694354 -6.7351958751678458 -0.036206820979714387
decision_type=2 2 2 2 2 2 2 2 2 2 2 2 2 2 2 2 2 2 2 2 2 2 2 2 2 2 2 2 2
left_child=3 2 4 18 5 -2 7 -4 -8 15 -11 13 -12 19 -6 -3 -15 -17 22 -5 27 -22 28 -24 26 -26 -20 -13 -1
right_child=1 9 6 11 14 -7 8 -9 -10 10 12 20 -14 16 -16 17 -18 -19 24 -21 21 -23 23 -25 25 -27 -28 -29 -30
leaf_value=-0.00098515544304543425 0.023894407897006788 0.009644991155641644 0.008907278113116996 0.0033529730375816929 -0.021403421134233262 0.0089426674371916731 0.01413903948059062 -0.0084813099567288379 -0.0039256416946249562 -0.0035138920795189875 0 -0.0043832046021992496 0.029151075763562375 -0.017636472040974842 0 -0.012509100820913367 0 0.0016112310661718877 -0.0064204950690231336 -0.0064882530398184058 0 0.01041379532372032 0.012775877959653766 0 -0.00094690051884525439 0.0053493119219418239 0 0 0
leaf_weight=3.0308567749161739 306.43060904965387 12.790018340107052 100.99522029218497 17.525590680714231 7.1557906400703386 378.9347798233357 147.75948205142049 396.55497763952008 71.895966308191419 5.0799903884180813 10.023293612146515 9.4340963657887205 189.8455526921316 923.90661248263496 17.017839439300587 14.699465736164713 9.2009466032613982 7.013766871765255 10.867143495619532 55.432364120541024 0.79347735625924443 9.7781412767362763 20.81722524762154 1.6463903345575079 41.585231929610018 21.495314750820398 6.0022577152121803 11.27952305346844 1.9092656677821676
leaf_count=503 6886 198 4792 5558 650 29753 7227 78183 5007 172 634 4164 4238 548813 1575 293 5964 100 3798 32430 132 1318 4592 379 19804 6062 2332 5061 348
internal_value=1.30288e-05 0.00977863 0.00720712 -0.0140259 0.0148533 0.0163129 -0.000427579 -0.00451757 0.00796046 0.0228005 0.0261314 -0.0158827 0.0276432 -0.0165217 -0.0122741 0 -0.0173969 -0.00695942 0.00273413 -0.00276029 0.000982886 0.00761426 0.0092434 0.0112952 0 0.000756683 -0.0042984 -0.00204762 0
internal_weight=2810.9 1666.2 1426.74 1144.7 709.539 685.365 717.206 497.55 219.655 239.452 204.949 1037.35 199.869 1006.07 24.1736 34.5033 933.108 21.7132 107.354 72.958 31.2852 10.5716 27.4037 22.4636 79.9499 63.0805 16.8694 20.7136 4.94012
internal_count=780966 139708 134073 641258 38864 36639 95209 82975 12234 5635 5044 603440 4872 592765 2225 591 554777 393 37818 37988 10675 1450 5822 4971 31996 25866 6130 9225 851
is_linear=0
shrinkage=0.0873782


Tree=8
num_leaves=29
num_cat=0
split_feature=44 8 22 40 3 37 21 12 18 12 29 16 22 34 40 21 21 15 13 14 24 29 12 24 15 31 18 21
split_gain=57.9546 7.05922 7.25763 7.42259 3.21139 2.67755 2.35597 2.32702 3.57235 3.1574 2.21305 1.06431 1.31927 1.0982 0.775539 0.609053 0.761103 0.580744 0.360287 0.325594 0.315736 0.0900295 0.0848382 0.0842636 0.0711443 0.0381972 0.00979765 0.00785851
threshold=0.6986621916294099 0.50988975167274486 9.4741878509521502 0.90221744775772106 -0.091611303389072404 0.87812510132789623 46.677850723266609 15.879999637603762 -0.53931236267089833 17.904999732971195 -1.7310719490051267 0.11014937609434129 2.501084685325623 0.63380163908004772 -1.7439352869987486 65.630912780761733 72.054122924804702 0.10467517003417016 -0.034394685178995126 0.82393974065780651 -0.14991484582424161 -7.9075841903686515 27.57499980926514 -0.23360717296600339 0.14829676598310473 -0.0041376918088644734 -0.67961242794990528 71.450023651123061
decision_type=2 2 2 2 2 2 2 2 2 2 2 2 2 2 2 2 2 2 2 2 2 2 2 2 2 2 2 2
left_child=4 10 7 6 18 -5 -4 8 -3 -9 14 12 -12 -13 25 19 22 -16 26 20 -6 -18 -17 -20 -25 -2 -1 -28
right_child=1 2 3 5 15 -7 -8 9 -10 -11 11 13 -14 -15 17 16 21 -19 23 -21 -22 -23 -24 24 -26 -27 27 -29
leaf_value=0 -0.0042739444679220431 0.0040719984873739228 0.0022332253541943086 -0.00036952304937749387 0 0.019211577683615921 -0.014122012233717006 -0.00059543240969674649 0.027130091210681818 0.015633964875012774 0.0044474815105873065 0.017448589082762672 -0.0052347771207555483 -0.00089157845260384337 0.015882933650690653 0 0 0 0 0 -0.019326727660849398 -0.012807062536719252 0.0076015461454464984 0.012970448377287124 0 0 -0.0025552667657193244 0
leaf_weight=0.33273575804196331 3.8738520146580413 84.6581798203988 92.92176432866836 58.724691466253716 2.3086585798591832 164.84539476277132 131.65937868096808 106.29643130092882 308.89505996578373 315.74758888514771 118.63550973829115 23.155960602685809 364.36664589754946 29.431668991630431 87.490780453634216 6.0749780077021631 0.50797673291526635 12.069176917430012 0.54368697875179606 1.7137177309487004 832.24243252293672 9.8106501684524101 12.351177039934553 15.682600641885074 0.92030937247909683 3.3620010460726908 2.0330719352350601 0.36500807933043677
leaf_count=68 138 3902 14343 8421 698 7582 20637 7347 17168 25428 23072 1535 95261 2547 5444 3777 81 1206 68 909 522056 6047 7864 3466 212 140 794 215
internal_value=0.000377253 0.00897954 0.0127285 0.00327202 -0.0178035 0.0140553 -0.00732076 0.0175745 0.0229055 0.011476 0.00126564 -0.00098448 -0.00255349 0.00849386 0.0116344 -0.0186815 -0.000827778 0.0138093 0.00759045 -0.0191328 -0.0192276 -0.0118365 0.00574608 0.0114691 0.0122517 -0.00247995 -0.000933751 -0.00199053
internal_weight=2791.02 1906.13 1263.75 448.151 884.887 223.57 224.581 815.597 393.553 422.044 642.386 535.59 483.002 52.5876 106.796 865.01 28.7448 99.56 19.8774 836.265 834.551 10.3186 18.4262 17.1466 16.6029 7.23585 2.73082 2.39808
internal_count=780426 234171 104828 50983 546255 16003 34980 53845 21070 32775 129343 122415 118333 4082 6928 541432 17769 6650 4823 523663 522754 6128 11641 3746 3678 278 1077 1009
is_linear=0
shrinkage=0.0873782


Tree=9
num_leaves=30
num_cat=0
split_feature=44 8 19 23 39 39 43 32 2 20 19 33 13 20 29 39 40 44 13 43 29 32 17 33 8 12 28 42 13
split_gain=40.0587 7.49884 4.85064 4.30375 3.62942 4.83807 2.5946 3.62494 1.70196 1.65451 1.35344 1.11566 0.908537 0.829751 0.654239 0.808382 0.51718 0.467549 0.597553 0.464993 0.406332 0.281898 0.270568 0.196739 0.129835 0.134388 0.0462397 0.0138735 0.00106307
threshold=0.75327047705650341 0.75538498163223278 0.48193983733654028 0.0013542216620408001 0.87097299098968517 -0.15603234618902204 0.89110273122787487 -2.311038494110107 -0.039396414533257477 0.0074263850692659625 0.11144469305872919 -0.50759229063987721 0.014706589281558992 -0.014919947367161511 -3.5212619304656978 -1.3220102190971372 1.6520452499389651 0.54039081931114208 0.057211020961403854 0.96522608399391185 -3.105197429656982 -6.5956096649169913 25.634432792663578 -0.31603185832500452 1.2696571946144106 15.965000152587892 -7.615222454071044 0.2470686733722687 0.11197287589311601
decision_type=2 2 2 2 2 2 2 2 2 2 2 2 2 2 2 2 2 2 2 2 2 2 2 2 2 2 2 2 2
left_child=8 3 9 14 5 -4 13 -8 12 11 -11 -3 20 -5 -2 -16 -6 18 21 23 26 -10 -22 -19 25 -14 -1 -21 -20
right_child=1 2 4 6 16 -7 7 -9 17 10 -12 -13 24 -15 15 -17 -18 19 28 27 22 -23 -24 -25 -26 -27 -28 -29 -30
leaf_value=0 0 0.0058653705346678421 0.01420665358565109 0.00083036574360480816 -0.01417470192334684 0.038675443627047341 -0.0056009895931692982 0.0073519041125686422 0 -0.0042666945558182687 0.012882820107317198 -0.013719265601845399 0 -0.0076860362366260419 0 0.031614268223610041 0.0010852310452767371 0 0.00053018962518245054 0.0019840836488554761 0 -0.018553638318448536 -0.010842178224266402 -0.011361715303384133 0 0.01140255266570033 0.0034256555490316505 0 0
leaf_weight=3.2386248104157849 2.912857149145565 9.1734528447268513 322.7603275901929 99.282899770856602 10.49908887356287 91.188514501205646 191.49566325818887 648.37822629360016 5.3711902727663974 28.573644172167405 80.331928105995758 46.308412805345142 2.7248135585105109 213.88761272505508 6.4309823036310254 29.643764771695714 7.0760870943777254 6.1890418386028605 6.9719826858490688 5.0055370838381377 11.27877268148586 579.3588472242991 65.168232868920313 239.83704037226562 0.93415756593458255 14.009093263477551 10.662968497024847 11.290359638398511 1.1980929411947725
leaf_count=1321 58 978 12356 30095 205 1922 4534 15240 3536 5260 8597 9733 1117 99813 795 2501 77 2531 4228 935 3978 390397 31425 137940 190 3867 3031 3293 660
internal_value=-0.000501881 0.0071799 0.0150505 0.00295601 0.0197391 0.0215166 0.00162834 0.00420628 -0.0147126 0.00129071 0.00759874 -0.00834545 -0.00249925 -0.00478683 0.0257428 0.0279668 -0.00810856 -0.0160315 -0.0180481 -0.0100549 -0.00673808 -0.018375 -0.00911412 -0.0109773 0.00818624 0.0097104 0.000901771 0 0
internal_weight=2751.18 1787.94 595.911 1192.03 431.524 413.949 1153.04 839.874 963.239 164.387 108.906 55.4819 108.017 313.171 38.9876 36.0747 17.5752 855.222 592.9 262.322 90.3486 584.73 76.447 246.026 17.6681 16.7339 13.9016 16.2959 8.17008
internal_count=780613 192164 39128 153036 14560 14278 149682 19774 588449 24568 13857 10711 44929 129908 3354 3296 282 543520 398821 144699 39755 393933 35403 140471 5174 4984 4352 4228 4888
is_linear=0
shrinkage=0.0873782


Tree=10
num_leaves=31
num_cat=0
split_feature=43 8 27 18 13 37 14 30 18 15 43 11 24 21 40 8 15 21 12 21 35 5 21 12 43 21 15 4 7 14
split_gain=34.525 12.3767 3.84905 2.70654 5.15978 4.17964 3.42974 2.632 2.32679 1.90254 1.50788 1.64779 1.16313 1.47097 0.929609 0.696811 1.00628 0.652012 0.591951 0.773413 0.57975 0.540823 0.468101 0.456643 0.408585 0.383088 0.168502 0.102868 0.102776 0.0502876
threshold=0.88350439071655285 0.55956473946571361 -0.022604424506425854 -0.44033238291740412 0.0011423329124227168 0.89531478285789501 0.49944196641445165 3453.625366210938 -0.19122014194726941 0.13122377544641498 0.97271487116813671 -0.16183130443096158 0.050369124859571464 55.981517791748054 -0.11610664427280425 0.27768333256244665 0.13048432022333148 45.428588867187507 18.335000038146976 65.373245239257827 -0.036536727100610726 0.062336791306734092 44.868467330932624 17.615000724792484 0.61847946047782909 58.742464065551765 0.070980597287416472 -27.948745727539059 0.9999675750732423 0.5080915391445161
decision_type=2 2 2 2 2 2 2 2 2 2 2 2 2 2 2 2 2 2 2 2 2 2 2 2 2 2 2 2 2 2
left_child=2 8 14 7 6 -6 -5 9 10 -3 17 -12 13 -10 20 16 25 -2 24 -20 27 -14 -22 -18 -17 -4 28 -1 -16 -28
right_child=1 3 15 4 5 -7 -8 -9 12 -11 11 -13 21 -15 26 18 23 -19 19 -21 22 -23 -24 -25 -26 -27 29 -29 -30 -31
leaf_value=0 -0.0068247678750503081 0.024707786881233939 -0.017374585080014396 -0.0072326567554842304 -0.00091185521763271831 0.020639102962011012 0.014941407970600321 -0.0062203158433530095 -0.012770116929843121 0 0.019653859474410132 0 0.0079311480143325619 0.0038414833004700799 -0.008368266972645734 -0.0067429506028220277 0.0066858908452314585 0.002792850689651094 -0.013545103291317731 0 0 -0.0027960657954241952 0.013073996490353818 -0.0064437260163518464 0 -0.0019355078705855348 0.0027326681475299138 -0.0051984978655399191 0 -0.0017613095223462877
leaf_weight=7.3748224004521061 55.428362279140856 323.85909985337639 420.9247868675302 152.49453572469065 72.717721547407564 307.05168906098697 54.53215678234119 9.9787182417931017 164.24506532296073 17.468366658315063 57.992929839412682 52.903742995345965 34.30325161627843 29.62899076830945 35.208309423818719 190.05079922353616 13.445309778442605 154.53707408494665 239.90583924768725 19.494607532018563 13.35282282263506 64.135469360277057 56.497331209073309 24.011168512661243 78.658970794291236 35.164476827223552 12.4022304401733 10.905178954591973 4.7248071086360133 19.287366287782788
leaf_count=1201 4723 4429 288707 2636 1743 4812 1083 133 40675 300 2319 2410 4469 6088 16486 101290 10017 11300 143630 11141 3987 4113 14419 18383 35444 25049 5618 2892 1749 8606
internal_value=0.000589506 0.00914328 -0.0105147 0.0153407 0.0106391 0.0164197 -5.06382e-05 0.0218201 -0.000370694 0.0232621 0.00444355 0.0117327 -0.00593936 -0.00959995 0.00135243 -0.012463 -0.0154655 0 -0.00895705 -0.0122378 0.0070711 0.000810041 0.010349 0 -0.00473567 -0.0165528 -0.0045405 -0.00158702 -0.0072102 0
internal_weight=2732.69 1551.28 1181.41 938.102 586.796 379.769 207.027 351.306 613.175 341.327 320.862 110.897 292.313 193.874 159.753 1021.66 493.546 209.965 528.11 259.4 88.1302 98.4387 69.8502 37.4565 268.71 456.089 71.6227 18.28 39.9331 31.6896
internal_count=779852 91233 688619 15136 10274 6555 3719 4862 76097 4729 20752 4729 55345 46763 54958 633661 342156 16023 291505 154771 22499 8582 18406 28400 136734 313756 32459 4093 18235 14224
is_linear=0
shrinkage=0.0873782


Tree=11
num_leaves=32
num_cat=0
split_feature=24 24 0 12 22 22 40 26 21 34 15 15 38 12 28 26 35 24 37 35 41 2 37 15 32 37 37 17 24 12 40
split_gain=14.5584 15.126 4.36041 5.30529 4.30311 3.32619 3.08002 2.73275 2.42792 2.38292 2.04433 1.95539 1.88694 1.68828 1.65658 2.28649 1.62051 1.6056 1.55281 1.36576 1.27011 1.12577 1.07193 1.01132 0.909728 0.759233 0.431371 0.41867 0.358971 0.215052 0.10285
threshold=-0.024462448433041569 0.062914624810218825 0.8095233440399171 11.199999809265138 0.79567584395408641 9.2837481498718279 -0.98181840777397145 -0.025699078105390068 67.376724243164077 0.29566684365272528 0.13122377544641498 0.06834102421998979 -0.023619554005563256 23.730000495910648 -2.7263594865798946 -0.018791352398693558 0.0073908236809074887 -0.095415152609348283 1.1231238245964053 0.020297720097005371 -1.2845004796981809 0.21261285245418551 0.73743319511413585 0.010947946924716236 1.3301607966423037 4.6273622512817392 2.7941639423370366 47.021921157836921 -0.095415152609348283 10.164999961853029 -1.440387964248657
decision_type=2 2 2 2 2 2 2 2 2 2 2 2 2 2 2 2 2 2 2 2 2 2 2 2 2 2 2 2 2 2 2
left_child=4 7 3 12 17 -5 9 13 10 16 -8 24 -3 26 15 -4 -6 22 -11 -13 29 -16 30 -24 -9 -22 -2 -15 -10 -19 -1
right_child=1 2 14 5 6 -7 8 11 28 18 -12 19 -14 27 21 -17 -18 20 -20 -21 25 -23 23 -25 -26 -27 -28 -29 -30 -31 -32
leaf_value=0.0038904642239642765 0 0.0079209333839168252 0.0082164065937201138 0.02662982964312556 0.012917234816788772 0.0063916330364969165 0.015343256215578135 -0.016362046334519605 -0.014219223219782489 0.0019474158442122089 -0.0048369704947193509 -0.0091117979133616151 -0.020070446599392472 0.018193026749635303 0.0089213315407964539 -0.016764529187453529 -0.0087623614268850167 0.00061710133577536411 -0.010299920835699377 0.00047078451615210659 0.015732006442475764 -0.008438179136520986 0 0.033385855561596664 0 -0.00312589896843859 -0.011207655183162473 0 0 -0.0078610219381533876 -0.0037405552102739684
leaf_weight=5.7446626989985816 104.18202808190836 7.3955030200304455 17.633253532869276 134.63351912159123 105.10052598579205 163.57123275115737 282.57465989231423 502.42257472302299 9.3801270916883386 112.80024247587426 24.764789181877859 513.90931842544524 29.556898461305536 21.734438251151008 79.702183938177768 73.982641929615056 10.615597307478309 1.9765145289711679 149.91681613928813 114.97839984633902 53.641445950401248 14.485567610478027 7.7635811660729805 71.576147241925355 39.078864683426218 1.6846604599850241 17.928926208347548 1.0771165547776025 10.970001337816937 22.048368596151704 4.3137760160025191
leaf_count=181 27953 107 746 2618 10526 6679 19088 274202 1013 17719 2112 305573 822 5207 5374 7048 702 231 11395 43467 6270 328 425 1246 19346 44 990 287 3260 5180 104
internal_value=-0.00049977 -0.00494546 0.00732736 0.0130538 0.00860408 0.0170622 0.00506787 -0.00992737 0.0109881 -0.000110117 0.0131764 -0.0113126 -0.0117751 0.000630616 -0.00277074 -0.0103499 0.0090676 0.0205541 -0.00491771 -0.00723742 0.00667868 0.00423531 0.0281643 0.0308687 -0.0153889 0.0130392 -0.00344557 0.0158595 -0.00921011 -0.0048563 0
internal_weight=2711.14 1836.27 520.961 335.157 874.872 298.205 706.123 1315.31 327.69 378.433 307.339 1170.39 36.9524 144.923 185.804 91.6159 115.716 168.749 262.717 628.888 79.351 94.1878 89.3982 79.3397 541.501 55.3261 122.111 22.8116 20.3501 24.0249 10.0584
internal_count=780243 700747 23722 10226 79496 9297 65815 677025 25473 40342 21200 642588 929 34437 13496 7794 11228 13681 29114 349040 11725 5702 1956 1671 293548 6314 28943 5494 4273 5411 285
is_linear=0
shrinkage=0.0873782


Tree=12
num_leaves=30
num_cat=0
split_feature=44 22 44 14 27 7 32 44 28 10 14 10 22 33 11 19 44 9 13 12 35 34 35 14 33 33 12 11 10
split_gain=25.5982 5.9477 4.471 4.21601 2.50615 2.41053 2.65869 2.26613 2.21619 2.08928 3.78178 1.66667 1.65008 1.62739 1.54817 0.803019 0.661486 0.485709 0.387522 0.344165 0.304201 0.225277 0.216461 0.11608 0.0549808 0.0631331 0.0215907 0.00346249 0.000327527
threshold=0.73781266808509838 0.73846876621246349 0.99239280819892894 0.63616070151329052 -0.030534900724887844 0.89409786462783825 -0.060447733849287026 0.90248021483421337 -0.34116940200328821 0.35534587502479559 0.48577009141445165 0.46446263790130621 5.8210060596466073 -0.1586896479129791 1.5729098916053774 0.59130537509918224 0.42280989885330206 9.9138479232788104 0.057211020961403854 75.690002441406264 0.0026007482083514337 0.62500110268592846 -0.036536727100610726 0.80775669217109691 -0.40584328770637507 -0.11844931542873381 14.635000228881838 -0.27938629686832422 0.37090332806110388
decision_type=2 2 2 2 2 2 2 2 2 2 2 2 2 2 2 2 2 2 2 2 2 2 2 2 2 2 2 2 2
left_child=4 9 5 8 17 6 -3 -7 -4 14 11 -11 -5 -12 15 -2 18 20 19 -6 21 -1 28 -24 -19 -26 -16 -22 -18
right_child=1 2 3 12 16 7 -8 -9 -10 10 13 -13 -14 -15 26 -17 22 24 -20 -21 27 -23 23 -25 25 -27 -28 -29 -30
leaf_value=0.014441278185066676 0 -0.0030439381781468956 0.026096093566652139 0.0064859038590466692 -0.016802371403166566 -0.0016894589018532275 0.0046760784628092616 0.01976527673139836 -0.0066750421256571244 -0.0025953188188340107 -0.016925669451903665 0.024612718392300038 -0.021798088185632392 0.005476102079218146 0 0.032215173855739493 0.00029957178579009645 0 0 0 0 0 -0.0096817833253704643 0 -0.0060163435700756641 0 -0.0026581721879824567 -0.0010344741786487031 0
leaf_weight=21.539723223133485 7.9991009290097272 716.12410489108879 112.59311460523168 8.1061026775860245 467.66559478871932 41.189999030873878 605.06234621719341 79.036788501369301 3.4093641778454176 8.7403760268934985 31.087313092662953 50.564526197500527 10.273006923816864 21.657751954888226 2.773426290601491 81.265814109734492 5.962544593174246 1.6032196487940371 5.0245767304440951 0.9250158385548265 2.3056093767809216 1.5117444634670381 376.14036205552111 1.2768822952057224 8.9176028703514003 1.7228283498552617 2.8039884542813525 2.8013844722881904 10.691956420298082
leaf_count=4788 1005 107099 4572 264 324470 3998 72507 2906 196 614 1146 3092 711 2062 141 3823 2752 259 3282 518 1009 547 227830 588 3268 804 120 1092 5720
internal_value=-0.000669068 0.0053637 0.00331735 0.0174452 -0.0124753 0.00168521 0.000429982 0.0125292 0.0234446 0.0186693 0.00700255 0.0196578 -0.00990536 -0.00737627 0.0276305 0.0301329 -0.0135093 0.00494358 -0.0163602 -0.0166262 0.0100112 0.0127779 -0.0091429 -0.0095508 -0.00250206 -0.00441227 -0.000594902 0 0
internal_weight=2690.78 1782.69 1575.79 134.382 908.089 1441.41 1321.19 120.227 116.002 206.892 112.05 59.3049 18.3791 52.7451 94.8423 89.2649 867.687 40.4021 473.615 468.591 28.1585 23.0515 394.072 377.417 12.2437 10.6404 5.57741 5.10699 16.6545
internal_count=781183 204256 192253 5743 576927 186510 179606 6904 4768 12003 6914 3706 975 3208 5089 4828 565160 11767 328270 324988 7436 5335 236890 228418 4331 4072 261 2101 8472
is_linear=0
shrinkage=0.0873782


Tree=13
num_leaves=31
num_cat=0
split_feature=8 24 22 10 43 15 30 15 43 37 20 11 32 11 15 12 24 12 7 8 30 17 15 39 22 11 7 13 21 37
split_gain=23.9363 10.1477 5.50117 5.09257 3.63163 3.23809 2.68124 2.56709 2.10411 2.08239 1.9937 1.69265 1.22667 0.943818 0.86726 1.04783 0.765108 0.661359 0.6524 0.643412 0.53445 0.470249 0.465747 0.390594 0.333393 0.315045 0.299005 0.263214 0.256629 0.111333
threshold=0.41940252482891088 -0.024462448433041569 3.2763335704803471 0.94138216972351085 0.91064050793647777 0.10007699579000474 2681.744506835938 -0.047321399673819535 0.96522608399391185 2.3051991462707524 -0.071952424943447099 -0.45534886419773096 1.2927148342132571 0.29218406975269323 0.13048432022333148 18.335000038146976 0.022130746394395832 25.635000228881839 0.72484087944030773 0.36788584291934973 1304.8813476562502 25.634432792663578 0.064480483531951918 -1.2075780630111692 13.760012149810793 1.5288422107696535 0.80007362365722667 0.011538701597601177 53.031402587890632 1.112729072570801
decision_type=2 2 2 2 2 2 2 2 2 2 2 2 2 2 2 2 2 2 2 2 2 2 2 2 2 2 2 2 2 2
left_child=8 2 5 7 13 6 -2 -4 14 10 -6 -7 -11 16 17 27 -3 21 -15 25 -5 -1 -19 -21 -25 26 -10 -16 -17 -27
right_child=1 4 3 20 9 11 -8 -9 19 12 -12 -13 -14 18 15 28 -18 22 -20 23 -22 -23 -24 24 -26 29 -28 -29 -30 -31
leaf_value=0 0.026676876131383743 -0.0050698516246039348 -0.0087165386993305945 0 -0.014215971384852458 -0.0075664284610225101 0.0015712814969340379 0.011299973721825047 -0.010315486031040167 -0.010365978204461378 0.0085020471232814827 0.011935655651460292 0.0051285540468076745 -0.014421110263299357 0 -0.0099590957530577579 0.0056378124687271021 -0.007746265793429569 0 -0.0013773778240867255 -0.024848307232300491 -0.013629206119558052 0.0034856299270423262 0.013034040915661039 0 0 0 0.011057445632976079 0 0.0057929329700801115
leaf_weight=14.722303596325217 295.4187132845982 163.26177930564154 35.905046214349568 1.9784941967227521 8.7230470618233067 38.004903405380901 49.711708874150645 265.68691661959747 31.457372676202795 81.826547836360987 426.96391305077123 50.637814038724173 35.140676546900067 113.48276544592227 8.8231710511608998 49.801373688067542 42.449643738480518 28.168954839697108 19.657444112293888 3.2608388206572263 22.986622902622912 760.44854509776633 32.013423306780169 32.778369051404297 3.3567528208950526 2.8588150174473403 15.072439134877639 19.207522484590299 5.069611426384653 8.153582629573064
leaf_count=5403 9597 77970 6416 45 85 1911 2163 13461 9942 1708 11120 2738 762 46632 5840 35779 13051 19099 6720 194 1427 462460 22722 1476 503 709 2408 13089 3617 1541
internal_value=-2.90679e-05 0.00639441 0.0136578 0.00424135 0 0.0199658 0.0236638 0.00815516 -0.010499 0.00433463 0.00715312 0.00275729 -0.00486052 -0.0068509 -0.0117743 -0.00127003 -0.00205711 -0.012632 -0.0122259 0.000618314 -0.0224568 -0.0133349 -0.00112334 0.00788343 0.0107797 -0.00380182 -0.00704358 0.00777274 -0.00819224 0.00219501
internal_weight=2667.03 1651.84 760.33 326.557 891.506 433.773 345.13 301.592 1015.19 552.654 435.687 88.6427 116.967 338.852 918.255 82.9017 205.711 835.353 133.14 96.9382 24.9651 775.171 60.1824 39.396 36.1351 57.5422 46.5298 28.0307 54.871 11.0124
internal_count=780588 195806 37758 21349 158048 16409 11760 19877 584782 13675 11205 4649 2470 144373 568009 58325 91021 509684 53352 16773 1472 467863 41821 2173 1979 14600 12350 18929 39396 2250
is_linear=0
shrinkage=0.0873782


Tree=14
num_leaves=28
num_cat=0
split_feature=8 6 0 0 25 12 32 39 24 32 2 0 8 4 7 12 29 29 2 24 11 32 11 0 26 21 6
split_gain=22.7763 6.2229 5.0434 4.3851 3.16166 3.31163 2.07764 1.69013 1.55255 1.31915 1.02878 0.859916 0.809582 0.798426 0.431587 0.41716 0.543564 0.398442 0.297703 0.29717 0.255412 0.16235 0.125493 0.0980523 0.0545053 0.0524931 0.0455019
threshold=0.41940252482891088 1.4973670244216921 0.81676638126373302 0.028561308048665527 0.00076835724757984291 20.659999847412113 -0.70711833238601673 1.0207051038742068 -0.018317112699151036 0.036437893286347396 -0.014512960333377121 0.94186213612556469 0.25017336010932928 -12.793260574340819 0.36425080895423895 10.484999656677248 -4.1100287437438956 1.4739184975624087 0.040169153362512595 0.12189478427171709 -0.28803391754627222 -5.5615434646606436 -2.9657061100006099 0.28446812927722936 -0.024775655940175053 46.473852157592781 0.71888515353202831
decision_type=2 2 2 2 2 2 2 2 2 2 2 2 2 2 2 2 2 2 2 2 2 2 2 2 2 2 2
left_child=12 3 4 10 5 -3 -6 13 9 -5 14 -9 18 -4 -2 23 22 -18 21 -10 -12 -1 -17 26 -23 -25 -14
right_child=1 2 7 8 6 -7 -8 11 19 -11 20 -13 15 -15 -16 16 17 -19 -20 -21 -22 24 -24 25 -26 -27 -28
leaf_value=0 0 0.011553805440207792 0.0016023698695705141 0.0058736663725547974 0.0043047032972216267 -0.0031993582599696832 0.023322899741258594 0.01084543979032729 -0.0079408601953614624 -0.0073258736724722204 0.0053045950307808107 -0.0039324694174541442 0 -0.015453184014928546 0.021788485636594489 -0.00032212830678455618 -0.0090057088814701584 0 0 0.00012544600653773837 -0.0057585575441029 0 0.0056828804225230864 -0.0036632678762724244 -0.013815283712965766 0 0.0053649508206442924
leaf_weight=9.437581235135438 2.7990766260772935 445.50296224976773 8.8093115522060526 163.35707910558267 83.00385080446722 130.06337281671586 263.60345575705287 41.2659238857741 301.54513140638301 58.420252113952301 7.5348000870726564 27.350339200114831 2.5710698015755034 60.963072124548489 57.69952365627978 9.3890462247072737 397.0334671910241 48.882023252925137 15.568874056698403 9.5190185444953368 11.925219567317979 6.108295741985784 11.335936661635058 17.037419378233611 439.79749853839166 12.201018551888408 11.946982635301536
leaf_count=6186 409 7026 393 20193 1595 4745 6031 1464 130455 11339 743 1305 1351 2600 4004 1444 225334 16001 9988 1551 1901 3331 1585 6681 305266 4907 2741
internal_value=0.000325994 0.00653736 0.0105244 -0.000318334 0.0128509 0.00804459 0.0195874 -0.00394404 -0.00352787 0.00160865 0.016172 0.00423866 -0.0100699 -0.0122564 0.0204603 -0.00667518 -0.0074208 -0.00813177 -0.0130706 -0.00737847 0 -0.0134602 0.00166755 0 -0.0136923 -0.00154305 0.00414873
internal_weight=2654.67 1673.36 1060.56 612.8 922.174 575.566 346.607 138.389 532.841 221.777 79.9586 68.6163 981.309 69.7724 60.4986 510.397 466.64 445.915 470.912 311.064 19.46 455.343 20.725 43.7565 445.906 29.2384 14.5181
internal_count=780569 195754 25159 170595 19397 11771 7626 5762 163538 31532 7057 2769 584815 2993 4413 260044 244364 241335 324771 132006 2644 314783 3029 15680 308597 11588 4092
is_linear=0
shrinkage=0.0873782


Tree=15
num_leaves=31
num_cat=0
split_feature=6 27 12 0 22 5 32 29 37 27 19 33 19 1 1 42 13 1 22 17 32 31 2 40 14 12 33 6 40 38
split_gain=12.3399 7.77494 6.16518 4.63646 3.62998 4.37774 3.5798 4.20853 2.69482 2.6911 2.59841 2.65011 2.51414 1.64761 1.02639 0.916468 0.742928 0.647347 0.54338 0.541378 0.473826 0.400694 0.276106 0.19698 0.172211 0.0979087 0.0418393 0.0404903 0.0132425 0.00844575
threshold=1.3403338789939883 0.17465826869010928 25.635000228881839 1.0000000180025095e-35 0.16135887801647189 -0.074028059840202318 -1.2510223984718321 -1.0727300643920896 0.97855189442634594 -0.054936874657869332 0.4778760969638825 -0.0028042009798809882 0.41717046499252325 -0.046463951468467705 -0.029546124860644337 0.60776102542877208 -0.0017622323939576743 -0.039892511442303651 14.44086265563965 49.922895431518562 -5.30159568786621 -0.0034285626607015725 -0.042592620477080338 -0.44210037589073176 0.42550222575664526 27.770000457763675 -0.25910446047782892 1.2374355196952822 0.35033255815505987 0.0035256569972261791
decision_type=2 2 2 2 2 2 2 2 2 2 2 2 2 2 2 2 2 2 2 2 2 2 2 2 2 2 2 2 2 2
left_child=3 4 10 14 5 8 7 -6 -2 16 18 -12 -8 -7 19 -4 23 -18 -3 20 -1 24 -23 -5 -11 -17 28 -28 -16 -21
right_child=1 2 15 9 6 13 12 -9 -10 21 11 -13 -14 -15 26 25 17 -19 -20 29 -22 22 -24 -25 -26 -27 27 -29 -30 -31
leaf_value=0 0 -0.0052139932918271762 -0.01840511621780434 -0.0066855413820623216 0.0059545622918669751 0.010271854677868956 -0.0015735773463616326 -0.010686734877483384 0.040684756491365319 -0.0060693118950267523 0.041205394470841754 0 0.0086170666234544561 -0.015368561504961497 0.0021495265547810494 0 0.015344784149233889 0 0.010125623762006162 -0.0015795350178795166 0.024816536737189213 -0.00082745667417873114 -0.0099947949632962461 0.0007057496497642296 0 0.0060549872028570631 -0.0042419446972317273 0 0 0.00034932805552353015
leaf_weight=3.1592354377498841 12.121780437184496 16.288055251352493 11.513618286524435 17.647053037013393 166.90055046218913 12.454898804891856 237.1014919160516 266.91323154527345 33.730878160509747 55.674652256915579 82.368182786332909 18.109835137613118 566.16339171744767 17.836947254603729 3.3051370092434835 2.3792159068980245 34.664262132457225 25.869892915914534 8.4356203647330386 2.6930767224985166 29.821830225293525 56.918579693272477 818.30034473007254 18.393173705058871 101.25765438025701 4.4866033490397967 12.177008179947732 1.1354615722084407 0.84360022551845748 3.6653479682281613
leaf_count=93 173 355 319 2109 11822 252 41384 25571 427 28297 566 147 44337 1771 691 111 2039 7732 310 223 1482 25595 523142 5050 47664 331 6692 293 200 250
internal_value=0.000500155 0.00588479 0.0238889 -0.00601413 0.00347604 0.0198209 0.00205711 -0.00406949 0.0324876 -0.00738801 0.0305137 0.0357952 0.0055166 -0.00287575 0.0143768 -0.010619 0.0050223 0.0100804 7.28579e-06 0.0198389 0.0226825 -0.00873162 -0.00955344 -0.0022133 -0.0029372 0.0027651 0 -0.00293855 0.000767938 0
internal_weight=2642.33 1456.8 143.581 1185.53 1313.22 76.1445 1237.08 433.814 45.8527 1128.73 125.202 100.478 803.265 30.2918 56.8007 18.3794 96.5744 60.5342 24.7237 39.3395 32.9811 1032.15 875.219 36.0402 156.932 6.86582 17.4612 13.3125 4.14874 6.35842
internal_count=779428 127876 2139 651552 125737 2623 123114 37393 600 641628 1378 713 85721 2023 9924 761 16930 9771 665 2048 1575 624698 548737 7159 75961 442 7876 6985 891 473
is_linear=0
shrinkage=0.0873782


Tree=16
num_leaves=27
num_cat=0
split_feature=3 0 20 19 24 40 19 19 19 15 28 25 2 19 41 10 42 19 26 10 28 26 40 20 10 12
split_gain=9.70602 7.36254 4.02122 4.15571 3.70203 3.04266 3.03256 2.62243 1.82605 1.27622 1.26085 1.20449 1.19582 1.1116 0.827343 0.733615 0.541788 0.481737 0.415112 0.359504 0.177342 0.195374 0.044536 0.0378702 0.022435 0.017563
threshold=-0.19545023143291471 1.0000000180025095e-35 0.022173492237925533 0.32587279379367834 -0.012491973116993902 -0.78669580817222584 1.0197261571884157 1.0533600449562075 0.52824810147285473 0.10644300282001497 -2.5917468070983882 -0.00028639663651119912 0.015464737545698883 1.1763685941696169 -1.7405270338058469 0.48795388638973242 0.0069793411530554303 0.95129603147506725 -0.088228546082973466 0.72456908226013195 -6.033944606781005 -0.016438342630863186 -0.45041669905185694 -0.041929613798856728 0.22071919590234759 16.115000724792484
decision_type=2 2 2 2 2 2 2 2 2 2 2 2 2 2 2 2 2 2 2 2 2 2 2 2 2 2
left_child=8 6 4 15 5 -3 11 -5 18 14 12 17 -8 -6 -10 -4 -13 -2 19 24 21 -20 -11 -12 -1 -21
right_child=1 2 3 7 13 -7 10 -9 9 22 23 16 -14 -15 -16 -17 -18 -19 20 25 -22 -23 -24 -25 -26 -27
leaf_value=0 0.015981479879500687 -0.0046278844697089346 0 0.014872566399761155 -0.0092833944571066931 0.0060092321056024892 0.035097890385693171 -0.0048395473868473073 0 0.0024197350003415273 -0.003002955876538288 0 0 0.0021020690988381714 0.02934959568400684 -0.0091273790347406285 -0.013476871313249457 -0.00031549744971585394 0.01231301626917727 0.0023932464352628881 0 0 -0.0023538254147476411 0.0014846854442393531 -0.012672448109394841 0
leaf_weight=3.7945572193712049 18.12258884252515 542.3873072592105 116.17504602839472 210.70320150518091 978.41502891140408 297.6647726505762 45.942275691690156 45.125999153242446 11.622933793812988 9.274679782218298 3.7475487753981724 23.219511378702009 4.8320883036358273 46.095812584913801 87.491848009405658 107.24143908490078 15.476340330176752 1.9780746748438094 6.9942487617663582 3.0495352140860623 1.7973534812917886 1.3571352851868148 6.5228287498466662 4.3361177140614 6.37692900194088 3.3852310035726987
leaf_count=103 1059 96110 28782 13576 545072 44167 1738 867 79 134 136 3518 149 6100 1398 31498 3471 98 448 75 148 293 146 1573 199 154
internal_value=-0.000745188 -0.00213628 -0.00330738 0.00358129 -0.00515609 -0.000676823 0.0172793 0.0109002 0.019816 0.0239033 0.0283303 0.000195304 0.0320052 -0.00863491 0.0269531 -0.00458525 -0.00661587 0.0124848 0 -0.00651415 0.00692113 0.00977258 0 0 -0.0116727 0.000557914
internal_weight=2603.13 2461.46 2343.81 479.246 1864.56 840.052 117.655 255.829 141.667 114.912 58.858 58.7965 50.7744 1024.51 99.1148 223.416 38.6959 20.1007 26.755 16.6063 10.1487 8.35138 15.7975 8.08367 10.1715 6.43477
internal_count=781091 777914 766172 74723 691449 140277 11742 14443 3177 1757 3596 8146 1887 551172 1477 60280 6989 1157 1420 531 889 741 280 1709 302 229
is_linear=0
shrinkage=0.0873782


Tree=17
num_leaves=27
num_cat=0
split_feature=44 0 21 19 11 12 32 18 44 18 40 13 44 12 11 4 12 14 44 32 13 13 16 17 18 14
split_gain=13.0812 10.2021 3.54853 4.37668 3.38883 2.78382 2.02608 1.96382 1.7264 1.56228 1.11891 1.07589 0.683003 0.394254 0.261225 0.257805 0.215376 0.200457 0.189882 0.162682 0.104957 0.13867 0.0537723 0.0533469 0.037608 0.0224581
threshold=0.69110298156738292 0.0085653192363679426 60.604679107666023 0.58638021349906932 -1.8873820304870603 10.429999828338625 -6.1642508506774893 -0.13747274875640866 0.88691103458404552 -0.67961242794990528 -0.57251492142677296 0.03599455580115319 0.32467924058437353 18.215000152587894 0.18453514575958255 -38.97772026062011 11.199999809265138 0.41992187500000006 1.0000000180025095e-35 -4.3177187442779532 0.039598178118467338 0.057211020961403854 0.069029737263917937 29.801033020019535 -0.39051939547061915 0.37751115858554846
decision_type=2 2 2 2 2 2 2 2 2 2 2 2 2 2 2 2 2 2 2 2 2 2 2 2 2 2
left_child=11 6 3 10 13 -5 -2 8 -8 -6 -3 12 18 -4 22 24 -17 -9 -1 -20 25 -22 23 -13 -14 -16
right_child=1 2 4 5 9 -7 7 17 -10 -11 -12 14 15 -15 20 16 -18 -19 19 -21 21 -23 -24 -25 -26 -27
leaf_value=0 -0.0034778685885431372 -0.0099646881395432547 -0.00057935029966653428 -0.0073639735598281641 0.001181307207474215 0.0085104939950242618 0.0041205805026131017 0.0029346344260686927 0.03379226836568703 -0.024817385123202879 -0.00045140170634396556 0 0.0030433983404108476 0.012613798594584802 0 0 -0.0079506481830704141 -0.0066832622894547585 0 -0.014120129519271378 -0.0081483362981507271 0 0 0.0091751792353643273 -0.0010126199118780982 0.0025564127795840294
leaf_weight=3.9336819780291981 7.497877287096343 98.438033916507266 3.3400547273922738 70.086263144563418 10.212375156785127 786.09350463162991 34.616049244068563 3.4374734287848678 103.83600513238343 65.212988204439171 589.07419153231604 0.30758653575321915 3.1044058046536511 18.650604462542105 0.58378619002178567 47.035994794219732 338.45279351784848 7.6367915760492906 15.043628095038001 322.52232693809492 7.5233338520338275 7.1105633921688423 4.1606486537493756 13.187374323257243 32.242291931295767 4.8268602986936457
leaf_count=2480 148 24953 193 4743 754 54838 2099 354 2131 12477 135168 97 1012 1851 324 30055 222797 725 10618 231710 4855 3718 2814 7504 18690 3504
internal_value=-0.00016969 0.00392194 0.00166794 0.00281102 -0.0127341 0.00693707 0.0237895 0.0260548 0.0286216 -0.0207167 -0.00223095 -0.00935643 -0.0100956 0.00886649 0.00200041 -0.00657955 -0.00720264 -0.000464838 -0.0134744 -0.0136959 -0.00151941 -0.00494929 0.00734847 0.00848208 0 0.000342996
internal_weight=2598.17 1798.13 1641.11 1543.69 97.416 856.18 157.024 149.526 138.452 75.4254 687.512 800.035 762.335 21.9907 37.7002 420.835 385.489 11.0743 341.5 337.566 20.0445 14.6339 17.6556 13.495 35.3467 5.41065
internal_count=780612 240434 234977 219702 15275 59581 5457 5309 4230 13231 160121 540178 517362 2044 22816 272554 252852 1079 244808 242328 12401 8573 10415 7601 19702 3828
is_linear=0
shrinkage=0.0873782


Tree=18
num_leaves=32
num_cat=0
split_feature=33 43 1 42 0 19 37 23 34 43 40 13 19 13 17 34 32 3 32 13 32 28 43 21 6 12 19 6 40 1 19
split_gain=8.97898 4.46211 3.80211 3.60237 3.54598 3.51324 3.24054 2.8457 2.5644 2.8095 3.20757 2.559 1.91841 1.7281 1.55408 1.52099 1.33514 1.73311 1.43315 0.945064 0.831962 0.706965 0.602922 0.49942 0.401207 0.348319 0.251255 0.227875 0.187556 0.0525138 0.0265548
threshold=-0.2804263681173324 0.97681650519371044 -0.053213354200124734 0.010887772310525181 0.017241805791854862 1.3688644766807558 0.67280909419059765 0.17255438864231112 0.028369070962071422 0.91064050793647777 -1.2140390276908872 -0.0057617283891886464 0.62803906202316295 0.0045184879563748845 50.930143356323249 0.039063431322574622 1.7226232290267947 0.14003580808639529 -1.6824046373367307 -0.02052060421556234 -4.4460468292236319 -18.60327053070068 0.996576488018036 48.62617492675782 2.317331194877625 12.440000057220461 0.96412181854248058 1.4815757274627688 -0.42039616405963892 -0.035081796348094933 0.49836945533752447
decision_type=2 2 2 2 2 2 2 2 2 2 2 2 2 2 2 2 2 2 2 2 2 2 2 2 2 2 2 2 2 2 2
left_child=3 4 5 11 14 24 23 -8 21 13 -11 19 28 -10 15 -2 18 -18 -6 27 -7 30 -23 -4 -3 -16 -21 -1 -13 -14 -5
right_child=1 2 6 8 16 20 7 -9 9 10 -12 12 29 -15 25 -17 17 -19 -20 26 -22 22 -24 -25 -26 -27 -28 -29 -30 -31 -32
leaf_value=0 -0.0050251820386715048 0 -0.016888063477403823 0 -0.0016235394419052587 -0.0083114694924883246 -0.00075256535220057726 0.016596719326150991 -0.0082770055784413491 -0.00085642636558098007 0.018961227696539556 0.0037750081650310807 0.03928145610205535 0.0079184672120592818 0.0024185262567605523 0.01942280592425814 -0.0042498733218109168 0.014340837634246447 -0.0084708122616200237 0 0.0087305020292262059 -0.02010385952267793 0 0 -0.0299872878447047 -0.0087612292433908272 -0.013773278034594227 0.013401873664857513 -0.0063805650840366313 0.0020537671737884816 0.0032493993804445197
leaf_weight=6.7070246044313562 7.0944305662123943 4.1151086208410588 16.686103609972637 1.2165221296891129 366.71655021393963 7.6122260637348509 82.893053971172776 226.8885639992659 93.412697112042224 73.985260912042577 174.55072618962731 4.7892786477459595 42.574504892108962 64.799112042237539 7.2353380237473202 64.28813110102783 84.986713550402783 35.343555585248396 1055.5813427118119 6.0860486906603892 42.861657479952555 23.383011531550441 1.8000341008882959 10.234195229248142 21.957166725420393 19.956449367513414 6.1101813631830737 9.0520636258879659 3.9288368002744374 9.2368173043942061 3.0729036592820194
leaf_count=198 1175 100 921 256 163084 252 4268 8550 21963 1259 3640 148 363 12618 1471 10014 43625 2816 492446 170 842 2283 16 675 696 5082 66 77 243 319 208
internal_value=-0.000241026 -0.00290209 0.00490305 0.00967994 -0.00497086 -0.010167 0.0090412 0.0118864 0.00546587 0.00762212 0.0130719 0.0242725 0.0320309 -0.000889416 0.00933258 0.0152289 -0.00607156 0.00182069 -0.00683134 0 0.00293452 -0.0127585 -0.0170572 -0.0121376 -0.0275364 -0.00384035 -0.00997924 0.0100711 0 0.0366882 0.00152555
internal_weight=2579.16 2054.45 413.248 524.705 1641.2 76.5462 336.702 309.782 436.22 406.748 248.536 88.4848 60.5294 158.212 98.5743 71.3826 1542.63 120.33 1422.3 27.9553 50.4739 29.4725 25.183 26.9203 26.0723 27.1918 12.1962 15.7591 8.71812 51.8113 4.28943
internal_count=779844 736017 16304 43827 719713 1890 14414 12818 42243 39480 4899 1584 1073 34581 17742 11189 701971 46441 655530 511 1094 2763 2299 1596 796 6553 236 275 391 682 464
is_linear=0
shrinkage=0.0873782


Tree=19
num_leaves=31
num_cat=0
split_feature=44 30 28 15 11 20 40 44 17 25 29 36 15 25 0 25 28 40 25 12 15 15 17 15 3 12 15 12 12 11
split_gain=10.5425 5.10511 4.70329 2.96892 2.93498 2.47539 2.55626 2.37357 2.30619 2.76332 2.09718 1.47207 1.41177 1.38244 1.28995 0.830022 0.846565 0.801715 1.25449 0.746045 0.760867 0.64837 0.630612 0.545188 0.395928 0.35065 1.2359 0.833608 0.199646 0.00398591
threshold=0.89083123207092296 2347.0603027343755 -3.0679104328155513 0.13048432022333148 -0.26298204064369196 -0.03470723703503608 -0.95521777868270863 0.46602545678615576 76.072765350341811 0.00057973427465185534 2.2336354255676274 -0.0201340252533555 0.056536685675382621 2.1522238284887867e-06 0.046296076849102981 0.0014577440451830628 -2.3984674215316768 -1.3641756772994993 0.00011394634930184112 23.730000495910648 0.14829676598310473 0.070039976388216033 54.184709548950202 0.030855093151330951 -0.1226336322724819 18.335000038146976 0.10007699579000474 25.635000228881839 75.690002441406264 0.51504942774772655
decision_type=2 2 2 2 2 2 2 2 2 2 2 2 2 2 2 2 2 2 2 2 2 2 2 2 2 2 2 2 2 2
left_child=7 3 4 5 12 6 -2 21 11 -10 -6 -4 -3 -7 17 23 -17 18 -9 20 -5 24 -19 -16 29 26 -23 -27 -26 -1
right_child=1 2 8 19 10 13 -8 14 9 -11 -12 -13 -14 -15 15 16 -18 22 -20 -21 -22 25 -24 -25 28 27 -28 -29 -30 -31
leaf_value=0.0011189054651699363 0.0077868011098942294 0.013894803031700343 0.013242029993501636 -0.020326110695907368 -0.019747547135720956 -0.00073893885116428301 0.025708882794469916 0.006922764373403863 -0.0021281579775899594 0.026824637007599773 0 -0.0019250431913851512 -0.0033797040326503393 0.010996432706499127 0.0023007183519545265 -0.014499911746160126 0 0.012975911500912707 -0.014855139815359479 0.0047452190991320361 0 -0.0074308641908590366 -0.0015252027514464756 -0.0035474514305332524 -0.014429267453096688 -0.013591862535958159 0.0062007231856658594 0.00090032741801691235 0 0
leaf_weight=2.4059399551479141 171.71745932738122 34.276569276174996 40.860320134932408 13.695847490220329 123.81335293303709 131.86006037342304 152.1997268772102 19.20889504859224 23.611987152602524 53.743625721661374 69.905126855883282 175.23636976753187 68.059167949686525 116.34140310210933 114.93736375690787 78.301415950874798 29.802235395618482 62.32679696433479 14.30502654018346 3.7768693937105118 19.992042129859328 103.49212075315882 9.0007670365739596 548.26139400270768 253.68885830519139 69.887819305418816 58.450487232737942 22.108586013142485 1.244991940591716 1.0235099440906195
leaf_count=446 3460 3696 4240 1333 14711 13030 3341 2790 1474 1091 1249 16043 5906 13681 44067 20547 4870 11456 1889 248 1795 72775 3454 241697 176847 52585 44514 16822 758 193
internal_value=-0.000413847 0.00548957 -0.000173396 0.0109527 -0.00783101 0.0126223 0.0176143 -0.00559462 0.00721785 0.0183823 -0.0137578 0.00144486 0.00296869 0.00480867 -0.00255348 -0.00389017 -0.0105988 0.00540327 -0.00262622 -0.00797976 -0.0126517 -0.010276 0.0100621 -0.00233553 -0.0137298 -0.00556041 -0.00177225 -0.00965989 -0.0142043 0
internal_weight=2587.54 1199.09 589.507 609.583 296.054 572.119 323.917 1388.45 293.452 77.3556 193.718 216.097 102.336 248.201 876.144 771.302 108.104 104.841 33.5139 37.4648 33.6879 512.302 71.3276 663.199 258.363 253.939 161.943 91.9964 254.934 3.42945
internal_count=781008 85298 48410 36888 25562 33512 6801 695710 22848 2565 15960 20283 9602 26711 330770 311181 25417 19589 4679 3376 3128 364940 14910 285764 178244 186696 117289 69407 177605 639
is_linear=0
shrinkage=0.0873782


Tree=20
num_leaves=32
num_cat=0
split_feature=20 16 31 32 17 44 32 9 43 19 21 21 19 37 8 43 21 8 44 32 20 15 43 13 14 14 15 15 35 29 13
split_gain=10.7095 5.5684 4.01512 3.35535 3.2579 3.13955 2.20395 1.85519 1.71218 1.6123 1.97468 1.8829 1.51097 1.33202 1.2494 1.16904 0.900338 1.10063 0.724906 0.650887 0.552145 0.543831 0.447013 0.392642 0.294106 0.517279 0.452056 0.153623 0.126672 0.119602 0.0133183
threshold=-0.027279821224510666 -0.18090638518333432 -0.00023375829914584753 -0.019803980365395542 39.723148345947273 0.55615705251693737 1.1430816054344179 10.018020153045656 0.96522608399391185 0.8549390733242036 46.756801605224616 55.641357421875007 0.55163812637329113 0.99433875083923351 0.67985904216766369 0.94532009959220897 41.30804634094239 1.0594694614410403 0.91796910762786876 2.3802999258041386 -0.036146463826298707 0.065718512982130065 0.97271487116813671 0.057211020961403854 0.6537388563156129 0.67829239368438732 0.13048432022333148 -0.16667937487363813 -0.036536727100610726 -4.1100287437438956 0.11197287589311601
decision_type=2 2 2 2 2 2 2 2 2 2 2 2 2 2 2 2 2 2 2 2 2 2 2 2 2 2 2 2 2 2 2
left_child=1 6 4 7 13 21 12 -4 -6 16 15 -12 22 -3 -5 -11 18 -18 -7 29 -14 23 -1 28 26 -26 -23 -21 -2 -8 -25
right_child=5 2 3 14 8 9 19 -9 -10 10 11 -13 20 -15 -16 -17 17 -19 -20 27 -22 24 -24 30 25 -27 -28 -29 -30 -31 -32
leaf_value=-0.0089451950951282208 0 0 0.025676820796322993 0.0055906362554315227 0.010235432139836888 -0.00097964013896160453 0 -0.0035225290513859124 -0.0024969119641791646 0.0077452853492840446 0.018553610539374016 -0.002432942354555418 0.030058104405191296 -0.012711552807878761 -0.018053417383526938 -0.0093480158091771032 -0.0021707225275477676 -0.012125643746549215 0.013343952783681948 0.0091572321617841065 0 -0.0078355068550480748 0.0067498496332971739 0.0019805650954971914 0.0086160291901580862 -0.0046663876362833638 0 0 -0.013446673990725083 -0.013189407951366625 0
leaf_weight=5.8372115117963386 9.21932719851611 83.510882266215049 98.501163432374597 10.847798550123118 208.46224649796204 29.348215770645766 1.319483417610172 6.4460373887850428 94.941285913926549 22.199165415397147 79.093240311907721 29.244164966221433 108.8729834871483 122.18666950492479 10.150763662473762 62.155663717945572 877.49053662264487 83.564482045301702 25.107116710045375 6.1777539850445473 7.8310454646707504 243.28788343406632 4.2903859128709882 4.0205935124540693 14.118132706236791 36.669798140792409 38.727546708629234 4.6680619797552909 239.49262400367297 5.2079143163282451 1.4323956765001638
leaf_count=262 5478 8357 2107 818 31248 11289 88 449 2392 5324 8690 4856 1572 8847 267 1306 257181 11618 2360 504 168 174727 32 2495 10931 27211 28930 255 169554 514 675
internal_value=-0.000139338 0.00823508 0.00413927 0.016831 0.000231905 -0.00388925 0.0226996 0.0227356 0.0060202 -0.00118415 0.00558016 0.012605 0.0262391 -0.00759026 -0.00670958 -0.00316659 -0.00266222 -0.0033968 0.00614683 -0.000620292 0.0286711 -0.00903756 0 -0.0125236 -0.00546262 0 -0.00649733 0.00600712 -0.0130797 -0.0115657 0
internal_weight=2574.42 779.252 635.047 125.946 509.101 1795.17 144.205 104.947 303.404 1208.2 192.692 108.337 126.832 205.698 20.9986 84.3548 1015.51 961.055 54.4553 17.3732 116.704 586.968 10.1276 254.165 332.803 50.7879 282.015 10.8458 248.712 6.5274 5.45299
internal_count=780505 57880 54485 3641 50844 722625 3395 2556 33640 302624 20176 13546 2034 17204 1085 6630 282448 268799 13649 1361 1740 420001 294 178202 241799 38142 203657 759 175032 602 3170
is_linear=0
shrinkage=0.0873782


Tree=21
num_leaves=28
num_cat=0
split_feature=0 24 11 17 24 35 12 35 38 15 9 24 0 20 15 0 11 24 41 29 36 5 12 15 35 32 24
split_gain=13.5282 5.42363 3.99226 2.76064 2.89751 2.62919 2.43767 2.47687 1.96287 1.94747 1.90291 1.81 1.8822 1.16154 1.70654 1.12289 1.03303 0.625244 0.622663 0.442683 0.238932 0.281632 0.169304 0.14581 0.120177 0.113885 0.0029767
threshold=1.0000000180025095e-35 -0.044945405796170228 0.50446030497550975 49.922895431518562 -0.00046092081174720073 0.016427455469965938 40.194999694824226 -0.032604595646262162 -0.088532775640487657 0.093792475759983077 10.052796363830568 0.062914624810218825 0.7428557574748994 -0.013429462909698485 0.13048432022333148 0.057141074910759933 0.084220319986343398 0.12189478427171709 -0.93780255317687977 -5.1454377174377433 0.016369003802537922 0.10711505636572839 11.250000000000002 0.053279927000403411 -0.057267852127552026 1.0733669996261599 -0.005590213928371667
decision_type=2 2 2 2 2 2 2 2 2 2 2 2 2 2 2 2 2 2 2 2 2 2 2 2 2 2 2
left_child=3 2 6 4 8 13 7 -2 -1 15 -10 16 -13 17 -15 -4 -7 -3 -11 -8 22 23 26 -22 -6 -24 -5
right_child=1 5 9 20 24 11 19 -9 10 18 -12 12 -14 14 -16 -17 -18 -19 -20 -21 21 -23 25 -25 -26 -27 -28
leaf_value=-0.0032567055759059982 0.020594537811689722 -0.0012619926488652139 0 -0.001095124542391634 0 0.0024448080582501197 0.0008415792191715988 0.0059599020475407816 0.031845037945912098 -0.0028109087674361962 -0.00045581769284477278 0.015019617074394163 -0.0011486356763085314 -0.0075731957122694669 0.0025995307676204699 -0.022080306148456477 -0.0072256207832123711 0.010974432911792205 0.012869813861963612 -0.013574661519918802 0 7.7200479203038381e-05 0.0089093637470603147 -0.012676402085939913 -0.0091559428112412185 0 0
leaf_weight=4.1774768115719771 136.62363531687879 236.85264213371556 18.449420269287657 1.5570394201204183 1.4647525193868203 156.4762487692351 2.4747527534491409 345.70956196749466 153.27929773530923 10.702584728307558 7.4037959825363933 110.40941799670691 69.558801291306736 941.89056610615808 116.7249289873871 40.465399461827474 126.13407917956647 14.312529467744751 14.588503856270107 21.167726910382044 2.6702942855481506 4.3343743915320365 9.9118101038038695 7.4758714965428226 4.8436167668551198 0.82280738843837831 0.64972138084704312
leaf_count=39 3997 84622 744 199 47 66148 290 22437 5549 634 1034 2696 4937 467313 55690 1843 52095 279 381 4758 477 164 1947 1259 724 234 247
internal_value=0.00126857 -0.00061333 0.00643896 0.0219823 0.0257102 -0.00307166 0.00947051 0.0110334 0.0281904 -0.00895662 0.0298906 0.00235496 0.00879024 -0.00507629 -0.00632188 -0.0164365 -0.00172678 0 0.00572653 -0.0100214 -0.000187042 -0.00632914 0.00325226 -0.0106097 -0.00685225 0.00712275 -0.000473594
internal_weight=2561.13 2362.54 590.182 198.591 171.169 1772.36 505.976 482.333 164.861 84.2059 160.683 462.579 179.968 1309.78 1058.62 58.9148 282.61 251.165 25.2911 23.6425 27.4219 14.4805 12.9414 10.1462 6.30837 10.7346 2.20676
internal_count=780784 768864 35084 11920 7393 733780 31482 26434 6622 3602 6583 125876 7633 607904 523003 2587 118243 84901 1015 5048 4527 1900 2627 1736 771 2181 446
is_linear=0
shrinkage=0.0873782


Tree=22
num_leaves=30
num_cat=0
split_feature=0 43 3 28 26 18 11 7 25 32 18 1 11 38 28 25 26 15 14 18 11 15 11 31 0 41 0 43 11
split_gain=5.36055 4.28522 3.04929 4.4912 2.63566 2.23995 2.84738 2.15222 1.87346 1.78409 1.65816 4.18895 1.52891 1.39816 1.14238 0.955354 0.868114 0.860002 0.807857 0.745732 0.688215 0.643146 0.391987 0.389814 0.334586 0.197589 0.114688 0.111854 0.0815632
threshold=0.0085653192363679426 0.79686495661735546 -0.051698278635740273 -15.143853664398192 -0.014057395979762076 -0.44033238291740412 -0.77613773941993702 0.71423435211181652 -0.0002998154232045635 -5.30159568786621 -0.065834175795316682 0.041994702070951469 2.1127175092697148 -0.023619554005563256 -2.3369156122207637 -0.00064787559676915396 0.0069808827247470626 0.075712475925683989 0.23577008396387103 -0.61745846271514881 0.60174638032913219 0.080986414104700102 0.42566758394241339 -0.0064611283596605054 0.20629202574491504 -1.3911460041999815 0.024726273491978649 0.97681650519371044 0.18453514575958255
decision_type=2 2 2 2 2 2 2 2 2 2 2 2 2 2 2 2 2 2 2 2 2 2 2 2 2 2 2 2 2
left_child=2 15 3 19 8 6 18 -8 25 28 12 -12 -7 -10 16 22 -6 23 -3 -1 -11 -19 24 -17 -2 -4 -24 -16 -5
right_child=1 5 4 9 14 10 7 -9 13 20 11 -13 -14 -15 27 17 -18 21 -20 -21 -22 -23 26 -25 -26 -27 -28 -29 -30
leaf_value=-0.015295279251191526 0.010598992247958778 0 0 -0.0038483341254296564 0.020213874438450179 -0.0006722209518179096 0.0082143714784573812 -0.0062997695918134457 0.0015129885214797817 0.03083426846544415 -0.004805983033554599 0.016216077628751258 -0.01297618758150885 -0.029007645329553605 -0.0065514299986095294 0 0 0.0054968132078307931 0.022026323610262067 0.0029710345830878376 0.0014946163245560349 -0.0038428677987756587 0 -0.0090364999816741499 0 0.0087575801292688535 -0.0061320285950953422 0 0.0023833873568465725
leaf_weight=15.023735486669468 28.98324301878165 14.83593728445703 3.5045007685548626 9.4728897991590184 33.226515331160044 613.28331359048025 165.29146865439543 106.76038411614718 4.2973572414484833 94.55454652820481 122.07099136998295 118.94195325303008 71.284964583406691 21.525619295396609 11.849158690427428 40.294387188361725 15.11845985407126 38.439748582255561 79.621483393799281 6.5201164696482001 17.27596494165482 341.57316629294655 1.0871856898302201 522.07718136077165 27.445838603787706 7.2836506357998569 14.798748315923147 1.2542803155374702 5.9263787975651203
leaf_count=200 4531 631 103 190 3366 87175 6697 2625 143 1611 48492 4660 4222 1403 5730 14234 1153 23490 1813 187 446 220436 108 326949 12495 227 6626 150 130
internal_value=9.98651e-05 -0.00120755 0.0118219 0.0188801 0 0.00205983 0.00763684 0.00210716 -0.0145298 0.0248285 -0.000160336 0.00564547 -0.0024685 -0.0233079 0.0096552 -0.00542768 0.0150436 -0.00620765 0.019243 -0.00857669 0.0280944 -0.00238204 0.00267344 -0.00842217 0.00635334 0.00472496 -0.00365342 -0.00412154 0
internal_weight=2553.62 2306.79 246.833 148.774 98.0595 1292.09 366.509 272.052 36.6111 127.23 925.581 241.013 684.568 25.823 61.4484 1014.7 48.345 942.384 94.4574 21.5439 111.831 380.013 72.315 562.372 56.4291 10.7882 15.8859 13.1034 15.3993
internal_count=780223 765184 15039 2764 12275 156315 11766 9322 1876 2377 144549 53152 91397 1546 10399 608869 4519 585109 2444 387 2057 243926 23760 341183 17026 330 6734 5880 320
is_linear=0
shrinkage=0.0873782


Tree=23
num_leaves=28
num_cat=0
split_feature=0 43 10 32 36 1 15 16 35 15 14 15 4 6 42 9 26 33 28 26 5 26 37 10 15 12 35
split_gain=8.79904 3.38463 3.23098 2.66608 2.17742 2.19346 2.15117 2.40646 2.39979 2.82698 2.38667 1.62805 1.3809 1.23742 1.58657 1.48628 1.48096 1.25377 0.876163 0.793831 0.786904 1.05115 0.941956 0.692054 0.517732 0.361424 0.0340145
threshold=1.0000000180025095e-35 0.94532009959220897 0.20867890864610675 -5.30159568786621 0.094645999372005477 -0.015520827379077671 0.065413087606430068 0.27229496836662298 -0.03806668892502784 0.089825194329023375 0.19168526679277423 0.075712475925683989 21.056631088256839 1.6051092147827151 0.01479620346799493 9.5981788635253924 -0.0043391645886003962 -0.180682398378849 -2.8368473052978511 -0.023959691636264321 -0.15740613639354703 -0.048522368073463433 0.82136505842208873 0.2482387572526932 0.080986414104700102 19.010000228881839 -0.011803789529949425
decision_type=2 2 2 2 2 2 2 2 2 2 2 2 2 2 2 2 2 2 2 2 2 2 2 2 2 2 2
left_child=2 11 3 26 5 -5 7 10 9 -8 -3 20 -10 15 17 16 -4 -15 19 -13 22 -22 -2 -9 -20 -17 -1
right_child=1 6 13 4 -6 -7 8 23 12 -11 -12 18 -14 14 -16 25 -18 -19 24 -21 21 -23 -24 -25 -26 -27 -28
leaf_value=-0.0077027052913361425 0 -0.0073686597131745061 0.018030790600831764 0.032357733673730425 -0.0025541507720495361 0 -0.0065439033770329424 0 -0.0075074405608915066 0.019564798856652656 0.011988341580421434 -0.0030843798601098691 0.0044443583719830787 -0.029225257272505106 0.0071914878333236478 -0.014311985864916124 -0.0049002178154557907 0.00039061892984926867 0.0027112171024779707 0.0055416948750368995 0.0053829695853691512 -0.0068161558642214591 -0.021224058683307331 -0.018587255103522174 -0.0055090244052568649 0 0
leaf_weight=3.7445272401673719 12.464232951693701 35.156191302055959 48.872062583570369 103.34274533618009 8.5389627851545793 13.578496304922735 31.742032762616873 10.271784168784508 312.31054114209837 54.165577930834843 290.81519122014288 101.87932358640683 66.803212998638628 8.3428875303361565 4.173030530975665 5.315968409937339 10.705106731445992 5.7728896634071143 38.305355043557938 178.89868064988696 31.955546324315947 805.96978449489689 45.20633135017124 12.162449151102917 304.08387864663382 4.6603003070922568 4.050692099845036
leaf_count=82 1584 2570 1590 2392 149 3145 721 183 19280 1167 15119 18812 3074 99 169 1291 1588 242 22180 77704 3669 411704 6848 240 184081 867 180
internal_value=-0.000840571 -0.00250697 0.0149353 0.0225457 0.025783 0.028705 0.00191448 0.00695871 -0.00178655 0.00954906 0.00925852 -0.0049385 -0.00500509 0.000213437 -0.0116976 0.00657461 0.0123787 -0.02125 -0.00123075 0.00205915 -0.00731003 -0.00610037 -0.0170153 -0.0120941 -0.00418595 -0.00939819 -0.00651874
internal_weight=2553.29 2332.19 221.098 133.255 125.46 116.921 813.427 348.406 465.021 85.9076 325.971 1518.76 379.114 87.8422 18.2888 69.5534 59.5772 14.1158 623.167 280.778 895.596 837.925 57.6706 22.4342 342.389 9.97627 7.79522
internal_count=780730 768936 11794 5948 5686 5537 42354 18112 24242 1888 17689 726582 22354 5846 510 5336 3178 341 302777 96516 423805 415373 8432 423 206261 2158 262
is_linear=0
shrinkage=0.0873782


Tree=24
num_leaves=31
num_cat=0
split_feature=42 18 10 5 14 25 1 13 24 1 11 24 5 42 39 39 11 10 12 16 13 18 1 25 12 18 16 13 33 43
split_gain=10.8689 3.28182 3.27875 3.96738 3.25472 2.54444 3.43196 2.94823 2.47509 1.83962 1.70635 1.57551 1.49227 1.4332 1.39528 4.05145 1.16524 1.13293 1.09905 0.996896 1.91337 1.56071 1.27855 0.802773 0.674493 0.542163 0.506175 0.502636 0.436761 0.311185
threshold=0.049413735046982772 -0.2349269092082977 0.19292896986007693 -0.058181595057249062 0.47405134141445165 0.00037233032344374811 -0.02338450867682695 -0.04675734415650367 -0.026319329626858231 -0.033751808106899255 -1.1782841086387632 0.076544508337974562 -0.14274538308382032 0.12032384425401689 -1.0430704951286314 -1.1495599746704099 1.0969391465187075 0.27248673141002661 11.555000305175783 0.019978543743491176 0.0056282684672623881 -0.026543865911662575 0.092151001095771803 -0.0017163488664664326 25.635000228881839 -0.34093746542930597 -0.080615982413291917 0.031000160612165931 -0.38566391170024866 0.90683993697166454
decision_type=2 2 2 2 2 2 2 2 2 2 2 2 2 2 2 2 2 2 2 2 2 2 2 2 2 2 2 2 2 2
left_child=2 4 5 14 10 6 16 -7 13 -9 25 -10 -12 -6 15 -4 -1 -16 26 24 21 -21 -22 -20 27 -2 -5 -3 -8 -26
right_child=1 19 3 18 8 7 28 9 11 -11 12 -13 -14 -15 17 -17 -18 -19 23 20 22 -23 -24 -25 29 -27 -28 -29 -30 -31
leaf_value=0.031916454839489065 0.0096641028028641388 -0.0093001347819701031 0.01412307129255844 -0.0043161991304240775 0 0.022928008389899265 -0.0095907446167192243 -0.018604519114245162 -0.0039542644395538567 0.0071305393413948039 -0.016219079207160512 0.008468164877701025 -0.0024705054037890634 0.017960774847228519 0 -0.021546297008113818 0 0.021966758845129403 0.0035049499424856544 0.0086976387183349217 -0.0029565574902398251 -0.0062602748637005145 -0.016844010638960825 -0.012248325420197928 0.0039136256167802662 -0.0017144603433112038 0.010006314037258728 0.0019373204977688721 0.0041331121530007245 -0.006411703247032754
leaf_weight=116.52239079267019 52.592076300432382 580.96971937767375 45.803529421129497 3.0039031216874745 59.372797066287603 10.436173280293586 6.0830723282415446 29.481992890476246 184.69415664728149 13.242361194192201 84.147424595998018 101.44539249493391 222.50156844094454 127.36171719478443 13.138609038986031 15.677547942555973 5.3867223951383485 83.202429749740986 8.6496417171438207 140.4016726387199 288.31594100339134 52.426244647591375 54.74446207244182 97.115199769894389 46.819764959509484 22.772692015780194 24.926146459183656 8.3961057346023136 22.61817379877175 10.287505803513339
leaf_count=2454 5784 334817 1550 57 2854 318 278 629 80823 1194 8463 4577 64389 6978 416 649 116 3254 355 38260 123077 20461 1092 22778 31405 5284 5031 4408 6589 2495
internal_value=6.88395e-05 -0.00273391 0.0114331 0.00442598 0.00127495 0.0195779 0.0247773 0.000480569 0.00609127 -0.0092478 -0.00442722 0.000389121 -0.00740082 0.0133544 0.0132246 0.000465155 0.0303091 0.0188618 -0.0056677 -0.00569238 -0.00245539 0.00390546 -0.00634568 -0.00973593 -0.00804609 0.00550651 0.00508415 -0.00890014 0 0
internal_weight=2532.54 2037.25 495.288 291.517 854.888 203.771 150.61 53.1605 472.874 42.7244 382.014 286.14 306.649 186.735 157.822 61.4811 121.909 96.341 133.695 1182.36 535.888 192.828 343.06 105.765 646.473 75.3648 27.93 589.366 28.7012 57.1073
internal_count=780835 735167 45668 34090 179152 11578 9437 2141 95232 1823 83920 85400 72852 9832 5869 2199 2570 3670 28221 556015 182890 58721 124169 23133 373125 11068 5088 339225 6867 33900
is_linear=0
shrinkage=0.0873782


Tree=25
num_leaves=31
num_cat=0
split_feature=36 44 23 29 24 36 11 11 18 19 19 11 29 11 14 18 43 30 11 34 44 9 9 13 13 14 14 13 44 9
split_gain=8.5155 4.26212 3.3223 3.27673 3.01203 2.93727 2.21665 2.29254 1.77656 1.63608 2.10254 1.62112 1.60801 1.70268 1.58902 1.34535 1.25459 1.21571 1.09669 0.866207 0.850782 0.747215 0.581977 0.402343 0.620547 0.30419 0.229806 0.14294 0.0472263 0.000863502
threshold=-0.054389372467994683 0.6512323021888734 0.0079202330671250838 0.041672097519040115 -0.06572342291474341 -0.0017832930316217242 0.64882874488830578 1.1929347515106203 -0.4770823717117309 1.3282563090324404 0.87446978688240062 -1.974091053009033 -0.57361358404159535 -2.4747123718261714 0.70228794217109691 -0.35087680816650385 0.98876735568046581 2693.2297363281255 -0.74623608589172352 0.042683869600296027 0.83991754055023204 9.5487070083618182 9.832306385040285 -0.026542810723185536 -0.011672009248286484 0.23577008396387103 0.52929687500000011 -0.019942499697208401 0.63527885079383861 12.205091476440431
decision_type=2 2 2 2 2 2 2 2 2 2 2 2 2 2 2 2 2 2 2 2 2 2 2 2 2 2 2 2 2 2
left_child=6 23 3 5 -5 -3 9 15 19 10 11 -1 13 -4 -12 20 -14 -10 22 -9 -8 -20 -11 28 27 -26 -17 -25 29 -2
right_child=1 2 12 4 -6 -7 7 8 17 18 14 -13 16 -15 -16 26 -18 -19 21 -21 -22 -23 -24 24 25 -27 -28 -29 -30 -31
leaf_value=-0.0070209810439380771 -0.016497478576713059 0 -0.0064938287203699365 0.0141085901104103 -0.014649651694621946 0.024761364246698399 0 0 -0.011245246152365504 0.014817264446897221 0.029164766846123562 0.011746302650429041 -0.0048035462825977834 0.0067647307055933017 -0.0028161067145457026 0.0068619147765965512 0.0035023040757385846 0.010550303987304856 -0.016504111425827684 0.026028091172058725 -0.024836062128806374 0.0021044243950762063 -0.0020095432664162917 -0.001950897513929019 0 -0.0072615674650732603 -0.0026765997705332947 0.0039017426165617827 0 0
leaf_weight=18.88676391003537 37.032493385369889 64.816933468100615 70.07578784332145 21.722796950896736 50.374182065832429 95.88247125846101 4.4080232490669031 3.3461868234735475 24.815772949747043 13.187704517156819 90.118267755198758 212.49870235816343 649.4890078540484 291.61698710197379 2.5711681129178023 13.163276183389828 142.65851437102538 9.578321093315024 16.979666728584565 18.74449272887432 21.369748638157034 6.1450500640203236 3.6314154220744959 21.137642913003219 17.073974131140858 579.60614624788286 5.186494833091273 41.405360218166607 1.0133709741057817 0.16432914847973634
leaf_count=1900 25558 2088 3414 393 3371 2832 1182 211 4794 500 3995 30534 182503 39346 58 3240 2562 1104 430 1004 1384 322 362 15312 11343 408179 1169 30441 548 115
internal_value=0.00064716 -0.00172129 0.00102716 0.010098 -0.00357038 0.0165128 0.0110913 0 0.00977433 0.0141047 0.0160628 0.00931448 -0.000865333 0.00369103 0.0269689 -0.0123153 -0.00312142 -0.00151878 -0.000102463 0.0218083 -0.0205808 -0.0105484 0.00932045 -0.00720041 -0.00602115 -0.0068935 0.00150019 0.000655083 -0.016147 -0.0164711
internal_weight=2548.7 2084.07 1386.64 232.796 72.097 160.699 464.631 100.612 56.4848 364.019 324.075 231.385 1153.84 361.693 92.6894 44.1275 792.148 34.3941 39.9438 22.0907 25.7778 23.1247 16.8191 697.433 659.223 596.68 18.3498 62.543 38.2102 37.1968
internal_count=780194 728005 236509 8684 3764 4920 52189 14088 7113 38101 36487 32434 227825 42760 4053 6975 185065 5898 1614 1215 2566 752 862 491496 465275 419522 4409 45753 26221 25673
is_linear=0
shrinkage=0.0873782


Tree=26
num_leaves=29
num_cat=0
split_feature=23 34 38 40 8 26 10 18 26 9 37 40 28 12 4 8 12 40 26 7 43 25 23 26 19 4 28 8
split_gain=8.32818 3.92611 2.46492 2.00414 1.98735 1.93594 1.77186 1.50581 1.31862 1.27296 1.22444 1.20491 1.72584 1.19532 3.38139 1.92513 1.14896 1.14289 1.13886 1.26134 1.12464 0.857892 0.813972 0.401829 0.366622 0.358425 0.305797 0.144315
threshold=1.0000000180025095e-35 0.19531276822090152 0.029968740418553356 -0.46087093651294703 0.81472074985504161 0.022662679664790634 0.35924567282199865 -0.7898542284965514 -0.018791352398693558 9.4513807296752947 0.54375672340393078 0.096828754991292967 -5.9302961826324454 22.194999694824222 -38.97772026062011 1.0084981918334963 12.590000152587892 -0.22400072216987607 -0.03897381387650966 0.44340147078037268 0.94532009959220897 0.0048433518968522557 0.01300985272973776 -0.0021912809461355205 1.1527713537216189 -18.824590682983395 -4.44110083580017 0.77466624975204479
decision_type=2 2 2 2 2 2 2 2 2 2 2 2 2 2 2 2 2 2 2 2 2 2 2 2 2 2 2 2
left_child=1 4 7 5 8 9 11 16 10 -3 -1 21 -13 15 -15 -9 27 24 22 -20 -18 -4 -8 -10 -5 -19 -7 -2
right_child=2 3 6 17 -6 26 18 13 23 -11 -12 12 -14 14 -16 -17 20 25 19 -21 -22 -23 -24 -25 -26 -27 -28 -29
leaf_value=0.001394297412821133 0 0.028572215637805081 0.019181717608146819 -0.015699480624456454 0.01327641076933485 0.0029544858315505391 -0.003669811776116689 -0.0032178655241197718 0.0086820437246211708 0 -0.025069446186954805 -0.013187457051783459 0.010874144794608406 0.013082748521533604 -0.010447586970834149 0.0088914616718002697 0 0.013595083477149212 0.00080882198339164973 -0.013040990088659499 0.022999550105894769 -0.00056192629685152559 0.016468253808288216 -0.0045566079226261377 0 0 -0.0089735636328168705 -0.0088808596735872863
leaf_weight=5.6973996659507966 3.9529288659105069 129.26647464698181 78.23940305972792 9.1007761154323799 13.384113098611122 5.9025713229784742 2.184972767368893 1420.3356959785742 13.336626605072523 16.681530918518547 24.085016100143548 19.264247805142077 28.987316537910374 30.091698151663877 377.19674173406383 82.76527454535244 14.038744384597519 13.916976663458625 120.39015219826251 49.616055226593744 20.584541777148843 6.4435617524723048 22.281596157888998 4.8881936533725883 2.8049987580161533 7.3870959663181592 5.1231429830659163 3.2418221095576882
leaf_count=121 242 4018 9586 745 184 242 49 561156 1193 1814 496 2689 2649 5059 151291 4594 1794 715 16594 10804 236 874 1108 917 79 996 407 148
internal_value=-0.000259484 0.01411 -0.00201127 0.019865 -0.00296055 0.023525 0.00466459 -0.00322478 -0.0117694 0.0260257 -0.0194771 0.0116751 0 -0.00367023 -0.00787919 -0.00236233 0.00970117 0 -0.000326382 -0.00369891 0.0156746 0.016862 0.0114627 0.00189764 -0.0119678 0.00948095 -0.00159861 -0.00550333
internal_weight=2531.19 251.575 2279.61 190.184 61.3913 156.974 327.407 1952.21 48.0072 145.948 29.7824 132.935 48.2516 1910.39 407.288 1503.1 41.818 33.2098 194.473 170.006 34.6233 84.683 24.4666 18.2248 11.9058 21.3041 11.0257 7.19475
internal_count=780800 11927 768873 9016 2911 6481 44353 724520 2727 5832 617 15798 5338 722100 156350 565750 2420 2535 28555 27398 2030 10460 1157 2110 824 1711 649 390
is_linear=0
shrinkage=0.0873782


Tree=27
num_leaves=31
num_cat=0
split_feature=1 0 0 40 35 41 12 34 10 1 8 41 8 25 12 19 8 35 38 25 37 38 35 19 12 34 8 26 39 39
split_gain=8.82072 3.65757 3.20292 2.26054 2.03317 2.00602 2.28106 1.99385 1.91935 1.54833 1.54133 1.32133 1.19655 1.66387 1.17037 1.01146 1.34084 0.994979 1.18358 0.9776 1.85412 1.25181 0.911748 0.863723 0.827883 0.737809 0.516098 0.505283 0.390487 0.312259
threshold=-0.057877527549862855 0.12381051853299142 1.0000000180025095e-35 -0.65416905283927906 -0.026950996369123455 -1.126548111438751 12.22499990463257 0.04999958164989949 0.3122954815626145 -0.026891288347542282 0.53933241963386547 -0.99446350336074818 1.3837864398956301 0.00065461729536764335 17.539999961853031 0.83631610870361339 1.1162798404693606 0.027983112260699276 -0.032243834808468812 -4.1036253605852828e-05 1.4416645765304568 0.051049986854195602 -0.057267852127552026 1.291625499725342 25.779999732971195 0.60000011324882518 0.72134244441986095 -0.041621100157499306 -0.22339818626642224 -0.89696788787841786
decision_type=2 2 2 2 2 2 2 2 2 2 2 2 2 2 2 2 2 2 2 2 2 2 2 2 2 2 2 2 2 2
left_child=1 7 3 5 15 6 -2 27 -7 25 14 -12 13 -6 -9 16 -3 18 22 21 -21 -19 -4 -20 -17 -5 -11 -1 -14 -29
right_child=2 4 17 9 12 8 -8 10 -10 26 11 -13 28 -15 -16 24 -18 19 23 20 -22 -23 -24 -25 -26 -27 -28 29 -30 -31
leaf_value=-0.010051941440813981 0.017567643087888933 -0.012629808730819241 -0.0042887710414608801 -0.020082597930743226 0 0.027351131170621591 -0.010843414378016079 0.010633364724946954 -0.00048896460256504738 0.010416513070187513 0.028671913128131013 0.0073473129978455865 0.012315621475321567 -0.022911926117836382 -0.0086936684843721291 0.022311000488549424 0.011791728195243958 0.00080013031758884837 -0.0045290788982796613 -0.0034628540747192425 0.0099485516368987299 -0.016600449836869605 0.0055993205349330671 -0.014374680282204575 0 0 -0.0029631304185142701 -0.0015390096951342297 -0.0010844307145650637 0.010167509395734483
leaf_weight=12.147324346355164 12.846669387712607 14.640408763894813 101.86327473698475 18.377530795405622 69.408677088998957 57.367940675758291 35.009085969475564 34.842493845149875 14.176423985860309 31.028284801839618 118.80088999686996 68.313150249421597 11.416892796580212 24.689338651805883 16.288238299428485 28.031183050246909 9.8020221070037206 53.016050465055741 1276.2232388047123 123.62914510096016 137.19841251001344 27.996383608726319 134.45328302207054 70.175928403972648 6.5221185553236856 11.546318614622576 8.0426656020572391 4.0547263132175431 2.8674628567532627 6.4972795357462001
leaf_count=144 569 624 10658 267 2717 2113 2312 760 1377 4284 2843 1796 552 2207 1427 425 477 11997 633925 34170 12656 3382 27272 19856 675 116 321 124 149 242
internal_value=7.76715e-06 0.0111633 -0.00229447 0.00784314 0.000228744 0.0144095 0 0.0172354 0.0218602 -0.00306925 0.0195127 0.0229876 -0.0060194 -0.0100665 0.00224074 0.011561 0 -0.00341927 -0.00434119 0.000557402 0.00343488 -0.00641957 0.000917664 -0.00534285 0.0181194 -0.0143095 0.00582052 -0.00209544 0.00762048 0.004347
internal_weight=2541.27 428.322 2112.95 188.395 167.378 119.4 47.8558 260.944 71.5444 68.9948 238.245 187.114 108.382 94.098 51.1307 58.9957 24.4424 1924.56 1582.72 341.84 260.828 81.0124 236.317 1346.4 34.5533 29.9238 39.071 22.6993 14.2844 10.552
internal_count=780437 15162 765275 11359 7826 6371 2881 7336 3490 4988 6826 4639 5625 4924 2187 2201 1101 753916 691711 62205 46826 15379 37930 653781 1100 383 4605 510 701 366
is_linear=0
shrinkage=0.0873782


Tree=28
num_leaves=31
num_cat=0
split_feature=18 12 10 19 6 32 6 13 11 6 11 35 13 39 39 36 36 8 10 37 13 26 12 33 12 12 41 13 39 42
split_gain=5.49597 4.20862 2.72976 3.77836 1.95467 2.11285 1.94247 2.83404 1.80535 1.57367 1.39851 1.33571 1.3323 1.31246 1.53575 1.27619 1.15827 1.14785 1.14401 1.73399 1.11079 0.820857 0.742617 0.681659 0.624816 0.531506 0.333753 0.0667546 0.0630739 0.0412561
threshold=-0.57272526621818531 21.960000038146976 0.0671389475464821 0.93966889381408703 1.3709500432014468 -4.1955466270446768 1.859189033508301 0.0098879178985953348 -1.1782841086387632 3.5820962190628056 1.1659839749336245 0.016427455469965938 0.021483810618519786 -0.73841539025306691 0.24481260031461718 -0.0438327919691801 0.16335418075323108 0.59785160422325145 0.87003228068351757 1.4545116424560549 0.014093224890530111 -0.007107857381924986 75.690002441406264 -0.58000597357749928 12.440000057220461 25.569999694824222 -1.6373922228813169 0.012199678458273413 -0.90746545791625965 0.27666108310222631
decision_type=2 2 2 2 2 2 2 2 2 2 2 2 2 2 2 2 2 2 2 2 2 2 2 2 2 2 2 2 2 2
left_child=1 4 3 11 5 24 18 15 26 -10 -9 25 -7 23 -15 -8 17 28 21 -20 -13 -4 -19 -6 -1 -2 -5 -18 -3 -29
right_child=2 16 6 8 13 12 7 10 9 -11 -12 20 -14 14 -16 -17 27 22 19 -21 -22 -23 -24 -25 -26 -27 -28 29 -30 -31
leaf_value=0.002138791334303313 -0.010016642793173646 -0.0035585939818794975 -8.3131913915050071e-06 0.0034785220623780749 -0.0049634908042730302 0.018981620775481683 -0.0029001316235587682 -0.0052102941121756627 0.028634746863538618 -0.0014485344872248881 0.0085279999495937071 0.015306286851294218 -0.0043685281375467301 -0.019818909414495406 0 -0.016898848780215168 0 0.026625197347334248 -0.00080810381136328104 0.015571318799064404 -0.0045666583755608952 -0.0049966745664132986 0 0.010146933862232008 -0.015153985186737006 0.0018521646076633204 -0.0089294723008551177 -0.0058657358783602235 0.0022065242261416762 0
leaf_weight=5.2078987755812731 90.332157918281155 4.3135004880605257 428.10867403293378 3.6498428713530293 12.559292938327415 68.845946399917011 100.46124322465039 136.88895991657046 52.799141441937536 5.7386594517156473 65.642277672945056 26.942765836778563 5.9501677080406798 44.236292630666867 35.716929418267682 229.14064251791569 1.8704461922170583 93.204611862602178 165.408405108843 41.898448443389498 13.284168368365497 793.07311739042052 2.9040635055862358 29.124233566923067 10.963348841920377 12.0221662420372 8.0534037289326061 2.532826186507009 8.8213722195650899 2.5744491125224158
leaf_count=192 34200 425 139153 139 106 7521 4737 9582 3993 155 2969 4471 852 618 809 20540 185 7047 83721 10500 2400 436981 461 359 889 4283 510 204 1712 335
internal_value=-0.00144511 0.00864932 -0.00309244 0.00570138 0.000371802 0.00933015 -0.00415378 -0.00863789 0.0196725 0.024755 0 -0.00222943 0.0154413 -0.00597869 -0.0118294 -0.0133851 0.0205515 0.0226306 -0.00230389 0.00320391 0.00771338 -0.00336553 0.0253655 0.00375851 -0.0087288 -0.00767488 -0.00210915 -0.000745896 0 -0.00441192
internal_weight=2502.27 328.825 2173.44 212.822 212.604 90.9674 1960.62 532.133 70.241 58.5378 202.531 142.581 74.7961 121.637 79.9532 329.602 116.221 109.244 1428.49 207.307 40.2269 1221.18 96.1087 41.6835 16.1712 102.354 11.7032 6.97772 13.1349 5.10728
internal_count=780049 21715 758334 50151 11346 9454 708183 37828 4797 4148 12551 45354 8373 1892 1427 25277 10369 9645 670355 94221 6871 576134 7508 465 1081 38483 649 724 2137 539
is_linear=0
shrinkage=0.0873782


Tree=29
num_leaves=24
num_cat=0
split_feature=22 1 10 5 10 38 29 9 37 38 43 21 37 22 43 10 27 29 35 27 43 43 32
split_gain=4.51851 2.28369 2.76693 2.19305 2.21364 2.04059 1.9413 2.17535 2.05258 1.80699 1.86467 1.76281 1.45041 1.42311 1.37685 1.36694 1.34912 1.36729 1.32156 0.985686 0.981107 0.707945 0.125558
threshold=1.0000000180025095e-35 -0.084221940487623201 0.075007751584053053 -0.15740613639354703 0.65697488188743602 -0.061666814610362046 7.5118358135223398 9.6688899993896502 3.0826174020767216 -0.015830723568797108 0.97681650519371044 52.032327651977546 0.48867911100387579 9.4104170799255389 0.70938351750373851 0.64129692316055309 0.030147139914333824 -1.589533746242523 -0.024028087966144081 -0.067772503942251192 0.90683993697166454 0.98106497526168834 -4.3177187442779532
