tree
version=v4
num_class=1
num_tree_per_iteration=1
label_index=0
max_feature_idx=44
objective=lambdarank
feature_names=Column_0 Column_1 Column_2 Column_3 Column_4 Column_5 Column_6 Column_7 Column_8 Column_9 Column_10 Column_11 Column_12 Column_13 Column_14 Column_15 Column_16 Column_17 Column_18 Column_19 Column_20 Column_21 Column_22 Column_23 Column_24 Column_25 Column_26 Column_27 Column_28 Column_29 Column_30 Column_31 Column_32 Column_33 Column_34 Column_35 Column_36 Column_37 Column_38 Column_39 Column_40 Column_41 Column_42 Column_43 Column_44
feature_infos=[-6.1761800372334835e-14:1] [-0.89999997615814209:10.111111640930176] [-0.91346156597137451:3.5845072269439697] [-0.92544543743133545:3.9886887073516846] [-94.401145935058594:94.775245666503906] [-0.90941119194030762:2.4558610916137695] [0:20] [0:1] [0:36.294532775878906] [0:12.648478507995605] [0:1] [-4.2485289573669434:4.2485289573669434] [9.1400003433227539:40.740001678466797] [-0.10815337300300598:0.059775426983833313] [0.02176339365541935:0.7131696343421936] [-0.09449421614408493:0.14715269207954407] [-0.91666668653488159:3.9999985694885254] [0:100] [-0.9767950177192688:4.3159454743577563e-16] [-2.4213878447340402e-14:8.5152263641357422] [-0.40000000596046448:2.9090907573699951] [36.821052551269531:88.101936340332031] [-7.8066920332700573e-13:40.740001678466797] [-1.9920939287802579e-14:0.7131696343421936] [-10.527497291564941:20.919641494750977] [-0.032709524035453796:0.033984482288360596] [-0.50867223739624023:1.2621920108795166] [-6.2175154685974121:40.393276214599609] [-34.837512969970703:6.1156947697227695e-15] [-84.9705810546875:84.9705810546875] [0:7547.13232421875] [-0.14142857491970062:2.9090907573699951] [-12.061585426330566:6.8671464920043945] [-0.97197115421295166:5.5854464272691836e-17] [-3.5388297923554662e-14:1] [-0.89999997615814209:10.111111640930176] [-0.91346156597137451:3.0753421783447266] [0:20] [-0.57999998331069946:3.0531399250030518] [-1.7888543605804443:1.7888543605804443] [-1.7888543605804443:1.7888543605804443] [-1.7888543605804443:1.7888543605804443] [0:1] [0:1] [0:1]
tree_sizes=2967 3437 3320 3479 2937 3427 3273 3448 3319 3484 3511 3056

Tree=0
num_leaves=27
num_cat=0
split_feature=27 18 27 43 32 5 24 33 14 43 3 37 43 7 22 14 41 38 7 10 39 39 18 41 30 16
split_gain=21.1018 8.90984 7.66126 4.55572 2.50794 2.01876 1.87821 1.65872 1.4532 0.980886 0.946477 0.905977 1.10159 0.898978 0.726307 0.664544 0.464543 0.401672 0.372242 0.196566 0.032732 0.0781676 0.0851745 0.0293295 0.0227015 0.0168254
threshold=-0.0080252196639776213 -0.17981269955635068 0.0051356262993067512 0.77113896608352672 1.1844287514686587 -0.0088816522620618326 0.010182837024331095 -0.01707811281085014 0.61746650934219371 0.9413437843322755 -0.021439275704324242 0.71370771527290355 0.77915203571319591 1.0000000180025095e-35 10.334891319274904 0.65931919217109691 1.6429568529129031 0.037977388128638274 0.29798293113708502 0.49779571592807775 -0.054416552186012261 1.1806351542472842 -0.54768356680870045 0.38509215414524084 2792.1850585937505 -0.041761336848139756
decision_type=2 2 2 2 2 2 2 2 2 2 2 2 2 2 2 2 2 2 2 2 2 2 2 2 2 2
left_child=10 6 3 8 7 -5 11 -4 -3 15 16 14 -13 -6 -2 -8 17 18 -1 -11 23 22 -22 24 -12 -19
right_child=1 2 4 5 13 -7 9 -9 -10 19 20 12 -14 -15 -16 -17 -18 25 -20 -21 21 -23 -24 -25 -26 -27
leaf_value=0 0.011333703985630798 -0.014782942305811063 0.0065354599409733517 0.011552482550332 0 -0.0050766741980479545 0.019217724107733248 -0.0067087267771064772 0 0.0025353807195037082 0.0041037929894093012 -0.0050090488014697893 0.0092615216154720292 0.018958354096075013 -0.0017995891369008803 0 0 0.0015707508111017219 0.020443020788038467 -0.0068384199637592045 0 0 -0.0072691659386370571 0 0 -0.001578856995202226
leaf_weight=2.867550137336365 82.298215898714261 793.19613302941434 107.66397779915133 62.152817550901091 12.381917215621796 141.0970138253906 102.01305993966525 137.63664919041912 56.892579000734258 6.0127646088949387 4.1526357684924742 146.07926561046042 30.607517682685284 64.449692173919175 20.431970889854711 5.3346341142605516 2.8233939429628654 4.997700774227269 329.3504750886932 6.5080311294295825 0.65055316995130752 2.2168815705226734 5.6427283127559322 1.6705659655272027 1.0501910138700621 3.0071432793047261
leaf_count=1130 26575 278048 34255 22305 4329 49399 30944 43508 19776 2408 1383 49663 10975 18906 7050 1517 826 1588 99817 1708 229 557 1769 584 412 833
internal_value=-0.00015146 -0.00415703 -0.00751121 -0.0110906 0.00384077 0.00015911 0.00693155 -0.000433392 -0.0138403 0.015305 0.018496 0.00213049 -0.00124571 0.015647 0.00800007 0.0177432 0.0193991 0.0197244 0.020162 -0.000458427 0 -0.00261756 -0.0053439 0.00120141 0.00312953 0
internal_weight=2133.19 1774.76 1375.47 1053.34 322.132 203.25 399.285 245.301 850.089 119.868 358.43 279.417 176.687 76.8316 102.73 107.348 343.046 340.223 332.218 12.5208 15.3836 8.51016 6.29328 6.87339 5.20283 8.00484
internal_count=710494 601366 470526 369528 100998 71704 130840 77763 297824 36577 109128 94263 60638 23235 33625 32461 104194 103368 100947 4116 4934 2555 1998 2379 1795 2421
is_linear=0
shrinkage=0.0873782


Tree=1
num_leaves=31
num_cat=0
split_feature=44 3 3 43 9 22 42 32 9 22 33 18 18 7 7 44 24 35 44 7 3 40 4 2 12 42 38 38 18 44
split_gain=71.9964 14.6031 13.5223 9.49341 7.71643 5.18498 5.12642 5.16656 4.4289 4.41976 3.81504 3.31182 2.47532 2.10236 1.84526 1.40995 1.24724 1.21404 1.19424 1.04494 1.63189 0.924304 0.923441 0.818866 0.738128 0.550316 0.487592 0.347638 0.307806 0.0730022
threshold=0.71235874295234691 -0.028918351046741005 -0.027715507894754406 0.83032760024070751 9.8886284828186053 0.3638493567705155 0.93886098265647899 -0.11863546073436736 10.982927799224855 12.837500095367433 -0.090121194720268236 -0.22113807499408719 -0.27812784910202021 0.59111371636390697 0.99987545609474193 0.93424758315086376 -0.021379518322646614 0.0035714479163289074 0.44153103232383734 0.63251879811286937 -0.021439275704324242 -0.71436288952827443 -39.118638992309563 -0.0067433824297040692 10.394999980926515 0.21356783807277682 0.030316827818751339 -0.032350277528166764 -0.39528185129165644 0.62955394387245189
decision_type=2 2 2 2 2 2 2 2 2 2 2 2 2 2 2 2 2 2 2 2 2 2 2 2 2 2 2 2 2 2
left_child=1 3 4 5 6 21 7 -2 11 -7 14 -6 19 -12 -5 -8 -10 24 26 20 -4 -1 29 -19 -14 -21 28 -24 -3 -20
right_child=2 18 12 10 8 9 15 -9 16 -11 13 -13 17 -15 -16 -17 -18 23 22 25 -22 -23 27 -25 -26 -27 -28 -29 -30 -31
leaf_value=0.022737174166511498 0.01554800707733325 0 0.021082914617040087 0.022593260832061972 0.0058449397524385025 -0.017237856857899476 0.0039045798823215548 0.032970769860044304 0 0.0063574040112193255 0.011112371991946831 -0.013504296904176542 0.0013284714026063193 -0.011947874646082431 0 -0.017476278560825238 0.02702875288906614 0.0096741115114566349 0 0.0039131741752634923 0.0018013490852844811 0 0 -0.0032270878299029597 -0.012043269965064643 -0.0098242175401434401 0 -0.016335829915343228 -0.025757591649735758 0.0049982460513338187
leaf_weight=14.547608950320866 879.79968910024036 2.7018552253139196 38.261702933639754 104.88185660389718 104.59979446110083 392.68636168548255 26.658184139465448 187.1471145588439 14.990013115108011 52.121815683960449 23.817522801400628 116.74821854499169 16.380230127309915 59.437919714109739 25.443141000112519 19.889563507924322 31.925936204788741 27.94375351065537 4.7607575568254088 11.174956890929023 120.68562870234018 16.370887894823682 6.7973844736407036 130.48905636309064 163.53174306545407 25.834577767760493 4.2629862703615791 361.31741578734363 526.4849816543574 3.6656553800858092
leaf_count=1132 33106 927 1792 6742 6569 35692 1237 9151 561 3977 1934 6048 4919 4958 1727 875 1180 6457 2162 1786 36065 1137 2034 43327 45786 4606 1953 154070 286876 869
internal_value=-0.000971069 -0.0145805 0.0103693 -0.00457169 0.0148797 -0.0113971 0.018037 0.0193047 0.00103083 -0.0140736 0.00981976 -0.00421481 -0.00122802 -0.00338599 0.018237 -0.00632623 0.0208098 -0.00578552 -0.0217608 0.00593715 0.00902961 0.0149381 -0.0152483 0 -0.01028 -0.00393495 -0.0253811 -0.0159813 -0.0256113 0.00163801
internal_weight=3515.36 1599.3 1916.06 689.307 1381.76 475.727 1113.49 1066.95 268.264 444.808 213.58 221.348 534.302 83.2554 130.325 46.5477 46.9159 338.345 909.991 195.957 158.947 30.9185 376.541 158.433 179.912 37.0095 533.45 368.115 529.187 8.42641
internal_count=709655 506190 203465 57299 58727 41938 44369 42257 14358 39669 15361 12617 144738 6892 8469 2112 1741 100489 448891 44249 37857 2269 159135 49784 50705 6392 289756 156104 287803 3031
is_linear=0
shrinkage=0.0873782


Tree=2
num_leaves=30
num_cat=0
split_feature=3 44 44 6 19 23 18 33 40 8 28 41 3 16 33 6 44 16 43 1 14 14 2 2 43 13 18 16 14
split_gain=58.1413 15.4546 11.0709 7.09443 5.77032 4.37033 3.87873 3.59288 3.41619 3.23878 3.07809 2.56882 2.13037 1.8967 1.59242 1.41847 0.900442 0.760099 0.6246 0.406273 0.37433 0.221856 0.204059 0.189294 0.132064 0.0704536 0.0533493 0.0438625 0.00405046
threshold=-0.022285711020231243 0.79134270548820507 0.68140640854835521 1.8888587951660158 0.62441298365592968 0.4370242059230805 -0.44657534360885615 -0.087718110531568513 0.16536988317966464 0.39724871516227728 -1.0526092052459715 -1.7111450433731077 -0.035955376923084252 -0.025981036946177479 -0.096273999661207185 0.89614897966384899 0.84243479371070873 -0.010907107032835482 0.91379913687706005 -0.013272974174469708 0.33007812500000006 0.70033481717109691 0.071777120232582106 0.083163604140281691 0.87039077281951915 0.00064494938123971235 -0.19286969304084775 0.094652108848094954 0.25976562500000006
decision_type=2 2 2 2 2 2 2 2 2 2 2 2 2 2 2 2 2 2 2 2 2 2 2 2 2 2 2 2 2
left_child=1 3 18 5 7 6 -1 8 -3 -9 12 25 -6 -12 -13 19 24 -7 21 28 -18 23 -21 -2 -17 -5 -20 -28 -4
right_child=2 4 15 11 10 17 -8 9 -10 -11 13 14 -14 -15 -16 16 20 -19 26 22 -22 -23 -24 -25 -26 -27 27 -29 -30
leaf_value=0.014786261561156847 -0.0252465957748567 0.0195736801868578 -0.0010524365562009869 0 0.026766122209484423 0.018531137045333445 -0.0097094735419550118 0.012122605501569584 0.0055956964958395498 -0.01161797570910972 -0.01603371864705307 0.020326341999374366 0.0058790728151754011 0.013438471556835089 -0.0002418846019793202 -0.0065167433675562877 -0.00032869421267619147 -0.00064775674412522594 0 -0.011742857549362466 0.0089085641914844558 0 0 0 0 -0.012241732688707912 -0.0081412156400283934 0 0
leaf_weight=30.881116722594015 657.13606457810965 222.46339111012639 6.0182803119532755 3.2532247092458402 309.02043961590971 40.223648893501377 624.06729291559896 43.973538963182364 427.99401120067341 102.23131003451999 17.004112031252593 124.82554649782833 74.374639841727912 5.5815027508651829 22.508879242988769 63.41081896162359 18.144086226180661 5.5695099522708906 6.7242827554000533 172.90654293628177 67.795016658550594 3.4420160682639098 10.672886868880594 1.6383052438613948 26.02155365125509 6.4432202844182029 46.358411692519439 0.9365963654126962 30.419912609882886
leaf_count=2033 375735 8875 2728 285 14579 4377 84047 2130 17103 3670 649 4078 3126 289 3507 26002 6952 1682 3088 70010 22492 1841 3675 770 9884 299 23562 440 11438
internal_value=-0.00177046 0.00687346 -0.0177104 -0.00196526 0.013188 -0.0058817 -0.00795424 0.00826415 0.0110184 -0.00318768 0.0216807 0.0134903 0.0235167 -0.00329865 0.0169229 -0.00522175 0.000156693 0.0151523 -0.0240991 -0.00958015 0.00628873 -0.0250613 -0.0110973 -0.0251741 -0.00484619 -0.0108355 -0.007058 -0.00778092 0
internal_weight=3172.04 2060.42 1111.62 857.772 1202.64 700.742 654.948 796.662 650.457 146.205 405.981 157.031 383.395 22.5856 147.334 395.389 175.371 45.7932 716.236 220.018 85.9391 662.216 183.579 658.774 89.4324 9.69644 54.0193 47.295 36.4382
internal_count=709346 150729 558617 100308 50421 92139 86080 31778 25978 5800 18643 8169 17705 938 7585 153181 65330 6059 405436 87851 29444 378346 73685 376505 35886 584 27090 24002 14166
is_linear=0
shrinkage=0.0873782


Tree=3
num_leaves=31
num_cat=0
split_feature=16 44 44 19 25 8 6 0 6 10 20 6 25 39 23 18 14 31 8 25 16 1 20 16 16 23 25 18 16 1
split_gain=99.2808 22.0043 19.1864 12.1634 9.53962 5.4589 6.28447 3.7888 3.73157 3.34928 3.34434 3.31195 3.08379 2.89012 2.39807 1.89776 1.89361 1.4034 1.07287 1.07195 0.871848 0.764317 0.813085 0.461807 0.461635 0.335193 0.226273 0.206232 0.159604 0.0338076
threshold=-0.025981036946177479 0.87828239798545849 0.79134270548820507 0.36546246707439428 -3.8804750147392035e-05 0.2288191765546799 1.205688536167145 0.35535760223865515 1.4246699213981631 0.55649313330650341 -0.017471516504883763 1.932299852371216 -3.3121208616648794e-05 -1.0791058540344236 0.22889917343854907 -0.19513892382383344 0.33621650934219366 -0.0051400407683104268 0.68226161599159252 0.00033035020169336354 -0.0081687783822417242 -0.0028683488490059967 -0.0073566334322094909 -0.012363658752292393 -0.023710585199296471 0.25560174882411962 0.003041125251911581 -0.44657534360885615 -0.023710585199296471 -0.023281330242753025
decision_type=2 2 2 2 2 2 2 2 2 2 2 2 2 2 2 2 2 2 2 2 2 2 2 2 2 2 2 2 2 2
left_child=1 4 11 14 9 17 -7 8 -5 13 20 26 -9 -1 19 24 -11 -6 -16 -3 25 22 -12 -23 -13 -4 27 -2 -17 -22
right_child=2 3 10 7 5 6 -8 12 -10 16 21 15 -14 -15 18 28 -18 -19 -20 -21 29 23 -24 -25 -26 -27 -28 -29 -30 -31
leaf_value=0.037931694465983545 0 -0.018765378500857872 0.020704284913388923 0.022742552657920721 5.5126523511227451e-05 -0.0098279400893830273 0.010726751489209652 -0.0051165457671957654 0.041580364520362956 -0.012891601357864732 -0.0057565425022641659 -0.00055074506258240557 0.018916520796031372 0.011670822986806891 -0.00059870291119085064 0 0.0067789217826747595 -0.026321578554782107 0.016211281738036085 0.00085411325153741187 0.0022841014813035914 0 0.0074689926610734059 -0.010230761129468293 0.014735846294231438 0 0 -0.026978273765380558 -0.013544269573387583 -0.0010416621118919363
leaf_weight=39.681365936354268 10.135394042648839 40.801227341115009 36.868399272381794 501.38582502547069 8.8314364253892546 219.81403915290139 192.19427811008063 51.463778707722668 184.55033096915577 23.009968965547159 51.615452668862417 2.4087465415359501 67.43693061414524 201.57079081708798 39.668760851433035 1.2822562724468287 165.55178816645639 69.67715410963865 27.778068121260731 14.641687125636961 20.16235429525841 33.654787354927976 45.707638839317951 163.90181616492919 18.322612185438629 1.3892908341949795 1.6613102415576566 804.47670333649148 37.682028162031202 13.731616194709202
leaf_count=1608 3023 3030 3273 10955 1501 33387 17179 1650 2981 2924 10948 68 2562 14131 4191 315 10175 27496 2368 1686 6629 6078 10395 58689 2148 81 741 449714 15015 4838
internal_value=0.000493546 0.0133126 -0.0183809 0.0226727 0.00345532 -0.00464483 0 0.0264988 0.0290928 0.0127149 -0.00116712 -0.025269 0.00857141 0.0191971 -0.00185921 -0.00232232 0.00277494 -0.0229168 0.00739562 -0.0134167 0.0130336 -0.00564272 0 -0.00851769 0.0110625 0.0193966 -0.0267141 -0.0267792 -0.0126318 0
internal_weight=3091.06 1848.06 1243 927.727 920.331 490.517 412.008 804.837 685.936 429.814 367.031 875.969 118.901 241.252 122.89 59.6956 188.562 78.5086 67.4468 55.4429 72.1517 294.88 97.3231 197.557 20.7314 38.2577 816.273 814.612 38.9643 33.894
internal_count=709779 137824 571955 29423 108401 79563 50566 18148 13936 28838 100931 471024 4212 15739 11275 17546 13099 28997 6559 4716 14821 86110 21343 64767 2216 3354 453478 452737 15330 11467
is_linear=0
shrinkage=0.0873782


Tree=4
num_leaves=27
num_cat=0
split_feature=3 44 42 44 43 31 43 34 44 24 36 16 13 39 24 42 15 44 44 43 44 11 19 5 35 23
split_gain=126.779 21.4761 11.6086 7.77183 6.29033 5.35586 4.9347 4.18385 4.00982 3.02496 2.23488 1.49334 1.47639 1.34727 1.32771 0.879257 0.792935 0.711843 0.593106 0.417309 0.36328 0.252515 0.194127 0.110212 0.0750815 0.04911
threshold=-0.027715507894754406 0.82683375477790844 0.13093243539333346 0.70485052466392528 0.89020347595214855 -0.0001464215602027252 0.26836162805557257 0.78947228193283092 0.79134270548820507 -0.044703552499413483 0.037445979192852981 -0.045080654323101037 0.010516412556171419 -0.63406258821487416 -0.011869675945490597 0.01702959276735783 0.13561762124300006 0.78315404057502758 0.15050538629293445 0.96108224987983715 0.92190971970558178 -2.9891607761383052 0.92793855071067821 -0.060820471495389931 0.050186023116111762 0.008828804828226568
decision_type=2 2 2 2 2 2 2 2 2 2 2 2 2 2 2 2 2 2 2 2 2 2 2 2 2 2
left_child=1 4 5 16 8 6 -3 9 15 -4 -7 -9 17 -10 20 -1 21 -6 -14 22 23 -2 -16 -5 -23 -22
right_child=3 2 7 14 12 10 -8 11 13 -11 -12 -13 18 -15 19 -17 -18 -19 -20 -21 25 24 -24 -25 -26 -27
leaf_value=0 0 0.0012214124796693087 0.019544082653031314 0 0.0048907222270599795 0.041933157808173763 0.023150957087925205 -0.01569382783137218 0.013272787860359063 0.0052331655448007381 0 0.0045938002730123552 0 -0.005568182652591935 -0.015292345904617193 -0.020619867692876551 0 -0.0084824722817037606 0.019569314501557907 0 0 -0.029264379520339352 0 -0.0060391275352360456 0 0.0061532789890405811
leaf_weight=10.727295747783499 4.1574633345007888 106.20847106544534 196.01143808697816 4.8497846930404185 78.23103711969452 160.20507589931367 540.25714896741556 49.603295794280712 32.647687344870064 345.61387531249784 8.0756793041946349 21.598082601150963 2.5827802363201036 33.92654738452984 287.93419810308842 165.23989818766131 2.7105160935898303 20.406890267273411 51.920060210075462 16.673293163417839 2.5763068125816089 741.58550679500331 6.1720106855791519 42.132005025981925 1.9765744275646273 21.799233545316383
leaf_count=2199 2268 2275 3079 1626 9371 2372 6696 2322 1619 20904 119 1319 473 3818 116253 59578 1794 1116 3414 6118 735 435665 2387 15872 1019 6078
internal_value=-0.000873845 0.0133044 0.0182513 -0.0236114 -0.0043063 0.0250756 0.0198674 0.00845645 -0.0127954 0.0111617 0.039925 -0.0087498 0.00844194 0.0034522 -0.0119452 -0.0191886 -0.0289054 0.00019176 0.017628 -0.0142746 0 -0.0290917 -0.0149866 -0.004657 -0.0292138 0.00525859
internal_weight=2955.82 1823.26 1427.57 1132.57 395.682 814.746 646.466 612.827 242.541 541.625 168.281 71.2014 153.141 66.5742 382.137 175.967 750.43 98.6379 54.5028 310.78 71.3573 747.72 294.106 46.9818 743.562 24.3755
internal_count=710489 120674 39086 589815 81588 11462 8971 27624 67214 23983 2491 3641 14374 5437 149069 61777 440746 10487 3887 124758 24311 438952 118640 17498 436684 6813
is_linear=0
shrinkage=0.0873782


Tree=5
num_leaves=31
num_cat=0
split_feature=8 22 10 26 8 0 16 8 7 16 26 43 41 32 2 2 30 10 28 43 41 32 43 43 2 12 28 41 30 2
split_gain=113.805 26.6771 8.44059 8.3677 7.93798 4.81162 4.59171 2.72783 2.65928 2.17353 2.13909 1.19648 1.14425 0.939837 0.82742 0.808957 1.25121 0.768888 0.742062 0.569476 0.511582 0.492227 0.452707 0.44652 0.296638 0.217729 0.168536 0.152565 0.139191 0.0892346
threshold=0.36740018427371984 5.9764561653137216 0.17490097880363467 -0.020419731736183163 0.48318661749362951 0.22840346395969394 -0.034653423354029649 0.30614815652370458 0.43064299225807195 -0.032336696982383721 -0.016759704798460003 0.87839379906654369 -0.89620867371559132 0.072428409010171904 -0.022341485135257241 -0.078947369009256349 1322.4392700195315 0.39630839228630071 -5.1678202152252188 0.92572209239006054 -1.2864218354225156 -1.9644160270690916 0.7950018346309663 0.85791110992431652 -0.030668851919472214 15.364999771118166 -1.7823017835617063 -1.3923640251159666 1.0000000180025095e-35 0.003182917484082282
decision_type=2 2 2 2 2 2 2 2 2 2 2 2 2 2 2 2 2 2 2 2 2 2 2 2 2 2 2 2 2 2
left_child=3 2 5 15 10 8 -6 19 -2 13 -4 14 -7 18 -9 25 23 -15 -3 28 -18 -21 27 -17 -13 26 -1 -11 -5 -24
right_child=1 9 4 7 6 12 -8 11 -10 22 -12 24 -14 17 -16 16 20 -19 -20 21 -22 -23 29 -25 -26 -27 -28 -29 -30 -31
leaf_value=-0.015093740382600154 0 0.0018983531769574387 -0.0028217752258434376 0 0.023098892889755453 -0.0040285408149570148 0.00027825253272792698 -0.0006979766401108853 0.039822520360351339 0 0.010845474155216429 -0.0037601413936868447 0.013649578900598706 0.016656153584257618 -0.017368147256616489 0 0.0055026222694562546 0 -0.0093905379564991152 0 -0.0055259294579930703 -0.013727042378254955 0.00097748254732040146 0.01912209968460498 0.0062555891059479967 0 0 -0.015046077111069939 -0.026366212467133839 -0.0035835663690671942
leaf_weight=11.294765133061446 15.28254543233197 66.286853793659247 174.30568046739791 1.7128841797530174 616.59014540616772 24.604825612565037 86.59519763867138 46.745229132386157 248.92304260717356 4.5784120379248625 128.09817485848907 14.392231417645233 38.950471474556252 20.433230286173057 109.9980186240864 8.6378802454564738 22.315884351322893 27.576078498037532 54.03716641155188 22.063463900354691 68.625362534105079 64.839153710752726 11.108811673824674 17.280822658911347 23.547843888547504 2.7859037026064462 2.8034643479622909 134.43090737028979 772.51848572568269 32.136155883345054
leaf_count=638 1837 6806 6253 941 9567 1465 14768 11358 4975 1654 18219 1552 3546 1746 48618 2401 2231 2954 7572 3936 12439 25467 2406 1075 6367 355 231 52462 443674 12114
internal_value=0.000144943 0.0147243 0.0203138 -0.0202977 0.0155325 0.0327833 0.0205305 -0.0228562 0.0378175 -0.00618887 0.00297696 -0.0106132 0.00626665 0.000500218 -0.0136947 0 0.00335569 0.00916669 -0.0030794 -0.0251702 -0.00132227 -0.0107555 -0.0122856 0.0151101 0.000670422 -0.0109066 -0.0132037 -0.0145844 -0.0263125 -0.000823633
internal_weight=2873.5 1683.94 1333.35 1189.56 1005.59 327.761 703.185 1055.82 264.206 350.588 302.404 194.683 63.5553 168.333 156.743 133.744 116.86 48.0093 120.324 861.134 90.9412 86.9026 182.254 25.9187 37.9401 16.8841 14.0982 139.009 774.231 43.245
internal_count=709627 148344 60630 561283 48807 11823 24335 541913 6812 87714 24472 67895 5011 19078 59976 19370 18146 4700 14378 474018 14670 29403 68636 3476 7919 1224 869 54116 444615 14520
is_linear=0
shrinkage=0.0873782


Tree=6
num_leaves=30
num_cat=0
split_feature=27 23 27 36 18 23 33 37 3 40 6 34 13 17 24 27 35 41 26 27 14 41 21 27 37 23 3 26 28
split_gain=116.607 15.0708 7.87352 4.10085 3.86222 3.86079 3.43013 3.29397 2.81655 2.61675 2.34424 2.05283 1.68823 1.3878 0.723527 0.53291 0.530241 0.393112 0.275784 0.268791 0.22173 0.175456 0.165534 0.163169 0.122997 0.0775784 0.0494182 0.0120783 0.00309445
threshold=-0.011492015793919562 0.0075126255396753558 -0.04309760965406894 -0.021364745683968064 -0.3065869659185409 0.018388580530881885 -0.18346778303384778 0.79448640346527111 -0.034398827701807015 -1.7447661757469175 1.5992841124534609 0.14465276151895526 0.031124707311391834 46.050981521606452 -0.014348061289638279 -0.0060874992050230494 0.033469308167696006 -0.16398500651121137 0.052753377705812461 0.045745698735117919 0.30106027424335485 -1.2981829643249509 49.894697189331062 -0.0085133928805589659 1.4017983675003054 0.0019418003503233197 -0.015065618790686129 -0.019019002094864842 -5.3738603591918936
decision_type=2 2 2 2 2 2 2 2 2 2 2 2 2 2 2 2 2 2 2 2 2 2 2 2 2 2 2 2 2
left_child=1 8 3 6 14 13 -3 -7 9 -1 16 -5 -11 -4 20 22 19 21 -17 -6 27 -10 -12 28 -22 -25 -18 -2 -16
right_child=4 2 5 11 10 7 -8 -9 17 12 15 -13 -14 -15 23 18 26 -19 -20 -21 24 -23 -24 25 -26 -27 -28 -29 -30
leaf_value=0 0 0.025604615911267833 -0.021470370975685455 -0.012976383677306743 -0.024151202697414161 0.013051556858828917 0.0021696348369987825 0.00017062273981231386 0 0.035435938137029104 0.0050186717159717295 0.008630348824298131 0 0.0019696161371573076 0 -0.011321421937429452 0 -0.0084064494644251961 0 0 0.0091175551785625166 0.0090096233034885169 -0.0027715609268540477 0 0 -0.0091901285395346345 -0.0045637026854228194 -0.0019095692099147924 0.00094345372182967201
leaf_weight=14.838126517599447 0.98747393372468639 356.61712925558095 37.14368260212359 18.863179727166425 902.03289110038895 258.75368877415895 71.262445405853214 368.91325401500217 3.6283679305342966 312.16262052219827 19.198974073864523 137.48325172596378 7.8580514766217666 12.226440138590986 5.9203989027882926 82.598378149676137 1.8774425604497107 6.6843110352056092 8.9919991034257674 11.754753278160932 18.338796923228077 6.6892916681244978 8.4161414871341531 1.8624540590099048 3.9300184334570067 92.799370317254215 29.303397443058202 7.7106565810390766 4.640977686038239
leaf_count=137 273 9204 2700 385 510340 19237 2566 35489 133 4530 3027 2606 103 455 1817 40285 593 178 3387 4752 4782 220 2512 663 1124 40894 13112 3095 1127
internal_value=0.000226753 0.0155242 0.0105932 0.0178976 -0.0201526 0.0037727 0.0222368 0.00590761 0.0312548 0.0329195 -0.0219406 0.00414501 0.0344841 -0.0153326 -0.00439544 -0.00715518 -0.02349 0 -0.00997329 -0.0239533 0.00371333 0.0055186 0.000293213 -0.00785783 0.00738061 -0.00883332 -0.00360318 -0.000717741 0
internal_weight=2813.49 1613.12 1261.26 584.226 1200.36 677.037 427.88 627.667 351.861 334.859 1064.17 156.346 320.021 49.3701 136.19 119.205 944.968 17.002 91.5904 913.788 30.9669 10.3177 27.6151 105.223 22.2688 94.6618 31.1808 8.69813 10.5614
internal_count=709726 77943 72642 14761 631783 57881 11770 54726 5301 4770 578008 2991 4633 3155 53775 49211 528797 531 43672 515092 9274 353 5539 44501 5906 41557 13705 3368 2944
is_linear=0
shrinkage=0.0873782


Tree=7
num_leaves=31
num_cat=0
split_feature=27 1 42 11 39 24 41 34 15 12 2 6 27 27 42 12 11 2 7 15 42 15 3 36 26 28 6 6 15 35
split_gain=97.322 9.08708 4.65584 3.52368 3.19826 2.74194 2.42568 2.01311 1.93433 1.61299 1.48948 1.72657 1.46839 1.59525 1.35842 1.22506 1.05549 1.02443 0.892511 0.856162 0.579689 0.531924 0.367356 0.302817 0.262171 0.194867 0.184838 0.116536 0.0795898 0.0586544
threshold=-0.014573546126484869 -0.025583270937204357 0.063930764794349684 0.11716053262352945 -0.89098888635635365 -0.025910301133990284 -1.0547964572906492 0.070588625967502608 0.078688267618417754 10.444999694824221 -0.086266435682773576 0.94256845116615307 -0.011948792263865469 0.018120159395039085 0.0069793411530554303 13.829999923706056 0.23752606660127643 -0.13847427815198896 0.6923404633998872 -0.040528740733861916 0.027079843915998939 0.06608158722519876 -0.038586366921663277 -0.010813798289746044 0.0079837730154395121 -1.3117519021034239 2.0337766408920293 2.6351563930511479 0.093904577195644393 0.042491804808378227
decision_type=2 2 2 2 2 2 2 2 2 2 2 2 2 2 2 2 2 2 2 2 2 2 2 2 2 2 2 2 2 2
left_child=1 7 3 4 -3 20 -5 15 9 -9 18 -12 22 19 -10 16 -1 -17 -4 -14 28 24 26 -24 -22 -23 -7 -15 29 -2
right_child=5 2 10 6 -6 12 -8 8 14 -11 11 -13 13 27 -16 17 -18 -19 -20 -21 21 25 23 -25 -26 -27 -28 -29 -30 -31
leaf_value=0.0040887581864938486 0.0080267554278701404 -0.011320314422497001 0.0015592376443007067 0 0.014629766398868694 -0.010207809938058412 0.028794726562494297 0.0028865589566969747 -0.0095173132371085579 0.025143939256344481 -0.0014063509235358704 0.0098758685678492792 -0.0016520780874722592 -0.0072143060237073427 0.010756015500373568 0 -0.014981671180665221 0.018734172106850785 -0.014748931014320293 -0.021731534677472141 -0.011807187278058389 0.0056640513528266601 0.0072596173935818974 -0.0028144714680369723 0 -0.0026253786878912833 0 0 0 0
leaf_weight=33.007740789791569 15.20890726416838 47.854782413603971 18.2212118372845 23.758362075372133 51.648737962997984 20.022302293335091 109.84505286809872 43.756748383806553 11.019907664973287 614.73688495936221 222.89791428556782 146.97710091379122 32.20077847072389 100.84852733324806 66.002117596508469 21.236770379589871 11.951018159044905 39.257016508694505 44.786386892781593 951.75988189366763 49.001343827185337 18.543121829075975 19.788110293040518 13.448978799337054 7.9085875187301999 9.8600904414779489 1.7792076497571532 7.4151966996869296 0.53352484747301687 1.160808071377686
leaf_count=521 3132 851 1156 475 1116 6044 1997 779 66 14576 19563 14951 19460 43786 1322 245 175 1219 2242 537907 19959 3734 3072 1804 3016 3908 169 2825 111 315
internal_value=-0.000182249 0.014635 0.00646149 0.0158515 0.00147141 -0.0180819 0.0241529 0.0206547 0.0223615 0.0239638 0.000648237 0.00310337 -0.0193079 -0.0200247 0.0053015 0.00610581 -0.00261644 0.0128679 -0.00957837 -0.0212318 -0.00247453 -0.00599273 -0.002032 0.00173081 -0.0100011 0.000754813 -0.00822595 -0.00649968 0.00586652 0.00712555
internal_weight=2756.44 1506.96 665.99 233.107 99.5035 1249.48 133.603 840.968 735.516 658.494 432.883 369.875 1147.26 1092.22 77.022 105.453 44.9588 60.4938 63.0076 983.961 102.216 85.3131 55.0386 33.2371 56.9099 28.4032 21.8015 108.264 16.9032 16.3697
internal_count=710496 61254 42351 4439 1967 649242 2472 18903 16743 15355 37912 34514 615067 603978 1388 2160 696 1464 3398 557367 34175 30617 11089 4876 22975 7642 6213 46611 3558 3447
is_linear=0
shrinkage=0.0873782


Tree=8
num_leaves=30
num_cat=0
split_feature=44 22 16 24 44 15 18 36 8 14 11 18 18 1 31 35 15 14 8 31 44 36 39 25 5 3 37 35 37
split_gain=90.928 23.2313 11.1208 5.6665 3.75413 3.48351 3.03506 3.57351 2.58638 1.58574 1.23016 1.21574 0.876137 0.800542 0.64419 0.673912 0.643858 0.641927 0.536163 0.450448 0.414402 0.293086 0.256884 0.219153 0.0955649 0.0193293 0.0164746 0.0143895 0.00790276
threshold=0.81510853767395031 1.0000000180025095e-35 -0.028302793391048905 -0.018112750723958012 0.88635525107383739 -0.040528740733861916 -0.16092233359813687 0.019156032241880897 1.0660869479179385 0.37360490858554846 -0.065786905586719499 -0.36254012584686274 -0.45945225656032557 -0.018667621538043019 -0.0032736479770392175 0.010817344300448896 0.13561762124300006 0.33900669217109686 0.2108876779675484 0.00075987188029102992 0.79522308707237255 -0.0079988604411482794 0.51801154017448436 -0.00010495427704881875 -0.069404304027557359 -0.049109894782304757 1.328170955181122 -0.02851020451635122 1.4519557356834414
decision_type=2 2 2 2 2 2 2 2 2 2 2 2 2 2 2 2 2 2 2 2 2 2 2 2 2 2 2 2 2
left_child=3 6 4 9 11 -6 7 8 -2 20 21 -3 26 25 23 -16 -15 -9 24 -20 22 -8 -1 -4 -11 -14 27 -5 -22
right_child=1 2 14 12 5 -7 10 17 -10 18 -12 -13 13 16 15 -17 -18 -19 19 -21 28 -23 -24 -25 -26 -27 -28 -29 -30
leaf_value=-0.014154931576702565 0.044298529931431019 0.0093974925918477135 0.0050683191377601817 0 -0.0046991707817746441 0.017117270774047923 0 -0.0079145695755845468 0.0035955854145692588 0 -0.013062993114962151 -0.0035019966940803169 0.0014636141907582822 -0.020782504233199321 -0.011396745366007028 0 0 0.0088587492388048517 0.0093584050859647858 -0.0024416333213738233 0.0014881056030738916 0.015624357353404918 0 -0.0023225132545781732 -0.0056462233502336881 -0.0016326422419515358 0.0022076044937725573 -0.001953366230949488 0
leaf_weight=56.831295090785716 228.99376662709983 68.342585179780144 31.224880861118436 1.342364742013159 42.661098206241149 863.65237487593549 4.207921703287866 5.0298497548210461 22.952853669296019 1.5628356749657566 6.7055709034902966 113.47808131147758 3.5667513863882077 883.13519948851899 126.48947386472719 70.92523709195666 3.5439046118408433 19.666883557132678 79.91776210165699 5.5205537568835998 5.3449993118410921 5.7412696622195671 5.3443657050374886 36.642426884034649 18.445984774967656 12.995578593443495 2.7500469636870539 8.3692219045187795 1.0640159853501243
leaf_count=26262 1852 3843 4717 313 1734 23739 81 198 164 100 319 9736 630 510058 46278 26595 2245 612 16731 758 873 224 1888 11420 7881 7064 625 3188 210
internal_value=0.00208846 0.0150052 0.00973331 -0.0172443 0.0136222 0.0158876 0.0366235 0.0386488 0.0415679 -0.00181807 0 0.00130691 -0.0199503 -0.0202634 -0.00566537 -0.00802629 -0.0206111 0.00101655 0.0040654 0.00724975 -0.0108488 0.0119002 -0.0128179 0.000284831 -0.00364443 0 0 -0.0004224 0
internal_weight=2736.45 1646.71 1353.42 1089.73 1088.13 906.313 293.298 276.643 251.947 174.032 16.6548 181.821 915.703 903.241 265.282 197.415 886.679 24.6967 105.447 85.4383 68.5847 9.94919 62.1757 67.8673 20.0088 16.5623 12.4616 9.71159 6.40902
internal_count=710338 131512 128062 578826 39052 25473 3450 2826 2016 54703 624 13579 524123 519997 89010 72873 512303 810 25470 17489 29233 305 28150 16137 7981 7694 4126 3501 1083
is_linear=0
shrinkage=0.0873782


Tree=9
num_leaves=32
num_cat=0
split_feature=44 23 2 43 19 28 11 42 10 12 22 19 20 33 32 43 36 14 42 44 12 8 40 32 29 11 29 7 20 20 14
split_gain=53.576 16.9293 6.35881 5.5156 4.97048 4.47011 3.16435 3.01014 4.37307 2.80141 2.48905 1.8128 1.76004 1.49486 1.324 1.23256 0.999296 1.2605 0.812193 0.506947 0.474947 0.434796 0.481604 0.360855 0.337616 0.286584 0.254533 0.22881 0.223814 0.0351495 0.00702801
threshold=0.84243479371070873 0.0019418003503233197 -0.051544556394219392 0.90208253264427196 0.54781475663185131 -8.5516748428344709 0.40356646478176122 0.24874371290206912 0.21890375018119815 19.899999618530277 0.75810083746910106 1.6196465492248537 -0.024402128532528874 -0.090121194720268236 -0.064167324453592287 0.65290188789367687 -0.028389741666615006 0.49804687500000006 0.01702959276735783 0.48904566466808325 13.885000228881838 0.32989050447940832 0.023392934352159504 -4.8224008083343497 -0.18660892546176908 -2.0515761375427242 -1.005334138870239 0.85887387394905101 -0.034042615443468087 0.058746101334691055 0.50585937500000011
decision_type=2 2 2 2 2 2 2 2 2 2 2 2 2 2 2 2 2 2 2 2 2 2 2 2 2 2 2 2 2 2 2
left_child=3 4 5 12 16 10 -7 8 -4 11 -3 -6 18 21 -11 -9 20 -18 26 25 -2 27 -23 -21 -20 -14 -1 -5 30 -30 -15
right_child=1 2 7 13 9 6 -8 15 -10 14 -12 -13 19 28 -16 -17 17 -19 24 23 -22 22 -24 -25 -26 -27 -28 -29 29 -31 -32
leaf_value=0 0.016041962167298023 -0.0021077874765884582 0.017261607336791981 -0.002915959753517528 0.039286586466537869 0.0099519212435034751 -0.0070227790693830183 -0.011499507009859191 -0.0020501975572642496 -0.0094750974207693569 0.02720621704088249 0.0005698556021695657 0 0 0.013248220812446856 0 0.0052550785650776893 -0.017390410272311238 -0.012074980824923056 0 0 0.015381176284034242 0 -0.013375854721915884 0 -0.021236689618395276 0.011744731234190427 0.0054958797113856487 -0.0090131528742515322 0 0.0014775197231001126
leaf_weight=1.4606670358334675 17.758374498458579 14.45668010599911 110.57915886942646 35.514492887770757 193.77786466944963 360.27500983551727 82.758390518429223 170.40554222086212 241.26578526516096 10.334641350200398 140.22292496979935 16.277566311066039 11.358335239870938 2.7004183504031962 22.315634194295853 90.803649472276447 15.653584927786143 11.758628937765023 19.066194978222484 4.8699348635273045 14.886917830328455 29.924515917140525 8.0866056825034303 403.03360945335589 30.805657731631072 484.34421618297347 12.873439314309504 19.771932699222816 78.125270268705208 1.0711683310219076 2.6775002144277096
leaf_count=151 132 194 5622 7439 1827 9578 2524 46507 19373 215 3901 161 7166 879 297 20523 368 234 6504 1412 129 2386 1545 209890 10605 306766 1283 2970 38785 472 393
internal_value=-0.00019342 0.0104951 0.00552033 -0.0143379 0.028343 0.0117732 0.00636791 -0.000602191 0.00438684 0.0335711 0.0239348 0.0370879 -0.016884 0 0.00316458 -0.00752233 0.00257559 -0.00568375 -0.000747865 -0.0178694 0.0109833 0.00676008 0.0119698 -0.0130567 -0.00687829 -0.0209015 0.00887402 0 -0.00759917 -0.00881599 0
internal_weight=2659.21 1513.53 1210.77 1145.68 302.763 597.713 443.033 613.054 351.845 242.706 154.68 210.055 967.812 177.872 32.6503 261.209 60.0575 27.4122 64.206 903.606 32.6453 93.2975 38.0111 407.904 49.8719 495.703 14.3341 55.2864 84.5744 79.1964 5.37792
internal_count=710231 111585 108222 598646 3363 16197 12102 92025 24995 2500 4095 1988 543777 54869 512 67030 863 602 18543 525234 261 14340 3931 211302 17109 313932 1434 10409 40529 39257 1272
is_linear=0
shrinkage=0.0873782


Tree=10
num_leaves=32
num_cat=0
split_feature=27 5 15 37 8 40 15 43 8 7 26 5 40 13 38 18 41 24 43 15 38 43 30 15 35 3 18 16 8 37 12
split_gain=42.8643 6.19363 4.0055 2.75175 2.55073 2.36531 2.969 2.29993 2.72299 2.22712 2.16623 2.08356 1.7962 1.72804 1.70471 1.16474 1.03728 1.01823 0.773956 0.674094 0.465374 0.460927 0.376344 0.434283 0.135367 0.0705907 0.00937581 0.0616809 0.0160158 0.000365112 0.000151477
threshold=-0.013456149026751517 -0.13534670323133466 0.066977191716432585 0.86957317590713512 0.34362551569938665 -0.1902506425976753 0.071243215352296843 0.11829486489295961 0.54070940613746654 0.58682700991630565 0.00012615398009074855 -0.054272728040814393 0.1217818893492222 0.033146433532238014 -0.019633748568594452 -0.3412934392690658 -1.0872777700424192 -0.0011172600206919012 0.96890640258789074 0.12249865010380746 0.023874964565038684 0.87839379906654369 2461.360717773438 0.027293340303003791 -0.037433173507452004 -0.027168744243681427 -0.14391219615936277 -0.04392206855118274 0.2413793429732323 0.75591424107551586 14.784999847412111
decision_type=2 2 2 2 2 2 2 2 2 2 2 2 2 2 2 2 2 2 2 2 2 2 2 2 2 2 2 2 2 2 2
left_child=1 5 7 9 18 6 13 10 -9 -4 -3 -5 15 -1 -14 -7 -8 22 19 20 -2 24 23 -6 -19 -24 27 -20 -28 -23 -21
right_child=4 2 3 11 17 12 16 8 -10 -11 -12 -13 14 -15 -16 -17 -18 21 26 30 -22 29 25 -25 -26 -27 28 -29 -30 -31 -32
leaf_value=0.030279650782280513 -0.016223165060304429 0.016655327048930756 0 -0.003207461244640759 -0.001597692929905668 -0.012845391775961855 -0.0089131024715335301 -0.0065845750588363304 0.004942087797342727 0.022566121525673534 -0.0055047681802574662 0.012419752114845126 0.020158506883195929 -3.4149245480235654e-07 0 0.0084487559119885113 0.011312287349479382 0 0 0.00019702352906885955 -3.9590192304456232e-05 0 0 0.0090333948599797299 -0.01107647764168671 -0.0038489086738928589 -0.0023210496659431886 0.0039351495888285595 0 0.00024829788396278136 0
leaf_weight=184.96111786493566 796.56284630428127 102.36368380516069 43.977428936690558 115.24036746117054 16.884769173600944 29.83318695257185 20.164966323180124 286.63106348054134 291.26171463273931 185.8169936396298 25.329504413646646 94.826668465524563 60.107663392089307 7.8835393404588094 38.110770802712068 6.7761274840449905 13.869804106419904 7.031005617347545 1.6798643119982433 7.8911885765846801 27.531352820093161 5.6071952685015303 4.1760341894114381 45.835506133793388 130.73096475108468 57.439978844980942 12.835001937419294 8.9436605192604492 6.5910429553478016 23.313441492908169 0.66508873528800894
leaf_count=2771 485992 4491 1909 4733 7764 625 202 26445 8554 6200 1457 5253 1996 82 1502 172 159 3238 403 5148 15651 2200 674 13152 62929 24782 6134 2479 2786 9329 435
internal_value=-5.50343e-05 0.00955063 0.00605011 0.0124236 -0.0126391 0.0193768 0.0248641 0.00167437 -0.000627134 0.0187803 0.0113771 0.00388904 0.0072717 0.0286664 0.0130033 -0.00537571 0 -0.00454828 -0.0150665 -0.015553 -0.0158249 -0.00866936 0.000710703 0.00522564 -0.0105268 -0.00276047 0 0.000454741 -0.00125273 0 0
internal_weight=2660.87 1507.15 1145.45 439.861 1153.72 361.707 226.879 705.586 577.893 229.794 127.693 210.067 134.828 192.845 98.2184 36.6093 34.0348 291.019 862.7 832.65 824.094 166.683 124.336 62.7203 137.762 61.616 30.0496 10.6235 19.426 28.9206 8.55628
internal_count=709647 66551 59042 18095 643096 7509 3214 40947 34999 8109 5948 9986 4295 2853 3498 797 361 124068 519028 507226 501643 77696 46372 20916 66167 25456 11802 2882 8920 11529 5583
is_linear=0
shrinkage=0.0873782


Tree=11
num_leaves=28
num_cat=0
split_feature=33 22 2 37 35 33 5 12 35 32 22 28 1 0 12 1 5 15 15 15 40 30 35 17 15 37 37
split_gain=21.0735 12.0658 7.80474 4.77606 5.18393 4.84997 4.59394 4.02183 3.57364 3.70367 2.70686 2.5752 1.92948 1.31992 1.28699 0.930668 0.706604 0.487677 0.498292 0.300567 0.218192 0.0965247 0.012577 0.0112829 0.00278332 0.00086863 0.000864336
threshold=-0.066033750772476182 0.15710585564374926 -0.095648095011711107 0.91120085120201122 -0.023403123952448365 -0.5606974959373473 -0.044270886108279221 15.210000038146974 -0.019762527197599408 0.23854051530361178 2.1776297092437749 -5.5986661911010733 -0.03356333635747432 0.26335857808589941 11.515000343322756 -0.055669698864221566 0.10705923289060594 0.12249865010380746 -0.040528740733861916 0.074779924005270018 -1.5655475854873655 1933.4358520507815 0.022300638258457187 56.783159255981452 0.066977191716432585 1.5257725119590761 0.5951833724975587
decision_type=2 2 2 2 2 2 2 2 2 2 2 2 2 2 2 2 2 2 2 2 2 2 2 2 2 2 2
left_child=1 3 8 5 7 -1 -7 -5 9 -3 -10 -6 19 14 -4 -15 17 18 -14 20 24 -22 23 -21 -2 26 -18
right_child=12 2 13 4 11 6 -8 -9 10 -11 -12 -13 16 15 -16 -17 25 -19 -20 22 21 -23 -24 -25 -26 -27 -28
leaf_value=-0.0030425929491618257 -0.00087967090666840858 0.022764277647796677 -0.0080872803581694217 0.0036995085097420301 -0.00013829669000626886 0.039960089922939951 0.0069651042377332417 -0.034036413390860117 -0.011396511956672878 -0.0056845932836572634 0.010990465893181988 0.027116262421441151 0 0.0060218430955475324 0.0018511145959613934 -0.0068128600304706924 0 0 -0.014989209887837312 -0.0031571737112956371 0 0.01283919652442014 0 0 0 0 -0.00058729015339443634
leaf_weight=28.167888728668913 5.5598696763336237 176.71417240035953 101.67431610493804 29.68512650631601 33.364586976182181 117.00520394535852 67.628510483395075 17.74051751208026 60.203587686468381 26.273768114071572 60.909668597392738 38.235968264634721 14.917099248094017 21.184187534847297 486.97733463600161 547.24888619035482 3.3624048144556644 8.2376148147159238 713.0918008221488 3.2134823551750733 0.7760108073998716 12.591538820415733 0.8073211244191042 0.92525400983868156 2.0944189680158161 9.6712986144120787 16.459136789577315
leaf_count=206 1558 4319 9459 302 629 1479 2844 415 830 851 1448 1973 9396 931 66063 165795 1371 5255 419727 453 223 2306 227 131 373 3917 7206
internal_value=-0.00132337 0.0038329 0.000291866 0.0183378 0.00253255 0.0256578 0.0304163 -0.0151558 0.0118906 0.018408 0 0.0162065 -0.013049 -0.00302613 0 -0.00594639 -0.0139015 -0.0144182 -0.0146674 0.0046981 0.00874584 0.0118458 -0.00159352 -0.00251108 0 0 -0.000398685
internal_weight=2604.72 1813.01 1481.19 331.828 119.026 212.802 184.634 47.4256 324.101 202.988 121.113 71.6006 791.707 1157.08 588.652 568.433 765.739 736.247 728.009 25.9679 21.0218 13.3675 4.94606 4.13874 7.65429 29.4928 19.8215
internal_count=709687 257544 249696 7848 3319 4529 4323 717 7448 5170 2278 2602 452143 242248 75522 166726 446872 434378 429123 5271 4460 2529 811 584 1931 12494 8577
is_linear=0
shrinkage=0.0873782


end of trees

feature_importances:
Column_44=20
Column_43=18
Column_15=15
Column_18=15
Column_16=14
Column_3=12
Column_8=12
Column_2=11
Column_14=11
Column_27=11
Column_35=10
Column_37=10
Column_41=10
Column_6=9
Column_7=9
Column_12=9
Column_42=9
Column_22=8
Column_23=8
Column_24=8
Column_33=8
Column_1=7
Column_5=7
Column_28=7
Column_32=7
Column_40=7
Column_11=6
Column_26=6
Column_36=6
Column_39=6
Column_10=5
Column_19=5
Column_20=5
Column_25=5
Column_30=5
Column_38=5
Column_13=4
Column_31=4
Column_0=3
Column_34=3
Column_9=2
Column_17=2
Column_29=2
Column_4=1
Column_21=1

parameters:
[boosting: gbdt]
[objective: lambdarank]
[metric: ndcg]
[tree_learner: serial]
[device_type: cpu]
[data_sample_strategy: bagging]
[data: ]
[valid: ]
[num_iterations: 130]
[learning_rate: 0.0873782]
[num_leaves: 39]
[num_threads: 15]
[seed: 0]
[deterministic: 0]
[force_col_wise: 0]
[force_row_wise: 0]
[histogram_pool_size: -1]
[max_depth: 5]
[min_data_in_leaf: 112]
[min_sum_hessian_in_leaf: 0.001]
[bagging_fraction: 0.414044]
[pos_bagging_fraction: 1]
[neg_bagging_fraction: 1]
[bagging_freq: 1]
[bagging_seed: 6]
[bagging_by_query: 0]
[feature_fraction: 0.530368]
[feature_fraction_bynode: 1]
[feature_fraction_seed: 6]
[extra_trees: 0]
[extra_seed: 6]
[early_stopping_round: 0]
[early_stopping_min_delta: 0]
[first_metric_only: 0]
[max_delta_step: 0]
[lambda_l1: 1.23285]
[lambda_l2: 21.9019]
[linear_lambda: 0]
[min_gain_to_split: 0]
[drop_rate: 0.1]
[max_drop: 50]
[skip_drop: 0.5]
[xgboost_dart_mode: 0]
[uniform_drop: 0]
[drop_seed: 4]
[top_rate: 0.2]
[other_rate: 0.1]
[min_data_per_group: 100]
[max_cat_threshold: 32]
[cat_l2: 10]
[cat_smooth: 10]
[max_cat_to_onehot: 4]
[top_k: 20]
[monotone_constraints: ]
[monotone_constraints_method: basic]
[monotone_penalty: 0]
[feature_contri: ]
[forcedsplits_filename: ]
[refit_decay_rate: 0.9]
[cegb_tradeoff: 1]
[cegb_penalty_split: 0]
[cegb_penalty_feature_lazy: ]
[cegb_penalty_feature_coupled: ]
[path_smooth: 0]
[interaction_constraints: ]
[verbosity: -1]
[saved_feature_importance_type: 0]
[use_quantized_grad: 0]
[num_grad_quant_bins: 4]
[quant_train_renew_leaf: 0]
[stochastic_rounding: 1]
[linear_tree: 0]
[max_bin: 255]
[max_bin_by_feature: ]
[min_data_in_bin: 3]
[bin_construct_sample_cnt: 200000]
[data_random_seed: 6]
[is_enable_sparse: 1]
[enable_bundle: 1]
[use_missing: 1]
[zero_as_missing: 0]
[feature_pre_filter: 1]
[pre_partition: 0]
[two_round: 0]
[header: 0]
[label_column: ]
[weight_column: ]
[group_column: ]
[ignore_column: ]
[categorical_feature: ]
[forcedbins_filename: ]
[precise_float_parser: 0]
[parser_config_file: ]
[objective_seed: 5]
[num_class: 1]
[is_unbalance: 0]
[scale_pos_weight: 1]
[sigmoid: 1]
[boost_from_average: 1]
[reg_sqrt: 0]
[alpha: 0.9]
[fair_c: 1]
[poisson_max_delta_step: 0.7]
[tweedie_variance_power: 1.5]
[lambdarank_truncation_level: 30]
[lambdarank_norm: 1]
[label_gain: ]
[lambdarank_position_bias_regularization: 0]
[eval_at: 1,3]
[multi_error_top_k: 1]
[auc_mu_weights: ]
[num_machines: 1]
[local_listen_port: 12400]
[time_out: 120]
[machine_list_filename: ]
[machines: ]
[gpu_platform_id: -1]
[gpu_device_id: -1]
[gpu_use_dp: 0]
[num_gpu: 1]

end of parameters

pandas_categorical:null
