tree
version=v4
num_class=1
num_tree_per_iteration=1
label_index=0
max_feature_idx=44
objective=lambdarank
feature_names=Column_0 Column_1 Column_2 Column_3 Column_4 Column_5 Column_6 Column_7 Column_8 Column_9 Column_10 Column_11 Column_12 Column_13 Column_14 Column_15 Column_16 Column_17 Column_18 Column_19 Column_20 Column_21 Column_22 Column_23 Column_24 Column_25 Column_26 Column_27 Column_28 Column_29 Column_30 Column_31 Column_32 Column_33 Column_34 Column_35 Column_36 Column_37 Column_38 Column_39 Column_40 Column_41 Column_42 Column_43 Column_44
feature_infos=[-4.3447928225028368e-14:1] [-0.53864723443984985:3.9438204765319824] [-0.89999997615814209:4.1666684150695801] [-0.98949283361434937:4.8094983100891113] [-93.822418212890625:91.638603210449219] [-0.97445720434188843:2.6934442520141602] [0:20] [0:1] [0:2942.833740234375] [0:12.648478507995605] [0:1] [-4.2485289573669434:4.2485289573669434] [9.1499996185302734:82.69000244140625] [-0.17969310283660889:0.17358152568340302] [0.0055803572759032249:0.84430801868438721] [-0.25682055950164795:0.17849241197109222] [-0.97916668653488159:4.7999997138977051] [0:100] [-0.99230766296386719:1.1816023587413784e-16] [-2.6902694752906769e-14:13.184849739074707] [-0.53466665744781494:2.1428573131561279] [33.466995239257812:88.101936340332031] [-6.8325689073570062e-13:80.331390380859375] [-2.6936745477386392e-14:0.84430801868438721] [-7.4377956390380859:69.491127014160156] [-0.093209795653820038:0.44835329055786133] [-0.61229842901229858:1.7981665134429932] [-34.937332153320312:121.841796875] [-71.419944763183594:2.9256473528933803e-15] [-59.573398590087891:84.9705810546875] [0:7087.24267578125] [-0.11550263315439224:1.6402244567871094] [-14.192435264587402:9.4109039306640625] [-0.99230766296386719:2.32250097933637e-17] [-2.4632349992733706e-14:1] [-0.71984243392944336:3.8666665554046631] [-0.89999997615814209:4.7999997138977051] [0:20] [-0.43333330750465393:3.7402598857879639] [-1.7888543605804443:1.7888543605804443] [-1.7888543605804443:1.7888543605804443] [-1.7888543605804443:1.7888543605804443] [0:1] [0:1] [0:1]
tree_sizes=3382 3452 3366 3553 3526 3495 3612 3281

Tree=0
num_leaves=31
num_cat=0
split_feature=27 43 18 27 33 7 7 35 32 10 14 22 26 18 32 31 14 31 39 20 41 14 3 14 41 24 26 35 41 23
split_gain=14.1773 6.18827 4.78524 2.73324 2.47478 2.27151 2.12029 2.06361 1.67057 1.0475 0.998525 0.865801 0.805565 0.7836 0.721937 0.777262 0.667422 0.664667 0.502252 0.434211 0.132999 0.227993 0.0568692 0.0244353 0.0179068 0.00521622 0.00338729 0.00251249 0.0149753 0.00723929
threshold=-0.019658587872982022 0.77518597245216381 -0.33888065814971918 0.0091969766654074209 -0.080139484256505952 0.2336043789982796 0.67195037007331859 -0.030070190317928788 -5.7761113643646231 0.61050638556480419 0.66964283585548412 27.744002342224125 0.01574004348367453 -0.047391533851623528 -1.6489049792289732 -0.0096098901703953726 0.017857142724096779 0.020459290593862537 -1.62256783246994 -0.0067371618933975688 0.7960152029991151 0.65262275934219371 -0.049650663509964936 0.62137275934219371 1.2913615107536318 -0.010776652488857506 -0.002379323472268879 -0.089156076312065111 -0.14543602615594861 0.038425194099545486
decision_type=2 2 2 2 2 2 2 2 2 2 2 2 2 2 2 2 2 2 2 2 2 2 2 2 2 2 2 2 2 2
left_child=8 2 5 7 14 17 -7 -4 20 12 -5 16 -6 -11 19 -16 26 -2 -18 -3 21 22 -1 24 -22 -23 -10 29 -29 -13
right_child=1 4 3 10 9 6 -8 -9 11 13 -12 27 -14 -15 15 -17 18 -19 -20 -21 23 25 -24 -25 -26 -27 -28 28 -30 -31
leaf_value=-0.009982361095728802 -0.013381718815638063 0.0076082875593385781 0.0058934519313544589 0.0042279028863331366 0 0.013321915807894918 -0.0053633279918370016 -0.010009394181160952 -0.0010246262464433883 -0.0098069357034610664 -0.0073609435884849916 -0.0017413525375087225 0.0108329997693065 0.0021962302299178482 0 0.019301781862823039 0 0.0020369295874452095 0.02167352982680457 -0.0053493994939484554 0.0038995618576808284 0.0012759424428310316 0 0 0 0 0 0 0.0019870509148051129 0
leaf_weight=10.681706453004152 33.868192445981549 16.805317645252217 43.933725446258904 185.65014488433371 85.694595833629137 175.45712528796867 38.033901501767104 955.89122139505344 2.7316563046479136 65.088792927534087 53.571429413772421 2.6517352770315479 78.49371820356464 45.156224237813149 7.3744391470681867 114.19858422978723 1.4042738643183827 9.6388188019045611 250.98201511285151 15.649319179909069 1.7095273939776232 2.560529231501278 0.47211114983656699 1.0230617971392346 0.41203428618609894 1.0597831955237769 0.9770556406583627 2.8756123591156202 7.0558186267444389 1.078527418663725
leaf_count=3404 10326 5839 16449 69187 33075 52882 11995 375182 1086 24661 20652 1012 27118 15569 2007 39744 466 3028 83137 5969 412 909 249 364 189 457 275 1395 2822 376
internal_value=0.00056998 -0.00214876 -0.00483795 -0.00711325 0.00678046 0.00544269 0.00934616 -0.00909381 0.0179712 0.00107262 0.000820418 0.0196525 0.00550105 -0.00452612 0.0149383 0.0176649 0.0207118 -0.00878059 0.0212922 0 -0.00152246 -0.0054063 -0.00922438 0.00119505 0.00304217 0 0 0 0 -0.000865091
internal_weight=2212.18 1924.51 1496.04 1239.05 428.461 256.998 213.491 999.825 287.675 274.433 239.222 269.757 164.188 110.245 154.028 121.573 256.095 43.507 252.386 32.4546 17.9188 14.7741 11.1538 3.14462 2.12156 3.62031 3.70871 13.6617 9.93143 3.73026
internal_count=810236 713683 559701 481470 153982 78231 64877 391631 96553 100423 89839 90569 60193 40230 53559 41751 84964 13354 83603 11808 5984 5019 3653 965 601 1366 1361 5605 4217 1388
is_linear=0
shrinkage=0.0873782


Tree=1
num_leaves=31
num_cat=0
split_feature=44 25 21 33 4 33 44 43 29 7 42 40 4 7 38 21 44 43 42 3 29 18 39 36 29 33 3 21 38 2
split_gain=71.7425 9.65958 6.98663 6.45673 6.45312 5.19975 4.11344 3.96318 3.37551 3.2442 3.21677 3.14579 2.6797 2.57504 2.27219 2.15547 1.66502 1.27173 1.54202 1.0806 0.959536 0.949401 0.547012 0.541768 0.467968 0.444182 0.229871 0.151476 0.0418882 0.000852848
threshold=0.69180831313133251 -0.00033019132388290012 56.669725418090827 -0.1825899854302406 -30.839643478393551 -0.35220988094806666 0.91342976689338695 0.85790309309959423 0.47151800990104681 0.35755114257335668 0.96566164493560802 -0.98021408915519703 -52.777273178100579 0.62832462787628185 0.033370088785886771 39.767976760864265 0.53406357765197765 0.42447872459888464 0.75739809870719921 -0.036777315661311143 -1.5212309360504148 -0.24637132138013837 0.97493857145309459 -0.081900332123041139 -1.8602854609489439 -0.090704333037137971 -0.094473682343959794 40.167856216430671 -0.0227362522855401 -0.13180695474147794
decision_type=2 2 2 2 2 2 2 2 2 2 2 2 2 2 2 2 2 2 2 2 2 2 2 2 2 2 2 2 2 2
left_child=5 2 9 8 11 17 -6 14 10 25 -3 -5 -11 -10 15 -7 23 26 20 -16 -19 -18 24 -9 -4 -2 29 -28 -24 -1
right_child=1 3 22 4 6 7 -8 16 13 12 -12 -13 -14 -15 19 -17 21 18 -20 -21 -22 -23 28 -25 -26 -27 27 -29 -30 -31
leaf_value=0 -0.0071626219052269525 0.016087434507553327 0 0.0082402024651277769 0 0.0012855936025950687 0.014951671464868761 0.0021811725721909668 0.013780102655062455 0.0047099772049154307 -0.010671689559968049 -0.020854823897140294 0.028427468357908076 -0.0055149605937404823 0.013331835577679377 -0.019013989516399942 -0.004355267711638031 0 -0.0064198222286027899 -0.0067960042698015878 0.024644294284008446 0.0098109089559124917 0.0037134171126437525 -0.010682217477656675 -0.017168033453747542 0.0058124266850626497 0 -0.011075094844546825 0 0.00055409918495486117
leaf_weight=0.97893139807274598 17.868007377866888 687.9990057143732 2.7639946436393101 17.600016402109759 397.48949742194964 28.460954924055841 187.89629516289278 5.9736211059498592 59.152443526181742 62.825252976414049 16.664433288970031 106.42521410596964 399.7763861904823 124.83524113615567 12.827851559792178 1022.7326815523702 37.166656849818537 6.0878813540912189 3.4876330931438124 23.815283768315567 31.410986707051055 56.385942488981527 2.704299308010377 166.04914751736214 24.249284673220245 18.08648216376605 0.66983079363126208 9.9782117667782568 3.562663141929078 1.6378261158824887
leaf_count=143 2957 50910 407 1858 98892 12072 27862 730 7303 3784 1891 6947 26334 7926 1182 455301 5597 593 604 11508 3213 12045 437 55193 4784 5312 58 2110 1147 220
internal_value=0.00100738 0.0111097 0.0212458 0.00742821 0.000980194 -0.0141388 0.00505125 -0.0152503 0.01231 0.0239051 0.0150037 -0.0153708 0.0257873 0.000971216 -0.0176058 -0.018349 -0.00462086 0.00858771 0.0150932 0.000761683 0.0205369 0.00349134 -0.0103163 -0.00948414 -0.0143194 0 -0.00533119 -0.009198 0.000831856 0.00017087
internal_weight=3537.56 2129.9 531.836 1598.06 709.411 1407.66 585.386 1353.41 888.651 498.556 704.663 124.025 462.602 183.988 1087.84 1051.19 265.575 54.2513 40.9865 36.6431 37.4989 93.5526 33.2802 172.023 27.0133 35.9545 13.2648 10.648 6.26696 2.61676
internal_count=809320 248751 45162 203589 135559 560569 126754 553628 68030 38387 52801 8805 30118 15229 480063 467373 73565 6941 4410 12690 3806 17642 6775 55923 5191 8269 2531 2168 1584 363
is_linear=0
shrinkage=0.0873782


Tree=2
num_leaves=31
num_cat=0
split_feature=44 44 18 41 6 13 28 3 2 13 6 10 13 42 41 41 44 6 13 2 14 43 44 19 22 16 18 44 7 33
split_gain=42.7396 7.52992 6.42245 5.48893 4.2711 3.62802 4.38184 2.81195 2.57956 2.40523 2.01997 1.91395 2.04687 1.66866 1.39729 1.53116 0.906788 0.885911 0.843581 0.790258 0.78056 0.77176 0.631106 0.617381 0.374812 0.369247 0.28872 0.24166 0.032078 0.00916456
threshold=0.61299502849578869 0.83922913670539867 -0.52363982796668995 -1.481506288051605 2.6874707937240605 -0.014427594840526579 -9.6757888793945295 -0.045337846502661698 0.050100376829504974 0.047709010541439063 1.3768925666809084 0.13875897228717807 -0.004541597329080104 0.064489111304283156 -0.6880148947238921 1.1620855331420901 0.58527037501335155 0.96073284745216381 0.037224177271127708 -0.10118408128619193 0.46289062500000006 0.9171636998653413 0.49866488575935369 0.12716122716665271 2.2537813186645512 -0.080259408801794038 -0.17241664230823514 0.59725812077522289 0.8240795135498048 -0.35220988094806666
decision_type=2 2 2 2 2 2 2 2 2 2 2 2 2 2 2 2 2 2 2 2 2 2 2 2 2 2 2 2 2 2
left_child=2 4 14 11 7 8 -7 9 -5 -2 18 20 -13 25 19 16 -16 -9 21 28 -3 -4 -15 -6 -25 -12 -20 -21 -1 -17
right_child=1 3 10 5 23 6 -8 17 -10 -11 13 12 -14 22 15 29 -18 -19 26 27 -22 -23 -24 24 -26 -27 -28 -29 -30 -31
leaf_value=0 -0.00022942126623044825 0.010909242430723167 -0.022526418554126112 0.019328107388385762 0 -0.0036828380186327892 0.0076366623398812618 -0.011966146627613229 -0.0022430831981576746 0.021954866075146053 0.013750420271423518 0.00027242524468571469 0.035594770535637685 -0.014253283714806735 0.029683222230239288 -0.0047255849135135882 0 -0.0026459965089889563 -0.0088778387126252824 -0.015466743790430173 -0.0081472657961832156 0 0 0 0.027710640184335871 0 0 0 0.0073250325985067706 0
leaf_weight=2.8409923656727178 415.61860179966607 8.2605145469424333 645.16778347004583 209.62532004778041 1.3396569214528451 350.59207359515131 807.75108170618478 220.84258099972067 36.081345936167054 18.206850731221493 7.250687905529051 22.067826941580279 72.267255440645386 108.67700251734641 18.584575794156997 2.3036674924078402 2.9979859478771678 190.79750004434027 21.170192536723334 8.09061062033288 13.800454031908883 5.938722683407831 40.081392840162152 5.1626548334315912 22.129536384833045 11.498368925414978 26.195258812687825 1.2219424656068429 3.3676890565548092 0.64882223296444763
leaf_count=171 31436 516 391808 20536 349 27317 71962 90244 3461 789 635 2144 3524 51737 1516 217 291 56401 13010 851 606 2285 12366 536 2359 4996 16243 90 99 324
internal_value=-0.00147142 0.00462459 -0.0174274 0.00831114 -0.00171416 0.00645263 0.00411459 -0.00322244 0.0158336 0.00147562 -0.0190908 0.0253786 0.0298669 -0.00784672 0.0108309 0.019429 0.0257125 -0.00824659 -0.0213172 -0.00329838 0 -0.0222308 -0.0112787 0.0227853 0.0250823 0.00813895 -0.00414557 -0.013067 0.00628656 -0.0043512
internal_weight=3300.58 2394.54 906.036 1520.45 874.097 1404.05 1158.34 845.466 245.707 433.825 865.979 116.396 94.3351 167.507 40.0563 24.5351 21.5826 411.64 698.472 15.5212 22.061 651.107 148.758 28.6318 27.2922 18.7491 47.3655 9.31255 6.20868 2.95249
internal_count=808819 312180 496639 130066 182114 123276 99279 178870 23997 32225 493080 6790 5668 69734 3559 2348 1807 146645 423346 1211 1122 394093 64103 3244 2895 5631 29253 941 270 541
is_linear=0
shrinkage=0.0873782


Tree=3
num_leaves=32
num_cat=0
split_feature=8 24 6 24 25 21 18 18 20 18 18 8 10 6 16 30 8 44 25 14 14 12 14 37 5 14 6 31 31 5 14
split_gain=49.3128 23.8721 7.94522 7.71003 6.45041 4.70597 4.10435 3.03784 2.88461 2.68491 2.13035 2.12424 2.09454 1.86921 1.49348 1.25831 1.16002 1.11477 1.03227 0.904695 0.732231 0.941073 0.599277 0.571805 0.560078 0.470544 0.452242 0.405532 0.399066 0.259688 0.0288103
threshold=0.38045488297939306 -0.11731541901826857 1.8401425480842593 -0.0069643212482333175 -0.00020703212067019192 60.874238967895515 -0.13070100545883176 -0.41683709621429438 0.028704029507935051 -0.4624436199665069 -0.3132310658693313 0.42582543194293981 0.61050638556480419 1.1997554898262026 -0.16822811216115949 1525.3927001953127 0.40672913193702703 0.49041265249252325 -0.00036196304426994169 0.76422992348670971 0.41434152424335485 18.404999732971195 0.55050221085548412 0.8034319579601289 0.00089717155788093816 0.78376114368438732 4.4562900066375741 -0.005724031012505292 -0.01103301392868161 -0.15789161622524259 0.43610490858554846
decision_type=2 2 2 2 2 2 2 2 2 2 2 2 2 2 2 2 2 2 2 2 2 2 2 2 2 2 2 2 2 2 2
left_child=2 5 7 11 9 6 13 17 -6 -5 15 16 -13 -2 29 30 -3 27 -8 28 21 -12 -19 -22 -17 -21 -16 -1 -9 -7 -4
right_child=1 3 10 4 8 14 18 19 -10 -11 20 12 -14 -15 26 24 -18 22 -20 25 23 -23 -24 -25 -26 -27 -28 -29 -30 -31 -32
leaf_value=0.00031401058590387504 0 0.0037692365691006668 -0.0033929895547330389 0.014659217111239747 -0.011594970247501602 0.013684450976935113 -0.014853275598929266 0 0.0019256335009607483 0.00055270442719452465 0.015372302655132494 0.013119530013948362 0.0035316654844317901 0.038969028381157782 -0.017261062916883094 0.029789484658213319 -0.01310027744592239 0.013803884555667886 0.0082418513669615164 0.0056322124684933172 0.0021614160211238203 -0.0037883006703517269 -0.001701312457918076 -0.011835713293495207 0 -0.0083906841800592789 0 -0.01416472195004694 -0.022061726883366068 0 0
leaf_weight=1.6438394851284126 4.6611331854946902 43.309768475053716 3.0230447698268135 138.22797962254845 428.27747442870168 14.213875424582509 7.1199943968094885 2.2582491048306101 139.44861526100431 343.27482006832724 11.315058407431936 574.6010650264725 325.50650690602924 202.75409591544303 11.913158112787638 13.851613867562262 31.541804678789049 23.72942245526065 4.6441194460494426 11.254512228217211 7.986162570268788 18.003666906341095 7.4202234808471976 43.382148575125029 2.1386989340535356 14.208824118424671 1.9094006352825097 14.983817917847771 737.6003259540521 1.107044198783117 1.3634704705618785
leaf_count=258 254 10973 233 9293 114714 1623 132 913 35326 30771 1875 51335 32750 4688 1034 1123 7302 4048 249 7266 2329 6845 2060 12079 473 9337 33 3774 456109 74 159
internal_value=-0.00030394 0.00655968 -0.0172355 0.00320695 -0.00190147 0.0310155 0.0350327 -0.0200752 -0.00814308 0.00527794 0.00424173 0.00873358 0.00993536 0.0377556 0 0.020583 -0.00358235 0 -0.00310573 -0.0213761 -0.00234832 0.00491447 0.00890227 -0.00819376 0.0269161 -0.00017999 -0.013615 -0.0105726 -0.021938 0.0113327 -0.00159622
internal_weight=3186.67 2272.51 914.163 2024.19 1049.23 248.323 219.179 813.099 567.726 481.503 101.064 974.959 900.108 207.415 29.1435 20.3768 74.8516 47.7773 11.7641 765.322 80.687 29.3187 31.1496 51.3683 15.9903 25.4633 13.8226 16.6277 739.859 15.3209 4.38652
internal_count=809432 300551 508881 292464 190104 8087 5323 483765 150040 40064 25116 102360 84085 4942 2764 1988 18275 10140 381 473625 23128 8720 6108 14408 1596 16603 1067 4032 457022 1697 392
is_linear=0
shrinkage=0.0873782


Tree=4
num_leaves=32
num_cat=0
split_feature=44 24 44 3 37 12 23 42 32 13 12 43 42 10 5 10 16 15 12 19 13 43 12 43 44 13 13 19 3 35 43
split_gain=69.0184 19.0675 7.63907 6.8697 6.84348 6.71266 4.66083 3.9672 3.68782 3.34958 3.20122 2.30991 2.05673 1.78716 1.49677 1.35005 1.3415 1.1872 1.10687 1.01319 0.865516 0.715257 0.654863 0.515054 0.300633 0.273265 0.155495 0.122232 0.0436943 0.0333109 0.00387636
threshold=0.63712078332901012 -0.023253480903804299 0.87412384152412426 -0.0390511006116867 1.5608977079391482 26.829999923706058 0.096510868519544615 0.046621998772025115 -2.4876823425292964 0.022810188122093681 28.469999313354496 0.86185902357101452 0.40340591967105871 0.29452715814113622 -0.09210327640175818 0.3218830823898316 -0.051244998350739472 0.13048432022333148 17.304999351501468 0.44606316089630133 0.013024161104112865 0.99622872471809398 47.049999237060554 0.5739879608154298 0.49459335207939154 0.01480712089687586 0.054018063470721252 1.3996387720108034 -0.07910511270165442 0.016983650624752048 0.5070820450782777
decision_type=2 2 2 2 2 2 2 2 2 2 2 2 2 2 2 2 2 2 2 2 2 2 2 2 2 2 2 2 2 2 2
left_child=7 2 4 6 13 9 19 14 -8 -4 -7 16 -6 -2 23 -13 -5 21 25 -3 -20 22 -9 30 26 -19 -16 -25 -23 -26 -1
right_child=1 3 5 11 12 10 8 17 -10 -11 -12 15 -14 -15 24 -17 -18 18 20 -21 -22 28 -24 27 29 -27 -28 -29 -30 -31 -32
leaf_value=0 -0.011815019191269368 0.00058368138487348926 0.027095447958434622 0.0064833299916988813 0.028935566854035168 -0.013478447111632062 -0.0089898480475806598 -0.024683742512606126 0.0078301506400746922 0.003034004139927827 0.010570529064366001 0.01328111599551551 0 0.0019772181944269379 -0.011144583012640897 -0.0029176863051927552 -0.0094518848726501768 0.0097008420955003137 -0.018698591021558492 0.021933908480919341 0 0.0036228381777132484 -0.00042314467051894698 0.021473602327972088 0.0028635105549403256 -0.00041254306809168835 0 0 -0.00094848854884492051 0 -0.0011381088984700393
leaf_weight=1.3660711300035466 86.958128179976484 32.586108801217051 533.556388018289 20.462194258274394 64.77265094476752 38.064588956418447 138.22244582889834 691.26326857091044 235.23091199758346 65.614236535213422 112.61328189753112 46.656473627692321 23.18897395269596 169.48300439685408 29.79967398700683 59.820869845469133 514.79845886821568 9.7769869431213028 36.105263358622324 125.40962651920563 30.288884412060725 1.856821183755528 18.558860544289928 7.0593002473469806 9.1147202710271795 7.392942253209184 1.0381124246341631 2.1133800038660411 2.2977321147918692 2.977973916596965 0.94679784140316758
leaf_count=339 7633 3607 13706 4629 4069 1462 11439 430052 23239 1829 5356 8581 1403 18750 17909 15114 162484 6147 23536 10002 19491 60 7285 428 4063 4769 448 193 790 1130 64
internal_value=-0.000226038 0.00771529 0.015891 0 0.0043454 0.0207804 0.00712846 -0.0211484 0.00117912 0.0248339 0.0029315 -0.00605502 0.0227511 -0.00287433 0 0.00439608 -0.00841845 -0.0226698 -0.007619 0.0187365 -0.0124442 -0.0240057 -0.0242283 0.0159453 -0.00673283 0.00479891 -0.00996225 0.0199931 0 0 0
internal_weight=3119.4 2267.44 1094.25 1173.19 344.403 749.848 531.449 851.957 373.453 599.171 150.678 641.738 87.9616 256.441 54.416 106.477 535.261 797.541 83.5641 157.996 66.3941 713.977 709.822 11.4855 42.9305 17.1699 30.8378 9.17268 4.15455 12.0927 2.31287
internal_count=810007 293303 54208 239095 31855 22353 48287 516704 34678 15535 6818 190808 5472 26383 24574 23695 167113 492130 53943 13609 43027 438187 437337 1024 23550 10916 18357 621 850 5193 403
is_linear=0
shrinkage=0.0873782


Tree=5
num_leaves=31
num_cat=0
split_feature=24 8 8 0 22 10 30 23 32 10 25 23 43 16 29 26 2 32 0 43 2 40 16 32 10 28 31 22 29 29
split_gain=58.7416 17.2402 6.46506 6.04148 4.71932 6.0688 3.55743 3.51819 2.457 2.42983 2.36998 2.35873 1.93021 1.79019 1.68667 1.67815 1.55789 1.53491 1.44748 1.33638 0.797376 0.379995 0.432297 0.220844 0.18821 0.171774 0.136717 0.100248 0.0943423 0.00621595
threshold=-0.021977856755256649 0.42890611290931707 0.38045488297939306 0.12499903514981271 5.634991168975831 0.70414599776268016 1601.8387451171877 0.080357018858194365 -5.4789879322051993 0.25221762061119085 -0.00023530298494733867 0.060484576970338828 0.9842948615550996 -0.080259408801794038 0.054521881043910987 -0.023648769594728943 0.0091552850790321844 -3.4930852651596065 0.62564224004745495 0.94843053817749035 0.062850348651409163 -1.2935778498649595 -0.10971724614500998 -4.9919605255126944 0.29846489429473883 -6.2419435977935782 -0.011959564406424759 21.071263313293461 -0.21312978118658063 6.962651491165162
decision_type=2 2 2 2 2 2 2 2 2 2 2 2 2 2 2 2 2 2 2 2 2 2 2 2 2 2 2 2 2 2
left_child=2 12 19 9 5 8 11 -7 -4 16 18 -6 15 -12 -11 25 -3 -8 -5 23 -17 26 -23 -1 28 -2 -21 -25 -14 -26
right_child=1 3 4 10 6 7 17 -9 -10 14 13 -13 24 -15 -16 20 -18 -19 -20 21 -22 22 -24 27 29 -27 -28 -29 -30 -31
leaf_value=0 0.0029538028418253353 0.02789487179050458 0 0.0058738486240712305 -0.0027043253973512292 -0.0021216057294850279 -0.012072722254683695 0.018000360492119661 0.023579513619843236 -0.0091672076180065246 0.00047144559364205643 0.024082145622241289 0 -0.012634536465387003 0.010255027179139614 -0.022282716550037288 -0.0011172294472279905 0.0030397379207866035 -0.0062601712005595708 0.0010056701898775093 -0.00071924934722639915 -0.00093824248206107871 0.013749700074419386 -0.014740094860972506 -0.0014789007787929655 -0.004542050210070773 -0.0058691202767389558 0 0.0093560407680152672 0
leaf_weight=3.7409937911725129 12.368243462908138 50.094094591710018 40.892966348968912 148.09406649565062 19.213927312666783 164.1547890954098 41.690953694982454 78.076548366552743 610.44917985188658 37.940592463113717 80.632410755919409 75.652360874984879 1.9029674940975381 332.87651080708747 53.96659547809395 752.23608704975777 7.0376908871694459 243.2801669449982 110.76353256124276 2.312382949574384 25.386311515569105 1.6939026767504426 14.755838241588206 60.772237680823309 4.1771137977484614 27.346324698435637 10.524058757029708 0.67464307558839109 6.0498144774246594 1.4801546958478864
leaf_count=1935 4190 2921 1264 18121 1322 9388 1296 2518 24265 4582 12958 1627 567 122876 6600 477679 1373 20522 19213 247 13379 214 3410 36653 1703 13116 3142 491 1202 483
internal_value=-0.000512765 -0.0115657 0.0127331 -0.00231581 0.0143984 0.0178857 0.00539839 0.0049111 0.0222342 0.0122715 -0.00598958 0.0182447 -0.0202888 -0.00993636 0.00106951 -0.020869 0.0236388 0 0.000214767 -0.00727239 -0.0217525 0.00406754 0.00975629 -0.0133456 0.00290206 -0.00023916 -0.00167641 -0.0143642 0.00760454 -0.000589598
internal_weight=3020.24 1652.35 1367.88 821.405 1273.41 893.573 379.837 242.231 651.342 149.039 672.367 94.8663 830.947 413.509 91.9072 817.337 57.1318 284.971 258.858 94.4741 777.622 29.2862 16.4497 65.1879 13.6101 39.7146 12.8364 61.4469 7.95278 5.65727
internal_count=809257 700963 108294 188644 62202 37435 24767 11906 25529 15476 173168 2949 512319 135834 11182 508364 4294 21818 37334 46092 491058 7013 3624 39079 3955 17306 3389 37144 1769 2186
is_linear=0
shrinkage=0.0873782


Tree=6
num_leaves=32
num_cat=0
split_feature=24 27 24 29 12 14 37 12 18 21 12 3 34 28 41 11 33 29 24 36 41 25 26 24 16 24 12 25 18 12 14
split_gain=53.977 17.3775 8.45377 6.98799 4.49373 4.43126 5.9448 3.90808 3.77794 3.56055 3.14977 2.96521 2.76279 2.21153 1.87812 1.77504 1.67831 1.52569 1.33815 1.49503 1.23458 1.05789 1.02205 0.796288 0.619954 0.391168 0.330188 0.316662 0.266003 0.217937 0.165036
threshold=-0.014618308283388613 -0.036753838881850236 -0.099521443247795091 -0.08502729237079619 23.920000076293949 0.54324775934219371 1.1795107126235964 17.304999351501468 -0.48636084794998163 59.906261444091804 39.864999771118171 0.050803905352950103 0.62499821186065685 -1.9552040100097654 -1.0898454189300535 -0.032242145389318459 -0.17752411216497418 0.91596665978431713 0.028979804366827015 -0.0179036371409893 0.75615847110748302 -0.0011626179330050943 -0.027008222416043278 0.061825642362236984 -0.080259408801794038 -0.0071624247357249251 12.840000152587892 -0.00074607768328860391 -0.23188441991806027 26.930000305175785 0.76422992348670971
decision_type=2 2 2 2 2 2 2 2 2 2 2 2 2 2 2 2 2 2 2 2 2 2 2 2 2 2 2 2 2 2 2
left_child=2 16 3 9 7 14 13 -5 25 12 -6 21 -1 -7 17 -8 18 -4 19 -2 -16 -10 -11 -13 26 30 -18 -27 -26 -20 -3
right_child=1 8 5 4 10 6 15 -9 11 22 -12 23 -14 -15 20 -17 24 -19 29 -21 -22 -23 -24 -25 28 27 -28 -29 -30 -31 -32
leaf_value=0.030709557315637598 0.019258223729109038 0.0084414645980750887 -0.0081991560016092691 -0.0057397019836284121 -0.029161579958012909 0.021360220470686982 -0.010455933860483248 0.025759623151963115 0 -0.011517445488331396 0.0089265584685768781 -0.0089612067941448187 0.011513132587849093 0 0.0061837580073319113 0.0068807825321228972 0 0.010261624803945714 0.0019797260481412382 -0.00077304223660662778 -0.0057285149209043516 -0.021450668181558823 0.0075130630579863713 0.0028289479869286461 -0.0023062522981222122 0.002261016523433362 -0.013981767729930926 -0.0063705363466842182 0.0071930097087537443 -0.0067318470186717282 0
leaf_weight=280.80479703441961 115.96873946624692 17.228695678029911 215.61661285175069 39.913201188901439 30.843313638499239 243.42723710410064 77.661820546054514 36.891929065575823 15.870354744401991 14.159674495458601 6.8749308476399156 112.71297700513969 144.90156000148272 36.793850616290001 316.11570882704109 55.929171438474441 1.8721880580997119 15.969893562520154 12.245847059268273 21.165549160214141 55.286377885015099 880.85908809711691 31.594277586846147 34.960776443840587 7.9804138214385629 13.826226852310354 16.96365076546499 69.376502419967437 20.739097390032839 13.81104518054053 1.1499218919780094
leaf_count=4484 11841 3793 41340 552 1029 22032 8418 596 4966 322 370 57910 2416 7913 48272 4482 194 2871 1791 1966 7625 520955 3334 12108 1435 3035 2924 24913 2480 2782 319
internal_value=-0.000607418 -0.0133534 0.0101501 0.0184067 -0.000101334 0.00500031 0.0117155 0.0106576 -0.017582 0.0229258 -0.0196835 -0.0191211 0.0252992 0.018569 0 -0.00255811 0.00866809 -0.00572452 0.0126494 0.0158085 0.00391636 -0.0210568 0 -0.00552984 -0.00312384 -0.000300798 -0.0111635 -0.003739 0.00256959 -0.00135713 0.00615975
internal_weight=2959.52 1356.73 1602.78 585.984 114.523 1016.8 413.812 76.8051 1145.98 471.46 37.7182 1044.4 425.706 280.221 602.989 133.591 210.747 231.587 163.191 137.134 371.402 896.729 45.754 147.674 47.5554 101.581 18.8358 83.2027 28.7195 26.0569 18.3786
internal_count=809468 653412 156056 13103 2547 142953 42845 1148 627999 10556 1399 595939 6900 29945 100108 12900 25413 44211 18380 13807 55897 525921 3656 70018 7033 32060 3118 27948 3915 4573 4112
is_linear=0
shrinkage=0.0873782


Tree=7
num_leaves=29
num_cat=0
split_feature=24 27 3 12 42 9 28 11 39 27 23 6 41 28 42 26 12 28 15 38 35 37 15 23 6 24 15 1
split_gain=55.4297 22.2426 5.63081 7.78861 5.60497 3.90145 3.5806 3.56135 2.98403 2.978 2.87517 1.60569 1.55127 1.78946 1.27352 1.20905 1.17135 1.34173 0.923344 0.895064 1.1941 0.88508 0.705922 0.70162 0.410636 0.281507 0.244462 0.158161
threshold=-0.024706185795366761 -0.021200624294579026 -0.20704565942287442 17.045000076293949 0.087381348013877883 10.282582283020021 -4.1282734870910636 1.0698426961898806 -0.87370723485946644 0.019688257016241554 0.18476112186908725 1.1082835197448733 1.2207714319229128 -1.9552040100097654 0.023729760199785236 0.007806669920682908 13.965000152587892 -6.414789915084838 0.085763469338417067 -0.021249808371067044 -0.033807324245572083 0.98597553372383129 0.13048432022333148 0.28553676605224615 1.4771116375923159 -1.9533115776721098e-16 0.11050084978342058 -0.016942845657467839
decision_type=2 2 2 2 2 2 2 2 2 2 2 2 2 2 2 2 2 2 2 2 2 2 2 2 2 2 2 2
left_child=2 4 10 5 12 7 8 -4 -5 14 16 -8 13 -2 27 -7 -1 -18 24 20 -6 -21 -16 -12 -11 -14 -20 -3
right_child=1 9 3 6 19 15 11 -9 -10 18 23 -13 25 -15 22 -17 17 -19 26 21 -22 -23 -24 -25 -26 -27 -28 -29
leaf_value=0 0.022927377831098581 0.0047323098827666806 0.025040313381757499 0.0014494123198566767 -0.0014989185675738747 -0.012877139290449301 0.0053742056715042662 -0.0056953899636452152 0.013652009368199656 -0.011400917330830342 -0.008728960207379283 -0.012059591916499043 -0.0091307868449485279 -0.0054210589256949689 -0.020596360814633705 0.0095363919037739827 0.042397434542385801 0 0.007008503936536287 -0.0094431501756249599 0.012644238327848088 0.0016556848681926106 -0.0076997964147494128 0.0095948749491694355 0 0.0020353252378800869 -0.00072960535537291396 -0.0036570477762527106
leaf_weight=8.1007254886208084 133.70459622802446 9.2531999785278476 377.52082201105077 297.66365428362042 98.174485114694107 23.957238064540437 37.12507346124039 17.17635506845545 366.64881081349449 103.23843714843679 10.040118065080607 90.466989068721887 5.7141714540775865 4.2094243784085839 794.95485353716504 5.9726538121467447 76.484993610589299 6.5131897696992374 19.329612149304012 110.12202678716858 45.451874241334735 60.065935842387262 99.734865180013003 9.8486614897847158 24.902656306396239 4.2335138598573376 46.785561177501222 16.219649974416825
leaf_count=93 5376 2810 13929 23029 14087 2645 6886 786 30695 49151 124 15764 268 403 497751 494 1537 91 7365 18945 6489 11354 61595 104 9610 270 19450 8973
internal_value=0.000749753 -0.0102286 0.0138181 0.0115403 0.00554214 0.0209318 0.00594429 0.0232151 0.00856205 -0.0168377 0.0319573 -0.00622216 0.018375 0.0207637 -0.018959 -0.00418638 0.0373534 0.0398532 -0.00538851 -0.000987834 0.00340684 -0.00522299 -0.0194946 0 -0.00935483 -0.00286465 0.00148985 0
internal_weight=2903.61 1576.09 1327.52 1216.53 461.676 424.627 791.905 394.697 664.312 1114.42 110.988 127.592 147.862 137.914 920.163 29.9299 91.0989 82.9982 194.256 313.814 143.626 170.188 894.69 19.8888 128.141 9.94769 66.1152 25.4728
internal_count=810074 713897 96177 94228 57192 17854 76374 14715 53724 656705 1949 22650 6317 5779 571129 3139 1721 1628 85576 50875 20576 30299 559346 228 58761 538 26815 11783
is_linear=0
shrinkage=0.0873782


end of trees

feature_importances:
Column_12=12
Column_14=12
Column_24=12
Column_44=12
Column_18=11
Column_43=10
Column_41=9
Column_3=8
Column_6=8
Column_10=8
Column_13=8
Column_29=8
Column_42=7
Column_16=6
Column_23=6
Column_25=6
Column_28=6
Column_32=6
Column_33=6
Column_2=5
Column_7=5
Column_8=5
Column_21=5
Column_26=5
Column_27=5
Column_31=5
Column_15=4
Column_22=4
Column_35=4
Column_37=4
Column_5=3
Column_19=3
Column_38=3
Column_39=3
Column_0=2
Column_4=2
Column_11=2
Column_20=2
Column_30=2
Column_36=2
Column_40=2
Column_1=1
Column_9=1
Column_34=1

parameters:
[boosting: gbdt]
[objective: lambdarank]
[metric: ndcg]
[tree_learner: serial]
[device_type: cpu]
[data_sample_strategy: bagging]
[data: ]
[valid: ]
[num_iterations: 130]
[learning_rate: 0.0873782]
[num_leaves: 39]
[num_threads: 15]
[seed: 0]
[deterministic: 0]
[force_col_wise: 0]
[force_row_wise: 0]
[histogram_pool_size: -1]
[max_depth: 5]
[min_data_in_leaf: 112]
[min_sum_hessian_in_leaf: 0.001]
[bagging_fraction: 0.414044]
[pos_bagging_fraction: 1]
[neg_bagging_fraction: 1]
[bagging_freq: 1]
[bagging_seed: 6]
[bagging_by_query: 0]
[feature_fraction: 0.530368]
[feature_fraction_bynode: 1]
[feature_fraction_seed: 6]
[extra_trees: 0]
[extra_seed: 6]
[early_stopping_round: 0]
[early_stopping_min_delta: 0]
[first_metric_only: 0]
[max_delta_step: 0]
[lambda_l1: 1.23285]
[lambda_l2: 21.9019]
[linear_lambda: 0]
[min_gain_to_split: 0]
[drop_rate: 0.1]
[max_drop: 50]
[skip_drop: 0.5]
[xgboost_dart_mode: 0]
[uniform_drop: 0]
[drop_seed: 4]
[top_rate: 0.2]
[other_rate: 0.1]
[min_data_per_group: 100]
[max_cat_threshold: 32]
[cat_l2: 10]
[cat_smooth: 10]
[max_cat_to_onehot: 4]
[top_k: 20]
[monotone_constraints: ]
[monotone_constraints_method: basic]
[monotone_penalty: 0]
[feature_contri: ]
[forcedsplits_filename: ]
[refit_decay_rate: 0.9]
[cegb_tradeoff: 1]
[cegb_penalty_split: 0]
[cegb_penalty_feature_lazy: ]
[cegb_penalty_feature_coupled: ]
[path_smooth: 0]
[interaction_constraints: ]
[verbosity: -1]
[saved_feature_importance_type: 0]
[use_quantized_grad: 0]
[num_grad_quant_bins: 4]
[quant_train_renew_leaf: 0]
[stochastic_rounding: 1]
[linear_tree: 0]
[max_bin: 255]
[max_bin_by_feature: ]
[min_data_in_bin: 3]
[bin_construct_sample_cnt: 200000]
[data_random_seed: 6]
[is_enable_sparse: 1]
[enable_bundle: 1]
[use_missing: 1]
[zero_as_missing: 0]
[feature_pre_filter: 1]
[pre_partition: 0]
[two_round: 0]
[header: 0]
[label_column: ]
[weight_column: ]
[group_column: ]
[ignore_column: ]
[categorical_feature: ]
[forcedbins_filename: ]
[precise_float_parser: 0]
[parser_config_file: ]
[objective_seed: 5]
[num_class: 1]
[is_unbalance: 0]
[scale_pos_weight: 1]
[sigmoid: 1]
[boost_from_average: 1]
[reg_sqrt: 0]
[alpha: 0.9]
[fair_c: 1]
[poisson_max_delta_step: 0.7]
[tweedie_variance_power: 1.5]
[lambdarank_truncation_level: 30]
[lambdarank_norm: 1]
[label_gain: ]
[lambdarank_position_bias_regularization: 0]
[eval_at: 1,3]
[multi_error_top_k: 1]
[auc_mu_weights: ]
[num_machines: 1]
[local_listen_port: 12400]
[time_out: 120]
[machine_list_filename: ]
[machines: ]
[gpu_platform_id: -1]
[gpu_device_id: -1]
[gpu_use_dp: 0]
[num_gpu: 1]

end of parameters

pandas_categorical:null
