tree
version=v4
num_class=1
num_tree_per_iteration=1
label_index=0
max_feature_idx=44
objective=lambdarank
feature_names=Column_0 Column_1 Column_2 Column_3 Column_4 Column_5 Column_6 Column_7 Column_8 Column_9 Column_10 Column_11 Column_12 Column_13 Column_14 Column_15 Column_16 Column_17 Column_18 Column_19 Column_20 Column_21 Column_22 Column_23 Column_24 Column_25 Column_26 Column_27 Column_28 Column_29 Column_30 Column_31 Column_32 Column_33 Column_34 Column_35 Column_36 Column_37 Column_38 Column_39 Column_40 Column_41 Column_42 Column_43 Column_44
feature_infos=[-3.5388297923554662e-14:1] [-0.52667373418807983:0.9864342212677002] [-0.83333331346511841:828.99993896484375] [-0.84637099504470825:3.9886887073516846] [-92.373802185058594:87.163856506347656] [-0.82578396797180176:1.1982758045196533] [0:20] [0:1] [0:2942.885986328125] [0:12.648478507995605] [0:1] [-4.2485289573669434:4.2485289573669434] [9.1400003433227539:40.740001678466797] [-0.10815337300300598:0.067594192922115326] [0.02176339365541935:0.77790176868438721] [-0.13866801559925079:0.14715269207954407] [-0.83333331346511841:3.9999985694885254] [0:100] [-0.9767950177192688:1.1880595291263144e-16] [-2.2250103709898876e-14:6.7884502410888672] [-0.43076923489570618:0.96737045049667358] [36.821052551269531:88.101936340332031] [-4.9579004096633739e-13:40.740001678466797] [-1.3942041186094326e-14:0.77444368600845337] [-4.929588794708252:17.553279876708984] [-58.448703765869141:0.028131701052188873] [-0.52210557460784912:0.78936654329299927] [-236.82249450683594:233.78094482421875] [-33.181476593017578:1.7797132074537456e-15] [-84.9705810546875:73.933311462402344] [0:8029.27734375] [-0.099177740514278412:0.70732235908508301] [-12.728079795837402:6.8789248466491699] [-0.94767439365386963:7.1680957254783217e-17] [-5.1578251896279917e-14:1] [-0.80000001192092896:0.9864342212677002] [-0.83333331346511841:1.8707224130630493] [0:20] [-0.8461538553237915:2.0081300735473633] [-1.7888543605804443:1.7888543605804443] [-1.7888543605804443:1.7888543605804443] [-1.7888543605804443:1.7888543605804443] [0:1] [0:1] [0:1]
tree_sizes=3021 2999 3128 2949 3257

Tree=0
num_leaves=27
num_cat=0
split_feature=33 43 27 27 18 22 43 7 38 14 23 22 31 30 43 23 5 39 41 10 32 7 41 18 5 10
split_gain=23.2858 8.38716 4.88477 5.54907 2.96299 2.4914 2.40886 1.57284 1.3609 1.12786 0.849791 0.832319 1.097 0.827069 0.768363 0.682005 0.677381 0.549103 0.513152 0.470216 0.455197 0.429777 0.34296 0.268025 0.263057 0.147985
threshold=-0.13211645185947415 0.87014770507812511 0.0062389736995100984 -0.0082051493227481825 -0.43185171484947199 2.917374968528748 0.82721203565597545 0.60932123661041271 -0.011729061137884854 0.30664062500000006 0.059485377743840225 8.7565836906433123 0.016199968755245212 3480.802368164063 0.11945991963148118 0.24159965664148333 -0.060443278402090066 1.7313700318336489 -1.5525807142257688 0.63298451900482189 -4.841080665588378 0.28659541904926306 1.7090706229209902 -0.079996719956397996 0.12053470313549043 0.14538528025150302
decision_type=2 2 2 2 2 2 2 2 2 2 2 2 2 2 2 2 2 2 2 2 2 2 2 2 2 2
left_child=4 2 3 16 17 -5 8 10 14 -10 21 13 -13 -4 -6 23 -2 22 -8 -12 -20 -3 24 -9 -1 -17
right_child=1 7 11 5 6 -7 18 15 9 -11 19 12 -14 -15 -16 25 -18 -19 20 -21 -22 -23 -24 -25 -26 -27
leaf_value=0.027409464929645327 -0.0037571179493505486 0.0065444619578029746 0.0085919694611515055 -0.0030648206712789519 -0.00083735716680999632 -0.014746996632751296 0 0.0074862164267862951 -0.0095889555654022664 0.0039375093295876112 0.018776831718920365 -0.0072423085337974813 0.00558941576436758 -0.0051637347960634648 0.015039001954414617 0 0.0089783142421476711 0 0 0.0036359843970267627 0.025575202756757023 -0.007754160199136698 0 -0.0015197031483419234 0 -0.013434932380769492
leaf_weight=149.23275417998957 15.809764075413112 4.8561688131303553 131.27046580820752 212.71502184719429 11.927295597968621 820.70034792141814 6.8319940918008788 22.150353436649308 48.119125973869814 118.29031417574151 99.612115276133409 111.45199434575625 54.22741789277643 16.465442111424636 71.222685944085242 1.3279390903480806 99.825349763239501 1.257150964840547 1.2462232043617394 55.668140154739376 57.147399096254958 13.610766486293867 0.85614610329503094 12.882597590272782 3.9508363937493405 12.024806932400677
leaf_count=38368 5251 1252 41521 75260 3809 298498 2323 7254 17075 38933 32391 37690 18215 6239 21914 649 33500 300 380 18509 17515 4576 258 5405 1291 3626
internal_value=-0.000576906 -0.00544697 -0.00789815 -0.0105055 0.0161222 -0.012558 0.00955679 0.00951 0.00421802 -6.21095e-05 0.0131417 0.00140147 -0.00230592 0.00595509 0.0120364 -0.00202977 0.00613285 0.0259961 0.0225519 0.0150772 0.0245083 0 0.0265416 0.00297178 0.026886 -0.0119017
internal_weight=2154.68 1684.6 1462.47 1149.05 470.082 1033.42 314.785 222.133 249.559 166.409 173.747 313.415 165.679 147.736 83.15 48.3857 115.635 155.297 65.2256 155.28 58.3936 18.4669 154.04 35.033 153.184 13.3527
internal_count=732002 589836 516174 412509 142166 373758 101949 73662 81731 56008 56728 103665 55905 47760 25723 16934 38751 40217 20218 50900 17895 5828 39917 12659 39659 4275
is_linear=0
shrinkage=0.0873782


Tree=1
num_leaves=27
num_cat=0
split_feature=18 22 44 43 9 29 42 24 39 40 3 32 24 43 24 43 35 35 29 24 44 35 44 12 12 43
split_gain=101.843 20.328 13.5496 12.549 8.06578 9.12183 8.02242 3.62521 5.76153 2.95995 2.92531 2.51874 2.04036 1.83056 1.32866 0.886331 0.589394 0.518907 0.345361 0.33927 0.318934 0.224641 0.136736 0.0630744 0.0535036 0.00821634
threshold=-0.43185171484947199 0.60044133663177501 0.63313624262809765 0.32433342933654791 9.9220566749572772 -0.05044353008270263 0.97347849607467662 0.0063968733884394178 0.83288449048995983 0.42194241285324102 0.0047418316826224336 -2.4273529052734371 -0.014684617053717373 0.81575387716293346 -0.067164983600378023 0.77271175384521495 -0.03479079715907573 -0.03479079715907573 -2.7264677286148067 -0.033628240227699273 0.81920084357261669 -0.027500106021761891 0.84268525242805492 9.8600001335144061 16.939999580383304 0.97660416364669811
decision_type=2 2 2 2 2 2 2 2 2 2 2 2 2 2 2 2 2 2 2 2 2 2 2 2 2 2
left_child=1 9 13 7 6 -6 -5 10 -9 11 -3 14 20 16 -1 17 -2 -14 -18 25 24 -21 -17 -22 -4 -15
right_child=2 3 12 4 5 -7 -8 8 -10 -11 -12 -13 15 19 -16 22 18 -19 -20 21 23 -23 -24 -25 -26 -27
leaf_value=0.0212766805729253 0 0.00060001085733108492 0 0.020615617626532367 0.016162389287152263 -0.021429884331629699 -0.014610389989669393 0.024491618703270174 -0.0032792473938726566 0 -0.013274069472445298 0.050409736952418009 0 -0.0012019267407574474 -0.0019093438607086153 -0.0033595120875116527 0 -0.011857256392149658 -0.0267812213534371 0 0 -0.015453963982068579 0.0013151374936636244 0.0071193277305389479 -0.0031120337579259665 0
leaf_weight=9.6798731265589613 8.1543728721735516 388.94840783206746 40.37798787097563 842.31100839059218 77.540135697287042 74.777845882781548 33.723998719622614 86.492833998985589 98.837225417169975 9.7989455170463753 135.13529840830597 110.81481665931642 19.853244032885414 22.475577648059701 21.953408470959403 68.448443709290586 5.8081359547795719 319.45673804738908 713.55499752127798 9.7278920797398296 1.7751234280294728 198.03778141050134 43.762288144644117 58.054657831788063 21.208160783280618 6.5835430186416479
leaf_count=109 3744 8216 13837 20310 2168 2494 1037 2267 2394 217 4195 2352 7683 7377 368 21952 3012 140230 373018 3025 554 68604 12745 19160 8041 2107
internal_value=-0.000839414 0.0126494 -0.0174371 0.00957683 0.015645 -0.00204851 0.0188163 0.000428128 0.0103802 0.0414867 -0.0031691 0.0442862 -0.00620744 -0.0237137 0.00897533 -0.00888263 -0.0263505 -0.0110408 -0.0266093 -0.0136523 0.0028265 -0.0148742 -0.000816114 0.00660999 -0.000328581 -0.00016442
internal_weight=3427.29 1890.01 1537.28 1737.77 1028.35 152.318 876.035 709.414 185.33 152.247 524.084 142.448 572.937 964.342 31.6333 451.521 727.518 339.31 719.363 236.825 121.416 207.766 112.211 59.8298 61.5861 29.0591
internal_count=731216 46127 685089 43081 26009 4662 21347 17072 4661 3046 12411 2829 224202 460887 477 182610 379774 147913 376030 81113 41592 71629 34697 19714 21878 9484
is_linear=0
shrinkage=0.0873782


Tree=2
num_leaves=29
num_cat=0
split_feature=18 44 1 11 6 42 16 11 44 19 43 10 44 19 33 40 23 6 1 43 20 13 19 14 35 20 23 2
split_gain=151.958 22.3694 18.5836 5.82766 6.60595 6.48739 8.19568 5.67643 5.88388 7.22208 5.58546 3.62555 2.67095 2.34868 2.0389 1.85202 0.965224 0.963877 0.662024 0.596367 0.567866 0.441819 0.396439 0.132506 0.107375 0.0862333 0.0371434 0.00896835
threshold=-0.43185171484947199 0.80747330188751232 -0.038337590172886842 1.133397161960602 1.0385977029800417 0.010329424869269134 0.039387851953506477 0.87666454911232006 0.8699130415916444 0.51864105463027965 0.8193679451942445 0.23604533821344378 0.58623138070106517 0.19341086596250537 -0.14043521136045453 0.90428736805915844 0.0048443211708217868 0.93448546528816234 -0.018004189245402809 0.96106970310211193 -0.074074104428291307 0.059923324733972556 0.11163603141903879 0.77064731717109691 -0.033287988975644105 -0.036881268024444573 0.15845990180969241 -0.042593035846948617
decision_type=2 2 2 2 2 2 2 2 2 2 2 2 2 2 2 2 2 2 2 2 2 2 2 2 2 2 2 2
left_child=2 12 7 5 15 6 -4 8 11 -10 18 -1 21 -7 22 -5 -6 -9 27 25 -19 23 -12 -2 -20 -14 -16 -3
right_child=1 10 3 4 16 13 -8 17 9 -11 14 -13 19 -15 26 -17 -18 20 24 -21 -22 -23 -24 -25 -26 -27 -28 -29
leaf_value=0.023600157533802169 -0.029394787603064205 0.001373569131745163 0.038936900878338128 -0.024715755518716357 -0.0019424927597460715 0.0027433935341657058 -0.0102477271992921 -0.013314765075547005 0 0.045793145680376235 0 -0.0087501840770938203 0 0.013462885593046994 0.0020428807943865344 0 0.018264112869792057 -0.00092114599658837406 0 0 0.014586111696074336 0 0.023738469772073983 0 -0.011071807064329866 -0.017776180893589073 -0.0015694205862293604 0
leaf_weight=26.676227009971626 811.19215361407259 14.390604853339026 120.42972489882959 56.407416595844552 6.8178092805901533 244.25707787537249 18.061907331692055 8.0394378094933945 31.382890342967585 274.54301511729136 2.7515942695317781 34.007563028892037 7.7923931329860343 772.51220664425637 14.368036188243421 29.843680259364191 55.419456312374678 12.863129604083953 15.241375835292272 18.96463577268878 7.9784172659274182 1.0966232909122471 60.670560637954623 0.63824193773325433 145.9968278958986 319.5296266694786 31.778990427206736 26.748532919795252
leaf_count=439 426205 5193 830 1445 87 10582 108 130 749 4077 523 974 3184 23702 4389 810 1886 190 5731 6624 135 656 5666 337 62819 143050 10276 10147
internal_value=-6.02488e-05 -0.0204917 0.0176019 0.0120734 -0.00324321 0.0141573 0.0313273 0.0339787 0.0367686 0.04157 0 0.0066538 -0.0259887 0.0111036 0.0145773 -0.0176512 0.0148408 0 -0.00809795 -0.0166995 0.00692713 -0.0292747 0.0225803 -0.0293629 -0.0103878 -0.017523 0 0
internal_weight=3170.4 1471.16 1699.24 1303.75 148.488 1155.26 138.492 395.491 366.61 305.926 311.947 60.6838 1159.21 1016.77 109.569 86.2511 62.2373 28.881 202.377 346.287 20.8415 812.927 63.4222 811.83 161.238 327.322 46.147 41.1391
internal_count=730944 684800 46144 39450 4228 35222 938 6694 6239 4826 104744 1413 580056 34284 20854 2255 1973 455 83890 152858 325 427198 6189 426542 68550 146234 14665 15340
is_linear=0
shrinkage=0.0873782


Tree=3
num_leaves=27
num_cat=0
split_feature=18 23 44 6 8 24 44 10 0 19 44 44 0 18 6 8 5 6 30 24 6 8 31 12 30 24
split_gain=184.058 26.7191 14.8115 13.7569 8.07583 4.09628 3.55488 2.45414 2.2836 1.93985 1.22928 1.12777 1.05258 0.776833 0.592195 0.662647 0.499318 0.379467 0.284936 0.260285 0.231371 0.132406 0.102475 0.0894658 0.0320459 0.00778469
threshold=-0.35761156678199763 0.0018874873057939114 0.81920084357261669 1.1578531265258791 0.37534080445766455 -0.013540473766624926 0.77620577812194835 0.60950708389282238 0.88959142565727245 0.30566422641277319 0.65361136198043834 0.53925806283950817 0.027778385207057003 -0.49908588826656336 1.0479562282562258 0.37836490571498876 -0.028058608993887898 1.7335689663887026 1.0000000180025095e-35 0.068087857216596617 2.8327718973159794 0.33242069184780126 -0.010633458849042652 9.2800002098083514 1667.4619750976565 -0.023724020458757874
decision_type=2 2 2 2 2 2 2 2 2 2 2 2 2 2 2 2 2 2 2 2 2 2 2 2 2 2
left_child=1 4 11 6 10 14 13 -8 12 -6 -1 18 -5 -3 25 -16 -12 23 -2 -10 21 -7 -20 -13 -19 -4
right_child=2 3 5 8 9 20 7 -9 19 -11 16 17 -14 -15 15 -17 -18 24 22 -21 -22 -23 -24 -25 -26 -27
leaf_value=-0.013613299351326963 0 0.0012259056309507667 0 0.0031492883317954736 0.0046825454842577127 0 0.012242884944410979 0.00011746878714137776 -0.0071891937926486906 0.04912700229743492 0 0 0.026665264099447257 -0.011021370750630725 -0.00017295443665407538 0.015761467677576954 0.015642318133949652 0 0 0.0035782395270733121 0 -0.011871832638120857 -0.030402624763654979 -0.020671223819175442 -0.0041228322360526556 -0.0013227417870473571
leaf_weight=7.9595484012970728 1.8674315691750951 37.360492502441048 9.6553256079641887 32.225009563029744 18.314195914543234 3.7404237807495511 484.2333442975505 195.18567529977008 8.2615981333656254 267.37801935241441 13.50338978650689 1.6594614961068135 530.28013003100932 71.953690850379644 8.8151857114862633 60.663932466588449 9.4195154368644545 5.1537322506192131 1.3574144873127796 11.54682099475758 5.7770940988848443 162.29246873175725 693.63606908768998 346.45094550872454 30.431187057096395 12.068209565914001
leaf_count=289 1007 2466 3430 378 175 1435 25742 12292 1218 2168 205 760 16442 12949 1150 8201 107 1781 660 1003 1741 63648 387488 167958 11964 4571
internal_value=0.00134712 0.0204765 -0.0225449 0.0146314 0.0428877 -0.00315706 0.00662199 0.00902551 0.0246685 0.0471644 0 -0.0270099 0.0256709 -0.00650867 0.00983109 0.013004 0.00926953 -0.0195147 -0.0302664 0 -0.0109397 -0.011522 -0.0303559 -0.02058 -0.0033493 0
internal_weight=3031.19 1687.62 1343.57 1371.05 316.575 263.013 788.733 679.419 582.314 285.692 30.8825 1080.56 562.505 109.314 91.2027 69.4791 22.9229 383.695 696.861 19.8084 171.81 166.033 694.993 348.11 35.5849 21.7235
internal_count=731228 75434 655794 72490 2944 84176 53449 38034 19041 2343 601 571618 16820 15415 17352 9351 312 182463 389155 2221 66824 65083 388148 168718 13745 8001
is_linear=0
shrinkage=0.0873782


Tree=4
num_leaves=29
num_cat=0
split_feature=44 23 44 42 24 3 43 34 37 11 30 11 24 43 42 15 35 10 31 13 43 43 19 24 13 44 5 11
split_gain=115.371 19.1286 10.4761 7.13729 6.21411 5.1425 3.60804 4.31172 3.40918 5.09614 3.15703 2.90668 3.4651 2.05214 1.8564 1.45099 1.32257 1.26442 1.07294 1.40159 0.976169 0.823663 0.734694 0.477682 0.274078 0.273678 0.074362 0.0160166
threshold=0.83087977766990673 0.0018874873057939114 0.54731339216232311 0.023729760199785236 -0.022052654996514317 0.059679180383682258 0.39460057020187383 0.41176393628120428 0.90392279624938976 -0.21563845872879026 1827.6129150390627 0.59816259145736705 -0.0028001611353829499 0.92567777633667003 0.59603574872016918 0.10927948728203775 -0.0034095874289050694 0.20489696413278582 -0.00022063394862925631 -0.0083710821345448477 0.88977739214897167 0.73737013339996349 1.0111255645751955 0.060015598312020309 0.016852099448442463 0.48388178646564489 -0.085118632763624177 0.69850495457649242
decision_type=2 2 2 2 2 2 2 2 2 2 2 2 2 2 2 2 2 2 2 2 2 2 2 2 2 2 2 2
left_child=2 5 13 18 8 11 17 -8 14 -10 21 12 -2 15 -3 23 -13 -6 26 -20 -12 -5 -7 -1 25 -15 -4 -26
right_child=1 4 3 10 6 22 7 -9 9 -11 20 16 -14 24 -16 -17 -18 -19 19 -21 -22 -23 -24 -25 27 -27 -28 -29
leaf_value=-0.028548789405395264 0.042549072039370341 0.026679609347978927 0.0018567440641486083 -0.0075857307217134075 0.0032111979252480603 -0.011932057739529373 0.016552821711756559 0 0.017957564929970672 -0.0023660396285651031 -0.018313030173238626 -0.0030804564913393911 5.8817988434398901e-05 -0.010169949364878486 -0.00094888051932225082 0 0.017743050116501624 -0.0088493220723839944 -0.00019128431573554966 0.027155415250399956 -0.0039014350242249636 0.0052330830082025033 0.0061908457405440145 0 0.0021823883837560126 0 -0.0037482179196130097 0
leaf_weight=644.15858264936833 245.3754173386842 218.97290933164186 4.4584239101386656 43.473908734478755 76.768868447776185 11.862429852597417 222.10414329569903 233.76088117080508 199.36534205565113 141.54728274093941 367.29424300132087 24.162838966760319 20.966456805588678 38.517716448899591 10.468611613148822 9.3021261590765771 21.561223443539347 150.54874344816199 9.1498510964447615 28.006284414615948 77.027072197204689 70.362709802866448 7.318686901824548 1.5453838696703304 7.1060348095488717 7.7681387800257644 12.041252022609113 2.4820676685194485
leaf_count=370513 2422 7557 292 14774 12674 200 19070 27500 6751 4919 158367 383 325 18182 680 5604 307 40639 768 2523 18805 8936 103 606 2585 2875 2647 1028
internal_value=-0.000335717 0.015434 -0.0192539 -0.0100409 0.0100356 0.0336683 0.00399588 0.00842807 0.016673 0.00958884 -0.013161 0.0362667 0.0398366 -0.0264988 0.0250176 -0.0279324 0.00771218 -0.00441978 0.0153966 0.0210236 -0.0163464 0 -0.00278104 -0.0284198 -0.00517497 -0.00781035 0 0.000709989
internal_weight=2907.48 1584.78 1322.69 611.814 1253.54 331.247 683.183 455.865 570.354 340.913 558.158 312.066 266.342 710.88 229.442 655.006 45.7241 227.318 53.6558 37.1561 444.321 113.837 19.1811 645.704 55.874 46.2859 16.4997 9.5881
internal_count=732035 123530 608505 207112 119790 3740 99883 46570 19907 11670 200882 3437 2747 401393 8237 376723 690 53313 6230 3291 177172 23710 303 371119 24670 21057 2939 3613
is_linear=0
shrinkage=0.0873782


end of trees

feature_importances:
Column_43=13
Column_44=13
Column_24=10
Column_6=6
Column_18=6
Column_23=6
Column_10=5
Column_11=5
Column_19=5
Column_35=5
Column_5=4
Column_30=4
Column_42=4
Column_8=3
Column_12=3
Column_13=3
Column_22=3
Column_31=3
Column_0=2
Column_1=2
Column_3=2
Column_7=2
Column_14=2
Column_20=2
Column_27=2
Column_29=2
Column_32=2
Column_33=2
Column_39=2
Column_40=2
Column_41=2
Column_2=1
Column_9=1
Column_15=1
Column_16=1
Column_34=1
Column_37=1
Column_38=1

parameters:
[boosting: gbdt]
[objective: lambdarank]
[metric: ndcg]
[tree_learner: serial]
[device_type: cpu]
[data_sample_strategy: bagging]
[data: ]
[valid: ]
[num_iterations: 130]
[learning_rate: 0.0873782]
[num_leaves: 39]
[num_threads: 15]
[seed: 0]
[deterministic: 0]
[force_col_wise: 0]
[force_row_wise: 0]
[histogram_pool_size: -1]
[max_depth: 5]
[min_data_in_leaf: 112]
[min_sum_hessian_in_leaf: 0.001]
[bagging_fraction: 0.414044]
[pos_bagging_fraction: 1]
[neg_bagging_fraction: 1]
[bagging_freq: 1]
[bagging_seed: 6]
[bagging_by_query: 0]
[feature_fraction: 0.530368]
[feature_fraction_bynode: 1]
[feature_fraction_seed: 6]
[extra_trees: 0]
[extra_seed: 6]
[early_stopping_round: 0]
[early_stopping_min_delta: 0]
[first_metric_only: 0]
[max_delta_step: 0]
[lambda_l1: 1.23285]
[lambda_l2: 21.9019]
[linear_lambda: 0]
[min_gain_to_split: 0]
[drop_rate: 0.1]
[max_drop: 50]
[skip_drop: 0.5]
[xgboost_dart_mode: 0]
[uniform_drop: 0]
[drop_seed: 4]
[top_rate: 0.2]
[other_rate: 0.1]
[min_data_per_group: 100]
[max_cat_threshold: 32]
[cat_l2: 10]
[cat_smooth: 10]
[max_cat_to_onehot: 4]
[top_k: 20]
[monotone_constraints: ]
[monotone_constraints_method: basic]
[monotone_penalty: 0]
[feature_contri: ]
[forcedsplits_filename: ]
[refit_decay_rate: 0.9]
[cegb_tradeoff: 1]
[cegb_penalty_split: 0]
[cegb_penalty_feature_lazy: ]
[cegb_penalty_feature_coupled: ]
[path_smooth: 0]
[interaction_constraints: ]
[verbosity: -1]
[saved_feature_importance_type: 0]
[use_quantized_grad: 0]
[num_grad_quant_bins: 4]
[quant_train_renew_leaf: 0]
[stochastic_rounding: 1]
[linear_tree: 0]
[max_bin: 255]
[max_bin_by_feature: ]
[min_data_in_bin: 3]
[bin_construct_sample_cnt: 200000]
[data_random_seed: 6]
[is_enable_sparse: 1]
[enable_bundle: 1]
[use_missing: 1]
[zero_as_missing: 0]
[feature_pre_filter: 1]
[pre_partition: 0]
[two_round: 0]
[header: 0]
[label_column: ]
[weight_column: ]
[group_column: ]
[ignore_column: ]
[categorical_feature: ]
[forcedbins_filename: ]
[precise_float_parser: 0]
[parser_config_file: ]
[objective_seed: 5]
[num_class: 1]
[is_unbalance: 0]
[scale_pos_weight: 1]
[sigmoid: 1]
[boost_from_average: 1]
[reg_sqrt: 0]
[alpha: 0.9]
[fair_c: 1]
[poisson_max_delta_step: 0.7]
[tweedie_variance_power: 1.5]
[lambdarank_truncation_level: 30]
[lambdarank_norm: 1]
[label_gain: ]
[lambdarank_position_bias_regularization: 0]
[eval_at: 1,3]
[multi_error_top_k: 1]
[auc_mu_weights: ]
[num_machines: 1]
[local_listen_port: 12400]
[time_out: 120]
[machine_list_filename: ]
[machines: ]
[gpu_platform_id: -1]
[gpu_device_id: -1]
[gpu_use_dp: 0]
[num_gpu: 1]

end of parameters

pandas_categorical:null
