tree
version=v4
num_class=1
num_tree_per_iteration=1
label_index=0
max_feature_idx=44
objective=lambdarank
feature_names=Column_0 Column_1 Column_2 Column_3 Column_4 Column_5 Column_6 Column_7 Column_8 Column_9 Column_10 Column_11 Column_12 Column_13 Column_14 Column_15 Column_16 Column_17 Column_18 Column_19 Column_20 Column_21 Column_22 Column_23 Column_24 Column_25 Column_26 Column_27 Column_28 Column_29 Column_30 Column_31 Column_32 Column_33 Column_34 Column_35 Column_36 Column_37 Column_38 Column_39 Column_40 Column_41 Column_42 Column_43 Column_44
feature_infos=[-3.1615647057801899e-13:1] [-0.56521737575531006:2] [-0.63428574800491333:2.7692315578460693] [-0.62977707386016846:2.8260147571563721] [-95.722984313964844:83.326339721679688] [-0.68227291107177734:1.8745245933532715] [0:20] [0:1] [0:7.8862295150756836] [0:12.575088500976562] [0:1] [-4.2485289573669434:4.2485289573669434] [9.8900003433227539:34.689998626708984] [-0.061291471123695374:0.085121572017669678] [0.050223212689161301:0.52399551868438721] [-0.10829958319664001:0.14628228545188904] [-0.63750004768371582:2.8571429252624512] [0:100] [-0.96769756078720093:3.7311481042218749e-16] [-3.0169968492877938e-14:11.001326560974121] [-0.36628261208534241:1.2277227640151978] [29.836103439331055:76.922065734863281] [-8.2927839942237291e-12:34.689998626708984] [-8.9977565600075221e-14:0.52399551868438721] [-6.8693957328796387:21.219512939453125] [-0.015329974703490734:0.060498014092445374] [-0.26283228397369385:0.7290874719619751] [-4.216728687286377:14.394000053405762] [-31.826684951782227:6.2459421789891161e-15] [-84.9705810546875:84.9705810546875] [0:6422.47119140625] [-0.10685208439826965:1.2277227640151978] [-13.298131942749023:7.0873866081237793] [-0.96538460254669189:8.1565229561754963e-17] [-1.6882048330894156e-13:1] [-0.59999996423721313:1.1428571939468384] [-0.59999996423721313:2.5714285373687744] [0:20] [-0.59999996423721313:0.65957438945770264] [-1.7888543605804443:1.7888543605804443] [-1.7888543605804443:1.7888543605804443] [-1.7888543605804443:1.7888543605804443] [0:1] [0:1] [0:1]
tree_sizes=3529 3591 3528 3439 3399 3365 3493 3087 3389 3526 3397 3139 3318 3304 3393

Tree=0
num_leaves=32
num_cat=0
split_feature=20 27 22 24 24 27 27 10 22 39 35 3 33 24 41 39 18 3 41 29 14 30 41 27 16 3 20 7 23 33 24
split_gain=18.3476 7.64669 4.75825 5.26839 5.0455 1.94469 1.88506 1.82303 2.08339 1.58235 1.55771 1.43698 1.19221 1.10836 1.05398 0.940805 0.784191 0.666498 0.663322 0.565373 0.486111 0.477389 0.4352 0.279238 0.270244 0.184529 0.16547 0.119186 0.0957523 0.00126041 4.03181e-05
threshold=-0.015999947674572464 -0.010389616712927817 8.5416374206542987 0.017255425453186039 0.0022886038059368734 -0.028172913938760754 0.0056527124252170333 0.68431669473648082 5.1171209812164316 0.65288859605789196 -0.0032172520877793427 0.024098207242786888 -0.21464660763740537 -0.0094968159683048708 -1.012594401836395 0.74449706077575695 -0.033218877390027039 -0.029244097881019112 -1.7354641556739805 -2.2703843116760249 0.10128348320722581 2588.922485351563 0.62703809142112743 -0.0081407772377133352 -0.034191375598311417 -0.019101470708847042 -0.016678669489920136 0.6673131287097932 0.21673876047134402 -0.20960626751184461 -0.021723065525293347
decision_type=2 2 2 2 2 2 2 2 2 2 2 2 2 2 2 2 2 2 2 2 2 2 2 2 2 2 2 2 2 2 2
left_child=7 5 4 11 6 19 -3 8 16 -5 13 -4 17 20 -14 -6 18 -7 -1 29 -9 22 -12 27 -21 -23 -15 -10 -25 -2 -18
right_child=1 2 3 9 15 12 -8 10 23 -11 21 -13 14 26 -16 -17 30 -19 -20 24 -22 25 -24 28 -26 -27 -28 -29 -30 -31 -32
leaf_value=0 -0.00063120081812660916 -0.0079531356804997226 -0.018335961691496851 0.0097415814073109862 0.012286952381867278 -0.01214066487886402 0.0040506405769276145 0 0 -0.004457359091269565 -0.0096285225582663156 -0.005541405029709158 -0.0045455665311535309 -0.0067349414079724374 0.011751644238491397 -0.002085961057722339 0.00011272904165435543 0.0043208422045406068 0.030322042763915244 0.026200659484444961 0.021765875698315094 0 0.0021600558228625777 -0.0063073069573364648 0 0.0079036686724315991 0.0014360179320050818 0.0086317877504262733 0 0 0
leaf_weight=2.5034539225744075 2.2517497164662932 442.56663819513051 402.90790983609622 66.032014450349379 172.64996473724023 26.803070801077414 99.513821194501361 4.7440439853235139 3.8368406529771191 166.15803215495544 37.006351162446663 141.02013433337561 16.881280822097324 6.9706374233937822 93.3710616522294 20.608583844848908 2.3214397630072199 4.3670044749451327 133.49090801255079 45.204084201628575 47.411967786494642 4.3360956369433579 8.8173452286573575 13.747414846817261 2.4419105898123226 22.590329727681819 1.3403532663360218 9.7028299748490081 0.96320566243957806 1.708868731453548 5.5786048271111204
leaf_count=647 470 123457 113236 15425 42081 5982 23350 961 959 40342 8573 35899 3653 1726 21075 5214 546 1126 31861 10317 9852 989 1949 3926 744 5232 152 2142 263 400 1522
internal_value=-0.000509076 -0.00415062 -0.00631416 -0.0110041 -0.00104679 0.0112062 -0.00548678 0.0184058 0.0244408 0 0.00756303 -0.0155521 0.00362973 0.015875 0.00810137 0.0101973 0.0281971 -0.00697322 0.0295428 0.0232356 0.0198315 -0.000282194 -0.00580459 0 0.0251536 0.00529785 -0.00176594 0.00638485 -0.0043322 0 0
internal_weight=2009.85 1704.49 1511.46 776.118 735.339 193.029 542.08 305.362 172.145 232.19 133.217 543.928 141.422 60.467 110.252 193.259 143.894 31.1701 135.994 51.6066 52.156 72.7501 45.8237 28.2503 47.646 26.9264 8.31099 13.5397 14.7106 3.96062 7.90004
internal_count=514071 442771 399004 204902 194102 43767 146807 71300 41866 55767 29434 149135 31836 12691 24728 47295 34576 7108 32508 11931 10813 16743 10522 7290 11061 6221 1878 3101 4189 870 2068
is_linear=0
shrinkage=0.0873782


Tree=1
num_leaves=32
num_cat=0
split_feature=22 44 44 3 22 4 10 44 24 2 10 4 28 9 2 22 7 29 4 4 35 12 29 24 38 38 38 18 33 24 40
split_gain=115.095 42.291 40.0818 14.0699 12.1383 10.0477 9.18288 8.03355 6.72177 6.1706 4.72661 4.20459 3.22284 3.12275 3.09728 2.97109 2.902 2.83355 2.54101 2.38983 2.14734 2.01991 1.70642 1.69977 1.4506 1.3337 0.924873 0.924385 0.921103 0.667847 0.18445
threshold=3.1333186626434331 0.63270470499992382 0.47478368878364569 -0.058560030534863465 1.0000000180025095e-35 -5.8745105266571036 0.64952072501182567 0.25953440368175512 -0.0085763810202479345 -0.027550408616662022 0.2680709064006806 11.390017032623293 -1.3439779281616209 10.43734645843506 0.013711209874600174 0.32008293271064764 0.71255800127983104 0.4543787688016892 -22.426622390747067 -49.805355072021477 -0.0010410378454253075 13.734999656677248 1.0053139925003054 -0.029737735167145726 0.022257138043642048 0.013231327291578056 -0.027303242124617096 -0.36222469806671137 -0.040155561640858643 -0.0105169047601521 -0.51123669743537892
decision_type=2 2 2 2 2 2 2 2 2 2 2 2 2 2 2 2 2 2 2 2 2 2 2 2 2 2 2 2 2 2 2
left_child=2 9 7 18 11 6 -6 15 12 21 14 13 -5 -4 -9 28 -7 -13 20 30 -3 29 -10 -12 -21 -23 -20 -17 -1 -2 -11
right_child=1 3 4 8 5 16 -8 10 22 19 23 17 -14 -15 -16 27 -18 -19 26 24 -22 25 -24 -25 -26 -27 -28 -29 -30 -31 -32
leaf_value=0.0079397891492606013 0.014752331468928157 0.029289345596935849 0.04691230936155831 -0.0022507268165355694 0.029779934402812069 0.0093429587718798467 0 0.023909411913337689 -0.016613515927452024 0.0072525434063634908 0.0072096335701482385 -0.010996702049767446 0.019092097833465837 0 -0.010768300571799304 0 -0.0095079167939726549 0.023368427673349772 0.010944975919677562 -0.033794667847137382 0.0016072352413682887 -0.016471934332333387 0 -0.0096765541579141422 -0.0084787284483524607 0.0063689707597931761 -0.0047613415927103466 -0.026548131639430941 -0.0099521980335763229 -0.0020191512616274292 -0.0018540113162216227
leaf_weight=28.20691551436903 17.092239981109746 97.492668670369312 236.03828857472399 154.89656839915551 512.08174139232142 234.70676412893226 88.819767980487086 77.771072197239846 350.4999677548185 3.4211024784017354 41.151187358773313 20.150568743818443 53.558884808793664 12.419472657202276 6.3969368571415535 2.8773066590074441 57.879213697742671 9.304834218695758 25.481761328876019 681.82349358533975 39.772082707320806 73.506525540840812 64.89456881035585 120.1629723852966 47.483892226708122 4.5762183532933696 43.832601219182834 123.02805753756547 17.208073316549417 8.1605576020665449 5.867035460774785
leaf_count=2678 1480 5561 7954 14511 14552 17893 13388 5721 97534 445 1926 1289 5259 739 768 121 4329 361 2474 224477 2344 13789 13989 15001 12639 498 4116 20587 3289 2533 1453
internal_value=0.000196729 -0.0156689 0.0169558 -0.00141385 0.0251323 0.0191071 0.0254518 -0.0058857 -0.00808711 -0.0292121 0.00392902 0.0413332 0.00405915 0.0448496 0.0185789 -0.0193578 0.00486889 0.0030977 0.0171107 -0.0320133 0.0232702 -0.00623332 -0.0143268 -0.00443402 -0.0325851 -0.012954 0.00107332 -0.025364 0 0.00862755 0.000783834
internal_weight=3260.56 1672.36 1588.2 830.429 1171.4 893.487 600.902 416.803 623.85 841.931 245.482 277.913 208.455 248.458 84.168 171.32 292.586 29.4554 206.579 738.596 137.265 103.336 415.395 161.314 729.307 78.0827 69.3144 125.905 45.415 25.2528 9.28814
internal_count=513698 403102 110596 145788 60505 50162 27940 50091 131293 257314 23416 10343 19770 8693 6489 26675 22222 1650 14495 239014 7905 18300 111523 16927 237116 14287 6590 20708 5967 4013 1898
is_linear=0
shrinkage=0.0873782


Tree=2
num_leaves=32
num_cat=0
split_feature=42 3 20 8 20 6 44 44 44 13 19 44 10 14 42 41 6 42 14 42 3 3 18 35 44 8 19 28 44 18 42
split_gain=191.691 80.1058 32.9017 20.3203 11.5946 8.91202 8.06881 5.77593 5.21058 4.69437 4.593 4.57363 4.10989 2.65927 2.55838 2.21484 2.00138 1.95891 1.50865 1.41859 1.3989 1.18702 1.13396 1.01606 0.859109 0.681165 0.499216 0.4166 0.216785 0.121839 0.107676
threshold=0.051647124812006957 -0.04342288710176944 -0.015999947674572464 0.33203651010990148 -0.015999947674572464 1.5377743840217593 0.93031707406044017 0.74975609779357921 0.68353244662284862 -0.0052144108340144149 0.94315615296363842 0.74228939414024364 0.10202161595225336 0.20284598320722583 0.72222220897674572 -1.012594401836395 1.4500979185104372 0.13316582888364795 0.45200891792774206 0.01702959276735783 0.011032808572053911 -0.029244097881019112 -0.085848737508058534 -0.0082484469749033434 0.45418910682201391 0.31920751929283148 0.87083381414413463 -0.86242368817329396 0.49856045842170721 -0.55339810252189625 0.024288106709718708
decision_type=2 2 2 2 2 2 2 2 2 2 2 2 2 2 2 2 2 2 2 2 2 2 2 2 2 2 2 2 2 2 2
left_child=3 7 17 4 11 6 9 10 29 -5 16 13 19 -1 22 -14 -2 20 -8 -7 -3 28 -9 -16 -12 -23 -10 -19 -6 -4 -13
right_child=1 2 8 5 21 12 18 14 26 -11 24 30 15 -15 23 -17 -18 27 -20 -21 -22 25 -24 -25 -26 -27 -28 -29 -30 -31 -32
leaf_value=0 -0.019804013274269755 0.0057350748012196711 0 0.010658879981463417 -0.0047707546222680672 -0.019716061206256817 0.054148823653826346 0.025082940438158029 -0.023559439321634342 0.033880439401154309 -0.0011784942923487086 -0.015174591807923217 0.00028986536189070733 0.024168493975201943 0.0084495850247899105 0.027736202056087216 0.0037343570033644062 -0.013647188348372148 0.0075502003880112759 0.0043508304896172781 -0.0089476244286377394 -0.02184199665655184 0 -0.008532828739019737 0.019521460706085791 0 0 0 0.0050301250818018499 -0.041177553046250016 0
leaf_weight=50.508926373906434 61.052337447996251 156.59634597523836 2.3485900298692277 136.27598712174222 8.7398097379482369 20.777397269848734 233.56153584015556 225.03930703504011 303.39619669958483 310.33179567160551 5.005512607865966 9.6986859812168422 45.112779027433135 219.33005091245286 62.244724719901569 50.561265510856174 22.166344447177835 94.172110647021327 18.976350101991557 11.494285602588205 44.110232894774526 63.697861029417254 6.4829490671399972 14.256685934262348 40.884005971485749 4.0168963191099456 9.8331433553248626 20.851259139832109 15.950025350204667 709.1820590873831 6.5935328415362155
leaf_count=2012 11288 11603 829 3280 2412 207 3518 14540 98947 7508 1031 137 1109 6603 3999 1221 3513 18572 274 183 4623 17402 594 2378 2366 470 2794 4024 1172 284219 169
internal_value=-7.90253e-05 -0.0182745 -0.0287794 0.0265087 0.00868271 0.0341059 0.0380101 0.0135407 -0.0362536 0.0278542 -0.00116928 0.0172951 0.00961534 0.0203321 0.0197012 0.0181755 -0.0130377 -0.00342338 0.0519218 -0.0108622 0.00146142 -0.0152472 0.0240603 0.00299527 0.0160232 -0.0199413 -0.0229649 -0.0116041 0 -0.0410961 -0.0129997
internal_weight=2983.25 1777.62 1340.49 1205.63 378.536 827.091 699.146 437.132 1024.76 446.608 129.108 286.131 127.946 269.839 308.024 95.674 83.2187 315.73 252.538 32.2717 200.707 92.4046 231.522 76.5014 45.8895 67.7148 313.229 115.023 24.6898 711.531 16.2922
internal_count=512997 465320 425611 47677 30377 17300 14580 39709 386789 10788 18198 8921 2720 8615 21511 2330 14801 38822 3792 390 16226 21456 15134 6377 3397 17872 101741 22596 3584 285048 306
is_linear=0
shrinkage=0.0873782


Tree=3
num_leaves=31
num_cat=0
split_feature=22 16 44 20 1 44 22 21 30 44 10 44 5 30 6 21 21 0 0 20 18 16 25 5 16 5 24 16 14 5
split_gain=150.146 47.2214 43.5022 13.8698 13.2372 7.16151 6.5438 6.4272 4.52704 4.02482 3.16387 3.00394 2.78175 2.56015 2.26504 1.62972 1.37412 1.37297 1.10004 1.0171 0.968309 0.967059 0.896653 0.807458 0.502852 0.315952 0.285015 0.210521 0.151165 0.0482156
threshold=3.0715796947479252 -0.048697147518396371 0.74975609779357921 -0.017408535815775391 -0.025491382926702496 0.66007924079895031 0.24084053188562396 59.591871261596687 2740.9450683593755 0.78103938698768627 0.41545389592647558 0.67586231231689464 -0.043375531211495393 3426.429809570313 0.9081377685070039 60.177583694458015 51.726772308349616 0.70689845085144054 0.23076776415109637 -0.0090107121504843218 -0.49561215937137598 -0.041987508535385125 -0.00059842373593710352 -0.11608201637864111 -0.082513440400362001 0.026606859639286998 0.11525953933596612 1.0000000180025095e-35 0.37527902424335485 0.12366005405783655
decision_type=2 2 2 2 2 2 2 2 2 2 2 2 2 2 2 2 2 2 2 2 2 2 2 2 2 2 2 2 2 2
left_child=2 9 3 6 7 26 15 13 10 22 -6 24 -8 -4 19 -1 -10 -16 27 -11 -9 -20 28 -24 -5 -13 29 -7 -2 -3
right_child=1 5 4 11 8 18 12 20 16 14 -12 25 -14 -15 17 -17 -18 -19 21 -21 -22 -23 23 -25 -26 -27 -28 -29 -30 -31
leaf_value=0.0220007949338791 0 -0.039120726195263418 0.040805085598731097 0 0.026738400008084827 0.0049709442518081565 0.0095749862861258198 -0.011986140354427795 0.0059395614061100617 -0.0088056156469348817 0.0086757350994306655 0.0060099542560358632 -0.01029816238086898 -0.00061868234916980208 0.021328581538835333 -0.0016111218874418436 -0.011988668696317128 0 0 0.0063013481538921829 0.0080187411197919379 -0.022104109612678821 0.0016000934619624858 -0.016811511816570771 -0.024418938143428579 -0.0048083163870759772 0 -0.0050866529188918035 0.0075166322421491814 0
leaf_weight=150.28265399520751 3.262625736766493 596.25490306958091 474.71716988319531 2.5641246605664483 218.60134700813796 10.351544052071405 60.311622373992577 7.2334909063065416 54.275298672262579 30.40762723737862 183.70847477333155 27.410755921388045 124.33762108313385 5.7690564934164277 114.04333318083081 12.863601305638438 33.007985495263711 21.776800564723089 16.04233499255497 71.607088170188945 27.976112554897554 320.42886008159257 6.2902622071560463 52.970683371531777 168.11675002973061 7.2086438544793046 2.7046794579946427 9.4159813916776312 5.9595579640008509 1.0162321244133625
leaf_count=4658 460 257207 10466 266 3813 1709 4584 133 2889 2287 8038 3159 13150 228 5744 795 2232 1991 3172 4814 1207 108432 782 13885 51893 1143 1068 2037 444 379
internal_value=-0.000990207 -0.023207 0.0170129 -0.00247246 0.0276624 -0.0326125 0.00785955 0.0375569 0.015868 0.00604236 0.0196181 -0.0195202 -0.00295849 0.040088 0.011453 0.0195866 -0.000898591 0.0180454 -0.0200146 0.000168586 0 -0.0211215 -0.00977844 -0.0136255 -0.0238413 0.000861084 -0.038951 0 0.0036736 -0.039081
internal_weight=2820.92 1262.53 1558.38 553.096 1005.29 956.215 347.795 515.696 489.593 306.318 402.31 205.3 184.649 480.486 237.835 163.146 87.2833 135.82 356.239 102.015 35.2096 336.471 68.4831 59.2609 170.681 34.6194 599.976 19.7675 9.22218 597.271
internal_count=513065 404411 108654 79648 29006 374004 23187 12034 16972 30407 11851 56461 17734 10694 14836 5453 5121 7735 115350 7101 1340 111604 15571 14667 52159 4302 258654 3746 904 257586
is_linear=0
shrinkage=0.0873782


Tree=4
num_leaves=31
num_cat=0
split_feature=44 42 42 3 44 44 19 42 5 19 12 34 19 24 23 16 42 39 10 3 39 5 16 10 5 17 5 11 24 31
split_gain=134.621 35.1477 33.4704 17.9658 6.13859 4.9629 4.69942 3.85602 3.56129 3.41555 3.29971 2.63777 2.61902 2.10933 1.83929 1.79684 1.43091 1.77782 1.36482 0.970222 0.536737 0.461248 0.352546 0.346803 0.248249 0.217397 0.157196 0.156466 0.15316 0.0731472
threshold=0.75348374247550975 0.051647124812006957 0.086823001503944411 -0.065948002040386186 0.90263298153877269 0.49467517435550695 0.94315615296363842 0.021496370434761051 0.075503826141357436 0.42039906978607183 11.09500026702881 0.4166476577520371 0.76250112056732189 -0.020355002023279663 0.0041740699671208867 -0.061833729967474931 0.76800671219825756 -0.77373725175857533 0.055694896727800376 0.0075985079165548095 -0.74230113625526417 -0.12813375890254972 -0.061833729967474931 0.41545389592647558 -0.056747723370790475 1.0000000180025095e-35 -0.077359613031148897 -0.10580576211214064 -0.016025660559535023 -0.010385407134890555
decision_type=2 2 2 2 2 2 2 2 2 2 2 2 2 2 2 2 2 2 2 2 2 2 2 2 2 2 2 2 2 2
left_child=1 5 4 16 7 18 25 9 10 -2 -6 -9 21 -10 19 26 17 -4 28 -7 -16 -5 -20 -14 -17 -3 -8 -18 -1 -27
right_child=2 6 3 12 8 14 15 11 13 -11 -12 -13 23 -15 20 24 27 -19 22 -21 -22 -23 -24 -25 -26 29 -28 -29 -30 -31
leaf_value=0.0076622708513858712 -0.0054669247469500797 0 0 0 0.0014396292624985528 0.017590199174433073 0.0081851734684761125 0.013022528564402735 0.015876398715263834 0.025216632641933006 0.032751678222343296 -0.004796372528698553 0.0053074424860665237 -0.0083390385116751606 -0.0060924163798994043 0 -0.0062374864741475949 0.02007739907493241 0 0 0.0060883548098924619 -0.020017774394348351 -0.018308045123587007 -0.004527370975059712 -0.017821511695288637 0 0 0.00095945321983345133 0 -0.036438699085302992
leaf_weight=5.4058904390549287 17.870550222811289 1.673474971554241 33.165343297529034 5.3343298294348633 36.720500166411512 105.42712359328289 11.037680190231187 94.659131000516936 36.843180587980896 169.68559954932425 530.63126218726393 110.09106176625937 27.07389545137994 26.577829314512201 50.178639452904463 7.8280867799767284 9.8617366886464897 174.12747570849024 4.4343120137928045 18.334861104842275 18.610773236723617 255.64252177206799 76.237940442457329 39.971338739211205 71.883791025495157 2.8242327613406806 10.425614385807419 12.807433087960815 7.6867322459584084 745.20599972593482
leaf_count=406 415 706 1256 976 583 3687 1109 3865 576 2712 7320 5395 2753 908 5321 1544 1456 6609 557 1262 1840 82165 18740 7442 24679 914 1568 1506 1873 323107
internal_value=-0.00235371 -0.0250551 0.0140265 -0.00297257 0.0232688 0.00106824 -0.0337751 0.0130149 0.0288304 0.0215128 0.0310367 0.00342864 -0.0158309 0.00493023 0.00916826 -0.0111055 0.0147228 0.0168982 -0.0132206 0.0148194 -0.00093465 -0.0195117 -0.0171596 0 -0.0165676 -0.0362928 0.00481809 -0.00128107 0.00352118 -0.0363618
internal_weight=2718.26 1137.2 1581.06 557.984 1023.08 286.316 850.879 392.306 630.773 187.556 567.352 204.75 328.022 63.421 192.551 101.175 229.962 207.293 93.7649 123.762 68.7894 260.977 80.6723 67.0452 79.7119 749.704 21.4633 22.6692 13.0926 748.03
internal_count=513250 387313 125937 104163 21774 33686 353627 12387 9387 3127 7903 9260 93336 1484 12110 28900 10827 7865 21576 4949 7161 83141 19297 10195 26223 324727 2677 2962 2279 324021
is_linear=0
shrinkage=0.0873782


Tree=5
num_leaves=31
num_cat=0
split_feature=8 22 22 16 8 38 17 8 26 17 17 22 34 8 2 40 17 17 12 16 29 24 38 14 43 24 14 38 38 31
split_gain=129.771 48.4759 18.6154 18.5337 5.94978 3.42791 3.6193 2.99733 2.95906 2.68725 2.23054 2.07164 1.86714 1.8028 1.38324 1.03748 0.63211 0.571414 0.517735 0.498382 0.400197 0.354438 0.245944 0.208456 0.149701 0.0659206 0.0562341 0.0279097 0.0206627 0.00048654
threshold=0.34365378320217138 2.7733870744705205 0.96237149834632885 -0.05133718624711036 0.51470816135406505 0.0088983918540179747 41.016805648803718 0.2181145325303078 -0.020017454400658604 63.565103530883796 60.878200531005866 1.9733365178108218 0.37500002980232244 0.38605900108814245 -0.052007073536515229 -0.87633410096168507 61.334524154663093 62.583806991577156 16.275000572204593 -0.082513440400362001 0.27744476497173315 -0.041376264765858643 0.043882343918085105 0.45117187500000006 0.024197451770305637 -0.038639124482870095 0.24358259141445163 0.00053672987269237648 -0.03586470149457454 -0.005000452045351266
decision_type=2 2 2 2 2 2 2 2 2 2 2 2 2 2 2 2 2 2 2 2 2 2 2 2 2 2 2 2 2 2
left_child=2 4 7 12 10 9 -7 23 25 -6 11 -2 13 -3 26 16 -9 -12 -14 29 -17 -16 -21 24 -1 27 -5 -4 -27 -10
right_child=1 3 8 14 5 6 -8 15 19 -11 17 -13 18 -15 21 20 -18 -19 -20 22 -22 -23 -24 -25 -26 28 -28 -29 -30 -31
leaf_value=0 0.019821922443453231 -0.0045671721858579328 0.0046184356353757318 -0.00039918948806885019 0.037329249164131009 -0.000485992119679776 0.02356656748640449 0.01301635373971523 0 0 -0.011691549226690962 0 0.0053655128212077765 0.018010221093590004 0 -0.0075561473242628388 -0.0020291403789807934 0.002983692360773484 -0.0052017833684515208 -0.031819859525010347 0.0029476716852200606 -0.02117905373391504 0 0 -0.017706173400173924 0 0.003579614700713927 0 -0.0028670510806614678 -0.00037230784055103654
leaf_weight=1.5312114604748774 382.76917548646452 14.125337245815897 6.3198392527992864 4.3375402801320879 428.85944596334593 51.339342848747037 166.0586839786265 87.133754442213103 2.1001990983495489 10.558518131030722 8.7146708982763794 52.087965024344157 53.583435390610248 165.5273090157425 10.045882930280639 28.692612982471474 5.5678115352056912 24.154700644430704 43.872005233133677 744.92114518518792 25.225975226378068 284.75853711686796 4.4566274591488755 1.9314263439737249 40.415037635015324 1.47598782950081 11.279228269238954 1.5708858381258322 11.209892313694578 4.8971410994417957
leaf_count=425 12784 1796 558 1226 6045 839 3035 6706 453 488 524 4236 3557 8483 2066 4060 870 1843 4552 324690 2741 99012 1618 533 13707 238 1986 169 2742 1084
internal_value=0.000465064 0.0149079 -0.0247494 -0.00517331 0.0253919 0.0311413 0.0179117 0 -0.0306025 0.0362919 0.0160662 0.0177052 0.0105891 0.0153972 -0.0193389 0.00600752 0.0109576 -0.00205969 0 -0.031469 -0.00178919 -0.0206344 -0.0316894 -0.0159823 -0.0169732 0 1.53705e-05 0.00361288 -0.00181882 0
internal_weight=2679.52 1712.07 967.45 587.529 1124.54 656.816 217.398 190.498 776.952 439.418 467.727 434.857 277.108 179.653 310.421 146.62 92.7016 32.8694 97.4554 756.375 53.9186 294.804 749.378 43.8777 41.9462 20.5766 15.6168 7.89073 12.6859 6.99734
internal_count=513066 152472 360594 122678 29794 10407 3874 29042 331552 6533 19387 17020 18388 10279 104290 14377 7576 2367 8109 327845 6801 101078 326308 14665 14132 3707 3212 727 2980 1537
is_linear=0
shrinkage=0.0873782


Tree=6
num_leaves=31
num_cat=0
split_feature=23 27 27 23 41 36 18 13 12 23 27 41 35 28 34 24 6 6 24 25 23 23 11 6 16 23 17 14 12 3
split_gain=77.6308 30.533 18.3049 13.1382 4.99014 4.48306 4.4641 3.26552 3.17188 2.75944 2.66746 2.50354 2.03048 1.50472 1.42777 1.25484 1.09078 0.864056 0.863118 0.753125 0.724991 0.720548 0.69625 0.595605 0.547999 0.450657 0.432525 0.314939 0.200352 0.018504
threshold=0.051682403311133392 -0.016071448102593418 -0.016071448102593418 1.0000000180025095e-35 1.2055094242095949 0.035248881205916412 -0.45203585922718043 -0.032679613679647439 22.835000038146976 0.0041740699671208867 -0.03869622386991977 0.40478301048278814 -0.023787947371602055 -9.3825106620788556 0.64428025484085094 -0.01135098375380039 0.61363074183464061 1.7764039635658266 0.070485968142747893 -0.00017488178127678108 0.12712875753641131 0.099285118281841292 -0.35336300730705256 0.67275872826576244 -0.023105559870600697 0.0017695748247206213 38.199829101562507 0.29910714924335485 10.695000171661379 0.093737725168466582
decision_type=2 2 2 2 2 2 2 2 2 2 2 2 2 2 2 2 2 2 2 2 2 2 2 2 2 2 2 2 2 2
left_child=2 10 4 8 7 12 21 25 11 -9 13 -4 -5 17 -15 23 -7 -2 -17 -6 27 26 -21 -8 -10 -1 -3 -12 -22 -23
right_child=1 6 3 5 19 16 15 9 24 -11 20 -13 -14 14 -16 18 -18 -19 -20 22 28 29 -24 -25 -26 -27 -28 -29 -30 -31
leaf_value=-0.0078152488196029553 -0.0089139069911336587 -0.00035149884839679455 0.021399284062791436 0.0047596261340769252 0.0038629945716072305 0.016999226092259338 0.0014823572528261512 0.033513252716078773 0.0026906571565948954 0.017348812956203198 -0.0023125506193998396 0 -0.01555253240425486 0.018838387867064554 -0.00068739862732416428 -0.027443092581945001 0 0.0096694179558624964 -0.0027541760193962295 0.0010110708404312413 0 -0.0056764366557963434 -0.019498829139411391 -0.012347440359903178 -0.011458901671210791 0.0056160172539431071 0.0144882799364561 0.0062445617819918324 -0.010096951986927574 0
leaf_weight=12.991375710698774 27.176276604412124 2.5593907263246392 270.11257170478348 24.709290084545501 5.0741918041603666 26.235299951396883 8.2458974487963115 331.14395030774176 10.085157340567095 277.55816218577093 23.535318092966918 50.753307884326205 239.43514645434334 139.53583125513978 20.329299946606625 735.478526357183 75.948894008935895 7.3625057584140441 26.147723557020072 2.7139307441539158 3.5076463576406232 21.713434009579945 13.095409284695046 89.575906817102805 20.794791868713219 19.618022554612253 14.206474316422826 46.106605186127126 50.837876925361343 4.3873168292921028
leaf_count=219 1521 593 11335 4427 141 1672 1659 3225 734 9893 4770 2511 62311 5347 1542 323683 7655 284 9927 92 492 8205 486 29934 1196 1438 1725 3599 11122 1534
internal_value=0 -0.0159315 0.0140633 0.00400268 0.0243381 -0.007199 -0.0240162 0.0257763 0.0156952 0.0271719 0.00673515 0.0182855 -0.0130569 0.0127133 0.0159791 -0.0253664 0.00670728 -0.000828906 -0.0268337 -0.00789663 -0.00240123 0.000814723 -0.014579 -0.010224 -0.00559788 0 0.0105211 0.00231455 -0.00878615 -0.00513165
internal_weight=2600.98 1220.71 1380.27 718.074 662.195 366.329 902.315 641.312 351.746 608.702 318.391 320.866 264.144 194.404 159.865 859.448 102.184 34.5388 761.626 20.8835 123.987 42.8666 15.8093 97.8218 30.8799 32.6094 16.7659 69.6419 54.3455 26.1008
internal_count=513272 405937 107335 91841 15494 76065 377260 14775 15776 13118 28677 13846 66738 8694 6889 365203 9327 1805 333610 719 19983 12057 578 31593 1930 1657 2318 8369 11614 9739
is_linear=0
shrinkage=0.0873782


Tree=7
num_leaves=28
num_cat=0
split_feature=42 27 1 35 42 30 27 1 41 11 1 6 1 6 36 34 24 38 6 42 1 2 7 38 30 38 6
split_gain=78.3652 24.6926 20.5315 5.47118 4.97457 3.631 3.43886 2.41866 2.20923 2.07444 2.23241 1.85102 1.72616 1.03089 1.01913 1.12844 0.719851 0.684125 0.655973 0.655509 0.269321 0.138964 0.109725 0.0425794 0.00925016 0.00540043 0.00381304
threshold=0.086823001503944411 -0.014870343264192341 -0.039452880620956414 -0.019526924937963482 0.035455051809549339 2700.763793945313 -0.055187331512570374 -0.027209596708416935 0.69487348198890697 -3.3998539447784419 -0.054444542154669755 1.6489298939704897 -0.032593607902526849 0.1020503416657448 -0.037329509854316704 0.50000011920928966 0.079847257584333434 -0.018380560912191864 2.6914653778076176 0.23087660968303683 -0.032593607902526849 -0.061233837157487862 0.86692672967910778 0.051644738763570792 1424.0012207031252 -0.0088766263797879202 1.0774097442626955
decision_type=2 2 2 2 2 2 2 2 2 2 2 2 2 2 2 2 2 2 2 2 2 2 2 2 2 2 2
left_child=2 6 8 11 5 -5 14 -6 9 24 -11 13 19 -4 15 -2 20 -14 -13 -8 23 -22 -16 -3 -1 -18 -27
right_child=1 16 3 4 7 -7 12 -9 -10 10 -12 18 17 -15 22 -17 25 -19 -20 -21 21 -23 -24 -25 -26 26 -28
leaf_value=0 0.020277935536188417 -0.0039081539665320368 -0.0011245932859206195 0.010747994325188066 0.005503863065461214 -0.0072611134127731659 0.012715745595614085 -0.013269339445369684 0 0.040856541417042147 0.019468229865174165 -0.0093616391361387667 0 0.021571973281200429 -0.0038704333521721603 0 0 -0.012456438413132284 0.0074645728712804489 -0.0017651703273013925 0 -0.024257801978172091 0.0029987985288109165 0 -0.0016765056070186725 0 -0.0020506987849963645
leaf_weight=4.1473615790018803 91.440059826942161 19.764272278232969 4.6131368855712926 423.12197153049055 51.114445047220215 82.029974627716001 37.836898455629125 152.03867250378244 15.927428763243368 199.98460264224559 165.48961253941525 16.145436796359721 71.904736295866314 204.14764149032999 17.289637652575042 15.022896447218953 6.5012157315504764 77.117717742803507 8.3381798876216617 13.279578263231086 4.8925193020841098 840.47560714924475 5.9699501276481888 1.9600378553150211 3.7312285940861329 0.33934546401724475 17.636177274107467
leaf_count=101 3066 6122 65 19239 3396 7191 2689 35298 211 2509 3208 795 9314 6472 1018 1124 2424 15614 250 1909 1835 382401 329 446 162 119 6677
internal_value=-7.68753e-05 -0.0159525 0.0144364 0.00698591 0.00275884 0.00743895 0.00401813 -0.00799129 0.030863 0.0321494 0.0330981 0.0180615 -0.00278794 0.0205442 0.0141151 0.0172033 -0.0233783 -0.00770259 -0.00049006 0.00807739 -0.0238258 -0.024164 0 -0.00267128 -0.000218505 -0.00143818 -0.0018546
internal_weight=2552.26 1221.43 1330.83 941.549 708.305 505.152 329.861 203.153 389.28 373.353 365.474 233.244 200.139 208.761 129.723 106.463 891.569 149.022 24.4836 51.1165 867.092 845.368 23.2596 21.7243 7.87859 24.4767 17.9755
internal_count=513984 435087 78897 72706 65124 26430 35063 38694 6191 5980 5717 7582 29526 6537 5537 4190 400024 24928 1045 4598 390804 384236 1347 6568 263 9220 6796
is_linear=0
shrinkage=0.0873782


Tree=8
num_leaves=31
num_cat=0
split_feature=44 3 22 22 22 36 3 1 8 8 25 44 35 16 29 3 36 1 44 39 24 24 5 35 1 35 3 5 1 25
split_gain=68.3249 17.8437 9.23289 8.72245 5.78135 3.60427 3.19947 2.27039 3.181 1.96555 1.95475 1.49621 1.39026 1.34067 0.835192 0.717521 0.804249 0.690197 0.495082 0.38722 0.284847 0.162999 0.12762 0.127605 0.110564 0.118504 0.0758333 0.0138657 0.0218749 0.0067866
threshold=0.69168764352798473 -0.022067769430577752 1.7895095348358157 0.60967653989791881 1.6031514406204226 0.018846019171178344 -0.056496161967515938 -0.054444542154669755 1.1088835000991824 0.55126655101776134 2.7188490093976728e-05 0.45800763368606573 -0.017023948952555653 -0.069110978394746767 -5.1967873573303214 0.0058600010816007861 -0.036411436274647706 -0.026315833441913124 0.42213095724582678 -1.1398577690124509 0.057842619717121131 0.15249007940292361 -0.036612229421734803 -0.018213148228824135 -0.034016508609056466 -0.021967712789773938 -0.080288641154766069 -0.074313696473836885 -0.026315833441913124 0.0023970769252628092
decision_type=2 2 2 2 2 2 2 2 2 2 2 2 2 2 2 2 2 2 2 2 2 2 2 2 2 2 2 2 2 2
left_child=3 4 5 11 7 12 9 14 -9 -6 -7 24 -3 27 -2 16 -13 -8 20 22 -15 -21 -4 -17 -1 -26 -20 28 -5 -29
right_child=1 2 19 13 6 10 17 8 -10 -11 -12 15 -14 18 -16 23 -18 -19 26 21 -22 -23 -24 -25 25 -27 -28 29 -30 -31
leaf_value=0 0 0.0079602472430992059 0.0033944639907756047 0.002586599825016743 0.0034199075496089181 0.02253491563838525 0.0038941805310734505 0.018899262143492794 -0.0090948334859987812 0.018010426732106531 0.0033680009716971029 -0.0031392269454903628 -0.0085883139284862239 -0.027623510439915514 0.034282170547640226 0 0.012469408879315632 -0.0080486307059097449 0 -0.014339421004422377 0 0 -0.0037372009529364138 -0.0069395359279565425 0 -0.011911665473117204 -0.01671052736896253 -0.0021183288242738046 0 0
leaf_weight=2.553611399489454 10.967010200489311 34.395852008950897 4.0060900981770855 6.4772020155796781 151.90031995985191 102.82254182139877 30.390059800178278 419.13235884648748 15.398362349253146 201.91067857446615 96.371907721622847 10.819230817491187 87.547861537663266 413.97131158792763 163.70082002435811 1.1783860512077815 74.484899906557985 71.141905147233047 0.9900970523012792 233.87717189983232 3.8457010642741798 8.8048215403687191 26.488432769430801 12.555719457159281 1.7408523588674132 40.094956990389619 279.78215128043666 8.1431835245457442 4.9891309262602608 0.8014277880429298
leaf_count=384 219 949 547 1011 9925 3351 3102 7764 159 7193 3321 634 4416 201715 1491 88 4940 20069 209 85926 1708 3070 6736 1911 396 13119 125185 2606 1630 275
internal_value=0.00020011 0.0105841 -0.00137324 -0.0194189 0.017252 0.00823484 0.00877502 0.0228929 0.0172824 0.0125976 0.0150013 0 -0.00267037 -0.0232374 0.0328216 0.00601509 0.00924801 -0.00354454 -0.0238638 -0.0128062 -0.0274124 -0.013931 0 -0.0043847 -0.0103109 -0.0111273 -0.0166257 0 0.000827646 -0.00164041
internal_weight=2521.28 1658.86 594.315 862.428 1064.54 321.138 455.343 609.199 434.531 353.811 199.194 143.428 121.944 719 174.668 99.0382 85.3041 101.532 698.589 273.177 417.817 242.682 30.4945 13.7341 44.3894 41.8358 280.772 20.4109 11.4663 8.94461
internal_count=514049 158238 108316 355811 49922 12037 40289 9633 7923 17118 6672 21472 5365 334339 1710 7573 5574 23171 328817 96279 203423 88996 7283 1999 13899 13515 125394 5522 2641 2881
is_linear=0
shrinkage=0.0873782


Tree=9
num_leaves=32
num_cat=0
split_feature=44 20 19 2 23 36 14 8 23 44 10 42 10 36 32 42 22 11 44 17 11 39 12 43 44 19 43 19 40 32 35
split_gain=62.777 12.7244 11.9539 7.27826 7.57424 4.79977 4.22014 3.56095 2.81704 2.63139 2.58163 2.46847 2.41478 1.98379 1.34219 2.06836 1.15998 0.958776 0.955394 0.884638 0.768726 0.544837 0.453249 0.408195 0.386665 0.352418 0.270368 0.212061 0.202458 0.149781 0.112813
threshold=0.82841163873672496 -0.015642226673662659 0.42744740843772894 -0.08429845422506331 0.02732537500560284 -0.024869628250598904 0.37974330782890325 0.45767600834369665 0.0041740699671208867 0.97316461801528942 0.09082482755184175 0.011446119751781227 0.88681107759475719 -0.024869628250598904 -0.5976598560810088 0.0047459518536925325 2.2183305025100712 1.5060808062553408 0.53413218259811412 32.180706024169929 0.32532538473606115 1.2604150176048281 14.889999866485597 0.60058593750000011 0.71548363566398632 0.48261451721191412 0.92973768711090099 1.0823526382446291 -1.7391023039817808 -2.8106732368469234 0.00030802533729001885
decision_type=2 2 2 2 2 2 2 2 2 2 2 2 2 2 2 2 2 2 2 2 2 2 2 2 2 2 2 2 2 2 2
left_child=1 8 5 4 10 9 12 -8 14 21 -4 24 -5 23 15 -1 -6 -11 26 30 -21 -2 -16 -10 29 -26 -13 -20 -15 -3 -7
right_child=2 11 3 6 16 19 7 -9 13 17 -12 18 -14 28 22 -17 -18 -19 27 20 -22 -23 -24 -25 25 -27 -28 -29 -30 -31 -32
leaf_value=-0.0033003109124848744 -0.0039237702614531005 0 0 0.0092966389016814251 -0.0038263966746675043 0.0062182030385969549 0 0.025167255313761908 -0.0024150816818466459 0.022444166363037785 0.043701525104169775 -0.025173391788634585 -0.005460320347751616 0 -0.0072056932910502317 0.020677405727659057 0.012429760759321494 -0.0015261685001609173 -0.014528556869934268 -0.017073936329916505 0 0.0075182788796574734 0.0032850789240885165 0.0081606241390362929 -0.0005375110222987212 0.011122785563213616 -0.0041159972680047795 0 -0.013547897145849998 -0.0079163986602644749 0
leaf_weight=22.905826608650386 86.501079785171896 3.1733184678014394 12.999237021896986 338.58507256989833 28.235454590525478 6.5252878626924922 54.409743747673929 218.98683879291639 15.441183159477076 56.783750660077203 151.67792207351886 474.51032149791718 84.807112291746307 3.9379236604436292 27.264933326980099 60.284487615921535 64.634467149327975 2.488631860818713 305.49505376053276 105.98699151119217 33.698690833582077 22.16449757956434 62.207779278338421 39.822421896620654 7.8025009070988771 13.107484730309805 26.869115810492076 5.3386782154557286 127.53881439188262 17.137911753903609 2.2984064585762098
leaf_count=525 8952 499 94 16805 382 588 3355 7844 2964 2673 1642 235503 5309 701 1541 1908 1945 174 120358 25904 9257 2758 4586 5081 230 340 12720 1477 32966 4243 395
internal_value=-0.000313654 -0.0144429 0.0131042 0.0178977 0.0304564 -0.00125612 0.0123191 0.0206063 -0.000276437 0.00804384 0.0408793 -0.0201295 0.00597566 -0.00756776 0.00701988 0.0137384 0.00676173 0.0199704 -0.0211617 -0.0120871 -0.0139428 0 0 0.00396288 0 0.00620648 -0.0244703 -0.0142417 -0.0129906 -0.00555589 0.00278228
internal_weight=2483.62 1212.84 1270.78 954.336 257.547 316.447 696.789 273.397 359.403 167.938 164.677 853.434 423.392 186.74 172.663 83.1903 92.8699 59.2724 812.213 148.509 139.686 108.666 89.4727 55.2636 41.2212 20.91 501.379 310.834 131.477 20.3112 8.82369
internal_count=513719 425642 88077 37376 4063 50701 33313 11199 50272 14557 1736 375370 22114 41712 8560 2433 2327 2847 370058 36144 35161 11710 6127 8045 5312 570 248223 121835 33667 4742 983
is_linear=0
shrinkage=0.0873782


Tree=10
num_leaves=31
num_cat=0
split_feature=27 8 40 24 8 4 11 8 15 24 30 38 21 18 18 4 30 37 12 43 35 16 18 5 14 14 4 13 18 30
split_gain=52.6945 13.8181 9.31785 5.31606 5.18371 4.63018 2.32279 2.24785 1.97075 1.90527 1.85463 1.77397 1.41789 1.25112 1.4169 1.2478 1.16264 1.0906 1.03054 0.942766 0.519013 0.514175 0.387784 0.376639 0.37287 0.345243 0.31678 0.123155 0.0825351 0.0211002
threshold=-0.014870343264192341 0.46699590981006628 -0.42709684371948237 -0.027265118435025212 0.23919048160314563 -30.338728904724118 -2.5605882406234737 0.41216462850570684 0.020990205928683284 -0.0035427829716354604 1920.9951171875002 -0.030303060077130791 51.726772308349616 -0.64363011717796315 -0.17197630554437635 -2.638482809066772 2936.361938476563 0.95197197794914257 10.944999694824221 0.20192772150039676 -0.03600706718862056 0.092676911503076567 -0.36222469806671137 -0.0096581471152603609 0.26339285075664526 0.44224330782890325 -55.839899063110344 -0.0096767810173332674 -0.53169074654579151 1371.670837402344
decision_type=2 2 2 2 2 2 2 2 2 2 2 2 2 2 2 2 2 2 2 2 2 2 2 2 2 2 2 2 2 2
left_child=2 4 6 8 22 7 27 25 23 19 -10 21 -9 15 -15 -7 18 -13 -8 -6 -11 -5 -2 -3 -18 -4 -24 29 -29 -1
right_child=1 3 5 11 9 13 16 12 10 20 -12 17 -14 14 -16 -17 24 -19 -20 -21 -22 -23 26 -25 -26 -27 -28 28 -30 -31
leaf_value=0 0 0.0054949304042819225 -0.0064474439639968803 0.016171471234900026 0.0051616643622922082 -0.020910489454032729 0.0020698141553331093 0.02103069533029505 -0.0015860776596819599 0 0.030009316709570515 -0.0094158290896920651 0 0.0048394285557171604 -0.0088431153664377832 0.0038811189326308396 0.0069336508105020175 0.0023255848231482201 0.025821544925657389 -0.00533548125506617 -0.013794297662706248 0 0 -0.0076009811083061754 -0.0067132557065979048 0.0046972225913627973 -0.022195489247214695 0 0.004547227608474997 -0.0059804421498427613
leaf_weight=2.1533459009369862 6.0172987311962052 10.182609818933999 30.478646454634145 23.993708506866827 59.616026681906078 21.769125072169121 28.67261575628072 161.97150835685898 6.9536204426549366 9.1599263382959162 65.70452602423029 136.82689332356676 21.159496274543926 183.10483931994531 56.775079811864998 5.3748551938915616 10.329790106858129 66.000018701481167 510.4526055639144 228.66349723035819 300.45330924089649 4.4689667726634061 4.1196223681326947 11.102827550610526 6.8832578965229905 6.258406068198382 451.9682191121974 2.4572689598426267 14.741853113286194 5.3263083251658827
leaf_count=84 2557 701 4280 3345 10799 922 548 4626 183 3240 2294 24958 583 13436 7443 262 294 13118 13588 55750 125803 800 1515 837 249 782 219465 87 846 311
internal_value=0.00123752 -0.00989785 0.0156892 0.00534758 -0.0146887 0.00606444 0.0230627 0.0148757 0.0207255 -0.0085148 0.0261793 -0.00172555 0.0185431 -0.00139561 0.000720605 -0.0142641 0.0241921 -0.00526152 0.0248805 -0.0026062 -0.0131557 0.0126636 -0.0217073 0 0 -0.00166648 -0.0219849 0 0.00180607 -0.00525942
internal_weight=2453.14 1385.23 1067.91 325.233 1060 486.892 581.017 219.868 93.9436 597.893 72.6581 231.29 183.131 267.024 239.88 27.144 556.338 202.827 539.125 288.28 309.613 28.4627 462.105 21.2854 17.213 36.7371 456.088 24.6788 17.1991 7.47965
internal_count=513706 465365 48341 46236 419129 32334 16007 10271 4015 195592 2477 42221 5209 22063 20879 1184 14679 38076 14136 66549 129043 4145 223537 1538 543 5062 220980 1328 933 395
is_linear=0
shrinkage=0.0873782


Tree=11
num_leaves=28
num_cat=0
split_feature=1 33 35 38 34 0 21 21 0 41 26 1 29 2 12 0 0 1 32 7 30 35 26 26 2 26 2
split_gain=39.3478 7.85607 3.84328 3.66741 3.90219 4.92181 3.4146 2.67596 2.19651 2.03011 1.42614 1.77566 1.53533 1.42034 1.33483 1.27932 0.977254 0.963209 0.812801 0.805929 0.775546 0.674871 0.38007 0.370568 0.360641 0.228535 0.0785345
threshold=-0.025491382926702496 -0.11524092406034468 -0.020952372811734673 -0.046337421983480447 0.095652066171169295 0.084336891770362868 56.918449401855476 48.761709213256843 0.0094374748878180998 -0.31803898513317103 -0.018115958198904988 0.0071869667153805503 -0.11487679183483122 -0.077668126672506319 18.605000495910648 0.33333340287208563 0.52777934074401867 -0.017586270347237584 -0.97838613390922535 0.80231130123138439 1829.8977661132815 -0.048638803884387009 0.015284218825399877 -0.014928511343896387 -0.08429845422506331 -0.023738906718790528 -0.064236976206302629
decision_type=2 2 2 2 2 2 2 2 2 2 2 2 2 2 2 2 2 2 2 2 2 2 2 2 2 2 2
left_child=3 10 16 9 7 6 -6 18 17 24 11 12 -2 -7 -9 19 21 -4 -5 -12 -13 -3 -17 -10 -1 -18 -26
right_child=1 2 8 4 5 13 -8 14 23 -11 15 20 -14 -15 -16 22 25 -19 -20 -21 -22 -23 -24 -25 26 -27 -28
leaf_value=0.035659319656541608 0.010369059319893547 -0.0025923370368133116 0.0068992082032386286 0.014477900188334341 0.020905749760032458 0.010477420970901681 0 -0.021869021165615423 0 0 0.0043293916549667381 0.019927726915374637 -0.005688719005504406 -0.0023766388118857283 0.00077699566695474029 -0.011414742864801167 0.00020980694865129913 -0.0076656643227375181 -0.002167215798751467 -0.0058744594594399638 0 0.011969453824559176 0 -0.017255133658368216 0 -0.0082377937238400402 0.0059908607072209474
leaf_weight=73.626010559033602 44.656231048109476 11.164649815356823 33.667705430998467 29.367402532836422 414.32123157009482 77.092401479603723 60.578526897646952 36.19446556980256 19.88604115700582 9.5096043588127923 131.73907551448792 39.661388303502463 119.19452442735201 154.89667120686499 14.926293081371112 121.79190959507832 2.368774975067935 61.396117530297488 14.346639406983739 72.954660406103358 17.676073654438369 49.226713351963554 17.239930321811698 762.06144336709986 6.1555782374925938 39.248427784536034 10.841009275522081
leaf_count=1015 3211 925 2157 649 8740 2662 3137 1490 5158 187 17070 2642 6358 17145 935 42431 205 8810 410 8932 1153 9340 5590 346839 189 15802 241
internal_value=-0.000460243 -0.00893541 -0.0135902 0.0138001 0.0110259 0.013254 0.0182011 -0.00403007 -0.0154295 0.0291639 -0.000478663 0.0045214 -2.57769e-05 0.00200596 -0.0155318 -0.00406895 0.0012854 -0.0012604 0.00847338 9.55058e-07 0.0152906 0.0079949 -0.00991501 -0.0169368 0.0325601 -0.00615448 0.00384659
internal_weight=2445.79 1543.93 979.02 901.856 801.724 706.889 474.9 94.8348 877.011 100.132 564.914 221.188 163.851 231.989 51.1208 343.726 102.009 95.0638 43.714 204.694 57.3375 60.3914 139.032 781.947 90.6226 41.6172 16.9966
internal_count=513423 476623 389236 36800 35168 31684 11877 3484 362964 1632 87387 13364 9569 19807 2425 74023 26272 10967 1059 26002 3795 10265 48021 351997 1445 16007 430
is_linear=0
shrinkage=0.0873782


Tree=12
num_leaves=30
num_cat=0
split_feature=44 19 22 35 20 27 17 9 34 12 13 44 17 44 22 19 13 19 32 44 30 25 10 10 14 30 30 28 41
split_gain=31.8829 12.2588 7.69283 7.14731 5.05264 3.45511 3.17503 5.02092 2.95543 2.53834 2.50398 2.38506 1.57104 1.15817 0.766761 0.722887 0.655896 0.56351 0.463445 0.423611 0.287808 0.242532 0.223955 0.20938 0.208868 0.151023 0.0689467 0.0830356 0.0300764
threshold=0.71928995847702037 0.44634743034839636 1.0000000180025095e-35 -0.020473860204219815 -0.032463265582919114 -0.03869622386991977 45.628063201904304 9.7693395614624041 0.35484156012535101 11.835000038146974 -0.0023800662020221348 0.91812899708747875 36.317543029785163 0.45418910682201391 0.53908962011337291 1.2350237965583803 0.018914344720542434 0.83502510190010082 -3.1266651153564449 0.47873903810977941 1313.3372192382815 -0.00052067276556044806 0.33527985215187078 0.98914760351181041 0.47823660075664526 1970.7329101562502 1225.0473632812502 -1.6085753440856931 -1.1993077993392942
decision_type=2 2 2 2 2 2 2 2 2 2 2 2 2 2 2 2 2 2 2 2 2 2 2 2 2 2 2 2 2
left_child=4 8 6 5 14 -4 7 -3 11 -8 -5 21 -13 20 15 28 18 23 -10 -17 -6 -2 -19 -15 -22 -18 -16 -28 -1
right_child=1 2 3 10 13 -7 9 -9 16 -11 -12 12 -14 17 26 19 25 22 -20 -21 24 -23 -24 -25 -26 -27 27 -29 -30
leaf_value=0 0 0.03357626126814707 0.022918457126856123 -0.0094014422365153207 0 0.0012338332773114467 -0.0072214012709998889 9.8824110956933285e-05 0 0.014317594813055362 0.0034777531380015599 -0.0024647141900328785 0.015946889863316396 -0.011874599914009191 0.00025294896162328785 0 0.0035448270413605556 0.0025917639586805273 -0.015466363030159304 0.021324284137313392 -0.01929512965070581 -0.0093440409892381719 -0.0045074390659232905 0 0 -0.0038597487121707057 -0.0057781071845195509 0 -0.0029629422537462429
leaf_weight=2.4493693639524281 12.692853870044926 188.56836867879611 179.62332920823246 152.09846467309399 6.1988334626075803 96.53326637292048 32.810919392155483 48.770304141333327 17.27065692783799 151.03059480944648 310.71263423631899 33.522098302666564 74.788471425999887 262.57193588209338 2.5964739240007502 3.0473895709728849 12.566294946009291 25.161372018978 160.56173815752845 22.507538600475527 447.85872533489601 68.478309588797856 52.018404690374155 1.9203163284691971 7.9155684638535595 26.423340224195272 13.612214093562219 3.9437649890314761 4.2726257153553879
leaf_count=106 1368 1632 3063 16279 2582 7891 400 620 1459 2271 26598 1270 7752 114377 222 460 1334 4590 44062 844 226667 19646 11871 566 3954 8216 3069 1017 197
internal_value=-0.000248737 0.00709518 0.0116438 0.00577418 -0.0136512 0.0163475 0.0209045 0.0277021 -0.00557238 0.00959034 -0.000766183 0.00189639 0.00996511 -0.0154311 0.00869023 0.0145316 -0.0121258 -0.00971572 -0.0141707 0.0189043 -0.0188044 -0.00765468 -0.00104449 -0.0115965 -0.0190472 0 -0.000799546 -0.00373932 -7.37413e-05
internal_weight=2422.53 1566.45 1160.15 738.968 856.075 276.157 421.18 237.339 406.304 183.842 462.811 189.482 108.311 803.645 52.4294 32.2769 216.822 341.672 177.832 25.5549 461.973 81.1712 77.1798 264.492 455.774 38.9896 20.1525 17.556 6.722
internal_count=514383 143861 58754 53831 370522 10954 4923 2252 85107 2671 42877 30036 9022 364607 5915 1607 55071 131404 45521 1304 233203 21014 16461 114943 230621 9550 4308 4086 303
is_linear=0
shrinkage=0.0873782


Tree=13
num_leaves=30
num_cat=0
split_feature=8 22 11 27 9 15 20 23 21 39 9 27 30 8 22 8 17 32 24 43 12 20 8 12 10 8 17 21 3
split_gain=28.1963 9.37424 4.86972 4.35884 3.85141 3.68403 3.26954 2.07062 1.99036 1.79674 1.61679 0.518776 0.496177 0.462938 0.404051 0.480596 0.471959 0.451394 0.367525 0.325297 0.304723 0.164921 0.141915 0.138774 0.128164 0.119019 0.110495 0.0717715 0.0709946
threshold=0.33203651010990148 3.5065683126449589 -0.44405867159366602 -0.055187331512570374 10.349171638488771 0.075330637395381941 -0.017408535815775391 0.0041740699671208867 45.795497894287116 -0.81518393754959095 10.908157348632814 -0.032578580081462853 1617.251159667969 0.49085755646228796 1.0000000180025095e-35 0.30882051587104803 32.180706024169929 0.12505934387445453 -0.012927407398819922 0.74211013317108165 11.614999771118166 -0.016678669489920136 0.31043630838394171 18.134999275207523 0.036210216581821449 0.25830437242984777 1.0000000180025095e-35 46.051103591918952 -0.092106543481349931
decision_type=2 2 2 2 2 2 2 2 2 2 2 2 2 2 2 2 2 2 2 2 2 2 2 2 2 2 2 2 2
left_child=6 2 4 8 7 9 14 -2 18 -4 -7 -6 27 -10 15 17 25 -1 -3 21 -14 -8 28 -17 -18 -16 -23 -5 -21
right_child=1 3 5 12 11 10 19 -9 13 -11 -12 -13 20 -15 16 23 24 -19 -20 22 -22 26 -24 -25 -26 -27 -28 -29 -30
leaf_value=0.011940414721539548 0.03027567959158239 0.0021560807401151574 -0.00035611217887106397 0.0037403790614657316 0.0024258117338571915 0.018599318482110237 0 0.011279931320723934 0 0.0097595840264986886 -0.0055135994196781179 -0.011385715538243626 0 0.015986393785037332 0 -0.0067270199777295795 0 -0.0013178740476408541 -0.0078115053776174458 0 -0.0094594741967297287 0 0 0 -0.008096810267414583 0.0065223741949037954 -0.017355632614782061 -0.00078874885928284142 -0.0090807171443502716
leaf_weight=36.031225239217747 165.14713806065265 19.30265951459296 371.46219840849517 15.651528940303253 12.6604100917466 191.30357505276334 4.9422218548716037 141.59941228135722 6.691276896512135 171.63960723998025 6.6504424168961114 15.616997841745613 38.026651103282347 102.46683749451768 5.4928595680976278 8.7640905557200295 2.2030878946534349 4.2309553355444214 32.619749580859207 0.61441966786514868 296.05019888997776 1.1618013370316465 12.23703544604359 3.468489187420345 64.742155855346937 10.481997812748885 481.07919230542029 14.832184948259963 150.07988183276029
leaf_count=2277 2175 487 14778 2274 268 6378 1757 6397 258 7126 450 1559 12403 3387 1796 272 552 658 1059 158 102933 535 4959 157 20491 1316 240881 2525 73613
internal_value=0.000393603 0.00706914 0.0116838 -0.00227054 0.0203732 0.00714211 -0.0129072 0.0231708 0.00867357 0.00290454 0.0168307 -0.00469543 -0.00760243 0.0146816 0 0.00451652 -0.00386677 0.00884082 -0.00310645 -0.0154049 -0.00856664 -0.0171311 -0.00824205 -0.00310075 -0.00727455 0.00351868 -0.0172873 7.18828e-05 -0.00888962
internal_weight=2387.25 1601.72 1076.08 525.641 335.024 741.056 785.529 306.747 161.081 543.102 197.954 28.2774 364.561 109.158 135.415 52.4948 82.9201 40.2622 51.9224 650.115 334.077 487.183 162.931 12.2326 66.9452 15.9749 482.241 30.4837 150.694
internal_count=513879 164457 39131 125326 10399 28732 349422 8572 5191 21904 6828 1827 120135 3645 27519 3364 24155 2935 1546 321903 115336 243173 78730 429 21043 3112 241416 4799 73771
is_linear=0
shrinkage=0.0873782


Tree=14
num_leaves=31
num_cat=0
split_feature=8 23 38 4 23 30 10 24 22 29 8 39 21 21 21 39 27 24 6 16 26 4 38 25 24 38 4 10 2 8
split_gain=23.1184 10.2311 4.99198 4.77868 2.6499 2.55392 2.33049 2.32295 1.92053 1.90506 1.68669 1.62453 1.54497 1.24603 1.08916 0.882555 0.733179 0.729302 0.619264 0.38668 0.292531 0.220267 0.286545 0.198349 0.171316 0.134411 0.121597 0.108631 0.0969871 0.00980356
threshold=0.33577212691307073 0.0017695748247206213 -0.026450600475072857 -13.981753826141356 0.0030690659768879418 2347.7980957031255 0.53876161575317394 -0.027265118435025212 4.9327914714813241 1.4205508232116701 0.68796548247337352 -0.72297921776771534 48.647241592407234 44.188179016113288 48.566341400146491 0.15089021623134616 -0.016763632185757157 -0.028456977568566796 1.4244273304939272 -0.069110978394746767 0.0019031564588658514 -28.390131950378414 0.0020672102691605691 0.00029221648583188658 0.029857943765819076 -0.032776599749922745 32.990518569946296 0.63752952218055736 -0.034722078591585152 0.28627885878086096
decision_type=2 2 2 2 2 2 2 2 2 2 2 2 2 2 2 2 2 2 2 2 2 2 2 2 2 2 2 2 2 2
left_child=4 3 7 5 17 9 8 13 -4 -2 -8 12 -5 -3 -7 -9 -13 20 25 27 23 28 -23 -1 -21 -6 -27 -20 -19 -22
right_child=1 2 6 11 18 14 10 15 -10 -11 -12 16 -14 -15 -16 -17 -18 21 19 24 29 22 -24 -25 -26 26 -28 -29 -30 -31
leaf_value=0.015367597652703426 0.028869287667718253 0 0.0082389733767050423 -0.0013962153754334861 0 -0.0058171728514965822 -0.0089297082128634627 0.0079112108074350946 -0.0044019763218774858 0 0.0031383786399343835 -0.017272541759437574 0.013091925884400295 0.02091540826276115 0.012228581894997818 -0.0030342023727683329 0.0012848515152029186 -1.2452758159183745e-06 0.0063113542964742296 -0.0080267871123555906 0 -0.0095573421419074371 0 0 0 -0.01461130035480619 0 0 0.0050228645939700634 -0.0017753043675674944
leaf_weight=16.308616125665147 239.07232747878879 25.488985101925209 209.50454624299891 62.98903913225513 6.4616260958136982 27.697316662874073 335.07595632789889 86.265653417736758 122.16066166153178 18.084268228616565 89.643743256805465 11.175303889205681 132.07706396922003 128.34280066902284 25.466346283908933 81.878450987685937 8.6082017893204448 3.946606116835027 7.3851413882803154 76.841536403517239 1.9957277477951714 25.967941990762483 21.231703945260961 8.1956288142828253 24.536976575327571 554.13749110151548 17.850008834095206 4.6944157151156105 11.012039050343445 1.8470123620936645
leaf_count=865 2113 456 14533 1300 2721 333 69182 6283 40054 157 8808 136 2888 3077 257 11071 215 193 1146 35148 192 6277 4618 926 11471 277149 9704 939 1459 108
internal_value=0.000990831 0.00701848 0.00192552 0.0167835 -0.0110834 0.023528 -0.00187273 0.0107126 0.00329405 0.0269686 -0.00611236 0.00531149 0.00824836 0.0178849 0.0024378 0.00227903 -0.0101811 0.00163608 -0.0128973 -0.00424476 0.0102469 -0.002656 -0.00562294 0.0127209 -0.0064028 -0.0141982 -0.0143356 0.0031501 0.00156171 0
internal_weight=2385.94 1603.53 1078.36 525.17 782.412 310.32 756.385 321.976 331.665 257.157 424.72 214.85 195.066 153.832 53.1637 168.144 19.7835 90.5053 691.907 113.458 28.347 62.1583 47.1996 24.5042 101.379 578.449 571.987 12.0796 14.9586 3.84274
internal_count=513779 160863 153464 7399 352916 2860 132577 20887 54587 2270 77990 4539 4188 3533 590 17354 351 14638 338278 48704 2091 12547 10895 1791 46619 289574 286853 2085 1652 300
is_linear=0
shrinkage=0.0873782


end of trees

feature_importances:
Column_44=27
Column_24=23
Column_8=20
Column_22=19
Column_3=15
Column_38=15
Column_10=14
Column_27=14
Column_30=14
Column_42=14
Column_1=13
Column_16=13
Column_23=13
Column_35=13
Column_17=12
Column_5=11
Column_6=11
Column_12=11
Column_14=11
Column_19=11
Column_21=11
Column_4=10
Column_18=10
Column_20=10
Column_2=9
Column_39=9
Column_41=9
Column_11=7
Column_29=7
Column_0=6
Column_25=6
Column_26=6
Column_34=6
Column_36=6
Column_13=5
Column_32=5
Column_43=5
Column_7=4
Column_9=4
Column_28=4
Column_33=4
Column_40=4
Column_15=2
Column_31=2
Column_37=1

parameters:
[boosting: gbdt]
[objective: lambdarank]
[metric: ndcg]
[tree_learner: serial]
[device_type: cpu]
[data_sample_strategy: bagging]
[data: ]
[valid: ]
[num_iterations: 130]
[learning_rate: 0.0873782]
[num_leaves: 39]
[num_threads: 15]
[seed: 0]
[deterministic: 0]
[force_col_wise: 0]
[force_row_wise: 0]
[histogram_pool_size: -1]
[max_depth: 5]
[min_data_in_leaf: 112]
[min_sum_hessian_in_leaf: 0.001]
[bagging_fraction: 0.414044]
[pos_bagging_fraction: 1]
[neg_bagging_fraction: 1]
[bagging_freq: 1]
[bagging_seed: 6]
[bagging_by_query: 0]
[feature_fraction: 0.530368]
[feature_fraction_bynode: 1]
[feature_fraction_seed: 6]
[extra_trees: 0]
[extra_seed: 6]
[early_stopping_round: 0]
[early_stopping_min_delta: 0]
[first_metric_only: 0]
[max_delta_step: 0]
[lambda_l1: 1.23285]
[lambda_l2: 21.9019]
[linear_lambda: 0]
[min_gain_to_split: 0]
[drop_rate: 0.1]
[max_drop: 50]
[skip_drop: 0.5]
[xgboost_dart_mode: 0]
[uniform_drop: 0]
[drop_seed: 4]
[top_rate: 0.2]
[other_rate: 0.1]
[min_data_per_group: 100]
[max_cat_threshold: 32]
[cat_l2: 10]
[cat_smooth: 10]
[max_cat_to_onehot: 4]
[top_k: 20]
[monotone_constraints: ]
[monotone_constraints_method: basic]
[monotone_penalty: 0]
[feature_contri: ]
[forcedsplits_filename: ]
[refit_decay_rate: 0.9]
[cegb_tradeoff: 1]
[cegb_penalty_split: 0]
[cegb_penalty_feature_lazy: ]
[cegb_penalty_feature_coupled: ]
[path_smooth: 0]
[interaction_constraints: ]
[verbosity: -1]
[saved_feature_importance_type: 0]
[use_quantized_grad: 0]
[num_grad_quant_bins: 4]
[quant_train_renew_leaf: 0]
[stochastic_rounding: 1]
[linear_tree: 0]
[max_bin: 255]
[max_bin_by_feature: ]
[min_data_in_bin: 3]
[bin_construct_sample_cnt: 200000]
[data_random_seed: 6]
[is_enable_sparse: 1]
[enable_bundle: 1]
[use_missing: 1]
[zero_as_missing: 0]
[feature_pre_filter: 1]
[pre_partition: 0]
[two_round: 0]
[header: 0]
[label_column: ]
[weight_column: ]
[group_column: ]
[ignore_column: ]
[categorical_feature: ]
[forcedbins_filename: ]
[precise_float_parser: 0]
[parser_config_file: ]
[objective_seed: 5]
[num_class: 1]
[is_unbalance: 0]
[scale_pos_weight: 1]
[sigmoid: 1]
[boost_from_average: 1]
[reg_sqrt: 0]
[alpha: 0.9]
[fair_c: 1]
[poisson_max_delta_step: 0.7]
[tweedie_variance_power: 1.5]
[lambdarank_truncation_level: 30]
[lambdarank_norm: 1]
[label_gain: ]
[lambdarank_position_bias_regularization: 0]
[eval_at: 1,3]
[multi_error_top_k: 1]
[auc_mu_weights: ]
[num_machines: 1]
[local_listen_port: 12400]
[time_out: 120]
[machine_list_filename: ]
[machines: ]
[gpu_platform_id: -1]
[gpu_device_id: -1]
[gpu_use_dp: 0]
[num_gpu: 1]

end of parameters

pandas_categorical:null
